{
    "biases":[
        [
            [
                -3.980061436933456
            ],
            [
                -3.657576319442676
            ],
            [
                7.87094045738102
            ],
            [
                0.15504137180426644
            ],
            [
                -2.2351530158339172
            ],
            [
                -0.11334358689688971
            ],
            [
                3.7755544534982324
            ],
            [
                0.5565938053247704
            ],
            [
                -5.086381668509506
            ],
            [
                1.473034703635501
            ]
        ],
        [
            [
                3.774914657598884
            ],
            [
                2.4521299606550135
            ],
            [
                -2.9042530907126145
            ],
            [
                -1.0393881997868837
            ],
            [
                1.7644464431102411
            ],
            [
                5.55153959216604
            ],
            [
                -3.1453177981787483
            ],
            [
                -1.2055026776620523
            ],
            [
                -3.7135148769916473
            ],
            [
                0.5831237880001566
            ],
            [
                1.0766933367532008
            ],
            [
                1.684528255815835
            ],
            [
                -4.859931683912417
            ],
            [
                -6.722094217049473
            ],
            [
                3.6279647883066026
            ],
            [
                1.9200821115400113
            ],
            [
                1.7586944892822638
            ],
            [
                -1.9387896031070961
            ],
            [
                1.5167666890831673
            ],
            [
                -2.3437475232049354
            ]
        ],
        [
            [
                -3.1333979066959228
            ],
            [
                -0.5494192627626047
            ],
            [
                -2.307817679205015
            ],
            [
                -0.8935304412305727
            ],
            [
                -2.644850836164326
            ],
            [
                -2.4740963159599465
            ],
            [
                3.7279543673916886
            ],
            [
                -0.7909950020147192
            ],
            [
                -2.114121312430175
            ],
            [
                -3.9958681324110317
            ],
            [
                0.1671642957965847
            ],
            [
                -2.9898791093117736
            ],
            [
                -3.3625791481172396
            ],
            [
                -0.3581485510078145
            ],
            [
                -0.5507170675062526
            ],
            [
                -1.8977130965401228
            ],
            [
                -1.9335239415303114
            ],
            [
                -1.6127021083528918
            ],
            [
                -0.8197501573563196
            ],
            [
                -3.234141260193177
            ],
            [
                -1.788238861434513
            ],
            [
                -0.16910376355998855
            ],
            [
                -0.8733004139253083
            ],
            [
                -1.9732477271184932
            ],
            [
                0.3845493283729994
            ],
            [
                -3.388308661319943
            ],
            [
                -0.4619842471636141
            ],
            [
                -0.6446682986353115
            ],
            [
                -1.430269114628445
            ],
            [
                -6.078656701413944
            ],
            [
                -0.5846852236174046
            ],
            [
                -0.05147125733048706
            ],
            [
                -2.3671371026037096
            ],
            [
                -2.2424585521264664
            ],
            [
                -1.454167877185287
            ],
            [
                -0.3347170714445232
            ],
            [
                -1.1353885257325698
            ],
            [
                2.69029030673985
            ],
            [
                -0.6376092228502226
            ],
            [
                -1.1900856198505498
            ],
            [
                -0.6344771700847818
            ],
            [
                -2.040297348272453
            ],
            [
                -2.4496668487183277
            ],
            [
                -1.8925398774078661
            ],
            [
                -2.0672552618080164
            ],
            [
                -1.9264341373698846
            ],
            [
                0.8023189671799191
            ],
            [
                -2.7602942703222038
            ],
            [
                -2.5215231522318025
            ],
            [
                0.22499935336155685
            ]
        ],
        [
            [
                -1.5008253617928298
            ],
            [
                -2.798220990132121
            ],
            [
                -0.6153721427773041
            ],
            [
                -2.5104535671345554
            ],
            [
                -0.5350364402557477
            ],
            [
                -2.7110226313008545
            ],
            [
                -0.7848337128678452
            ],
            [
                -2.3547238859617408
            ],
            [
                -1.321214634317101
            ],
            [
                -1.527604091661024
            ]
        ]
    ],
    "epochs":50,
    "eta":3,
    "mini_batch_size":10,
    "sizes":[
        784,
        10,
        20,
        50,
        10
    ],
    "weights":[
        [
            [
                -0.28449170079100417,
                -1.0820852261800635,
                -0.39400424878871326,
                1.1976781953295386,
                -0.17536918331708223,
                -0.32902807951654106,
                -0.8196685104793686,
                0.9561827468046813,
                -0.1650249965823798,
                0.803420822329473,
                -0.3567946356064562,
                0.0706651580990854,
                -0.29813004904789664,
                -2.5567856429090585,
                0.26340332005157124,
                -1.7974348585752482,
                0.5062411492076407,
                -0.48942464548370246,
                0.43962686657466377,
                -0.5534931140448602,
                -1.0899680949928694,
                0.4812942923370518,
                -0.07344561366124099,
                0.8727541122729011,
                -1.094076302674768,
                0.1967351462745507,
                2.405717229108468,
                0.34506550136742076,
                0.4318419550364801,
                1.2812596569835712,
                -0.8359390244399665,
                -0.4598402894014463,
                0.818761349877463,
                0.8742571415433595,
                0.011693430325629452,
                0.1670688757205821,
                1.4058560217780884,
                -1.6255918941924237,
                -0.8383978602401648,
                -1.176580830882935,
                -0.6992781837760057,
                -1.2260490381888087,
                -1.620086554942529,
                1.4697799821535003,
                -0.7718346446118427,
                0.22226578473888195,
                -1.6649218467468117,
                1.0516654344959893,
                0.21672757106572443,
                0.8043200668628104,
                0.28721628933822085,
                0.4320122994748577,
                -1.2529165455375313,
                0.6366960970150869,
                1.0385585677540536,
                1.762492403405174,
                0.6243630528761734,
                -0.0024696539518294994,
                -0.35944999854823106,
                -0.9326781194522787,
                0.5873253802892381,
                -1.1508767167150538,
                0.7521356518051748,
                -0.4679456795553568,
                2.226918646341588,
                0.5433696952060157,
                1.0336517731369685,
                -1.578032704303045,
                -1.4544727460298328,
                -0.945248551128216,
                -2.508407928894421,
                0.18349555059643988,
                0.020224750535346454,
                -3.009583119101959,
                -1.4508919536454348,
                0.7835705563036744,
                -0.19976242622242585,
                0.4027155264992593,
                -0.39580377160957586,
                -0.5347218687681236,
                0.5986975747633332,
                -0.07709243997660324,
                0.5686242670389825,
                -0.3220037577278465,
                -0.002371344924489887,
                -0.41310474674135805,
                0.5033148211225221,
                -0.3703257354678813,
                -0.7673069402663403,
                -0.8708994630994509,
                0.20778519298574788,
                0.26297027098837833,
                0.5519130658348741,
                -0.036547268491525176,
                -0.9611741504622803,
                -1.1618918526473168,
                1.2167372394957414,
                0.20232303085282902,
                0.36101367098821524,
                -0.8264472829684603,
                -0.3487345552740363,
                0.39419906943467203,
                -1.7612113757047416,
                -2.8950188485205914,
                -2.1967059420841326,
                -2.5339939882866895,
                -0.9268346691511821,
                -0.627625652304664,
                2.2688987227839665,
                -1.1725339069197533,
                -0.1725966487878331,
                -0.776281957686005,
                1.2062376715733454,
                0.7958047716658261,
                1.6951966898563253,
                0.35190891614459197,
                0.01905718275744056,
                -1.1047930392721972,
                0.23353882355762373,
                3.482191651274463,
                0.4626872742912399,
                0.735239274882353,
                -0.9857651576824952,
                2.360526470889118,
                1.7259831424663858,
                -1.8285534262654948,
                1.5005214295536617,
                1.9521210441311003,
                1.3656177589735072,
                -1.7770460172470666,
                1.5507529074928617,
                1.2629531675490933,
                -0.2678473886600888,
                -0.8404016021471012,
                -0.9937180310810735,
                -1.6455666176984702,
                -1.219210308056306,
                0.7356868885888116,
                -1.0187444604777216,
                2.598884988140542,
                0.009273092992627787,
                0.2200037207849324,
                -0.2705796140528045,
                1.7952370479872337,
                -0.43838636895529065,
                0.028809196811323767,
                2.1556432017449314,
                1.7765102776991049,
                -1.3834710109065609,
                2.316793082781758,
                -0.1146248222489619,
                1.4346759360334282,
                0.4746930523463128,
                -2.138437115769597,
                -0.7967370834826673,
                1.839520598907059,
                2.506437825430287,
                -0.32496427957493373,
                -1.6778494873164784,
                -0.2698361079227379,
                -0.4698925421666798,
                -0.07756329755390397,
                0.6442326607282742,
                0.5444929972377789,
                1.9247971380833306,
                2.405331519562707,
                1.5675074315141526,
                -0.4951935594674407,
                -0.7315583803643683,
                1.8545847156763053,
                1.0448670834818838,
                -0.8730154755049792,
                2.9536051177670393,
                2.890106836456831,
                1.920087275564842,
                -1.180193571159463,
                1.6004598315018042,
                3.250194656244287,
                1.9590254889333296,
                1.7623197319832695,
                2.889912195536647,
                0.9063798990399906,
                0.18988112157257678,
                -1.3029415292397666,
                0.017149480298011895,
                -0.9703481043171098,
                -2.5570484230329735,
                -1.2647513211849395,
                2.024457765431034,
                3.709665441137782,
                1.3629247582548005,
                5.442199822799591,
                3.4257355089874784,
                3.715697050478193,
                0.9327233500393928,
                0.7700510375137167,
                -0.15338828358190343,
                -0.5006681545076348,
                1.0244344103490632,
                0.8763980751084136,
                -0.2423887113346982,
                1.7131176211566792,
                -1.333141445630613,
                -2.1140410772365232,
                1.2595647741503349,
                0.5246895211019643,
                1.70268443750935,
                -0.5268458496645235,
                -0.11697037395854647,
                -0.41334732647568156,
                -0.2110912269023939,
                0.772107035734604,
                -0.633083531965812,
                1.2839719293730982,
                1.9556991831511406,
                0.8829168825014135,
                1.6522730201263338,
                3.778432532778642,
                1.2616920136199208,
                2.0071584257869874,
                3.6856854404739803,
                4.154945794883807,
                0.39697737976441655,
                1.2267435725839397,
                -0.4146285294880844,
                -0.7644289814699676,
                1.2355554325519602,
                -0.7534844613900543,
                0.024095477554546326,
                -0.7372458103249105,
                -0.8241879706618338,
                -0.9167711307246629,
                -0.3852890973550007,
                0.0030774116985453097,
                0.3395882371968514,
                -1.3960254999318695,
                1.5275446348039445,
                3.1919436622802753,
                0.8307942817990902,
                -1.5613672963985774,
                -2.1240827215866895,
                -1.8379681371297054,
                0.5486014547157254,
                1.825581498924888,
                0.6710621287210162,
                -0.1206603984013812,
                0.1902182590991911,
                0.17856030212035343,
                3.3773083319594726,
                3.398594554501682,
                2.2758566215904654,
                -0.6926606552331241,
                -0.28252616393727853,
                -1.6653233855097438,
                -0.2923815072849916,
                1.5786862796685297,
                0.8953253783367904,
                0.7471564767088688,
                0.8482852854424707,
                1.5745727162912029,
                -0.3214736932936709,
                2.5004753087597984,
                -0.3972564055475311,
                0.6241284351013224,
                -0.6640281038568714,
                -0.1692718456393582,
                -0.9225318756309697,
                -2.4320507060578866,
                -2.3110775992198427,
                -1.8537404508109985,
                -2.596154189344215,
                -0.5145512621723376,
                0.17650728248117772,
                -1.327016117009679,
                -1.3983361505083607,
                0.0741565289827063,
                2.1089146512884267,
                2.546037596634194,
                1.1981395327204156,
                0.712450361251924,
                0.1394634934920086,
                0.06517418321360303,
                0.11734329240821267,
                -0.29140074209460426,
                -1.0736861398203816,
                1.3482041409453351,
                1.8392999119963787,
                1.8819787870013,
                1.7005187334157001,
                1.7449921234330286,
                2.2855884961603135,
                2.712724691976301,
                1.5897891732052718,
                1.9223793913642424,
                1.773093838361269,
                0.07343306091583654,
                -0.5802567486258989,
                -3.3536328562196522,
                -3.3218903615821165,
                -4.035412939994595,
                -2.0488989901412125,
                -2.188103567385865,
                -1.0176010664380148,
                -0.8350870465702717,
                2.585811952748727,
                3.425532076878776,
                -1.208226121967976,
                -0.3553199489428706,
                1.4322782205726738,
                -1.276865891002355,
                -0.5308811519406021,
                -0.8762293003538932,
                2.0512645616277503,
                2.838927589185346,
                0.9510535947173875,
                4.450486917201536,
                2.665842142957239,
                3.3180288007374794,
                2.937554751131495,
                3.5070847863435017,
                3.7503388886788205,
                5.387455168779981,
                8.31547012673979,
                9.217647082712073,
                2.2787442458526215,
                1.5556086506730946,
                0.28715113520514596,
                -3.074526258473469,
                -3.0308240482500985,
                -2.2831764697332986,
                -0.4310800551286386,
                -2.1859015077289414,
                -0.08657621562587514,
                3.263865403352265,
                2.5599687003520173,
                -0.25774949130535085,
                -2.313806681031869,
                -0.8462689821220961,
                0.24276826632859613,
                0.975329412449561,
                2.5162431269410095,
                0.6886441465322382,
                0.2761349204364711,
                2.202695576556044,
                2.551604731463776,
                2.5053191802069463,
                1.0759363095309367,
                3.1836522026809773,
                2.8773106402709034,
                2.320207347635337,
                6.849590891325282,
                8.960788954134573,
                4.550465545679521,
                4.452346985335458,
                4.869260254559816,
                0.7276099988735838,
                2.456216916454815,
                0.8014937825647518,
                0.901966214587101,
                -1.4129648055303354,
                -3.241010119368167,
                2.210424297712198,
                0.885566359403046,
                0.9771472865807047,
                1.6386399315856064,
                0.1977732945243551,
                0.5606723061064202,
                1.586927978336887,
                1.2537237984700171,
                -0.21922216894221236,
                0.56820861490951,
                1.993628863788269,
                1.2658409559426576,
                0.8290449612942055,
                -0.6553753522479221,
                2.761697954113945,
                3.1945068668829206,
                2.046455002306647,
                4.693763135526948,
                6.543346634214371,
                3.6810152882463076,
                3.385112485654375,
                3.674368320340838,
                4.566883164203677,
                2.8833444179310055,
                1.5248116380973022,
                -2.14274654745578,
                -2.241329530184576,
                -3.598238128669411,
                -0.3108184680051152,
                0.06810655986694705,
                1.6637899635466498,
                0.008939816611989499,
                -1.0787829339729653,
                0.08663639177516744,
                0.5786441761730733,
                1.098617472706445,
                -2.207888472051804,
                -0.972919683385784,
                -4.592697631828774,
                0.5304565651597288,
                -1.3979707197548357,
                1.3984325674938392,
                1.364194188305647,
                1.375462183410471,
                2.050344242188553,
                3.663265457493359,
                2.6403600679464336,
                -0.3944280475832789,
                0.9874784558025789,
                4.583685490969569,
                5.620977898893838,
                0.3594481859180559,
                0.23725522394052953,
                -2.072405543182801,
                -3.0112829414013067,
                -3.1286163288065385,
                -2.053152668149323,
                0.5329663178847335,
                0.12773884609641653,
                0.9572980750262219,
                1.4395513103070225,
                -1.0483662808906156,
                2.4987582310681624,
                -2.2129799418207816,
                -7.600650968235433,
                -6.556577624796577,
                -7.325415458038774,
                -5.6160851727631185,
                -0.07478208926228673,
                3.0030493141660677,
                4.86982406351832,
                0.7392790221790767,
                6.231097567118875,
                6.797701471365006,
                4.915725863690592,
                2.1268021824891554,
                -0.6159495246023908,
                1.4960690500531975,
                2.420746056556439,
                -0.7856467890590273,
                -2.341043032406115,
                -1.7238775291489823,
                1.4628864941825344,
                -0.47205958523421715,
                -2.1152949191514847,
                -0.24088776827253539,
                -2.167988444828581,
                2.2378900661122385,
                -0.38842058664297385,
                -0.10139652124074343,
                1.5045713189857082,
                -2.2646416150387267,
                -2.3228575265019527,
                -4.926271718599929,
                -5.933451490593709,
                -8.08549981183739,
                -7.460937322662411,
                -4.894924982897601,
                0.34242923600171243,
                4.619100283851756,
                6.548902608601744,
                5.133776811102444,
                0.8722141763344446,
                -0.47156110079485475,
                -2.2461138038240516,
                -2.0865053901790374,
                -3.185445848970983,
                -0.8123322022730861,
                -1.489707516053836,
                -1.7272479213550045,
                0.5753349716822777,
                -0.5005338792975061,
                -2.6210677490832865,
                -0.102091282563092,
                -0.1897282495626222,
                -0.04138441986816919,
                -0.829215781224309,
                -1.5919598262169523,
                2.3338620758867643,
                -0.8483841420938192,
                -1.7219789938267371,
                -3.0921946271197442,
                -3.428857392378678,
                -7.049183240561256,
                -9.645982472793584,
                -13.494448785775628,
                -12.871584334261016,
                0.4601468504270413,
                2.7542917832413445,
                -1.3726911410827507,
                -5.651480933562615,
                -2.603855908980579,
                -2.5367702742314022,
                -1.753319365944218,
                -1.8074849164156086,
                -2.8731006599531606,
                1.0664940966595144,
                -2.521763374567115,
                -0.8177673737120101,
                -0.5097031226622937,
                -1.2148081961230728,
                -1.3549561564633765,
                -1.0374690113522684,
                0.4303108096007897,
                -0.016028491443609676,
                -0.6651581703435115,
                2.5641407159289322,
                -0.2888235684972368,
                -0.8876583417850546,
                -0.5925471608805606,
                -1.1854227181786081,
                -1.6542097060148884,
                -2.080425532997607,
                -7.258603264871357,
                -5.18915478005865,
                -4.104088262788443,
                -3.7492390055355522,
                -4.211035562314837,
                -5.136517030792248,
                -1.8714261819653397,
                -1.794869608849937,
                -2.263586118664299,
                -0.26851232308958733,
                -2.658880674256537,
                -0.21039713637112234,
                1.9341716344831328,
                0.16685272547729188,
                -0.9609630755869164,
                -3.1859388753413085,
                0.2605819180221358,
                -0.6567119632918107,
                1.173107961239246,
                -0.18601109297976157,
                1.1765551135514543,
                0.9406254404546867,
                0.3163307131021322,
                0.5817868298550306,
                -0.18606865913133133,
                0.24577703500173115,
                -1.0494972716036688,
                0.3239688084077981,
                -1.3718876720562747,
                -3.0446851320940156,
                0.1370205601173957,
                0.2361926518063996,
                -0.6347919801454798,
                -4.202249790287089,
                -1.9534449871123036,
                -3.369858737285469,
                0.22320831293675766,
                -0.8015142255994219,
                -3.6822488141006096,
                0.19158704802211202,
                -1.0834502540966897,
                0.5957937846615626,
                -1.7391540478922363,
                -1.9943037390905087,
                -0.049785405190430634,
                -0.8430833799503357,
                -0.5840192891551133,
                -1.0488635595914921,
                1.278483658991913,
                0.18106020793211283,
                1.0928952662331353,
                -1.7770082558231306,
                1.6643177665793356,
                -1.1013390227294433,
                2.4630610871625023,
                0.4471086680378861,
                -1.4692634162810336,
                -2.9065320957425103,
                -0.04738977824942923,
                2.421384932245096,
                -1.7908208005419721,
                -2.527268201958315,
                -1.5334596258761468,
                -1.6397106972282198,
                -0.6148774457306533,
                -0.6014711360212657,
                -2.6984634080356766,
                -2.2091663478160806,
                -2.5800303640024977,
                -2.549781530934322,
                -3.208152639092383,
                -2.278526715848684,
                -0.747273231260676,
                -1.2663856753509914,
                1.5829232518197212,
                0.23024170976733457,
                -0.09272528087450924,
                -1.697433042322764,
                -0.5296739833082169,
                -1.0085685855332645,
                -0.8794086767630209,
                2.5502015437795027,
                0.13152824206863323,
                0.38279789587275037,
                -0.5210460815690986,
                -2.414595307864917,
                -3.1407122411932433,
                -0.12062771242707428,
                0.026858355913230606,
                0.4221014928266683,
                -1.0492322827648148,
                -2.662089930152623,
                -1.0292485841343462,
                -1.5973162699178705,
                -2.0501035583549228,
                -3.4228294741931498,
                -1.4515993588312561,
                -0.7788821808717401,
                -0.09407407848375389,
                -0.5913304433869628,
                -0.4163074548181081,
                -0.059683010437726676,
                -0.5590759489428793,
                -0.20918402456549412,
                -0.33800416399639727,
                -0.4883992792752341,
                0.2943970503668604,
                -0.9035370911550391,
                1.9714209839954604,
                -1.4240843169049613,
                -2.2079747665157847,
                -1.6367650580729707,
                1.2686900493132771,
                -1.1706600388837787,
                -1.3944928937198333,
                0.32380193632770915,
                2.5300132470411802,
                1.349194028097354,
                0.2885289180697522,
                -2.019986287724544,
                -0.628699276230929,
                -0.5032987045124281,
                -1.6454783714905346,
                -3.55748624191813,
                -0.34260057745211114,
                -2.0996625717738557,
                -1.3745295198877658,
                -0.9752628147570125,
                1.2899514922509436,
                -1.2870717134448169,
                0.016615676290545563,
                0.08837292771643028,
                0.37706556467378216,
                1.4644202401989814,
                1.762821714127035,
                -0.4840833061958074,
                -0.8297116020347934,
                -2.300373027760048,
                -0.265718597133091,
                -1.590686730665394,
                -0.9391595893637824,
                -2.0452421933672955,
                -1.325203609419291,
                0.026055994951771622,
                -0.5455605302382047,
                3.985066996174867,
                2.4594814242906544,
                -0.5500526275332585,
                -0.0530994118603728,
                1.4071096563599619,
                -1.7970935317027459,
                -0.6258251865579799,
                -3.107903577144014,
                -1.610083334294906,
                0.0800979612088843,
                -0.5888875548493976,
                -1.3852310469522473,
                0.43234739355837776,
                0.6830395115059499,
                -1.059446220781884,
                -0.37063103554935267,
                -0.04214438502303287,
                0.036014580862369416,
                1.0807954692012074,
                0.5240281762363043,
                0.7754428377535593,
                -0.8321193489066838,
                1.3571230277760427,
                0.9008439511872335,
                -0.4088360430558456,
                -3.35510600559965,
                -1.243415515375504,
                1.154568825634351,
                3.1723726143296203,
                1.549527198270742,
                1.710282024570848,
                1.5813199943345497,
                1.1580709986277362,
                -0.01057688443450279,
                -0.24173302996455023,
                -0.12597726729898115,
                0.9469651279610257,
                -1.1602970036888947,
                -0.11856774874947833,
                -0.500681597139753,
                0.9523467047261852,
                0.7799270031104909,
                0.3652264222175834,
                0.7616985145775836,
                0.7736335701911974,
                -1.886246081156381,
                1.231684575163277,
                1.294097718379404,
                2.1478569016424807,
                1.800315282334765,
                1.4573158722198292,
                3.032992031340606,
                1.7547798937940096,
                1.29163881707887,
                -0.32382578738116996,
                3.400258585340309,
                1.1047601280894932,
                -0.33557705017948886,
                -0.8281838235556516,
                1.3579197653370902,
                0.4053562608481806,
                0.39047095673856846,
                -2.1581004517463542,
                -0.9149194005404602,
                -1.5023258304057578,
                0.6090296819518767,
                -1.0411436086832024,
                0.7131763383117055,
                1.6630258312623283,
                0.9081400190851668,
                0.30507192586956805,
                -0.9962884814461113,
                -0.2292853748156907,
                2.1828309459236386,
                1.001411448195956,
                1.0233068181726155,
                -0.7640481651209088,
                1.4269383285085544,
                1.4012130604011523,
                0.7594128847087841,
                0.7660898420541197,
                -0.6581638059497893,
                1.3749481839947333,
                -1.8614608255007008,
                1.2227535222430157,
                -0.9236171165187588,
                -0.7473747086528064,
                -0.08929175479566503,
                0.03492255067994787,
                -0.6877128137689675,
                -1.275913420452135,
                0.6461500881850906,
                1.0337003849227648,
                -2.4098978702744356,
                0.02791713319595814,
                1.4577763455964174,
                0.5913904061792633,
                -1.1770366898016955,
                0.3648321400865349,
                0.7895356875900894,
                -0.916373275120557,
                0.6680409192923622,
                -1.1132569826886116,
                0.9000605102781426,
                0.5640757926387945,
                0.607099234230138,
                -1.3271205505373735,
                0.9166031994758788,
                0.14357414691290596,
                0.979030172775344,
                -0.7748143097361343,
                0.882086830633795,
                0.0541632584816661,
                1.0619008915521644,
                -0.08499666566026669,
                1.773995403114131,
                -0.038202479260336875,
                0.6097269076307659,
                0.9747834191398816,
                0.20729526305454463,
                -0.41021660102772395,
                -0.743308535300057,
                0.1988601154917481,
                -0.9653195382026264,
                -0.2809911150900931
            ],
            [
                0.3967980756466379,
                0.40099790031608,
                1.2749193340388936,
                1.627606909964278,
                0.03792874520705311,
                -1.6154373411427534,
                1.7203256925572354,
                1.356736941712052,
                -1.1320823594940232,
                0.5941940866614434,
                1.3314982152053183,
                -0.5692658879754747,
                -0.6905746867063485,
                -2.096434357155889,
                0.03942921216074664,
                -0.8031788006082515,
                -0.49420913356472695,
                -0.6722282153696832,
                -0.3522719119154602,
                -0.8496603261120158,
                -1.9704632141716847,
                -0.09778846209314423,
                1.18127067294834,
                -0.29554482446821695,
                -1.5654700526457817,
                0.35182180806084185,
                -0.3310166503143583,
                0.4237038601590459,
                1.1648436766249202,
                -0.6233204497684515,
                -1.5853285884876755,
                0.45612591139251124,
                0.23591022048081617,
                1.8486483799436475,
                0.3597009761561688,
                -0.3830250954260094,
                -1.1370953783258073,
                0.846892422556071,
                1.4057882207798091,
                0.928197534115162,
                1.216045483474524,
                0.739004125494293,
                0.7504806455824078,
                1.5857230289138258,
                0.7624153133652878,
                0.0026775220632997776,
                0.6334912307233412,
                1.2159242712065241,
                -0.09185594909585415,
                0.10849360669112963,
                0.05872213644881013,
                0.45990912539726325,
                2.1567732694204116,
                1.1649629185012351,
                0.097364867751613,
                0.25026369133372656,
                0.485166805400002,
                -0.9140755347606052,
                1.0233852451960566,
                2.375098153803322,
                1.030416999729266,
                -1.009361028400184,
                0.3048598743997009,
                -0.6013033762850882,
                -0.825789673965605,
                1.631560528361166,
                0.9723999503703399,
                0.8025186273941638,
                0.9439448398593221,
                0.9691053134158129,
                0.7889744274834924,
                2.0864258140733436,
                0.9845346520365326,
                1.7811542267747806,
                1.8146045571589609,
                3.179272749798052,
                2.205546470379764,
                -0.6944854922667754,
                -0.08995201774740565,
                -0.28269375396978336,
                0.41672513830433733,
                -1.057280699397085,
                0.24161111463005452,
                1.4041603261080948,
                -0.41133426742280493,
                -0.5542487908220585,
                -1.4342654463761342,
                0.053662266405141316,
                0.1529240830027985,
                1.0296456658156374,
                -0.2872188538523282,
                -0.6815938602220912,
                -0.7351516812279053,
                2.0398625247053923,
                1.0673129338517997,
                2.5889835190597696,
                1.8181792952904925,
                0.6948012751568652,
                1.7945655326513235,
                1.0666583829888585,
                -0.514175973838565,
                0.1148935168931573,
                1.9221397937747067,
                2.3271140011372458,
                1.539340214095243,
                1.9392948578773463,
                1.8077701967415192,
                1.5717010981588857,
                1.315154612392739,
                -0.28485545621492464,
                0.4241858567849326,
                -1.6888164443099722,
                -0.7623927377231693,
                -0.3933433606710252,
                0.8623266233044734,
                1.3114540453246772,
                0.05538729409778242,
                0.48575484914194805,
                0.8049147851363041,
                0.8011626232910495,
                1.1882074680072767,
                2.805629975555401,
                3.8670705289869876,
                1.4065252602768334,
                2.6764999187613077,
                1.363514192902044,
                1.8922769197127465,
                2.295377644922173,
                3.6356334190764863,
                2.012752688966929,
                2.2680029586149835,
                3.832746907293417,
                2.1013825856228436,
                0.8314026549662218,
                0.3833986897653469,
                3.6483530189048397,
                1.5809906415821353,
                0.625327754870253,
                0.5815616305619897,
                1.0138458307841491,
                1.3777410150020364,
                -0.7459402869752495,
                1.309261456737814,
                0.059220163702238315,
                -0.8234184885605071,
                1.8599155651396635,
                0.5355889474376565,
                1.4956198205692146,
                2.193288978831852,
                2.681329145372848,
                5.043058173103839,
                4.118415723008261,
                5.694251790920092,
                4.7895531251126044,
                3.9592937378634256,
                2.5194715785508794,
                7.560523253331673,
                7.728900034381017,
                7.3490540742738455,
                3.952545681601176,
                4.176015999095479,
                3.748537318145779,
                2.4941937175963793,
                1.1972174214850144,
                0.2968465482239247,
                -0.27156694070117116,
                -1.3626864777801915,
                0.6540829575491198,
                -0.008136555401969905,
                -0.9718725844899787,
                0.8755427224676307,
                0.3235711567076677,
                -0.25702984669463663,
                -0.36491058013765704,
                -0.012887748822302147,
                0.05227919191918926,
                0.4637229028628672,
                0.47164589142840874,
                1.560785085669453,
                0.7656211032297386,
                1.0401147970741085,
                1.1565941844630299,
                2.0871521320317603,
                1.5745057833517042,
                0.8269389176683486,
                2.1859474169385917,
                -0.7746671458714942,
                1.618484890252873,
                3.1245573284268864,
                -0.006025434168791395,
                -1.5403616168795404,
                -1.8222459640456379,
                -0.38762150977583554,
                -4.130466773851393,
                -1.2921309211767196,
                0.03627549156136331,
                -0.21693157910839922,
                1.1516674410018903,
                -0.7684117558094109,
                -1.0473762724468139,
                -1.3780057696038341,
                -1.7811215620107028,
                -2.358320442343876,
                -1.7141587283526145,
                -3.0942571677543453,
                -0.7581854587038444,
                -1.092229397799291,
                -0.023909129458654504,
                -0.659359477775408,
                0.7785038783497088,
                1.3531408443278095,
                2.304741155932938,
                -0.7434444482598446,
                0.8150150564494862,
                0.18484119614734168,
                -0.9033159087272162,
                0.07805814308072066,
                -0.5521837666202923,
                -1.569754415375602,
                -0.271246745493275,
                -2.2218221304435013,
                -2.5162414122276493,
                -1.1950459492655876,
                -1.22295203662208,
                0.18343908671687625,
                -1.455855094256391,
                1.1643533619535464,
                -1.832468565692736,
                -2.496265202036979,
                -3.0218780029287307,
                -1.4136012717081334,
                -4.2988325139510986,
                -2.6987724353207647,
                -1.8015466787337544,
                -1.6465103394229383,
                -1.802289214922637,
                -1.6125825209359301,
                -0.398643460618481,
                -0.023747783927031096,
                0.11126274888353684,
                -1.4555879575250954,
                -2.80362987888981,
                -2.2639851692910145,
                -0.9814678344027027,
                -2.2743565451527847,
                -1.6509550882827277,
                -0.01585476946764295,
                -3.0660624442309197,
                -4.178223768184252,
                -3.126908160464244,
                -0.4657269179697863,
                0.36253327340734043,
                2.2356783123080994,
                -2.5015729513345617,
                -0.6502458922396764,
                -2.3700716405290803,
                -1.9754027684056035,
                -1.3875005689122377,
                -2.74041754188816,
                -2.790150327606638,
                0.42959772966206866,
                -2.6117680793438836,
                -1.054011773421119,
                -2.864833234748646,
                -3.3985816282632006,
                0.5752478481284499,
                -3.804287733176867,
                -1.89901361560012,
                -0.6038161538957569,
                -1.9421804490807941,
                -3.9890211393493957,
                -0.6480245724209037,
                -1.5013303951339,
                -3.4205499457865045,
                -1.159507636240385,
                -2.5901824321410962,
                -7.813184561657456,
                -5.112848838280082,
                -1.0194567623970916,
                -0.720972006905799,
                0.5682266963866209,
                1.3381071393294202,
                -1.033965948141678,
                -3.3323365262400393,
                -3.437766364502467,
                -2.6272466889973183,
                -1.1517073074841324,
                -1.2524761893091338,
                0.21341054885066657,
                -0.9783499406212162,
                -1.7572019481875545,
                -1.884025681374595,
                -3.132759112932135,
                -6.6922803812950376,
                -5.889599178378497,
                -5.565941640796593,
                -8.346567793805736,
                -4.673073071239875,
                -4.681567154911189,
                -4.065191433511835,
                -4.104007599144028,
                -5.460375513219882,
                -0.04453084116308101,
                -2.289563288791785,
                -1.6321628430376398,
                -3.812653736352811,
                -1.2984664330870606,
                -1.1995832561678355,
                -1.2288901130417396,
                -0.4891151257462126,
                -0.9573277053564836,
                -3.4052893211603714,
                -2.881426735454408,
                -0.32032696412644435,
                0.773847681244354,
                -2.661822088052377,
                3.199275570264851,
                -0.25304298469196573,
                -2.6887152890056476,
                -1.3356076159216683,
                -2.0697684623230312,
                -2.765184319852895,
                1.5855423031315883,
                -3.2846987699093164,
                -3.3829417043498142,
                -1.3007219623668314,
                -1.7107652934098798,
                -1.1324835978403098,
                -1.3039182733706292,
                0.45158098148954656,
                0.967450889593612,
                2.172248264429987,
                -1.1728196102356212,
                0.4791237892168466,
                -0.32506794940768546,
                0.6219087903663313,
                0.7661139394457344,
                -1.2125273690790188,
                0.06613178016684723,
                -1.613283406899181,
                -2.6228021912836286,
                0.26812027394742216,
                1.4898437603630212,
                -0.18360205352152859,
                1.9737030899496735,
                0.1512294320804896,
                3.1495271272452228,
                1.730517006954079,
                1.1951726487694603,
                6.237591987905612,
                9.181576158897323,
                3.767424563488034,
                2.0190245217121245,
                -0.9490397858910535,
                1.959511650753539,
                2.687014147619011,
                4.15980267279569,
                3.7193951735022974,
                3.6055847651445823,
                1.4510237631305556,
                -1.282875372716729,
                -0.6309166056430927,
                -1.1672419521862616,
                -0.2616094229460427,
                -0.9251514448413882,
                -0.7752847781502005,
                -1.7432989902976694,
                -2.4361655724287985,
                -0.5606199451325077,
                1.4277115373748361,
                1.4993272055227662,
                0.42439703200702583,
                3.1817593934469195,
                1.6148776829845721,
                4.391025289065306,
                4.023855751276317,
                3.9288543319790006,
                9.658917228386047,
                6.222896578915458,
                4.01619933153532,
                2.893187360740492,
                1.5918077587248571,
                3.9784734284959047,
                2.3112799016390246,
                0.03954333621675413,
                3.0295174121098034,
                1.7442910396116378,
                0.38911021361007037,
                -0.20001632795433708,
                -1.3961140703585775,
                -0.9325730881879785,
                -0.581066786763925,
                -2.073325704998429,
                0.7479607821211947,
                -0.1717102148007815,
                -0.4540478616587412,
                -0.8079346722185484,
                -1.3985071254437287,
                3.1003029491920455,
                1.6608658543478565,
                1.5633749028706019,
                1.2283434687067365,
                2.420377392928684,
                3.3082706316207346,
                4.15702672901201,
                4.066366615987734,
                2.04376057500937,
                1.862694963833209,
                3.997006064558651,
                1.5357915463720115,
                1.1555887587379448,
                1.0136217916623933,
                -2.1056025792679898,
                -0.39248316109538905,
                -0.6950445050503777,
                -0.5669642666541078,
                -0.970612325034575,
                -0.9457965511612194,
                0.05436668562590881,
                -0.170162220041547,
                -1.2396738015232651,
                0.5972900878688453,
                0.8492491785951116,
                -1.6376571198676138,
                0.6555538526203456,
                -0.4231018038698606,
                1.9123338458271557,
                -0.13565743883410403,
                4.22440153112429,
                1.0961465112602051,
                2.1803826821983856,
                3.451141502581972,
                5.556777419133621,
                5.8550309959513696,
                4.797045260249197,
                0.6724604342739913,
                3.170233985304825,
                -1.031217251423881,
                -3.255056223447096,
                -2.685695894097167,
                -2.6266396209108596,
                -1.8560844354970651,
                0.2455548452431166,
                -0.4948981625073534,
                -0.638398103053487,
                0.15710208448488677,
                0.9630572323970482,
                0.4557358986853491,
                -1.5070566520030222,
                0.2051557588301346,
                -0.01826812012786963,
                0.44612227150098255,
                -1.5949739728746226,
                -0.7263543642900638,
                1.6050870661583843,
                1.953754815092282,
                2.67055473540821,
                -1.1732246509568114,
                3.843941888239006,
                4.981002756881553,
                5.1027271165451875,
                3.4573199651783715,
                3.514460615909417,
                -1.1191874163159572,
                1.746050691289418,
                0.004732117760655966,
                -1.3763157881174604,
                -1.1281076870531876,
                -2.644315647389232,
                -0.6719904367913904,
                0.2252842951169714,
                -2.5943891968159223,
                -0.9875958124775406,
                0.6102697383302746,
                -0.1200088745126182,
                -1.9391260345715318,
                1.0319852078901282,
                -0.7153693588292099,
                0.4997989506622507,
                0.5583605178727329,
                0.03713741762750099,
                -2.0922443585442463,
                -3.3675176715243222,
                -0.8298013033409973,
                0.03871119260836413,
                -3.0948247108753413,
                4.362006422774868,
                4.605089433329064,
                0.9981317851415494,
                1.2762663958653213,
                2.2776215044961017,
                -0.8741014534287007,
                1.1051635577626757,
                0.6881020032002685,
                -1.0638929466752394,
                -1.8336516286024922,
                2.1904787306198705,
                1.7372868642297055,
                1.7454894414835784,
                1.1167255989965572,
                1.1334873848136349,
                0.5028782893299801,
                0.5694301422080607,
                -0.2623776068598573,
                0.45812260210715594,
                1.1906476617726194,
                1.09396273252475,
                0.8221142773678393,
                -2.060700027460829,
                -1.799458356488741,
                -3.5673446874841686,
                -2.2489965609246996,
                1.316496477283447,
                4.272948241561463,
                2.4583922115212675,
                1.803982464074743,
                -1.8967441838374821,
                -1.9541475132993327,
                -2.8477306435599212,
                -3.2120412501178315,
                -2.2088875143281803,
                -1.5547258409823161,
                -0.43016931970965633,
                1.3245705051340946,
                1.5178581675040737,
                3.5007069878699,
                1.2728059639624756,
                2.0920351968961093,
                0.90592141420621,
                -0.591196393453753,
                -1.296471783851836,
                0.47425048805718173,
                -0.2312331535179288,
                -0.715357347608831,
                -1.3984966162159742,
                -0.611983932983944,
                -0.7176522662899675,
                -2.4149626790889283,
                -2.4528257872125727,
                -1.4891017265626407,
                -3.2685514685491026,
                0.11234084163192323,
                1.8777133385700784,
                -0.2783699131365936,
                -5.955858286355972,
                -3.9879248439653625,
                -4.716061881804595,
                -1.8525616446588278,
                0.5559867439726106,
                0.9098528204589656,
                2.4975284224729375,
                2.4687913305986275,
                6.576532819897842,
                3.9398826298286385,
                4.262784661999457,
                2.6065876969695356,
                1.6255373345029036,
                -0.6814682613886691,
                -0.0053385559107087645,
                1.2835195135615536,
                -0.38503083332446564,
                -0.2641353225677953,
                0.5115708143664118,
                -0.8082734643166029,
                1.6246934473543622,
                1.5911901807142297,
                0.18995561373292402,
                -0.587374745104642,
                1.259168682851837,
                -1.0644734625359618,
                -4.2952976928445015,
                -0.8189868453110069,
                -3.8013377702701416,
                0.3042015532765258,
                -0.9788506579609303,
                2.06574715561453,
                2.175259007820875,
                3.187777276997472,
                4.182511788454215,
                2.1405306168364255,
                5.74508775866187,
                3.807949217232705,
                3.8161877833213826,
                4.804039431212897,
                2.6343294558669803,
                0.12526337601044213,
                -0.3383583071462146,
                -1.8015979151952433,
                1.7380756919565439,
                0.13093714076843674,
                2.4443563798748347,
                -0.7567797672900543,
                2.6401385682609644,
                3.3242906143108755,
                0.4092296112238918,
                1.042849606184533,
                -0.2773758826265979,
                -0.9369750357991417,
                1.7257882343041189,
                -0.9762485862408236,
                0.8521453737933861,
                -0.23504174277389556,
                -0.13817646727730007,
                1.2290329227964991,
                1.1184596423745787,
                0.6353707601482566,
                2.663010343120842,
                3.897407274348023,
                3.929776122835976,
                1.7212864267175862,
                5.205579728126169,
                2.70574545347409,
                3.2048917974153768,
                -0.9819192954388,
                -0.3068025212185656,
                0.34302054108605295,
                -0.3237820479887048,
                -0.7319925821400075,
                -0.1332832278117039,
                1.8256835653433447,
                3.726231667873992,
                3.079223291340284,
                1.7447219697471654,
                2.1636895299126677,
                0.9616998831886013,
                -0.3479998238685787,
                2.095867541892574,
                3.808213609914503,
                2.0538162815954673,
                1.543782050089947,
                -1.1487662180131872,
                -2.652579845070999,
                -2.1529051664549703,
                3.9766653295448022,
                3.196693548370702,
                2.1131125328887954,
                4.191883690277551,
                3.2133031406727284,
                1.158806761215178,
                1.1925623177461646,
                -0.21438324429046815,
                -0.12797189489929475,
                2.6935300485497398,
                -1.3774554211381624,
                -1.2048178795908842,
                0.3383923272993462,
                0.282519958390639,
                2.602753973880785,
                1.1308853978160827,
                2.0407323979011847,
                0.4627663770379534,
                -1.4286869346014333,
                2.8891797632054876,
                4.597796031741651,
                2.1054542193586263,
                0.8061356608896029,
                4.197338399484931,
                2.539947779024162,
                0.7338232286008688,
                -0.8107756821806691,
                2.1023126418625115,
                2.11070713138569,
                -1.5171983674836707,
                1.3755934741965266,
                3.4264562133485637,
                1.1176196640413272,
                1.8512690608998061,
                0.4358985247598662,
                -0.05145600462189934,
                -1.6489667770397818,
                -1.3180750015878213,
                -1.917682776426401,
                0.3601468418967076,
                -0.6673000058829271,
                -0.40258878979754326,
                1.6827938606874042,
                0.07105284924681264,
                -0.27547301060830937,
                -2.4991541867948768,
                0.1954795167125797,
                1.147642744800286,
                1.7399985015748276,
                1.3340488720945636,
                1.4839472856239915,
                2.2426676029143167,
                1.302470343793682,
                2.520233956084142,
                -0.5056425483573183,
                0.9112156608629619,
                -1.1147635291944913,
                -0.5838761176238114,
                -0.14939853800781547,
                -0.44570207602305706,
                -0.159835104352329,
                1.1211398653518858,
                0.7123487686876872,
                -0.1386297238764725,
                -0.5839385936154835,
                -2.7487403813460105,
                -0.39260706932966793,
                1.1651138884357397,
                -0.38311619698650423,
                -0.5343376203404681,
                -0.5418888711145644,
                -0.33431029591757594,
                1.344395343274771,
                1.8291514495460346,
                -0.9558169183542264,
                -0.3393279980485992,
                -2.2925472606876207,
                -0.1732812377352823,
                -1.724311140354357,
                0.5235146067868619,
                -1.0478851582009028,
                0.873510485735595,
                -1.9620761240076068,
                0.45869996333832613,
                0.3290879443642702,
                -1.2530080092378821,
                0.7310546974415753,
                0.8051933340252675,
                -2.472266190856297,
                -0.9691584835310655,
                1.440665824744224,
                0.7651788066310076,
                0.7674852089726766,
                0.4791923133611804,
                -0.45617982542333535,
                -0.6302537260447809,
                -0.0876464110848711,
                1.1318850632569897,
                -2.219806825480246,
                -0.17719165393240244,
                1.394570714005796,
                1.8752716136728202,
                1.4853015760721955,
                1.4814274274815216,
                2.0772798246895063,
                2.2406243567800668,
                1.128610651804482,
                0.40919703117342304,
                0.6869219622219033,
                2.8599593170588746,
                0.5825381971852237,
                -0.2339146586966961,
                -0.1300826176257728,
                -1.5385317101565679,
                -0.9448520755761687,
                -0.8403315604399869,
                -1.8368026172174754,
                0.1423034242679228,
                0.26819772085376503,
                0.763141011212473,
                1.286414460357013,
                -0.4164123049950554,
                1.3581603446205626,
                -1.559698068124503,
                -0.04844472617544682,
                1.204996094068563,
                0.16239321710831905,
                -0.3233878083054672,
                0.2875808676281824,
                -0.7805474980975702,
                -0.742240681224417,
                -0.4757281822529753,
                1.1885681257078493,
                0.1754541830069134,
                -0.9919106906269469,
                0.321401315847933,
                0.5058716328990017,
                1.6351129212542157,
                0.5159881230105374,
                -0.3655854553081658,
                -0.5160097768064394,
                2.8945346506255083,
                -0.9554499709907015,
                0.7359101544776716,
                0.8418226541734817,
                -1.5995478798518503,
                0.9983665681637348,
                0.5181059145224151,
                0.092299483027168,
                0.2321547088973413,
                0.3496297623102639
            ],
            [
                0.05029311123304079,
                1.1759006154043614,
                0.36162756703915894,
                0.29532577269199156,
                0.5566038093067395,
                1.3437851106744239,
                -0.5419238702273668,
                -0.21288941902678873,
                0.9485455439375422,
                -0.690878918292913,
                -0.4297311596971251,
                0.8635866957724947,
                -1.8946617725130146,
                -0.6344456892835321,
                0.9719437937974413,
                -2.0389218504931983,
                0.846627208466178,
                1.5645996678540677,
                -0.9218926020405048,
                0.935019729405811,
                -1.0592367703227876,
                1.1461621000939999,
                0.24739802378761128,
                1.55720828345287,
                0.16468283416114865,
                1.6882122078641515,
                1.3648861631191582,
                -0.41022397617841544,
                2.40494274152569,
                2.2308501626426396,
                0.7082586521404854,
                1.0222420771453324,
                -1.0630883504289075,
                -0.553861653700085,
                0.25606670384631447,
                -2.4279626623046435,
                0.9356855953176894,
                -0.5184713220003297,
                -1.068747358306579,
                -2.05969415587524,
                -1.5613282903673273,
                0.33456267852608335,
                0.12928902156947425,
                -1.2846120112972947,
                -0.11632565737518791,
                -0.339862017091576,
                -0.836395730247263,
                -0.03475343574549422,
                -2.1414272939888406,
                0.4358713512173673,
                -1.2062061415260994,
                1.064939749475242,
                0.9634503934174427,
                0.4599885028304505,
                0.6395589144980149,
                0.8880706860807278,
                0.3194591244440467,
                0.6317692910272068,
                1.03445059796737,
                0.6430003208367305,
                -1.321135495034698,
                0.6981671012262394,
                -0.5848768909901083,
                -0.16815332350817339,
                -1.5287705753965426,
                0.25386750593616964,
                -2.5954635689357177,
                -3.195758562046971,
                -4.188122612475759,
                -0.6304895789330672,
                -3.3400783102801404,
                -2.0532121195922324,
                -1.231883372197434,
                -1.164330466823654,
                -0.5966026859511535,
                -2.449294901972785,
                0.2719580271260485,
                -1.3047252865807268,
                -0.942792095354405,
                -0.784573700408215,
                1.2759823018833047,
                -0.7891312924199797,
                1.806561754182115,
                -1.6025508028974877,
                0.07674442516264722,
                -1.7222627226531746,
                -0.36063866482931867,
                1.0642106372081543,
                0.24271047625095132,
                1.4685897847921385,
                -2.330961900929846,
                -1.4253887414627455,
                -1.676449356099689,
                -3.988133252304612,
                -4.21162941760427,
                -2.4353869551193976,
                -4.043207434171091,
                -2.3456728559877362,
                -1.2681851098190682,
                -0.3916047640224418,
                -0.4082132222077274,
                1.831496431984571,
                -0.08283174857734332,
                -3.425522431738065,
                -1.713516246207288,
                -2.2777059503905965,
                -1.2419767994065323,
                -0.7043874996406879,
                0.27557278974065147,
                0.057141358369044125,
                -0.27938733808095556,
                -0.4417881255352707,
                -0.6212527907513812,
                -0.983026204826588,
                1.294759848440075,
                0.11729988220143571,
                1.2824313752007392,
                0.46099698222253865,
                -1.4353744516314164,
                -1.7472161170486058,
                -0.010607879310874457,
                -1.714203771088603,
                -1.7378496353881572,
                -3.9415333330136173,
                -2.8125890903289807,
                -3.92552174702047,
                -3.3572872244773104,
                -2.0982120587719955,
                -0.15985233689274972,
                -0.7894498137825755,
                1.1994799853511076,
                2.3827091586050475,
                2.9786946214468246,
                2.5488680839535087,
                1.9742452995664261,
                -1.3497364642628045,
                0.6224804390296437,
                0.9803410005661513,
                -1.1328285387006505,
                -0.7873822200855017,
                1.3788074790662903,
                0.434957838486012,
                -0.3544927769047848,
                -1.2933186384493165,
                0.6447166044937852,
                0.6155459305410748,
                1.6240541814365343,
                0.4158071258622989,
                1.2635389860214268,
                0.39304127495958535,
                0.10453407836075818,
                1.286139549473597,
                -1.6488908213263678,
                -1.263704688139879,
                -2.661522469301833,
                -1.0917185194446617,
                -0.5317534426130675,
                -2.0239977877287094,
                -0.4200171062012149,
                -1.8267957870703173,
                -1.020572177124283,
                0.8021917768536214,
                2.0100738904855238,
                0.40430185239540073,
                2.0835092577984176,
                -1.5510733251138467,
                0.04009959456843609,
                1.2328825237650847,
                0.24434714980179442,
                -1.329804460050754,
                0.2717037410266972,
                -1.730722371151637,
                -0.5940557652833722,
                0.9896411900518371,
                0.5654854640082962,
                -0.12778374817111554,
                1.0037163720655204,
                2.075401669101316,
                0.610295609823253,
                1.124984040551881,
                -1.530912085686287,
                -0.7984380347911368,
                0.20371004144650803,
                -1.9976908537426175,
                0.8684704118090794,
                1.416135790282301,
                0.8891345419282051,
                -0.15271924980734275,
                -0.2816028264985894,
                -0.4281255693762853,
                -0.3847599024752629,
                0.5072943557212751,
                1.0135787251525186,
                1.2336497734273342,
                0.043051307017760006,
                0.26557705299734724,
                0.13657769416964713,
                -0.7627116393337691,
                0.35383984275741,
                0.7043652394379285,
                -0.5809923925611377,
                2.1856901799181885,
                1.8754575044319945,
                -1.2455680107586518,
                -1.5028841418358727,
                1.6483053337326192,
                -0.8098557005257374,
                -1.1143767224070722,
                -1.4340861954239674,
                -1.3912570054052653,
                -1.79002137255151,
                -1.378711827504312,
                0.7651500381037298,
                -1.3958104074996278,
                -1.5532129833558077,
                1.7085316474513408,
                -0.3818600200768502,
                1.6157286066387564,
                0.33260244758194407,
                -1.7405850022848741,
                0.2732037037386392,
                -0.3047706347083513,
                0.268447653245688,
                -0.7811370975649133,
                -0.1675455128586494,
                -1.4101927596712187,
                1.7606798101910475,
                0.6797094671646671,
                1.8261775911291842,
                2.763795638377468,
                3.09281645959923,
                1.9557143143889073,
                1.2037208812029059,
                2.0859389929644294,
                1.0237007057110985,
                1.3518609950135132,
                0.3655121913147075,
                -2.649663468481263,
                -1.5957230721918712,
                -0.009054025921112617,
                -1.9205611380000471,
                1.9191865785702393,
                3.164645807058295,
                -0.6869210997258157,
                0.673122753763637,
                -1.0726190374727793,
                -2.0497419338235523,
                0.2187428047708853,
                -0.1687913343848569,
                -1.1500487574513307,
                -0.8051690338551829,
                0.8065910961043863,
                1.8511097143912225,
                1.5718146890616247,
                -0.37849835351913946,
                0.9109548908037017,
                3.0068262518921895,
                3.4667459821019184,
                4.247742066195068,
                3.085693656503399,
                -2.09131284584821,
                1.220593422707135,
                -0.15152783684680926,
                1.0176661060888614,
                2.6294090072954415,
                2.2616131671703603,
                -1.7848756260426288,
                4.131448150064553,
                2.1836387870192975,
                2.7767590606691552,
                1.2662741080792415,
                3.4547893003188124,
                1.0391956514311114,
                0.7127466823056046,
                0.15138108785089147,
                -3.3913597146998993,
                -3.019242462006085,
                -1.8163076067994353,
                -1.7584073071779571,
                1.338398917332579,
                -0.33866299602300143,
                -0.9616280929674468,
                1.1206239817768284,
                2.758281876811562,
                0.9061816263193021,
                -2.9857162629988903,
                -0.9006006247264519,
                0.8522977751088748,
                -0.5227078956978477,
                2.2274075812672636,
                -0.2571972291109155,
                -2.351848014814993,
                0.6644449816764351,
                -3.822373089096818,
                -4.647884148078639,
                4.218448327474225,
                2.973085994937049,
                3.100331302130033,
                1.096775673753826,
                0.7218284666768299,
                0.8480588713107228,
                1.2122025513628707,
                1.3775726213602761,
                -3.67522028001464,
                -3.634252946935859,
                -1.9941921677474748,
                0.29240954749180686,
                -1.4030498918134962,
                0.21021304518935252,
                0.4034086419474717,
                -1.027991331557944,
                0.2862667964285773,
                -0.6734933866236763,
                -3.067064236764901,
                -2.6194651078881948,
                -0.9868931910118434,
                -1.2558570764201114,
                -3.942956376843213,
                -2.1223436398058233,
                -0.34806783803957075,
                -2.322145778903757,
                -7.269463216959169,
                -0.4302240303967393,
                4.942340525050402,
                4.134032594583541,
                2.1639674985624193,
                0.16036489904159668,
                1.0182090603109166,
                2.0665842124592353,
                0.5208968194947814,
                1.0850138706702759,
                -1.9098563224957918,
                -3.447009676135507,
                -0.9801521217602478,
                -0.9390932080509267,
                0.648486909191024,
                0.17659482236325771,
                0.22003138283311058,
                -0.5840561674334417,
                -1.3993947793585566,
                -2.382441901394353,
                -3.57512347322941,
                -4.110729968102209,
                1.0704627645333566,
                -1.841778590132869,
                -1.9787332569234766,
                0.0686738440539824,
                -4.100665234608375,
                -3.095998521528612,
                -0.9910189213891107,
                3.071632972130385,
                2.700668397762715,
                2.3155960687963275,
                3.9182832868378084,
                2.4557006955365734,
                2.3382595176432415,
                0.7313510946808618,
                0.6553201039880998,
                1.4968897321669643,
                -5.948449042121799,
                -3.827011230438244,
                0.7121912550646246,
                1.2601425346395807,
                -0.44600115329070733,
                -1.6253565867107276,
                -0.27496439134577894,
                -0.9000639141545196,
                -2.278379357003008,
                -0.3537982739712951,
                -3.7489550662853093,
                -1.6714453067071855,
                0.9029426123992508,
                -1.2331588647907135,
                -4.484413116962894,
                0.461621229190072,
                0.9146307946977132,
                0.0074804511212050095,
                0.792028792600035,
                2.3829077168459007,
                1.1027074558519465,
                3.6691228359684573,
                3.178889149561427,
                -0.02041243861324474,
                0.6723052829495012,
                2.903518946289679,
                2.121074685065518,
                -2.5530070253407975,
                -1.4852172647165705,
                1.566164895794093,
                -0.17427126742199467,
                0.2173381778322003,
                2.2501385448152513,
                0.1011857831283592,
                0.5807369086566219,
                0.32707425295490616,
                -2.2797559891157477,
                0.6658751051519312,
                0.39862688942340146,
                2.7516209075920894,
                4.391422610999925,
                0.867662238585357,
                4.267651763908956,
                2.514625965580708,
                0.7847560584404883,
                1.782718122907399,
                3.001517675658863,
                -2.260851916156994,
                3.42512165896189,
                1.618002616560601,
                3.545901277730483,
                2.411232681695677,
                2.1805260344761286,
                2.2726348062649544,
                0.25009912283261193,
                -1.3682955463779685,
                1.0273316209494507,
                1.3022880360958946,
                -0.1906541518568773,
                0.5917272748720737,
                -1.2132470295618214,
                0.4334161179437634,
                0.1575015470822056,
                -0.012556296904119035,
                0.5201501051983373,
                0.029846631209357113,
                1.8723260434279931,
                1.7476763680903367,
                3.091982531312955,
                1.699358958002007,
                -0.43330318844637794,
                0.8010896697392884,
                1.0077728543666762,
                0.9902001422489566,
                -1.0345342623427258,
                -2.1415385377191076,
                3.055507031708187,
                2.080613659063367,
                4.832459647559915,
                2.437615621105969,
                5.0666492922665975,
                -1.6796534467796287,
                2.6917146258103353,
                1.0818266358528805,
                0.5911830008567674,
                0.1894773239462187,
                0.7019864096372855,
                0.4869915978000054,
                -1.741222774070196,
                0.07955679093487823,
                -0.003039521331069432,
                -1.5203616916758809,
                0.8858275889061771,
                4.168378564245337,
                0.7972714770698127,
                1.080252782507167,
                3.8314482360661852,
                0.3159063224434423,
                -0.5107436019288654,
                0.6292150648274456,
                2.5682195352651624,
                1.066877911693673,
                1.4505218405093487,
                3.0171809113909753,
                4.252170845976651,
                2.8769722449739734,
                3.6126350521842134,
                1.833501655419633,
                3.26630515375011,
                2.0949438191158394,
                4.115754106715834,
                2.486288077588182,
                0.9526148849342458,
                1.059156397306613,
                0.43319519346499696,
                1.339439876376522,
                0.6457808327707857,
                0.6274392307476292,
                0.5001577693273428,
                0.305149701479774,
                0.03562004442347027,
                0.7305380530280706,
                1.778870521398803,
                -2.0802587093974267,
                -0.30075761096737286,
                0.7561246471995853,
                -1.8630021037064715,
                -2.637441047537912,
                1.3779499886503772,
                1.7578445681884072,
                2.602344616420745,
                -0.021120553083909564,
                5.292081693027423,
                1.2768176832332394,
                2.7675940334812563,
                2.390586120039646,
                -2.5729059142046027,
                -0.44986413531922903,
                1.2174537111164323,
                -0.8892527738499082,
                0.02931300978377661,
                -0.7110255502608507,
                0.06510735479650964,
                -0.6332455649004006,
                0.7781038687879029,
                0.567144571777366,
                0.35370318531784173,
                -1.4177936922432337,
                0.5945549404971773,
                1.897759756946708,
                0.13372055044753645,
                -2.053307858438547,
                -3.21388093892907,
                -3.006790614217924,
                -4.132438866090923,
                -3.2516395009228867,
                -4.117571943204305,
                -3.481602098960608,
                -0.1339158314593379,
                0.4623188542385927,
                0.3574195569595864,
                -0.7423247968783946,
                -1.0556337740845347,
                -0.6426287279351816,
                -0.6107167613933934,
                -4.867457228448414,
                -3.7769028334580184,
                -3.0832166296911274,
                -3.8087428339879743,
                -2.678800580736772,
                -0.5254658851798014,
                1.0921433456496203,
                -1.255034167880769,
                -1.0866499038528357,
                0.516157172335213,
                0.6186368920979594,
                0.780640382146847,
                0.334757541074226,
                -2.381288726872404,
                -2.3927336569482645,
                -3.730773209056624,
                -4.7381677592821,
                -7.625004893898801,
                -5.890625860748855,
                -6.002117276932559,
                -8.001332794338758,
                -3.6888912488260277,
                -2.725273216923595,
                -2.22031826558583,
                -3.6024150515947584,
                -2.1409646594068,
                -3.0630894719849096,
                -1.735685402933541,
                -3.4889031172446696,
                -2.699956579918237,
                -4.549207632744355,
                -5.850471721643747,
                -2.077026317824289,
                -0.41444754704453424,
                -0.4901848311033935,
                -0.3598711851536919,
                -0.8903877582898907,
                -0.0834234996622515,
                -0.7679107993413343,
                -0.4317619464685575,
                1.1102993592964108,
                -4.354723218254104,
                -1.6859927094648466,
                -2.1300377264365977,
                -3.9975998235474135,
                -4.013743017192599,
                -5.309792099654837,
                -3.3451038429389337,
                -5.656294955140069,
                -3.702410207946448,
                -3.2034051408698554,
                -7.925763774341862,
                -3.89485480314168,
                -1.173274824721135,
                -4.354385134729962,
                -1.3964618120345513,
                -0.9697370316602584,
                -3.461340493067666,
                -3.713592306034912,
                -5.067339306845961,
                -1.880032712162261,
                -1.2516328901604932,
                -1.4094151289823236,
                -1.074161149181498,
                1.0845939299862928,
                -0.49967866247672993,
                0.3195287826553051,
                0.5512541998000305,
                -0.6595605991831609,
                -1.3008426723941187,
                -1.5252106849522136,
                -1.874387292483646,
                -1.0782189182082011,
                -2.4285475768815337,
                -0.5859142902681399,
                -1.41322611113065,
                -2.719916001239691,
                -2.182573813204813,
                -4.4281346242619986,
                -1.3214451782196512,
                -0.8364001115687414,
                -6.901248676882388,
                -1.6297479698387374,
                -1.826751234723385,
                -2.953169910444644,
                -2.964274955482332,
                -1.164054101596492,
                -0.16044006279710926,
                -0.7480625656045146,
                -0.3749352633331041,
                -0.1081480942981654,
                -0.13767771085691194,
                0.6861166602876452,
                -0.11963634077200647,
                -0.22765684837561526,
                -0.4675742529477311,
                0.056780629261709646,
                -0.11788783438336632,
                -0.23160789152500488,
                0.15461873269712506,
                1.2663281682795942,
                -0.774535601791456,
                1.1625476381108075,
                -1.4957058638478642,
                -1.9125976214933322,
                -0.7439067551587402,
                -4.285590868885263,
                -3.1312021284856635,
                -1.7050144543288808,
                -2.127938895576836,
                -3.2578867943780727,
                -1.729538127097566,
                -3.98772883134071,
                -4.6407293660016595,
                -2.859946509824866,
                -2.3317537184355035,
                -0.32644143624573085,
                0.5431174318468195,
                1.3936972614181782,
                0.08014110051517442,
                -0.7590173281988575,
                0.16013999003498486,
                0.6302905161040392,
                1.462255322185863,
                1.83774976921347,
                1.7768553720316957,
                -0.05636983546353679,
                0.6073758467421608,
                1.225171872775287,
                0.9967692850156525,
                -0.3039141971856224,
                -3.366196211699827,
                -2.992561964662409,
                -1.3838087463045734,
                -2.007736236923132,
                -2.459096390191367,
                -4.614890664430827,
                -1.2607356794129707,
                -3.3126948504798994,
                -4.327480057309931,
                -6.259747185532133,
                -4.083717979987367,
                -2.3487484295088787,
                -2.038518081788398,
                0.8883055756296513,
                -0.37162420407434,
                1.2442252212947145,
                0.2147115665513812,
                -0.7447510502467946,
                -0.7877458774392936,
                -1.4963839770489884,
                -0.7776729078763894,
                1.8524975201781286,
                2.5548468243862215,
                2.731582979112055,
                0.9748649072301135,
                -1.6469107709646629,
                -1.8360465983006544,
                -0.41060302788434994,
                -0.3841400560580829,
                -4.671504434991901,
                -0.44857060682025435,
                -1.1200393139847584,
                -5.425647207372659,
                -3.772186387206534,
                -1.5332579996596467,
                -1.3818290151154378,
                -2.362968252087774,
                -2.84487912526777,
                -0.08305096049122085,
                0.2838872018323938,
                -0.9012016971765605,
                -0.848524201562653,
                0.35907313459996437,
                0.13382878105064347,
                -1.64692587076186,
                -1.1820468557054271,
                0.1521374058996244,
                0.51213739793179,
                0.2347016282466273,
                1.8979228736629352,
                4.073635207635112,
                3.9734186873840764,
                1.3270802126455818,
                3.393728964415537,
                2.0822349627425454,
                0.26992231520638554,
                -0.8321852485157042,
                0.8862463725027299,
                -0.021536772034926023,
                1.1560879802364767,
                0.7228182593794951,
                -0.1466427503589177,
                0.293854277792316,
                -0.8730338303731676,
                -0.6578335778674239,
                0.004161729431155146,
                -0.23371014356060585,
                1.7938747117165428,
                0.004104477174858138,
                -0.5322767995237593,
                1.899794831393669,
                0.02127843018804174,
                0.5760300513078052,
                0.608254136522507,
                -0.8367249139958682,
                -0.34711737674709775,
                -0.30341212428376724,
                -0.22323512983417934,
                0.29792678167763037,
                1.765722772989934,
                2.253155011591019,
                0.25079834922368727,
                1.7962904986864188,
                1.141913138606663,
                1.6975840760115135,
                1.6056570555213554,
                1.231741454099197,
                1.551244596262352,
                3.9549280297560916,
                1.348093941079477,
                -1.4280111612080164,
                -0.20940408753762743,
                1.1998367516560287,
                -1.4363552432277598,
                0.17374999265359367,
                0.3922022104230559,
                1.2697423298935684,
                0.14000621961534268,
                -0.21634347229640014,
                -0.26822108750399476,
                2.434891103230626,
                -1.1687304729565346,
                -0.2782182633822352,
                -0.627022476248558,
                1.169192975540826,
                -0.7382967026510184,
                -2.558373083924906,
                0.43749390652062475,
                0.007606419094309414,
                1.209804180240883,
                -1.0260593270422047,
                0.00042421792231078304,
                0.9929254743196904,
                -1.8378457371997126,
                0.5105826721712404,
                -0.471522390199945,
                -0.6651140269209884,
                -0.5414148485280701,
                -0.6254297317372481,
                1.5885510379348193,
                0.3727018710205579,
                0.4173820567536466,
                -0.7663767277418557,
                -1.4393800662683036,
                -0.06460836341254127,
                -0.028200127267798792,
                -0.5830616629834756,
                1.6070983148263485,
                1.3106336188784726
            ],
            [
                -0.29633997197042733,
                -0.1334404396392504,
                1.970821065788177,
                -0.1510290892658641,
                1.6745836406186514,
                0.09846097307866751,
                -1.2302625471418007,
                -0.22892614914443649,
                0.165403164850148,
                1.544439240745134,
                1.8556323140958502,
                0.1576750711445186,
                1.1444287510285447,
                -1.1774240860221517,
                1.937871513607761,
                -1.5530457433093976,
                -0.37940527665296125,
                2.167820897068141,
                -0.7796875399555728,
                -0.20951263856526461,
                0.261553785096902,
                1.6287517555362396,
                1.0354497269690373,
                0.19432978595917594,
                0.6317217791514859,
                0.2528407207868309,
                0.9340844688904959,
                1.9112867204401902,
                -0.971232014405576,
                -1.1961732065927093,
                1.7053345298227092,
                -0.3764799998976566,
                0.09193854217340244,
                -2.14083162676578,
                0.068413117549789,
                -1.6022620379078354,
                -0.62019510283989,
                -0.5308050913418997,
                0.028305964198312997,
                -0.504159017360207,
                0.9145849705508124,
                -1.3786882553344024,
                0.7078446626039451,
                -0.5951689172882461,
                -0.6906470147907317,
                0.0773728983072499,
                -1.2339976685024054,
                0.04451948830030968,
                0.44930892373429265,
                1.3142678539755601,
                0.39651188967054946,
                0.989834005530142,
                -0.63316887462597,
                0.34827123488210293,
                -0.32833227817968985,
                -1.143673812705005,
                0.3945088942393324,
                0.12161575347739922,
                1.2795000686908256,
                0.18555476460747145,
                0.36038581547649506,
                -1.9535442714154445,
                0.2136364705347621,
                -0.30458686402091856,
                0.15945897889044117,
                0.645338331955667,
                0.28564180108366044,
                -0.7682445454489426,
                -1.2122433662142782,
                -0.33306243873052455,
                -2.5462265943971776,
                -0.5019231541026169,
                0.22578644165212763,
                0.520172179627235,
                -0.15676191874552245,
                0.26959158774822184,
                -0.3865063111623216,
                1.0207877349919126,
                1.8461082242831746,
                0.33972585195322436,
                -1.2456730920410501,
                0.27470973225599815,
                1.0136459420017112,
                0.2434414006555487,
                -0.44615345353136987,
                -0.17276674056089297,
                -2.9282669040376392,
                -0.4141188678267423,
                -1.036237813481695,
                1.6724474257167667,
                -1.531171644850136,
                1.4886969864608597,
                -0.3548571104454229,
                -0.3044977782302018,
                -0.9528492005184952,
                0.11168798820229635,
                -2.04696298114011,
                -0.7997591373859154,
                -0.3669605774094345,
                1.3266672084431015,
                -1.368695027946673,
                1.5335294674899997,
                2.635095792835438,
                1.9979021516015156,
                2.825676437366862,
                3.0528238101325136,
                5.3378528420219515,
                2.1180095467166966,
                1.2225582770630765,
                -0.7102999302678599,
                0.7233635619480681,
                0.2798952897849534,
                -2.3349922912869885,
                1.4885267710191454,
                -0.8614586322940911,
                -1.4207999140707623,
                -0.32001671316246466,
                -0.07479963585099264,
                0.7341791287470626,
                -1.4073141322209057,
                0.4661424255535095,
                -2.3285007925135957,
                -1.6947295061078038,
                -0.8794700389505565,
                0.7280295386292854,
                -1.3828584225801115,
                -1.454681112222542,
                -0.11929458734017877,
                -0.3907038586744627,
                -2.034462892148354,
                -0.3489184487134223,
                2.7391026519873036,
                1.8969183307199924,
                3.6101174596441425,
                2.367131246784263,
                4.714920500557067,
                2.3854961953715588,
                0.17224753111272217,
                0.043008470342178924,
                0.044225921501613474,
                -1.5363750459566539,
                -0.8836471507012812,
                0.25384919760434393,
                -0.3152302804481358,
                -0.45711955751318883,
                -1.885552414316072,
                0.2491846227564883,
                -0.2518080751385404,
                0.5679811584302666,
                -0.17963575154585346,
                -1.5386278049210669,
                -0.49096481470883985,
                0.24746376126452696,
                -1.4683230373550324,
                -3.1772733863195937,
                -4.165601307067468,
                -5.21321260557053,
                -5.353045813473858,
                -4.069217106521476,
                -1.3859177351548975,
                -0.36147373312606157,
                0.38405504287268555,
                1.483392449354063,
                3.8735542098606266,
                1.4237706591304622,
                -0.9598352990566354,
                0.11963047097975282,
                -0.7561981543394982,
                -1.2271487352411448,
                0.6021388018193711,
                0.3446681767951407,
                -1.333868053056324,
                1.4825407902451528,
                -0.15214956956216127,
                -0.6108686972464441,
                -0.8639167531242105,
                -0.6161828053549934,
                -2.0475084160422075,
                -2.5399646605396446,
                -2.5857714247464636,
                -3.0853431661472714,
                -3.9026457102253755,
                -1.1059147195378822,
                -2.736899304111492,
                -2.0494581151215634,
                -0.46950908231969496,
                -2.694142746347755,
                -3.1171305208460973,
                -2.316661944679094,
                -1.5633445158851653,
                -0.7931676879077748,
                -2.69874299122554,
                -3.1757848473964954,
                -0.4505038034861081,
                -1.785231396254395,
                0.07937289088257851,
                0.9575408180829538,
                0.7710875675249461,
                -1.3826455605891357,
                0.3577496576424672,
                -3.5034485733772693,
                -2.550568940085743,
                -2.779845258670587,
                -1.6996355420737632,
                -3.652121323718344,
                -3.6073446228843147,
                0.11746284095474639,
                -0.3380442344974033,
                -1.1229329830738346,
                -0.41418872639360166,
                0.3704770769640701,
                0.352274724254901,
                -0.047711846302382975,
                -2.478703216432967,
                -0.9397699088084904,
                -1.236990831615306,
                -3.8942910324786166,
                -2.6658133638974535,
                -3.716249861928437,
                -2.878194578766723,
                -0.5046040336830735,
                -1.6303921504723553,
                0.6213936774881555,
                0.04206931414965713,
                -0.9038937294563109,
                -0.35968823945042294,
                0.6034100564957255,
