{
    "biases":[
        [
            [
                1.6039771769020823
            ],
            [
                5.124187484687779
            ],
            [
                -3.387204332010264
            ],
            [
                1.5755629174070205
            ],
            [
                -1.0890765070079023
            ],
            [
                6.230283004670541
            ],
            [
                -3.0272627300242343
            ],
            [
                -2.6956338265321955
            ],
            [
                5.94189245288775
            ],
            [
                -3.5043387607270144
            ],
            [
                0.400577967390422
            ],
            [
                -3.217174036659499
            ],
            [
                -3.698567980889972
            ],
            [
                0.8971680968136068
            ],
            [
                -3.7006672832913257
            ],
            [
                5.8733212142761
            ],
            [
                2.0189287855809805
            ],
            [
                0.10039035742882861
            ],
            [
                2.326316983585178
            ],
            [
                -4.305487066296891
            ]
        ],
        [
            [
                -0.490298635059351
            ],
            [
                0.2515617281176909
            ],
            [
                -7.1405994452567105
            ],
            [
                0.6199276166157098
            ],
            [
                0.19950416018655023
            ],
            [
                -3.641285272818686
            ],
            [
                -5.192701200231154
            ],
            [
                -0.2322789773444219
            ],
            [
                -4.352321921898242
            ],
            [
                -1.5135408537701467
            ],
            [
                -0.2544640504118309
            ],
            [
                -0.9764851967638065
            ],
            [
                2.088088327540672
            ],
            [
                3.7943279255955096
            ],
            [
                -1.684815446848644
            ],
            [
                -2.3494591624330137
            ],
            [
                -1.196083503256372
            ],
            [
                -1.7043660289046567
            ],
            [
                -0.2705009046356542
            ],
            [
                -0.44510908994106413
            ],
            [
                -1.5110215637062723
            ],
            [
                2.414081221717904
            ],
            [
                3.2740340570124777
            ],
            [
                -0.5222350719935644
            ],
            [
                -1.9769130274945412
            ],
            [
                -0.6349515732711216
            ],
            [
                -0.136208625056173
            ],
            [
                1.6781075154539784
            ],
            [
                1.7199868214163043
            ],
            [
                0.7242678369925017
            ]
        ],
        [
            [
                0.19965090595496995
            ],
            [
                -0.7062965218832318
            ],
            [
                3.560463952867703
            ],
            [
                -0.7025079240950526
            ],
            [
                -1.9085734078613774
            ],
            [
                -0.9871430691150654
            ],
            [
                0.010035642123255969
            ],
            [
                0.44593465469658516
            ],
            [
                -0.2063214891190675
            ],
            [
                0.06179585943349202
            ],
            [
                -0.7155613427057664
            ],
            [
                0.47197983137865274
            ],
            [
                1.0863852379724932
            ],
            [
                -1.3018474030018357
            ],
            [
                -1.549344619604883
            ],
            [
                -1.1735557324299573
            ],
            [
                0.2667508728162506
            ],
            [
                -0.3636793484013634
            ],
            [
                -2.6562138533877286
            ],
            [
                -0.8082942506370917
            ]
        ],
        [
            [
                -3.2452072099989326
            ],
            [
                -3.9742766420064615
            ],
            [
                -3.4920182469444825
            ],
            [
                -3.1704445363294322
            ],
            [
                -1.362972823589776
            ],
            [
                -1.5744323525521633
            ],
            [
                -4.443788715362405
            ],
            [
                -3.4752495175882285
            ],
            [
                -3.2141202291409026
            ],
            [
                -2.9021016923421254
            ]
        ]
    ],
    "epochs":30,
    "eta":3,
    "mini_batch_size":10,
    "sizes":[
        784,
        20,
        30,
        20,
        10
    ],
    "weights":[
        [
            [
                2.4735076289466544,
                0.16915519246845087,
                -0.34852323406141783,
                -1.1063802135260765,
                1.5980168653996087,
                0.3288361243678214,
                0.965461204873829,
                -0.6968979038781028,
                0.3485731938878819,
                0.36764739858277523,
                -0.6274845580121456,
                -1.3120978143529995,
                0.1613089571807899,
                -1.5097332877134777,
                -0.06776783599265322,
                1.6000179835056225,
                -0.68454373203299,
                0.34028868791787487,
                -0.27768003268894154,
                -0.49887913334821216,
                2.2803107711976103,
                0.5464054752505952,
                -0.16192565514179566,
                0.5292578382756351,
                -0.5057414178529595,
                -0.7375334852634149,
                1.7561716243098222,
                0.39251774063275763,
                -0.5880346503139605,
                -1.6200794130055145,
                -1.9419228324498252,
                -0.0883635611891139,
                -0.16444382728058926,
                -0.0009412119912533138,
                0.6075190412195749,
                -0.1037691613000435,
                0.18951848337209512,
                -0.45700933241318337,
                0.7767409249583535,
                -0.0864592613505305,
                1.4422582060948461,
                -0.44501114804390346,
                0.32718288253706296,
                0.5855985897091887,
                0.4904165927132083,
                0.3084531421986944,
                1.6402132367230091,
                1.0984699110195206,
                -0.01243471706629558,
                -0.5027153610705909,
                -1.0445138351169314,
                1.2352192039190812,
                -0.030365781116706812,
                -0.8092400540201914,
                0.8380421011727286,
                1.5311006349825076,
                0.7593906735771354,
                -0.3277199555760936,
                0.8050978705123156,
                -0.7690165596562498,
                0.39160817700456685,
                1.979828845709288,
                0.404666759600321,
                0.34933458431470804,
                0.8475043380797262,
                -1.9717312563350495,
                -0.03194609767342044,
                1.2857290901783744,
                1.4539669120815775,
                -0.02324946445107135,
                1.687367978536921,
                0.06750899596113288,
                0.06460201043774938,
                -0.5447321105712866,
                0.07316253407950558,
                1.7332252856779686,
                -0.8964799591087264,
                1.3509719414624066,
                0.4927701581899521,
                -0.10628580498925039,
                0.3701463915686627,
                -1.7928908652982964,
                -1.121670762695398,
                0.0489954200659344,
                -0.07601801243122032,
                -0.5542082608381531,
                1.5199896665514352,
                -0.6033699069827674,
                -0.6483502232397215,
                -0.19783657508653937,
                0.14561896492059415,
                1.6247468346149656,
                -0.09855041459373992,
                -0.09615490519881888,
                -1.754728039613355,
                -2.1654725056708966,
                -0.34278083721300134,
                -0.8412765735500516,
                -0.4609805687034448,
                -1.6152910184084568,
                -1.6336936579510053,
                0.0015777208829657876,
                1.3677310876906446,
                2.24070376608441,
                2.7238412080116605,
                -0.10323173875636787,
                0.9646639952684215,
                0.3757760548657378,
                -1.6175899109570124,
                1.129193112277136,
                -1.1828460432728152,
                0.314778895916797,
                0.10554369480273675,
                -0.9605516875920196,
                0.016765129105182117,
                1.1558102005499293,
                0.03466265125866887,
                -0.982865396147152,
                0.47459425608061756,
                0.5415273208064956,
                0.9418472833781358,
                -1.1513060667802557,
                -1.0770940596283463,
                -1.2598367314494803,
                -0.8784704492301239,
                0.3778811968874551,
                0.4988491704577933,
                -0.6179128790483207,
                -0.35369568141479724,
                -0.22045266587012058,
                -0.010760412808044604,
                -1.9158295203578921,
                -0.685993253233164,
                1.7161042994000613,
                1.099632350187794,
                1.0452260177088923,
                1.8480499628787965,
                -0.9502542811737383,
                1.4814738874832798,
                -0.4501639103242164,
                1.2550821485811374,
                -0.7448989149942744,
                -1.3893473380525085,
                1.0716373909244814,
                -1.5836213194216202,
                0.8507142972512224,
                -0.9336772314322117,
                -0.3622326997344346,
                0.03313761942451085,
                -0.9218489910740524,
                -0.7267128867933703,
                0.8500151057944823,
                0.25902006018109736,
                -1.0372597736369975,
                0.9309945249584476,
                2.0379908648489122,
                -0.643804072240567,
                1.2369724442990042,
                -1.5549655969505392,
                -0.4468832859860265,
                -0.021472323012204402,
                -0.4749438399274199,
                -0.13454817293150118,
                2.4990895626778076,
                0.05252664934038519,
                0.7123976628508235,
                1.0567895692461355,
                -0.7096238124197951,
                -0.2084350185697107,
                -0.11432204750778958,
                -0.30839962656116116,
                -0.04512012234128232,
                0.10453460660931893,
                -0.6717481668042902,
                -0.8404358860025382,
                -0.2870447874498375,
                -0.28973937243144493,
                -1.6493509984053296,
                -1.4620507536100549,
                -0.7577553675705545,
                -1.1155858747156375,
                -0.042391712276065203,
                -0.04025368875560275,
                -1.3818204728548493,
                -0.992242631850386,
                0.40085909250520074,
                -1.4700302262081408,
                0.5262730774741544,
                0.18364564930091395,
                1.1861620129976693,
                0.9846255596000585,
                2.4800152229247114,
                -1.6184640086273043,
                2.521430328012237,
                0.1949389841180044,
                -0.6164893037313176,
                -0.16795458744543673,
                -0.786564379903508,
                -1.204045248619593,
                0.8546654559186283,
                -0.18676796610427576,
                -1.0608753526442047,
                -0.6144847252066432,
                -2.474624729240554,
                -0.7619091037693884,
                -0.4000238901626954,
                -1.0693795685745797,
                -0.28848455766132386,
                -0.8049684561705484,
                -1.2933263653075477,
                0.04893056100802456,
                0.0038476172182196093,
                -1.648733103902547,
                -0.38108869874548296,
                0.9000578734937488,
                0.024249023684133533,
                0.3912376191066018,
                1.6190678872996913,
                0.05940268887856119,
                2.4880934126409087,
                2.1304334508084533,
                -1.4838279140439345,
                0.2756710877848094,
                -0.7729929719834927,
                -0.3617748960575141,
                0.36344576794153066,
                0.7853549227795759,
                -1.3946316988719685,
                -2.043379485219865,
                -1.069058266696129,
                -0.8227184056027075,
                -2.125826271898997,
                -1.8825866822350443,
                -0.4477746119446462,
                -1.6803155759103243,
                -0.6542127309754924,
                -0.3323347955249407,
                -0.4791783597636032,
                -2.405761326977354,
                -1.0286693001652212,
                0.0900930038245873,
                0.0978506159789421,
                -1.2074128530301498,
                -0.6141642947436802,
                -0.1929963266206035,
                0.8655064319157958,
                -1.5270239476161298,
                2.4818613251816726,
                2.483485610013617,
                1.8789363834710935,
                2.1222740964329803,
                -0.41870197654230973,
                -2.4713081666774,
                -0.10689374090564606,
                0.31868363310794623,
                -1.5450376382423978,
                -0.62837501691066,
                -2.1492913427587785,
                0.6288758099082014,
                -2.0183559723200566,
                -1.2575561743528472,
                -2.6560862762744875,
                -0.6938270326238397,
                -1.356820747716458,
                -1.576346877772912,
                0.07955882541897757,
                -0.8740509792733627,
                -0.6190275851424879,
                0.5316070955198621,
                0.9339177688857679,
                -0.04092690464987244,
                0.9554014807274102,
                1.7419845542319161,
                -0.9154786388035627,
                -0.3527256050863765,
                1.0294882253380184,
                1.5982442592099604,
                3.099843385741553,
                1.151858813019488,
                -0.8410765744833218,
                0.8789317281106239,
                0.2981921057572978,
                -0.5229482207563356,
                -1.0979054257881657,
                -0.0447859509710078,
                0.76359002228963,
                0.8036413948360677,
                0.02636906149320663,
                -1.1714167870831331,
                -0.8206336388300898,
                0.38826841260510536,
                2.188398643837727,
                2.175920290273532,
                2.4222887097282326,
                1.7109675090484553,
                0.4650711131676709,
                -0.4401824571711391,
                -1.0124698400119423,
                -0.9459289113553929,
                -0.17873550702861477,
                0.24155298711900755,
                -1.3015649333165478,
                2.323825836553187,
                0.20172040176620443,
                1.67091520358505,
                -1.225073790099791,
                0.48135264867854927,
                0.4003259040092561,
                1.0319793192553028,
                0.12871412440155036,
                -0.870286357233163,
                1.090125625973523,
                2.9301203563233202,
                2.485947188695821,
                3.8745526481589287,
                5.071550993978891,
                3.07012197349632,
                5.783478012101159,
                8.470788544169311,
                7.468685892108025,
                8.859941347017838,
                7.795442810799262,
                6.088369299854386,
                1.0849657709621845,
                -0.39913128437212547,
                -0.022211874137840627,
                -0.429495611570345,
                0.5001230297935463,
                -0.2101725276740977,
                1.3066888933140302,
                1.160030861527957,
                1.3026393105399405,
                1.3039770911509405,
                0.18550860811350456,
                0.9050674171292017,
                -1.0929098243040405,
                0.8983536951579252,
                -0.29534172320897445,
                1.0331744788914903,
                3.8392451218604062,
                3.831624076664945,
                4.545818820297444,
                7.88732809412234,
                9.089517728599283,
                11.119900609663127,
                11.903152715828208,
                9.249985381216113,
                7.627647178596751,
                3.8765193273491327,
                0.570040716633507,
                0.4286400065791105,
                0.3385944250296984,
                -0.49866714750256447,
                0.3127254972540328,
                -0.545933621951711,
                1.5638546511050835,
                1.0450528152832115,
                3.2049894881074095,
                0.7044903481651041,
                1.06629921359697,
                -0.010883560341207237,
                -2.5572988303704536,
                -1.0944383198269738,
                -0.021277891365837687,
                0.9848111434200219,
                -0.5522494367182642,
                -0.03323140063689021,
                0.7778787908478252,
                3.357927947732603,
                6.842455313367531,
                7.757044931982825,
                7.278639528154656,
                9.447389369830582,
                3.675829607410471,
                1.353986212874837,
                -3.1146201886775997,
                0.003061051705634899,
                -1.0470940126846133,
                1.0459290315557859,
                1.7512116852043178,
                2.0894424888386482,
                0.52566137780783,
                -1.2927170468895501,
                0.2064904349181511,
                1.6822324139407123,
                -0.5364849173415561,
                2.3522284792336285,
                1.2153288781749076,
                -2.8378721499010666,
                -1.1006668090376879,
                -1.1514258783555447,
                -2.2894887727289843,
                -0.037162342334209,
                1.5365723774375133,
                1.6425763726577123,
                2.8000071154763986,
                2.280079035553293,
                1.5849026895456224,
                2.4159590817523124,
                -0.011423364982662311,
                0.06180688152517325,
                -2.6420330885944328,
                -2.5116115277780473,
                0.1466549210677553,
                -0.0017200070349261843,
                -1.2459614264465215,
                -0.6365390832985253,
                0.21802900369768058,
                0.2855957949060096,
                1.0526361667318982,
                -0.3944506025137287,
                0.2381743216253799,
                -0.38372198823515713,
                -0.8568684044810114,
                0.6329977285101821,
                1.4674615711434549,
                -1.41656047887675,
                -0.25987050863541306,
                -1.1174298117904833,
                -0.43839389333236095,
                1.0302454362678377,
                0.6654000865920277,
                -0.4628135497750325,
                0.371834201144202,
                0.15297652935793496,
                1.2127533622232742,
                0.5201379255513023,
                -0.36140140909889645,
                -0.750401957005497,
                -1.0335413162603648,
                -1.497141177516145,
                -0.8875379460135828,
                -0.26330959071431653,
                -0.9112737328883098,
                -0.9557634579002129,
                -0.9411681736775126,
                -0.41812486977745594,
                -0.5370943065100445,
                0.2965661247838466,
                -0.978548213393754,
                0.20943819333137875,
                -1.5983962055213106,
                0.1364853596395006,
                -0.575090548125322,
                -2.910943817901868,
                -2.6667965313834285,
                -3.756606839539872,
                0.06659025649039683,
                -0.29615462797071485,
                -0.9528280559514241,
                0.5917185576621214,
                -1.6084376904047395,
                -1.322279056919051,
                0.385967456833312,
                -1.504808817222233,
                -1.6420722086874546,
                -0.11003126293440503,
                -0.5539610752015898,
                -0.3749890518464768,
                1.212578661103718,
                -1.129545020193076,
                -1.0149108060992855,
                1.292831894041061,
                0.5266344260378909,
                1.126646121922289,
                0.22827574984936028,
                -0.13702523295007665,
                -1.8189019201662855,
                -0.40693205873002586,
                -1.1572533299993055,
                0.18884260480859755,
                -0.919374861674644,
                -3.2559557751593036,
                -1.7571176413170653,
                -0.3831158227828404,
                -1.1441489199614825,
                2.2843097332276234,
                1.4055861720989822,
                0.3390155552514801,
                0.08999075889410048,
                -3.3613281931507375,
                -2.6974930768251317,
                0.35533107666659997,
                0.8223802193401242,
                1.3198960419139398,
                0.5836893325152253,
                -0.18133050914149645,
                -0.1966589137180497,
                -0.4149312761888342,
                -0.18481252996943082,
                -0.9667535247717544,
                -1.2581482794224856,
                0.07875374986289319,
                -0.5139062893865004,
                -0.5303521209923147,
                -0.8332530313900697,
                0.593913440935866,
                -2.1308945932280237,
                0.42853750856794304,
                -2.0157304498922874,
                -2.5669616898086116,
                -2.3319958003181775,
                -1.3546194421142268,
                -1.2866732264667862,
                -0.15259775829465433,
                0.7593334353363138,
                1.3987416382240832,
                -2.27245993543298,
                -2.196484781486606,
                -0.7150585093216959,
                -0.6343574503272977,
                -1.454510752094445,
                1.3066113727633102,
                1.7049613480911374,
                -1.5017918782176092,
                0.31794237187564883,
                -0.5182663301764596,
                -0.42060368786928254,
                -0.0761040924050359,
                -0.6282356549867417,
                -0.43359069763367597,
                0.4452513892756241,
                -1.173473817993809,
                -1.8111842212502414,
                -1.427045453060003,
                -0.44854291715648476,
                -1.2395235323866083,
                -2.489098121112598,
                -1.5707242809182733,
                -2.0864747125638288,
                -0.6131303506703483,
                1.1148283831376822,
                -0.18140999717428077,
                0.08703377311172628,
                1.0929102206689683,
                -2.2589770692371265,
                -3.853430853283786,
                -1.5832559768716945,
                0.49091372365107244,
                -2.6307679902332204,
                0.9479237119000103,
                0.3390263299050863,
                1.6073188535189595,
                1.8445496500072942,
                0.8625611791212161,
                -0.5395340684161926,
                0.15933755059328478,
                -0.28836587891838655,
                0.6371952224206728,
                -1.8238999665163864,
                0.6308027914181209,
                0.12801879747467707,
                -0.0552155862056229,
                -0.21993375413209257,
                -2.410309440974778,
                -0.8135851907328622,
                -0.8691318106215791,
                -2.035991939005936,
                0.44160114090017866,
                0.7098567530966183,
                0.28126357920614903,
                -0.7934592265233857,
                -0.26212950539924357,
                -0.29694105035858837,
                -2.382669566000607,
                -2.1934563023657963,
                -0.03015199243883659,
                -0.3509916791780405,
                0.8287652652598393,
                -0.964116938456131,
                0.19949078385435026,
                -1.0942625169959672,
                -0.08051404333480992,
                -0.09188667477081386,
                0.0264908074993665,
                -0.24201050598847818,
                0.26187699414206167,
                0.5911404951481416,
                -1.8879720968803366,
                -0.906176576534755,
                0.2329168783560708,
                -1.4892142867478195,
                0.2671006287944548,
                -1.7262528808928095,
                -1.3449325066552495,
                -0.8175703636166137,
                -0.268879124953159,
                0.09409287395206271,
                0.5285705988230847,
                -2.3458914302505693,
                0.4588137574141814,
                -0.6160754669279518,
                -2.7515157797844925,
                -2.1640414601955467,
                -0.16290466634281195,
                -0.03182323347076227,
                -1.5961635539533976,
                -0.06343789223563667,
                0.35984195031640914,
                0.31546004101916275,
                -0.3822801154181069,
                0.4326392983167913,
                -0.865695406751366,
                1.1718376652169926,
                0.1852959198383328,
                0.6869888706578677,
                -0.5302049339005808,
                -0.9129982348995636,
                -0.862008495783814,
                0.4243067657177046,
                0.4917812304068335,
                1.6085095328397951,
                -0.7941845049728264,
                -1.50567689798492,
                0.7051014912908562,
                0.6024259215459069,
                -0.9685209231806374,
                1.9515293720941838,
                0.02777878058478395,
                -0.2510451051392517,
                -1.5665387434768747,
                -1.9558834076333977,
                -1.658766408300287,
                0.45133596926148684,
                -1.1657847532075873,
                -0.4309026126812301,
                -0.047950308331165974,
                0.7756794212607292,
                1.3527576365293137,
                -0.08132281044591791,
                0.10640429760239044,
                -0.12245577455684699,
                -1.0858253248786853,
                -1.2426276473250286,
                -0.4547005296216038,
                -1.4050080813755381,
                0.2306502220136594,
                0.9309681248949795,
                -0.06902843294857525,
                0.6266124291231274,
                -1.5725651049985525,
                1.4231523968312114,
                0.6369468352328018,
                -0.722381061173096,
                0.27232718412590345,
                -0.22572770704966366,
                1.4935328808494186,
                -1.5459669618650287,
                0.08234012443768539,
                -1.8827509361434134,
                -1.458375726635228,
                -1.5518960834573898,
                -1.070458238861531,
                1.8687120319055737,
                0.8186423984591383,
                -0.12500968650794786,
                1.3399349998273573,
                0.007866933579674109,
                0.4314487825342597,
                -0.88481487188785,
                0.6680332382089379,
                -1.081685345029207,
                -0.1232406346530679,
                -1.7608040461025296,
                1.6132966115910121,
                1.5761231741338704,
                0.5351970016068911,
                0.2525153745773798,
                -2.7731259423049406,
                1.0157605509673058,
                1.117414749588118,
                0.5122814086367516,
                1.1282387684673783,
                -0.5422742698786567,
                0.08471407437281774,
                -1.8812301904200326,
                -0.829361096818153,
                0.06152712261994281,
                -1.65793481619533,
                -1.0134042372218215,
                -0.49861858847056884,
                -0.20016721300267648,
                -0.864379823791915,
                0.3054188483554091,
                0.04529430770546604,
                -0.1817175673991459,
                0.44286842805881566,
                1.1772890133567178,
                1.7990854629945443,
                -0.17788600849604902,
                1.3014553474247952,
                0.9532663029804399,
                0.6795206963609922,
                2.9978779333586267,
                1.1296807282365453,
                1.906741543031535,
                -0.805820088217232,
                -0.5554791804778055,
                -1.6082916597067087,
                -1.341475968668621,
                -1.053348484566381,
                -1.2340126145513624,
                -0.7807722479560092,
                0.9184990214087859,
                -0.31171932639927685,
                0.7567919402202296,
                1.7489740654728068,
                -3.1967538641730573,
                -2.372295893996085,
                -2.8835372428975132,
                -1.8414273947218545,
                -1.9678756420498051,
                0.2735396565373061,
                -0.37010392779401746,
                0.02331102030893044,
                -1.485558670816566,
                -0.17619117155592579,
                2.046461627509258,
                1.8190438576633619,
                0.7375349139657265,
                1.479745195188827,
                2.545331824613649,
                0.9043716153266796,
                -0.4827422012361277,
                0.15076896564323775,
                -0.4044044890108964,
                -0.5204690287903054,
                1.9048671861804483,
                -1.835513098526437,
                -0.6121066680514723,
                -1.0036626757423026,
                -0.4865960738841214,
                1.0520701398174734,
                1.030150953530738,
                -0.3121396491928108,
                0.9890466970358218,
                -0.6926289310760192,
                0.3416083153655261,
                -0.17122575582733396,
                0.4785050781806667,
                0.4622206691894325,
                0.7913089616016383,
                0.44821250193416357,
                -0.8612617895484993,
                0.48800387601190054,
                0.2559061342472067,
                2.2162404410325474,
                1.0989339585867617,
                1.3353764147708373,
                -0.45107156937304377,
                -0.8412736601642805,
                -1.1925291750483173,
                0.05714802805230141,
                -1.5828036316980725,
                0.7365881366966895,
                0.6348086587270995,
                -2.3293659220709073,
                -0.33007206124205807,
                1.2846925231774295,
                1.4175261929243699,
                1.1380540788667084,
                -0.6805678852138853,
                0.6047212899975581,
                -0.6018279535860527,
                -1.2829889906100373,
                0.616062581038189,
                -0.19194915084075845,
                0.7438215870569359,
                -1.5323556243648586,
                -0.9742917570796976,
                -0.2986363444671662,
                0.3821528643617215,
                1.2848052896919269,
                -0.07738056265221811,
                -0.35462131260521335,
                -0.643760126580157,
                -2.5655809685668993,
                0.3536518076727355,
                -0.03957004379816541,
                -0.1172714108439597,
                0.15399409909969747,
                1.1843993601953289,
                -0.058820619315892955,
                -1.3845327474571425
            ],
            [
                -0.7523709005160742,
                1.2994089313716195,
                -1.445629561157541,
                -1.4083553589013698,
                0.40143296266544254,
                0.8624217294762025,
                -0.06326611749045505,
                -0.0710635356107663,
                -0.40556642188920283,
                -0.10616628886578129,
                -0.8951871503077592,
                -1.4939460842168075,
                0.5877232167125989,
                0.5874484694779588,
                0.6931441333115125,
                0.9570337384200686,
                -1.9197731096489632,
                1.7565141303644827,
                -0.8668083298629305,
                1.877461613134202,
                1.0009915293606444,
                0.3530757452106423,
                0.7979212265784311,
                0.6120462363320339,
                1.6149171350407738,
                1.1154645701122943,
                -2.0458794589209646,
                -0.6961510409929794,
                -1.5645176865450563,
                1.1265214516236444,
                0.02970904296587528,
                1.0992528497161231,
                1.7348428131261338,
                -0.5569886254475254,
                -0.7321362859871263,
                1.4149044686718555,
                -0.6192291568689531,
                -1.2955346471428568,
                1.4558636056704573,
                -2.2826775931478873,
                0.7689949736873751,
                -3.467653753133531,
                -0.8766699774943625,
                0.01815529661811416,
                -0.30311811213791595,
                0.3070700020550954,
                0.25851700430587954,
                -0.9795689973573699,
                -1.6050111247704701,
                -1.369721103871273,
                0.6560476043257957,
                -1.0023856718609678,
                -0.21847387997817888,
                1.2655065903501865,
                -0.23437319123992997,
                0.7162741091945276,
                -1.2898461163565227,
                -0.4047268151140339,
                0.15299289777835032,
                -0.9989239467617329,
                -1.207056288629331,
                2.675281326638628,
                -0.6114408342305857,
                0.2285313745772725,
                1.4275701579853377,
                -1.7212055985790407,
                -0.7090337491543788,
                0.777883279477603,
                -0.6563864156905292,
                0.8414174920088466,
                0.47156988102179703,
                -1.5446604750093613,
                -0.3937188007682664,
                -0.6690744438644074,
                -1.1484254068351356,
                1.9314439989776497,
                2.605170894437148,
                0.9331549057663849,
                -0.4419455633634573,
                0.11265334936360136,
                -1.41796143074974,
                0.500362256621841,
                -0.9633900784370427,
                1.1529425161210736,
                -0.3460663475195503,
                -0.31028520448656516,
                -0.045636261972052124,
                1.1014336222760739,
                -1.0389875649947815,
                0.23921158225207842,
                0.897609008525121,
                0.1623799773083376,
                0.5476487020895566,
                1.8884528745583626,
                0.2011990862869949,
                -0.36547636510982556,
                1.1191155217116493,
                1.0660585657705104,
                0.5462319275298368,
                0.5296370721943212,
                -0.23118929911974226,
                -1.3590390738053955,
                0.9505886224777844,
                -0.45670220782563153,
                0.5842655261237361,
                -0.8569633024077156,
                0.8250248514182089,
                0.71230653203715,
                -0.7671942319925499,
                1.5350748367018696,
                -1.0140150343385428,
                2.3348102299038325,
                -1.0175831208657669,
                1.1387034885498428,
                -0.8652379183042465,
                -0.7030657013021646,
                -1.1851700231822626,
                -1.1908110807137933,
                -0.03316599989716382,
                1.18942115857408,
                -0.1277648764046851,
                -0.7824906858476252,
                -1.3282150794759038,
                1.171285197081295,
                -0.05700797251966147,
                -2.3108876325887477,
                -2.1666274904661353,
                -1.490494559434408,
                -2.2368933128862434,
                -0.45071269011567566,
                -1.3032261229483046,
                -0.23000563774361188,
                -0.25342129083507525,
                -0.547230225514831,
                -1.1365933583281247,
                0.20795960839741423,
                0.6118174576143477,
                0.7181533808921644,
                -0.0351300044868135,
                -1.4654697754462036,
                -1.8922879533435928,
                1.7144902835896194,
                1.2239076863778564,
                -1.4789047766316692,
                1.933338739501403,
                1.2190510151459253,
                0.17547879935914312,
                0.8616053663671097,
                -0.4480604169473699,
                -0.12961971193954674,
                -0.6664451705791304,
                -3.611085093386349,
                -1.3709856725045664,
                -2.1474201669564965,
                -0.9311326420536714,
                -2.0272026083031394,
                -3.970382008446057,
                -2.3292566709797318,
                -2.009914003733436,
                -0.981012312262869,
                -0.6362594304624523,
                -1.8822298067224308,
                1.4886608582529406,
                2.9765949839095915,
                -0.3147517735647945,
                0.43059650873746513,
                1.13465896116567,
                0.46236007640695226,
                1.5055827050934345,
                0.36494379954587336,
                -1.0685745838442688,
                -0.21914637968310588,
                -1.5541052942079963,
                0.46594375522831283,
                0.6427829324648848,
                -1.3867115267899355,
                0.013312202274559284,
                1.1320877469882633,
                -1.0802874660894337,
                1.5331013193009475,
                -0.06272988405957966,
                -0.856029983684015,
                -1.540506272330706,
                -1.709769507979762,
                -0.7109383855684418,
                -0.14565321375607726,
                -3.2127705175636163,
                -0.4041980889133442,
                -2.213959158536275,
                1.0219577991630613,
                2.3534655700678617,
                0.7214919531079399,
                0.8124167423237861,
                2.7983232805291327,
                -0.4187025347677289,
                -0.6638514409255595,
                -0.32173578928321156,
                0.6419963884162064,
                -0.9517767006410732,
                0.07969596947420043,
                1.3728104615202197,
                -0.5224380653231544,
                -1.078155177968603,
                1.8519848498345843,
                1.7275750880793006,
                0.14507888721722462,
                -0.4693662649212928,
                -0.4552241377240421,
                -0.719457456757899,
                0.2989952453226623,
                -0.9136974886322948,
                -2.716915369050373,
                -1.2924004296815108,
                -0.4784307208156286,
                0.23403345910038972,
                2.7009877570680585,
                2.4254497796694174,
                1.5179958596474306,
                2.3788138072946503,
                -0.7893836267324967,
                1.390305927759611,
                -0.9373320446317441,
                1.1441285975260536,
                -0.6397284238763573,
                -0.3744955850980094,
                -0.07683143282511584,
                -0.4129933297699948,
                -0.5462285346388236,
                -0.55447067482698,
                -1.5963132838944496,
                -0.6275042292976789,
                -0.8504162497520534,
                0.13224089767879416,
                -0.8079270535397202,
                -0.332532775672543,
                -1.8627477690574572,
                -0.4848453465514192,
                -0.6341225698375499,
                0.24556237400839379,
                0.5889233582781122,
                -0.37835335844523144,
                -0.2222104416683725,
                1.6009022211978792,
                0.5072818880913619,
                0.9728018711599719,
                3.816359471935706,
                1.7472660986966744,
                -1.0004704582123705,
                1.6276068270944717,
                2.494393561375014,
                0.7777159602773249,
                0.18225313732094436,
                0.7020646542548904,
                0.1931017247111673,
                0.7263996955201804,
                1.2091843541265235,
                0.020534213931996007,
                0.4718796958364431,
                -0.9160866373952826,
                1.3271312385170888,
                0.19787216263565732,
                -0.5184734777181,
                0.19732547488617702,
                -0.13366515315772104,
                0.14933105855691656,
                -1.7560674623977892,
                -2.2038052623758615,
                -0.3727798232217718,
                -0.4646228461635519,
                1.9335946536623496,
                2.8150571562856137,
                2.35322094231147,
                0.6039974031364249,
                -1.5746456887833762,
                1.18139798180539,
                0.08039176954708989,
                0.4124215039785363,
                -2.328029430580089,
                0.0023333700881093644,
                -1.5653898292623383,
                -0.9064968941157462,
                0.14774636731901836,
                -0.9523198246016964,
                0.35798204731060523,
                1.7269923741215676,
                -0.04280289181776428,
                1.0561326663359194,
                0.6942683964938071,
                1.8442773264453158,
                0.510847297338771,
                1.9342751296933967,
                1.5731973638272847,
                -0.45632757480752767,
                -0.5343639815441902,
                -1.3956252491197465,
                -0.3149636109717462,
                1.3315025428640173,
                0.31491825824598446,
                -0.2306601017760675,
                0.8606443821407019,
                0.6627376852975759,
                -0.28867881181553245,
                -1.9345159978522328,
                -1.4273036249469007,
                -0.188105142561274,
                -0.7554929969137945,
                0.5190434909328687,
                0.27276807344476034,
                0.570690074808348,
                0.41695375371537485,
                0.3615821179130543,
                0.3836550750138943,
                2.6548335156715495,
                -0.6611482654701618,
                0.4936822394345026,
                1.0323447198419407,
                1.0660407932345137,
                0.476251833131445,
                0.8762568170310389,
                0.12386568324234491,
                -2.6884418754781434,
                -2.0731126200351597,
                -1.2456604861175227,
                -1.7293577282298014,
                1.657224096270635,
                0.19411390475905016,
                -0.8325296836618385,
                -0.8563430715863257,
                -0.6254187842442531,
                -1.184455259899522,
                -1.9315199047360094,
                -1.9972746446647032,
                -2.6645752722577423,
                -0.47107388292059876,
                0.07052934269179921,
                -0.01302300702365805,
                0.7341102788421257,
                -0.5912526916111761,
                0.4638783588306191,
                0.7491737589415957,
                1.3331088143777532,
                1.9420408658770698,
                0.7882822708097319,
                -0.022191605937847487,
                0.5535594601818322,
                0.5130447309901331,
                -0.41840200577540476,
                0.5595812124528299,
                -0.3541223436226654,
                -1.1825815454313544,
                -1.34696925256711,
                -1.6571769397930745,
                -0.5441886951169317,
                0.6667313298281426,
                -0.4955100856463663,
                -0.9133598771824184,
                -1.498588752474402,
                -2.480632207347312,
                -1.9951160503556702,
                -1.182748284462459,
                -1.2392427555514713,
                -1.985958780751579,
                0.6112983846861935,
                0.1884762322113335,
                -0.8340942997228932,
                -0.053909368932268734,
                0.3639016710142175,
                -0.4418788491720935,
                0.9546250106805516,
                1.5440348624499878,
                0.34493971125309736,
                -2.2816109217941003,
                0.4507627317260015,
                -1.1058311897598005,
                0.308841327953097,
                0.9293316839851391,
                -0.036095315079819924,
                1.5495224919049235,
                1.5734486699370844,
                2.3725749262631513,
                1.8749799467881685,
                0.7076150058200643,
                0.7117509149478984,
                0.1821295533185755,
                -0.01483466390610903,
                -0.39190973203178664,
                -0.8137884147690246,
                -0.8184586008450315,
                -0.28456142225750924,
                -1.5770372135652322,
                -0.2976952803501165,
                0.17373985782542048,
                0.608227586040573,
                -2.3980434578913328,
                -0.8293373836792908,
                -0.054964297046194176,
                0.6442040275916564,
                2.5205899753449033,
                1.7027675345160223,
                1.6835378617006893,
                1.6443181972079486,
                -1.1131770341228966,
                2.268355563545321,
                0.5764891125800086,
                1.930377083149639,
                -0.6335594359255641,
                1.8045983185121264,
                1.9541574820717191,
                2.1160699037647848,
                -0.3873754864661756,
                0.05940125839533662,
                0.41997695680553226,
                -2.065661635821688,
                0.2113006650086808,
                -1.3581443775446072,
                -1.5225266433370466,
                0.12838272328975875,
                -1.230597769557356,
                0.859011776789952,
                0.16193078264566252,
                -1.0085276768053395,
                -0.5686214703711723,
                -0.39910355303966527,
                2.6130995518713105,
                0.7167127953956143,
                -1.4223738389046803,
                1.172747247193559,
                -1.4845318827255107,
                2.520285431946846,
                0.49389998575198063,
                -0.0022018343941901074,
                -0.3610059786557188,
                0.5875343505219452,
                0.18404411909807328,
                1.813751884897086,
                1.5427848804397886,
                0.8848869966189652,
                -0.10577357042456152,
                1.0496438263446022,
                0.4550435841586623,
                0.6438186903423512,
                0.2111417874470218,
                1.0212282142921747,
                -0.807765990261027,
                0.08147137390482925,
                -0.5289955133090098,
                0.34344987514650743,
                0.4516416662816997,
                -1.0088144842291586,
                -1.3100461021093621,
                -0.5942933066905526,
                0.5717472342414698,
                0.42916875520741515,
                -1.908767431723597,
                0.4899748856428746,
                -1.619178384043167,
                -0.8215174536797402,
                -1.2496751608467878,
                -1.0686980773714978,
                -0.8439147028120152,
                2.0667053106212303,
                2.728083365573985,
                1.9471303746736734,
                -0.49829050897989513,
                0.5632459331107573,
                2.3253586532398276,
                -0.5159117666618911,
                0.4634919442669502,
                0.28474245920349067,
                1.1813253099837995,
                0.9588473046274868,
                0.7097954515545895,
                0.0448823075048492,
                -0.061023018412744615,
                0.16878027594536643,
                0.1602874882631082,
                1.4635750784952335,
                -0.9339263119770155,
                2.0731247068101935,
                -0.4700619317626549,
                -0.5711664358672361,
                -0.16376737565838742,
                -1.5246553296276575,
                0.137564904609874,
                -0.8761807799231826,
                -0.6717711348382626,
                -1.8609999113204707,
                0.9731432658257335,
                -0.6974150395107481,
                0.3620280364022357,
                1.03526510960527,
                2.9436823869989084,
                1.2449375591882235,
                2.902087969455583,
                3.136388709585656,
                -0.054339791112547386,
                1.4218621363448865,
                2.248617320522923,
                0.6887065151326464,
                0.09357440294395158,
                -1.685067529337589,
                -0.190893325546117,
                -0.33641445768338807,
                -0.784901582422389,
                1.255333187004843,
                -2.2135597176135917,
                1.271095343778788,
                -0.16058850804904726,
                -0.4829374562758545,
                -1.6060634967641585,
                -1.8419943486312136,
                -0.9670360996129451,
                -0.5057949805545513,
                0.7778701730157165,
                0.8007042838864007,
                -1.8673452554372716,
                0.23070390374998992,
                -1.2385371291851002,
                -0.057940322792954004,
                1.9970247493230082,
                2.0275928550773683,
                1.671486991764807,
                4.041760711849985,
                2.8401753397581153,
                1.3513637675564834,
                0.2185748397009525,
                -0.42095579020273954,
                -0.24995745631757915,
                -2.239745155536059,
                1.3444102102069364,
                0.5305912708963078,
                -0.019722510664782842,
                -2.8468241228773157,
                -0.1541520265413576,
                1.5291374752531224,
                0.35138384664830224,
                0.28754278334294175,
                -1.2934745458675405,
                -0.5121430922159039,
                -0.2764385272448431,
                -1.6073355001576501,
                -1.7723159282408592,
                -2.2717118547506625,
                0.9190025268036082,
                -1.4252120564033548,
                2.855905398890896,
                0.7595301637816623,
                0.5999488483513421,
                2.3963918021615975,
                0.8884453866398834,
                1.6687486774487343,
                -0.04738004289092019,
                -1.8284389071926848,
                -1.7422076770782524,
                -1.737586665613239,
                -2.4524967356144307,
                -1.1226899542685982,
                -0.4889153684626239,
                -0.3585513356337045,
                -1.3619733652917703,
                -0.09282742892754452,
                -1.4826325450607292,
                -0.40578721836734727,
                -1.4666764528918623,
                -1.445452829648848,
                -1.7444967337216681,
                -1.700698878663738,
                -2.1595752933342136,
                -2.659017554338538,
                -1.9298832508594386,
                -2.237989707549115,
                0.22181325947388433,
                -2.9520068833735897,
                -1.8710407063182761,
                0.1860955705137472,
                -1.5322243139258584,
                -1.4761580179126033,
                -1.1407902057344863,
                0.678768760417189,
                -0.8139624819574919,
                -0.28422763100550946,
                -2.277231252439072,
                -2.819516779290558,
                -2.705151624166644,
                -1.7652558322677472,
                -0.39262461568376295,
                1.2046249246717222,
                0.22099189726143534,
                1.1124151973443563,
                1.024803304703132,
                -0.7359377433622963,
                -0.7314521997769486,
                -0.8472526793873318,
                -2.1793317663918534,
                -2.5898851117459984,
                -2.6269738503491817,
                -3.2745179892975287,
                -3.4154017524063196,
                -1.2558678058018617,
                -3.174599104383327,
                0.343672649684765,
                -2.3110348715458513,
                -0.8838877712545113,
                -1.438863605581152,
                -0.892427604668871,
                -0.7420844938914822,
                -0.8240194736128126,
                -0.14213504154319317,
                1.0658850700228502,
                -0.7977963181236625,
                -1.3403575097557348,
                -1.6711364087775655,
                1.7762887732466364,
                -1.0527510112496834,
                -0.41970262615299625,
                -0.4916151976261385,
                -0.6265111723212325,
                0.8083210247770614,
                2.5283613963677114,
                1.559143459654534,
                1.066816105671813,
                0.11409471961484828,
                -2.0051546771424493,
                -1.2363745978319987,
                0.09028042053470083,
                -1.67118847280248,
                -1.1940812998313868,
                -0.9452281685996902,
                -1.2367967058072153,
                -0.7520588607756302,
                -2.8234219638323657,
                -1.7134916522676902,
                -1.1457544701068676,
                -0.7328568619958685,
                -2.210546299695752,
                1.3020802779870793,
                0.0772927350394203,
                -2.2068791877732994,
                -1.7752143824777218,
                0.7069028668397003,
                0.8122445023654878,
                2.786213457205233,
                -0.741133837628702,
                -0.4275312884069694,
                -1.0554634115807846,
                1.1482899966343505,
                -0.49142947090879857,
                -0.49069245649223503,
                0.3993797350982721,
                1.3028926833900192,
                2.7341468175937123,
                1.074283100126266,
                0.7245995718452133,
                0.6209825880316707,
                0.07135875228077326,
                0.5151441260747401,
                0.1663647016276327,
                -0.3146311984949831,
                -0.9941453841383432,
                -0.39550933679828076,
                -0.7803311681598013,
                -1.5657569398557574,
                0.15325487313514607,
                -2.0548788875802235,
                -0.9177961078060987,
                -0.07803821726294041,
                -0.04998183025928661,
                0.508759967193758,
                0.7639466448689473,
                0.2007719928475723,
                0.7373649093842685,
                0.4187399198664714,
                1.210211393733709,
                -0.7635961554620824,
                0.862299892222848,
                -0.6541048203947386,
                0.25928716643359934,
                2.5843615288118746,
                2.7389469582577273,
                2.736896540139704,
                -0.35875659842273905,
                -1.1274973506205832,
                1.4129208597085983,
                1.6451784686213922,
                1.0147223251072126,
                0.5590227191345273,
                0.6516962555263643,
                0.28062857937731356,
                -0.7430559561789083,
                0.44659554350235475,
                -0.378186803763818,
                -1.8211386654767292,
                1.847769597772553,
                2.8046842580655826,
                -0.6366738733298715,
                0.8785483563536891,
                0.3710208470936055,
                0.6672493165659793,
                -0.6266922108759975,
                2.30866009169633,
                -2.0304360695879553,
                2.2481413236861014,
                -2.480183443401639,
                1.118311293803359,
                1.317018853756683,
                1.253663330728055,
                2.092511761291851,
                0.4454933222785357,
                -1.6147227431704336,
                0.19238348461305108,
                0.7238046349098475,
                0.6508136805158085,
                -1.2097831521047988,
                2.6051029812428546,
                1.684964091115642,
                0.9967643293471636,
                -0.2856535346154309,
                -0.5649525701281867,
                -0.5485884785986331,
                2.158603851676474,
                1.3350572381034838,
                1.153527848577163,
                1.5684281277218834,
                -1.1387759596953975,
                1.653608039252225,
                1.575749848838668,
                -0.04620126169409838,
                -0.2149517807357347,
                0.8790022645937867,
                0.9613263741707567,
                0.4573918175475405,
                -0.5219191560446376,
                -0.5218431783140002,
                -1.050136389158673,
                -1.0543702160364288,
                -0.5136739722729996,
                0.10724003611810093,
                -0.4532989299743064,
                0.6918371269902889,
                1.2662500894222328,
                -0.811255719002326,
                -1.3180535455267268,
                0.05904734963730424,
                1.4185270684044633,
                -0.22410884719192756,
                0.7513688356921782,
                -1.3726547832935008,
                1.9178738604734313,
                0.4077219150140843,
                -0.3454401854841737,
                -0.7391642087885635,
                -0.7416156791655235,
                0.5139864537259308,
                -0.17051339911907992,
                -0.15622368143221751,
                -1.1654791182180841,
                -1.5304396746613258,
                -1.257987781542414,
                1.3090165429931393,
                -0.5900850311580453,
                0.6367745595998116,
                0.5179780516779547,
                0.07514367070641959,
                -0.4425161563772833,
                0.9647212878430736,
                1.4095185086026252,
                -0.20966581433649334,
                0.9986404804028526,
                -0.08800618347781007,
                -1.0617729084673626,
                0.6998396032906198,
                1.310705408507082,
                -0.21964991665721978,
                1.0616188785090912,
                1.484132450254152,
                -0.43585717529215295,
                0.21942313423440962,
                1.2243223066055897,
                -0.7094923001041928,
                0.22856401682469085,
                -0.14790839396332245,
                -0.026357864553888343,
                1.3164011368783355,
                -0.5931574358983104
            ],
            [
                1.0387620834628861,
                -0.0656688809060132,
                -1.2144484305090952,
                1.004184210416377,
                -0.2519133899871214,
                -0.9166123132631679,
                1.742749056675552,
                0.2585698752814499,
                -1.1099292115006998,
                -0.11833854015446477,
                -0.344229536088027,
                -0.5107210988407038,
                0.09789763128355654,
                0.8144883834381326,
                0.414432640812866,
                2.4294124791856255,
                0.4002124282053288,
                -0.1255927234429753,
                0.8690664515838117,
                1.5722972261645827,
                -0.6396665373756482,
                0.5211469190543575,
                -0.13200803245906167,
                0.28819336162457015,
                -0.8293779428553998,
                -0.8830727095631336,
                0.22888559261407615,
                -0.714333118877592,
                0.8119317650992773,
                0.6576586410727887,
                0.4993104303244936,
                0.583437996442891,
                0.5960383120586722,
                0.8138527790017174,
                -2.0520910079430195,
                -0.0968157656837112,
                0.16112312694787634,
                1.9103931525825626,
                -0.27026876142694645,
                0.9123659236138797,
                0.3962964953372148,
                -0.38418720381864574,
                -1.3073665444129892,
                -1.8093202926970189,
                -2.4498017704408213,
                0.8535116567736906,
                0.039707111944894985,
                -0.4286832038195441,
                -1.3716109607151794,
                -1.294802378164301,
                1.2388790909241896,
                0.23162324076579854,
                -0.1919404808368846,
                -0.6951310780184526,
                0.8842301387133712,
                -0.2837795091020649,
                0.8530434247935033,
                1.21904403006668,
                -0.8112571814755825,
                -1.4374574055810203,
                0.1693372346833139,
                0.2831924001659049,
                -0.772970163588533,
                0.57688962160931,
                1.8878098098576714,
                0.4347147726227685,
                1.6253858711671534,
                0.5919050894424198,
                0.9914520416030626,
                1.1440170508614462,
                -0.46093388089502396,
                -0.3418239126892464,
                0.9104753744327287,
                -0.7881919800109791,
                0.46351665195737807,
                0.8671174114745053,
                -0.5739213222052134,
                0.039453107831913935,
                -1.1038458139363743,
                1.72797013156422,
                1.2713073374556818,
                1.6523172906895311,
                0.2772121189968178,
                0.2638765950219269,
                0.6710010686657538,
                0.061698493072112844,
                0.20268030824346614,
                -0.40753918580106,
                -1.3338720331159375,
                -0.5919282765151314,
                -0.47398621743688407,
                0.8259626929542775,
                -0.12203106556180231,
                -0.501730149958511,
                -0.2027507365762003,
                0.10967094514362219,
                1.2013870672295313,
                -0.6129535710128254,
                0.4824061522309862,
                1.2505365595254794,
                1.0286250921989717,
                0.694502472312022,
                0.1960513057256653,
                0.02523869228182372,
                -0.34470461402120794,
                -2.227777214366256,
                0.5734780206494172,
                0.054010546286505805,
                -0.37512925930982755,
                -1.663784490040636,
                1.9830704065303801,
                0.7374439137334913,
                2.044312480013185,
                -0.15430422522548884,
                0.18200518927263484,
                -0.6337777679401465,
                0.545929898470345,
                1.5230414750062782,
                -1.8944018657229649,
                -0.3472819146040348,
                0.05057071567240259,
                2.475872330818248,
                0.04880281196723675,
                -1.0440736889390396,
                0.6046154393928718,
                1.7140027588970468,
                -0.6380920832343066,
                1.7096058195019705,
                0.8949961642106786,
                -0.09504898190232906,
                1.865691671132223,
                0.08462389691072596,
                0.6397038834419069,
                1.1863301916259543,
                0.13259104099207006,
                -0.042100635695407965,
                1.4082624712168903,
                -0.7578532967424881,
                -0.0674164452455158,
                1.666360984325707,
                -1.2065601404174804,
                -2.048909247589884,
                1.8993061413192769,
                -0.46751875001218907,
                0.5798586834260977,
                1.3790079935979251,
                3.3658788528582946,
                0.4840328450452173,
                1.9360783294211374,
                0.3137368527911681,
                -0.2109499743243356,
                2.416028928368524,
                1.9087383828716735,
                -0.36836196530293175,
                -0.49651884176802114,
                1.5470913613195172,
                1.5852956585965727,
                -0.06502999583848058,
                0.3750236742521514,
                0.0994007164516798,
                0.15845709297695673,
                -0.04329935964366767,
                0.24345294523740338,
                1.1722510931581096,
                1.0424600775491226,
                1.848679385367766,
                1.151113604159995,
                1.6618449849331283,
                0.1598582960122514,
                -0.3044549674178485,
                0.907786802998017,
                2.1290935205313986,
                1.4796362690643836,
                0.7750320106138026,
                1.084542768943917,
                0.9937372624466455,
                1.290662308265678,
                1.5896475368237595,
                0.03448014572632904,
                1.458529984276643,
                -1.5677628508378691,
                2.587592294044505,
                -0.6409462568048878,
                0.8519922364221016,
                -1.3834082309414766,
                -0.5816617090935544,
                2.197799089601091,
                -1.0421472436018522,
                0.3002997524853013,
                1.5542978282934636,
                1.8395132125566191,
                0.6715921723550359,
                2.998449327597486,
                0.3861401361178764,
                -0.8983362370906595,
                -0.42530509582648646,
                0.2556329843211924,
                -1.9337474231826723,
                0.7313050888388094,
                1.2054628735906967,
                -0.18816910345628385,
                2.2823185054460784,
                1.9836285982660657,
                0.9463581658239936,
                -0.6688906431740596,
                0.17057600585535543,
                0.10621463325114966,
                0.4175124713080088,
                1.2656818893120163,
                -0.15950122983563916,
                1.8982847731235892,
                -0.3100449258625353,
                1.899062054500541,
                1.3635406686195544,
                0.7066574364425359,
                1.384979196683871,
                1.6122928148987499,
                1.1434017761737914,
                -0.12197530271751186,
                1.563246539914968,
                0.156029150714799,
                1.176038749084529,
                -0.11405168272945732,
                0.8339873792834194,
                0.17295698546156807,
                -1.2065542984548907,
                1.2794656798962822,
                2.4040721213933565,
                0.3363090538206737,
                2.357990918847932,
                -1.2511062614294064,
                -0.919006339212676,
                -0.09198794318390334,
                1.4286213340490557,
                -0.035791070592253775,
                0.5466560945872763,
                0.5770507746074791,
                0.025758768307469853,
                1.4069187013893982,
                1.4878373792918662,
                0.028568733086545135,
                0.6310594194216661,
                1.1788752643838443,
                0.6350744237860827,
                0.9513789430254381,
                0.6763857384901814,
                0.0875374562450074,
                2.811817419399176,
                -0.11868795353400656,
                1.037513203169522,
                3.4323184479462068,
                0.3333858230054109,
                1.680343824120311,
                -0.7378911866707416,
                -0.2771335261805609,
                0.7382741334344546,
                -0.00014256709892802508,
                -0.5087601518808984,
                0.4043669540904897,
                -0.5502815346570642,
                1.2241847708169287,
                -2.018849241520697,
                -0.5674913995696039,
                -1.88462669523849,
                -0.1702892603124646,
                -0.05922339407742353,
                0.15997828285380927,
                -0.957658695723006,
                -1.0598008390003444,
                -0.056667012885768975,
                -2.2022397691066073,
                -0.992801158922553,
                0.3687163095163418,
                -0.7103395899693353,
                0.710142614142277,
                0.30160232487486593,
                -0.20937541897880813,
                1.170143918227579,
                -0.4531336385386039,
                -1.8905533271836465,
                -1.7966086071378478,
                2.5337308386065365,
                0.30972826898392325,
                -0.9527243756784698,
                0.7242693952661098,
                -0.7277924848886436,
                -1.4374959710113153,
                -1.460569908114384,
                -1.4347624444082867,
                -1.9605116304367234,
                -0.8262615716515935,
                -1.720867006962868,
                -2.2946526342310363,
                -1.014554236291835,
                -0.2569947394154265,
                -2.3938349354248993,
                -2.049497922002527,
                -2.845900146702674,
                -2.8308840794018835,
                -3.506246872598691,
                -1.7423651882852023,
                -3.5015382977917753,
                -2.0393353913224987,
                -0.37613841434164036,
                -1.9338541527493611,
                0.7686607546135217,
                0.134764954635967,
                -0.18720644547392484,
                -0.6146339762396977,
                -0.2591190014937863,
                -0.06021477707256459,
                1.183236284948309,
                -1.4127794283522939,
                -1.1297292451577017,
                -2.027598318180604,
                -2.6108408888344257,
                -2.061936432881162,
                -1.9295090039489977,
                -0.5276506987541648,
                -0.9516878574959402,
                -0.14957943634150686,
                1.0754157228641192,
                1.1424647617808321,
                -0.672019213391236,
                -1.7728767299157957,
                -1.1775721715065872,
                1.1014137817782068,
                -1.3299157179903598,
                -2.515116719457098,
                -2.2200760962765296,
                -2.7889479216358404,
                -0.5003135159063915,
                -3.657249147748514,
                0.21422545615363495,
                0.5251083120348817,
                -1.0786678807033276,
                1.56313889667853,
                -0.5358498764597837,
                0.17009633882393105,
                0.07098446564685452,
                1.2249985184863272,
                0.05571145240637122,
                -1.2089603270643516,
                0.3760838056633459,
                -0.06221343989851348,
                0.16894766619331997,
                0.7381191885359094,
                0.6074346408088145,
                0.7734974564257133,
                0.9740364957900317,
                0.4916281795041891,
                -1.9219674224752707,
                -1.2953887208118893,
                -1.621692801875736,
                0.2815859597367725,
                -2.360413661838404,
                -1.8241498497953632,
                -1.9474519401332988,
                -3.135705494809278,
                -2.764549037315959,
                -0.6659191634636197,
                1.2543729254740186,
                0.5210719383405432,
                -1.9832461482394566,
                -0.5088264169033324,
                -0.09447966122520718,
                1.84397525513269,
                1.250318021689938,
                1.5289373092287044,
                1.3007634843506128,
                -0.13991737407496196,
                -0.9347064874958741,
                1.031713856344627,
                1.0806018230584253,
                -0.4338372444503848,
                0.3814183766364055,
                1.3684174920957306,
                0.3325362836634416,
                0.9288459865476947,
                -1.2940922536098127,
                -0.5049315218575672,
                -0.9993748027125255,
                0.49720985564947257,
                -1.0221536858821108,
                0.7151628338004505,
                -1.9823070605092787,
                -2.1101468707688085,
                -2.6064311732595176,
                -0.646708918655866,
                -1.7680994844267253,
                0.9174092277211258,
                -0.5629326630967382,
                -1.6563191981353675,
                0.3059427700507993,
                1.2932353782767743,
                -0.4687042326692552,
                -0.47930126021506464,
                1.580331222471849,
                0.49989632465587397,
                0.7790656696019933,
                1.441280710070368,
                0.6093262801631762,
                1.2255085795228053,
                -0.5048887383727106,
                -0.6934762879018901,
                -1.212657717228202,
                0.6784605735113622,
                1.1083607860943796,
                -1.3129452833014934,
                -2.5658239831014944,
                -0.17412985385332555,
                -1.0507714120582903,
                -0.23402483323714124,
                0.29943714707536095,
                -1.8982517959442047,
                -0.7933974659448683,
                -0.7056935939063188,
                -1.602761244991115,
                -0.34877830528275405,
                0.25341641744896515,
                0.9970549985484388,
                -0.8171773403797398,
                -1.2223083959386924,
                0.6818434299029292,
                0.37664701549362584,
                0.6530510955595191,
                -1.4345141896442515,
                -3.212085578301624,
                -2.8480106134293313,
                -1.231138921890808,
                0.7627006220249296,
                1.859583262592787,
                0.39693326280628904,
                -0.34597983027816254,
                -1.4552375673248943,
                -1.4825624459858395,
                -1.6691409202824163,
                -2.244336736104224,
                -0.36335511105214185,
                0.21019021065678786,
                -0.13291365074355987,
                -0.5793159732221403,
                -0.10551849387747368,
                0.11034988946627153,
                -1.0072275820235792,
                1.6501008369582955,
                -2.2140985405688283,
                0.06688888020450702,
                -0.6216983403299016,
                -0.08931873993083182,
                1.1189568060989763,
                1.0778082671649163,
                2.352797776021961,
                0.5049990071671546,
                -4.726831666062813,
                -7.458100091623523,
                -8.29066175191175,
                -4.838725245043501,
                -2.0374923821137014,
                -0.8605298582968575,
                1.5949396097590363,
                1.3403104615616281,
                0.5502283040631668,
                -1.209040492952951,
                -0.08044380118941807,
                0.13285155548216399,
                0.31351025276765604,
                1.7770163582142422,
                1.0947292447181152,
                0.055781915801095504,
                -0.18341177322701352,
                -0.2207460387259019,
                0.9141541420980559,
                -0.8848256310667673,
                1.004090972586463,
                0.5672659161627253,
                0.028180800983886867,
                -0.6060155218052697,
                0.6722901328446492,
                0.26988241699221754,
                1.8185518983572566,
                -0.07046583455742723,
                -4.062908945894075,
                -5.273698571206429,
                -7.7022073126814075,
                -10.452522949573696,
                -11.621079646201524,
                -8.750448927026524,
                -7.599925744032175,
                -5.463666036693061,
                -3.088731498214559,
                -2.662862027704562,
                -0.45382500089722966,
                1.4713939613957452,
                2.5937959334975784,
                1.5574139958048014,
                1.4524896214607237,
                1.3057678497445946,
                0.2296032721857008,
                2.1118828855068044,
                0.4390981513013111,
                -2.297954175039162,
                -0.637866903386574,
                -0.43834208770565886,
                -0.44366193175773927,
                0.37690687597784317,
                0.6768925807386074,
                0.5481295355895816,
                2.927747683886819,
                1.5178453709809243,
                -1.9531979501609456,
                -2.7291401852543933,
                -2.8379796310309753,
                -3.886492491400264,
                -6.250144346614971,
                -9.687021320188892,
                -8.53914869651798,
                -4.662621556781926,
                -1.3719506460941266,
                -0.2647611311474751,
                2.3019498856869833,
                -0.7056519233044605,
                1.4113720729102999,
                0.054615289327915394,
                -0.07010791955978239,
                0.9868426298108939,
                2.9082795217318504,
                2.0098079608883284,
                -0.10369333657149826,
                -0.8544216253929551,
                -1.8499531061753887,
                -0.023509405010233433,
                1.5323810993288323,
                -0.4785947663984664,
                -0.140504423304237,
                0.45199467874136506,
                3.201078199958295,
                3.2690083458171784,
                0.5292893054803358,
                0.7084816707794291,
                0.8746205873071218,
                1.4292155886136206,
                0.011166434935606822,
                2.228929947537326,
                -1.7703553923772997,
                -1.1826406544591714,
                -1.730348266240193,
                0.7649811389691316,
                0.4697520354985675,
                -0.8765305651019086,
                0.6120983252319312,
                0.30396617869550285,
                1.0704135899295906,
                1.4464904913522192,
                2.6751588549669534,
                0.18533704685109118,
                -0.5980114115812396,
                -0.7824330171812482,
                -0.48777697943091775,
                -2.158986977558567,
                1.5861011958980986,
                0.20475378061117122,
                -0.7293106688941414,
                2.3024044410929316,
                2.385872059843484,
                1.5283188290942584,
                3.339929709676792,
                1.8645038621446888,
                1.224899986629344,
                2.0481242511566427,
                2.0870203236298996,
                1.0784317063192308,
                2.261879186935084,
                2.7617680181047746,
                0.1485722610001078,
                0.9534026376681518,
                -0.2897467465222984,
                -0.1263996105506495,
                0.06366448437890111,
                -0.8672757508330342,
                1.832553724416146,
                0.23925087871967826,
                0.056714484585516055,
                -1.230709539407046,
                -0.6833352913139743,
                -0.5159003728627624,
                0.9665936107914148,
                1.1765853689207209,
                1.1360617936621245,
                -0.7944645402712182,
                0.072015149257698,
                0.04082926875967022,
                1.6874077933656966,
                1.7584228961685975,
                0.018119950883752164,
                1.6814918339057459,
                0.9374144605478462,
                -0.59243251996481,
                1.597435515430198,
                2.0180958425438584,
                3.0230899746976334,
                1.7355005391050082,
                0.9585335369326716,
                0.5419784629987313,
                -0.23892908620961353,
                -0.022004759982877955,
                1.1469794084901428,
                -1.1977646909519999,
                -0.5719618113979639,
                0.4159612905655214,
                -0.9541017368198669,
                0.2964331078134234,
                -1.4629327293852998,
                0.8213684775617389,
                -1.1417046188716102,
                -0.49246099896892476,
                0.9867615485332707,
                -0.596601747461582,
                0.5744090082876387,
                0.6765913740895193,
                1.773175627375688,
                1.077907852955979,
                1.0645048250958862,
                -0.6949885674533178,
                0.4770998472731793,
                0.43969649677305006,
                1.7512334486628687,
                1.4168521747823386,
                1.4895304651058916,
                0.8931406882070028,
                1.0132466216068474,
                1.6310770593594095,
                -0.7637551077378908,
                -0.5272887486291878,
                -0.16725861893536717,
                0.046873789611414134,
                -0.9806187647466889,
                -2.6190078563175754,
                2.3439012684925316,
                -0.7937122182646891,
                0.46416206979450964,
                0.19998663880246423,
                -0.32480042733140385,
                -0.23049270549339979,
                0.2699168609329976,
                0.8594221273081084,
                1.1891333586090054,
                0.19995820243308116,
                -1.3480869489877854,
                0.1938943819947439,
                0.8055026837737311,
                0.21259399107735039,
                0.7991322495406448,
                1.2050366758254907,
                0.9741145210258804,
                2.0388869402660728,
                0.8893615317332153,
                -0.23676267358162156,
                0.412204750216605,
                1.1992346852652935,
                1.3601803436188147,
                0.8746282638490287,
                -0.5486149155857265,
                0.26312284363333777,
                -2.3312680351971347,
                -0.6198838253527984,
                1.0720737939324523,
                1.266539284697289,
                0.7072997693768749,
                1.578390647947309,
                -0.7143360387318131,
                0.27326427210503845,
                -0.6621206252412376,
                0.6364517046606883,
                -1.4956738403336565,
                1.418333845374733,
                0.14932600627077242,
                -0.06668521957630837,
                0.7285360401065609,
                1.4427194604472053,
                1.3571196157023215,
                2.9124515527377097,
                1.1302261770677728,
                0.07645703436701679,
                1.1080909039782556,
                1.1228810234114674,
                0.11245287953989634,
                -0.2866531680617267,
                -0.3891601283951562,
                -0.5716482990549784,
                -0.4133314552330552,
                -0.9306627927970398,
                -0.01988318275980124,
                0.10300797085116696,
                -0.6769751185826498,
                0.8425733202692443,
                0.2474957700608596,
                0.24248344196346602,
                0.07674946356696968,
                -0.23741613287682195,
                0.13259520114790954,
                -0.9077756614161665,
                -0.05156272966690181,
                -0.24447836778534449,
                -0.39704192681688105,
                -0.24028856201587095,
                0.7034471248041342,
                1.797090360321314,
                1.8541198335681974,
                0.8060238667829429,
                1.9454402823766828,
                1.1045832571164278,
                0.5090162826455427,
                0.8373571026921828,
                1.8807215931759196,
                0.9846871305146649,
                0.4401146623767781,
                0.6109652422939863,
                -0.6690304392534844,
                -1.2651154382196936,
                -0.8175332681563438,
                -1.8931051431629922,
                -2.638012890991177,
                -0.21254273654603498,
                0.8721288079246121,
                0.374006714502366,
                -0.324507249582192,
                0.26286040874334615,
                -1.461961510920771,
                1.1438465396911632,
                3.8588572024355163,
                -0.32760857227126094,
                1.097815959210674,
                0.20121961880687178,
                0.7454975156836499,
                -0.7326932354328444,
                0.03698988406772668,
                0.03208366819263344,
                -0.5868329816036841,
                1.055962012366794,
                0.22618346419657168,
                -0.5612791142582476,
                0.43343976450086924,
                1.6796371157577519,
                0.6681266847763937,
                0.9602954599234106,
                0.8996329449223323,
                -0.4919663058212348,
                1.6094905573866947,
                0.33211280243822017,
                0.13358589965177656,
                -0.13553018391991298,
                -0.24550424459318015,
                1.1686806779661196,
                -1.8635952935783404,
                1.1156263683159413,
                0.3756408617575517,
                1.6324981413546353,
                0.07991959021196218,
                -0.06677526628892684,
                1.4403022862505237,
                -0.8345528843238678,
                0.18883497111175487,
                -1.227043221249038,
                -1.012330422729239,
                1.3650114284253796,
                -0.6809911128284267,
                0.3639383780597529,
                -1.8371337933172993,
                -0.5486118238924163,
                -1.94072947665056,
                1.5594493363354862,
                -0.6579932700226242,
                -0.7846437624935868,
                -0.8240613186568395,
                0.6655172845698747,
                0.7857917636151732,
                0.2367487255039483,
                0.4254691450939708,
                0.7969333334023228,
                0.13419892188441923,
                -0.016004020779341918,
                0.5247341770002025,
                1.1828201981362405
            ],
            [
                -0.3997551267942635,
                -1.0981783178562186,
                0.5053560079702736,
                -0.5724814613932561,
                1.212912266511616,
                0.2585771612174405,
                -0.32964619776985105,
                1.3474445974283968,
                -0.9512499619631342,
                0.740954435255136,
                -0.7719449807268611,
                -0.6177032193332086,
                -0.39676833931389704,
                -0.8250271641632113,
                0.9661809561831818,
                -0.8489739433918482,
                -0.5208711055198789,
                -2.527109743679365,
                2.161146297642805,
                0.00952870462190619,
                -0.07436296943208488,
                1.1430010169816338,
                0.8344738268795494,
                1.1081852425522485,
                1.4612738803139025,
                -1.5171070982544335,
                -0.8281783593040235,
                0.39074223179824696,
                1.6521404704523168,
                0.30401766345417347,
                -0.6146295732975112,
                -0.9632693183451337,
                -0.7076325291524388,
                -0.4981809372756133,
                0.5201348996242421,
                -0.4249542493133052,
                -1.7502495185043414,
                -0.5820240436284508,
                0.5178543390981177,
                0.5516160982132864,
                1.580359730527147,
                -0.08710442690480762,
                0.8182833328510356,
                2.2651225232331837,
                0.8813319915602301,
                1.8224514886478074,
                0.8190777559846405,
                0.30969020456891416,
                2.032683673363156,
                -0.44186243943221276,
                -1.2760089352451782,
                0.1111390569420372,
                2.2202943509653235,
                -0.4523852138248949,
                0.5023261427368267,
                -1.1863201560463752,
                -0.20680649745772317,
                0.4628981576280847,
                -1.7681371335773692,
                0.46807686348878147,
                -0.6389132890353839,
                -0.08517982273971572,
                1.2288190893876023,
                -0.19599729728111268,
                -0.14154611784736595,
                1.214597918391064,
                -0.21770039871396205,
                -1.0781080776879064,
                0.8106113817643708,
                -2.175950627499437,
                -3.095054164745381,
                -0.9400302262770202,
                0.6892114701415728,
                -1.317119337783228,
                3.6465322793239117,
                -1.4197757671277007,
                -0.7391706376317221,
                -1.0712422985966363,
                3.8568181130587162,
                -0.8948948110872765,
                -0.2359425074036615,
                1.7710298427835784,
                -1.745653665329975,
                -1.516753483501423,
                -0.7089991478032799,
                -0.15861292636264296,
                0.8986162431968261,
                0.44352843075982157,
                -0.46475148514253556,
                -0.9564663046058088,
                -1.4396175325747576,
                -1.3644890607000535,
                -1.247564638098735,
                -0.6554596889484181,
                -1.8782217259333798,
                -0.049941236215500416,
                -0.0930933893770459,
                0.8027837574550074,
                2.2272423551862226,
                2.926630236852893,
                1.835247552831928,
                1.2589999174374236,
                1.3301276517745872,
                -0.30390499950451166,
                1.119612310717716,
                -0.8068579714908131,
                0.5226357732241828,
                -1.0868232765213015,
                -1.3531568680211878,
                0.16468395169275601,
                -1.4769868362160739,
                -0.5877635767457701,
                -1.5257997307911848,
                -0.41070787906154943,
                1.6108970898948298,
                -1.140283395306262,
                -1.6036147480087353,
                -0.7358180944717506,
                1.850090771521272,
                0.4470041993438519,
                0.6467813721966209,
                1.5237815331324864,
                2.1326912801962714,
                -0.7939841271355019,
                1.0942002292826667,
                1.6477442424088664,
                0.7658829664371846,
                1.272006776887939,
                2.403503569582364,
                2.206391324194861,
                1.6605373925129332,
                1.6888912395467406,
                -0.1925500374871744,
                0.22012633720908814,
                -1.0322675707672773,
                0.6297774581231507,
                0.2943564831460086,
                -0.5077688246929484,
                0.3312500448941751,
                0.6425428909314754,
                -0.07482678513959841,
                -0.36136614920411564,
                -0.7615750100374541,
                -2.3521372154948694,
                1.9054825359477923,
                1.2318116682961013,
                -0.8700178216366024,
                -1.8546697017727591,
                -0.6428437292094777,
                -0.12176782613239823,
                0.6493898548692577,
                0.2849619648601359,
                -0.3327377634300041,
                1.1784642861727557,
                1.4097627107695383,
                1.3261962863300127,
                -0.14771971914897433,
                0.5003409024820579,
                0.9376959824696761,
                -1.1900884266567702,
                0.020436528534133327,
                -0.717990469197675,
                0.1635105960829356,
                1.9234570931289723,
                1.0283000152415835,
                -0.8687296919734866,
                0.5015595815434366,
                -0.8306443811217586,
                0.3551511927089831,
                -2.211574875901554,
                0.19879347388857674,
                -0.16968217435759186,
                -0.3462154584687928,
                0.6855483309181423,
                -2.843692245753757,
                -2.001644184647799,
                -0.9898102789026624,
                -1.380841212547658,
                -0.8445105007610327,
                -0.29336668285732526,
                0.36824952452168325,
                2.8348126904711384,
                0.9935301668205523,
                1.7790478856569965,
                2.5171479483660653,
                -0.6274918509196421,
                0.13489177464413657,
                -1.985369370106095,
                1.0770663264855225,
                0.6518924898003976,
                1.0686228549715595,
                1.2971747195681451,
                -0.2470573858059832,
                0.9133813700750942,
                1.129495307278119,
                -0.07044655420041022,
                -0.7990147466441835,
                1.0673991090399884,
                -1.8584116973004312,
                -0.1698404142190578,
                0.10215799695314011,
                -0.12229245922508046,
                -1.4372548051726028,
                -0.13156799265965916,
                -0.36120287085537006,
                -0.293320644665536,
                -1.2859292273193668,
                0.08981179235240053,
                2.124869242692045,
                -0.7235694474972385,
                2.303331112185738,
                1.7446024903796937,
                1.4623604904954601,
                -0.7962009402983874,
                2.574134315392398,
                0.9032751659050304,
                -0.45226210529231575,
                1.9374640408982988,
                -1.2024748744307525,
                0.9683404389975476,
                1.279230322645056,
                1.6211950626444156,
                1.0364146557418756,
                -0.572978338212537,
                -0.4887009153969468,
                -1.0073041533465594,
                1.0360406089186507,
                -0.2814788388661739,
                -1.1615934753460946,
                -0.11068052188957642,
                -0.3495610644657651,
                -1.9745556662192054,
                -2.4142978293267383,
