{
    "biases":[
        [
            [
                -8.031614725391664
            ],
            [
                -14.4440040929649
            ],
            [
                -12.02210660396976
            ],
            [
                3.7697943399353244
            ],
            [
                2.6170885393966365
            ],
            [
                -0.12403996722435545
            ],
            [
                -2.517044725518884
            ],
            [
                -8.292439592962754
            ],
            [
                -8.836315009954816
            ],
            [
                7.301051416811786
            ]
        ],
        [
            [
                -6.45674065796567
            ],
            [
                1.3113421281764708
            ],
            [
                -3.0996454142891188
            ],
            [
                -4.21813694331733
            ],
            [
                -2.293827100572296
            ],
            [
                4.857196776778994
            ],
            [
                -0.6080841030712884
            ],
            [
                2.16996397172912
            ],
            [
                -2.0073357363185647
            ],
            [
                -1.0210523489051702
            ],
            [
                -4.131332354223388
            ],
            [
                -5.029951696248471
            ],
            [
                1.9937497656170156
            ],
            [
                -3.3317131793897117
            ],
            [
                3.3546371561109063
            ],
            [
                -0.5254401742711541
            ],
            [
                -1.8465033147653378
            ],
            [
                2.940405562052604
            ],
            [
                1.416056803322395
            ],
            [
                5.345688485500838
            ]
        ],
        [
            [
                2.365925576476215
            ],
            [
                -2.1572369376488045
            ],
            [
                0.9993282805322938
            ],
            [
                -0.17369791658305633
            ],
            [
                -1.72451046485027
            ],
            [
                1.2166081032156302
            ],
            [
                -3.0197522645037713
            ],
            [
                -3.6991028364810026
            ],
            [
                -3.2666623989504178
            ],
            [
                -0.7354424357008844
            ]
        ],
        [
            [
                -3.617565423483776
            ],
            [
                -6.864281793937269
            ],
            [
                -4.301113137071809
            ],
            [
                -3.7680941442397664
            ],
            [
                -4.433493546642864
            ],
            [
                -3.478112881494891
            ],
            [
                -2.7686831181937395
            ],
            [
                -6.725234816063042
            ],
            [
                -3.159610410441637
            ],
            [
                -4.469122960815021
            ]
        ]
    ],
    "epochs":30,
    "eta":3,
    "layers":[
        784,
        10,
        20,
        10,
        10
    ],
    "mini_batch_size":10,
    "weights":[
        [
            [
                0.62856655018751,
                0.33809269860302604,
                -2.0407874236574934,
                -0.5191608853362908,
                -0.971401790126497,
                0.7130426308425214,
                -1.031627541192858,
                0.5302007170319166,
                1.5483858178832763,
                0.5593736114231169,
                0.8079804511348342,
                0.10858349125634491,
                0.8639241360505969,
                0.21737762534653093,
                -0.8158272852779784,
                -0.38121788374503085,
                0.42474896604842316,
                1.0844915778461515,
                1.4796991630499727,
                0.16378738731439418,
                0.32602701494766106,
                -0.0955058852697293,
                0.27329751592084306,
                -0.7624246042841198,
                1.2877030187694396,
                1.5153746756582143,
                0.06260313408761921,
                0.8150628920563828,
                -1.3394952564447993,
                1.6138139261272948,
                1.5498811776932666,
                -1.7658243142024055,
                -0.15236415509809173,
                -0.9799316423435859,
                0.5689224387386634,
                1.139159801406702,
                -0.7776428670248898,
                1.1515826916867156,
                -2.026772416459683,
                2.2867019028456537,
                -1.0263968661408733,
                -1.2280016076417792,
                0.49138233908595064,
                0.04857842684782139,
                -0.42884769401564404,
                0.4890506369789804,
                -1.0467422755100775,
                -0.7910721300026132,
                -1.1633583875824014,
                -0.034436795989197216,
                1.3725787056694103,
                1.5560790532500168,
                1.1688559625265793,
                -1.4399088407870415,
                0.5675266442655377,
                0.899957041230041,
                -0.9087219129127058,
                0.34767662657316456,
                1.1539726152791348,
                0.8293684581970936,
                -0.10523652930529724,
                1.0822418168264103,
                -0.8798833294592976,
                0.2085698959331277,
                0.8979369926128185,
                0.7830581517350159,
                -0.46516971082791053,
                -0.37372378950039864,
                -0.8782858904062493,
                -0.9833398721031064,
                -1.0301941441901914,
                -0.684549163908082,
                -0.18239550617134023,
                -0.28726280756376366,
                0.4281518385414091,
                -0.03807798921237211,
                0.4044632375734631,
                0.0885604885536728,
                0.3483702438928802,
                0.19923679396142574,
                0.46531984989150765,
                0.7718252926554717,
                -0.3207120477620597,
                0.05939781242407599,
                0.907946868620689,
                1.0609299687186966,
                -0.36624057606905147,
                -0.3821667389241701,
                -1.3198893783433174,
                -0.4301487398258578,
                1.821521465609882,
                1.339168915867618,
                0.49492412091579463,
                0.6534369513845542,
                0.055700127509493526,
                0.6414447475634747,
                2.818317024217594,
                3.9237866328341355,
                5.014718043362262,
                1.7911143323650132,
                0.7551350197367558,
                -1.1698243781030175,
                -0.6918431849558173,
                0.09957113005530607,
                -0.24622940493843584,
                -1.836859237826572,
                1.246391177588594,
                -0.2735908648046844,
                -1.1557475742272525,
                -0.19517666761665892,
                0.539692932409824,
                0.9363408219057209,
                -0.05843493592437079,
                1.138205341321944,
                -0.7244952863312409,
                1.020150644581461,
                0.8824511850552031,
                -0.25379092090068894,
                0.6065209303246217,
                3.4593459560258566,
                3.1720647910681445,
                4.365638814793489,
                5.260065404306944,
                4.949799736790951,
                3.4349497822847384,
                4.89286591448023,
                4.330809393138456,
                1.5974921187880813,
                -0.255690680643237,
                -1.624740011051032,
                0.4888574138576115,
                -1.126227647719177,
                -1.323746520837298,
                -4.439934410674675,
                -1.721109158076813,
                -0.6656979897227996,
                -0.6782099018815225,
                0.5081975332592099,
                -1.275874858069347,
                -1.0460065928332123,
                -1.5024053562069786,
                0.7440987882055594,
                -2.0027423260160133,
                0.5846889514062913,
                0.7186540395676573,
                1.7447889727357724,
                3.1934884825257903,
                2.5754496036746066,
                1.5052058474737195,
                1.768558641856855,
                2.5882171350893826,
                0.022127861896324288,
                -1.0868274427759328,
                1.1824935236694025,
                -0.7694269049994716,
                1.6144220187307023,
                -0.7858286560364276,
                -2.5705118895138472,
                -1.8843366105094577,
                0.41877927865610626,
                -1.6994955280376387,
                -2.5502003414395276,
                -6.881731726834684,
                -4.56867167759295,
                0.1767113025694635,
                0.7470423040008766,
                1.1451996262508815,
                0.8042573292719927,
                0.08344362849957826,
                -1.0901734721792045,
                0.15963740557400155,
                1.0759432711171655,
                1.6824899310583967,
                2.8238586182914887,
                3.0491636755185523,
                1.7809543654800863,
                -0.6730659497104007,
                0.8699565116581628,
                1.2637566395252255,
                2.202397007319187,
                2.410267383933987,
                1.5117254398254134,
                2.561246100783124,
                -0.5498102455138595,
                1.306222178292297,
                0.3949675283644552,
                0.3474786670075967,
                -1.0725171326332177,
                -1.4770219659091752,
                -1.406733851826565,
                -4.763226654565757,
                -4.918229841744987,
                -2.353149393502769,
                1.2109384909530185,
                -0.6477089136155132,
                0.1190530179018022,
                0.02294443455407996,
                -0.3729233069196746,
                0.22786928388911606,
                2.3335468586839045,
                2.3805067092162115,
                4.611948435681231,
                2.64683962124184,
                1.2021297863047955,
                -1.3921347881212736,
                -0.1700568269510577,
                0.6344425077385405,
                1.909688390552003,
                2.9108415562975547,
                2.2369705468264494,
                -0.45686209390283555,
                1.4733199621909083,
                -2.531975920114164,
                2.0328880604662403,
                -0.11370242688282861,
                0.7703772876667723,
                -0.1759511918163591,
                -0.34563936285800834,
                -4.063413843356693,
                -3.8316501018442106,
                -5.346746076082381,
                -2.014000843124421,
                -0.4165678757448444,
                0.8295483691511395,
                1.6322031389434175,
                -0.8519617939873189,
                -0.5637825949344504,
                0.9912862826721509,
                5.7474369101240566,
                1.4726345175405346,
                4.166586268435022,
                1.9491827468246643,
                2.2700046253292854,
                1.874986579791397,
                2.1837312583901882,
                0.7504011438364862,
                2.859381168932784,
                2.145554388453136,
                1.2585094839391044,
                3.139426466977501,
                2.352025700903808,
                1.566434001376349,
                1.031962870215413,
                0.40872369854669194,
                -1.9305237009927145,
                1.30347269984885,
                -3.411670119808232,
                -5.811862465793899,
                -4.094666389222158,
                -1.4436045230173689,
                0.7531540764895565,
                0.6022038333695368,
                -0.08976010629571993,
                1.1818991266526884,
                -2.1165316951156585,
                2.0751504993816066,
                1.840216117148029,
                1.87531749355615,
                0.13363625206390262,
                1.4394581183074335,
                2.053979257489646,
                -1.2099013513421102,
                -5.859097434351539,
                -5.238670142062078,
                -6.290660550790242,
                -1.0185476387371222,
                4.104333656894256,
                5.060626654064812,
                2.4610308426371392,
                -1.2838136978536707,
                0.9596409180542825,
                -0.27924661138660456,
                2.2179868447614712,
                -0.14856337745077805,
                -1.8361212795020294,
                -7.433437154543931,
                -4.472135685702892,
                -0.5577345772211305,
                -0.04609166092861954,
                -0.6211054964387273,
                -1.6833242798912103,
                -0.2475586190950607,
                -1.3298018265093245,
                1.4970158305589265,
                1.0003274761979912,
                -1.4434325699615695,
                -2.3411820473693394,
                -5.051399763540603,
                -7.155120138225422,
                -9.923223423434365,
                -8.788877546680233,
                -7.103098373648536,
                -7.222336704614014,
                -1.7851978252386274,
                1.9008257700573719,
                0.8343860350005449,
                3.207007559991744,
                1.7642201760455973,
                0.3831555685438047,
                2.623916745857383,
                0.5760173743304062,
                -0.41833479863889345,
                -0.9169732424142244,
                -4.017660636402262,
                -3.4505379858883423,
                0.1086881875564437,
                0.5763429389909036,
                0.23017758418886136,
                -0.9098049113841921,
                -1.3166961774392454,
                0.3071129978706388,
                2.2075391348312188,
                0.5102273809252945,
                -2.500392566323504,
                -6.516319772275834,
                -9.924083235175951,
                -10.703022838875821,
                -10.18162348773036,
                -4.577645487748514,
                -3.2769280483160617,
                -0.9690078899116675,
                -0.14508722056156698,
                -0.8306655723005117,
                1.151224184320217,
                1.412251042369446,
                0.7270821503389716,
                1.5102495317710853,
                1.3420178302121257,
                0.8306708372946862,
                -0.7055800584577337,
                -1.134558299927821,
                -3.493467585721346,
                -2.2757812241207453,
                -0.8058876459663682,
                -1.026481897566858,
                -0.04458804836419627,
                1.0922817860828413,
                -0.4171665623802299,
                0.4576654740795011,
                1.970504207434584,
                -1.4650910062244318,
                -5.037969892294378,
                -8.723749370405693,
                -9.319903620972745,
                -2.3548129369175714,
                1.1766131765789192,
                -0.12571735333522074,
                -3.2579476743563425,
                -2.412662046889354,
                -1.13230675708956,
                2.0698942793390773,
                1.1886360644798406,
                1.6075197438785278,
                -3.192697717584388,
                -0.0753913585089724,
                -1.5007210628057543,
                -0.16716636257559248,
                -1.7915972388857742,
                -3.2342330204299614,
                -2.8208195152578392,
                -1.0834604249069437,
                0.5858016364814822,
                1.5425062890798549,
                -0.8373908030063278,
                -0.2002038514920006,
                0.38948393869154047,
                1.4207263625182194,
                1.0100117219406133,
                -3.420240841523791,
                -5.581468313298344,
                -7.248612158724876,
                -2.846585068701274,
                -0.9873408559509556,
                0.7155725998598255,
                -0.05734135286270892,
                -4.536084406366414,
                0.22798244505052948,
                0.51914402715552,
                2.198542844245737,
                0.08068077362155221,
                -1.1374947153169468,
                -1.5004512226880935,
                -0.532690799125044,
                0.2716563600006064,
                -0.3744097492731616,
                -1.6154675636830296,
                -2.5407384383256204,
                -1.6762741600501008,
                -0.8764661123310544,
                0.11317858221998262,
                0.3368689489284609,
                0.26954821705975246,
                0.6310604157291824,
                -0.4263621027761746,
                -0.2643915664358413,
                -1.1669721017459425,
                -0.15557308468419787,
                -3.2958025408083795,
                -3.519591282187257,
                -0.32591919578108347,
                0.6564819649963818,
                -1.2765214684374901,
                -3.122643566189697,
                -1.6535749124088417,
                -0.5478238503551035,
                -0.7861840584622883,
                1.6062244497828102,
                0.6553717169455667,
                -2.2962212341573025,
                -1.737755972852595,
                1.760804482834515,
                0.24157384185990824,
                -0.0773853143992377,
                2.0485004665187443,
                -0.24821295759438797,
                -1.00396784729907,
                -0.9072030898278928,
                0.06887169434883082,
                0.5241961421168589,
                -1.4790196137519511,
                -1.450854629776921,
                0.8129564684596672,
                1.0923347335814075,
                -1.381655564793075,
                0.395330918111652,
                -1.5997688381867554,
                -3.202261062420924,
                -1.8331370755585124,
                -0.6353610198530352,
                1.2242512762198892,
                -0.40184416310614957,
                -2.2567870917796973,
                -3.9464626235578133,
                1.455912376018712,
                3.801474477942945,
                -0.8942766118606782,
                -1.911759792604129,
                0.01363594506144507,
                2.4064230341225943,
                0.34185275663053244,
                2.2292401964847164,
                0.17508162106605407,
                1.010051168547008,
                -0.1559972674739917,
                -1.9018870473062295,
                1.5570691499372185,
                0.6355229368343176,
                1.4402373722541248,
                1.8289678888562584,
                -0.7596375980322891,
                -0.38756719034705345,
                -1.1012381420936204,
                -0.2541235353963849,
                -0.6048188479964222,
                0.24895402598717276,
                -1.7691593949666224,
                -2.0479909926718385,
                -0.14849533904282855,
                -1.244348113868313,
                -2.3204235060463714,
                -0.1841921864053194,
                2.2514195246027775,
                1.8701608205785367,
                -2.468287604165813,
                -1.0714783541995985,
                0.8061203213724322,
                2.516291704326123,
                1.3259273894462804,
                -0.8889932348913783,
                1.055306756102736,
                0.37644431018041563,
                0.14264299266449426,
                1.7397164519662671,
                -0.03519889065010946,
                2.617350616381332,
                1.3538176287154033,
                1.5071705645828455,
                -0.188455795674439,
                1.7139147726896753,
                0.34488402261808726,
                -0.18746487519771604,
                -0.3655772967065288,
                -2.0483296732271103,
                -1.423452844100476,
                -3.758365264920805,
                -3.7639779290341,
                -4.821497257188303,
                -6.300432694153278,
                -4.114036804207867,
                -1.5902328049369558,
                0.2641734474013653,
                -1.3183961007183274,
                -0.090676686926795,
                -0.25966025384313285,
                -0.05285553035892677,
                1.7379745166438394,
                -1.2367469325500116,
                -0.6403023815197088,
                0.1837211663126616,
                1.3800015658185918,
                0.27395007079036976,
                -0.19401708943440205,
                2.8024323298864116,
                0.3681795593032376,
                -0.6031837109435314,
                0.3412251375260057,
                1.3081574533173896,
                3.8008806301236873,
                1.2207470613424571,
                0.05753792615517585,
                -1.7291703202933373,
                -0.1984345849577844,
                -3.1254051780775978,
                -5.231759160339252,
                -5.80593657185393,
                -5.168588735116842,
                -2.835524124907056,
                -0.8074030739358689,
                2.7184238890255847,
                2.8868286939681265,
                0.5489407848088623,
                1.47844081324201,
                2.825849819094166,
                2.820433358403194,
                -0.07924531338533138,
                2.3568550376571293,
                3.3796507858168314,
                1.9896275574527587,
                0.7170344072626772,
                0.9994742753962161,
                -0.49052809749954723,
                0.14839233943479035,
                0.26215023489734846,
                -0.11819150934062042,
                0.4968291432683153,
                3.097793791537027,
                2.422411772884187,
                2.8880548829818773,
                -0.14130434132555658,
                0.013084271339408371,
                0.08237851070168913,
                -2.080769763068212,
                -1.0571394792134483,
                -1.234267538949957,
                -1.9740340966968413,
                0.2626772369153089,
                2.711542279922896,
                0.2690904673664328,
                0.8906302417892957,
                1.135850788842311,
                0.970640943645963,
                1.4772315365976378,
                2.7208922200628884,
                3.600654519312373,
                0.48423075145879557,
                0.8925420640397206,
                -0.09307421526648896,
                1.2565660261138805,
                0.49997197817241595,
                0.67228710517898,
                -0.3947270439543997,
                -0.005987777581559337,
                1.465446934872517,
                3.4790564632144236,
                0.792419760834578,
                2.406327500827646,
                1.7227078323828469,
                1.1787588731076069,
                -0.15882886953960723,
                0.7969690269432248,
                -0.5094994715046204,
                -0.8201020298056884,
                -2.29154678182143,
                -0.23650955983466893,
                1.5530178752744048,
                2.2829656348349334,
                2.8696638625819233,
                0.9621321417178506,
                1.2415560636909457,
                -0.10489663645148298,
                1.4477124945497646,
                2.012434637715073,
                2.6197163822172604,
                1.227531698582121,
                1.563815189121852,
                -0.7903861462854441,
                -2.1620126826220694,
                -1.3256821774907375,
                -0.80501029327741,
                1.5507716191621377,
                0.4800921550028544,
                1.7558539728549853,
                4.054069042839376,
                2.849345094715728,
                2.8644448972449337,
                -0.7247295864298253,
                -1.192061062112999,
                2.1936530640309044,
                -0.8828951894558246,
                0.41507508621840855,
                0.08807891483137166,
                -1.8860643634124519,
                -0.6802350578579882,
                -1.4482082037398647,
                2.065420953907725,
                -0.6177231490739659,
                0.8046157594958055,
                0.16674091154191165,
                -1.412550606387526,
                0.16534958507698624,
                1.9961592430556898,
                1.643540164502943,
                2.3017779946848815,
                1.6240018149102455,
                1.3964173423308923,
                -1.170476859719466,
                -0.6641919927123111,
                -0.19621703944096908,
                -0.876126532238381,
                2.171485481609344,
                1.9332129704689383,
                2.414465353392786,
                1.8963897638522789,
                -0.01838261461849218,
                -0.39956930420779374,
                1.7175538328438358,
                1.4415048922582538,
                0.05193507489397917,
                -3.469725523822684,
                -2.3655830486338942,
                -0.8694750094331187,
                -0.13719882818459928,
                1.2917759058486555,
                1.9375946507461055,
                0.24608999260661935,
                -0.12248167519572398,
                -0.17633680749347547,
                -0.7347544701001945,
                -1.1179301440286733,
                0.4538520894023009,
                -2.004696729879029,
                -0.994312846417819,
                -1.1399367400731053,
                0.43177595367318533,
                -2.3109718830113866,
                0.18002364086773573,
                -0.6650592043678244,
                -0.5500686072729442,
                1.2037416599933217,
                3.296486897417085,
                1.1798898843285914,
                3.2887019941399185,
                0.4836458175868901,
                3.1342679954004913,
                1.447490106501365,
                -2.865988564906745,
                0.07300980676843709,
                -0.897757250820648,
                -1.3642426667619738,
                1.792447933221789,
                -0.8720011960075775,
                1.088801039177199,
                2.351414842703358,
                -2.6368877704618976,
                -2.8417807807002777,
                -1.8883139154581774,
                -2.0074918376810795,
                2.010290134139272,
                0.24805129769433826,
                -1.2571229364600593,
                -1.3546694286075747,
                0.34480771213521483,
                3.186484002549635,
                1.673616373594656,
                0.157835986662913,
                0.4264231519576268,
                1.281082053975827,
                2.9662647509534144,
                1.8990364678530507,
                1.4883808228503776,
                2.238511364457063,
                -0.9713067790454575,
                0.5511989099314558,
                0.44057327336044205,
                0.09307895478909257,
                2.122288673329464,
                1.7895703369562999,
                0.8003550985881661,
                1.4844213142204217,
                -1.1380370311603127,
                -2.573033194386292,
                -2.1662441990282613,
                -3.440477937346167,
                -0.5790098576749593,
                0.4453027640209042,
                -0.24802048356707085,
                -1.1072690028876846,
                0.6188081523852957,
                -0.399565764943521,
                1.3335073945738565,
                1.1236916655270208,
                1.199248723382126,
                -0.5189083852943863,
                -0.29389608958335767,
                1.0970251265193742,
                1.3988588342187651,
                0.499524359456229,
                0.16020859179883434,
                0.07607840519734872,
                -0.5642656252946205,
                0.006227937836196766,
                0.24408335930702704,
                2.7460960067209306,
                0.46418572155718507,
                1.4232945018889347,
                -0.12923829371211035,
                -1.287167286459132,
                1.3301590884928567,
                -1.2777557822684638,
                -1.111984085239492,
                -1.5978244612044843,
                -0.9779974213292411,
                -0.38045172564670665,
                0.5881417066423509,
                0.8612502997266066,
                -0.23156206905558058,
                0.4903999626030245,
                1.3382842943746383,
                0.5952336248080577,
                1.091585168775176,
                0.44037540093900857,
                -0.19307516631008995,
                -1.7229886957851972,
                0.7667419746749812,
                -1.9763480014008077,
                0.10147390144881772,
                -1.767329792610081,
                0.6601070164986643,
                -0.4260051806871299,
                -0.39639370663305673,
                1.4285381139027455,
                0.8048684559423142,
                -0.5897356600510698,
                0.3848000797510275,
                0.2280540806817147,
                1.448974180476886,
                1.5237459501104804,
                -0.7601820559791139,
                1.039033936664858,
                -0.7451612819686921,
                0.27141009095227636,
                0.2916348667279757,
                0.5927882708616276,
                0.7954808713586111,
                0.19951827962923863,
                1.9369834626314253,
                -1.1179326892601673,
                0.7639232682157802,
                0.918079059848392,
                -1.7922116290872576,
                -2.1821550771945994,
                -0.3208735297726466,
                0.2526867558973141,
                -0.6837803440445062,
                -0.36115088921710853,
                -0.03542123385120611,
                0.8607879030694967,
                -0.3480032658384978,
                -0.6961949210635007,
                -0.5057058143223597,
                0.8953733001701634,
                0.5236488163781291,
                -1.0407836340476244,
                2.21154820014098,
                0.4554826764317332,
                -0.8552104380045874,
                0.4317791552256547,
                -0.6412049293409954,
                0.48512757274193696,
                0.2932522572886399,
                0.4556105807473933,
                -0.610955369953879,
                1.3978046677271945,
                1.9587472273118451
            ],
            [
                -0.015336714444263542,
                0.7511237541406962,
                1.1284362048503989,
                -2.315950638606569,
                1.4389007587558553,
                -0.10378184466739893,
                -0.020652143989689217,
                -0.054811841231454314,
                0.438258893784309,
                -0.52594257874739,
                2.77376999609207,
                0.16027652884484475,
                -0.04375205240864286,
                0.24441977257603587,
                0.4642752971524251,
                -0.029926570723309988,
                -0.9732298032059797,
                -1.0514364663118803,
                0.1534786562201203,
                -2.549159047086269,
                0.43474786263128873,
                -0.608666591579828,
                0.7933768128102707,
                -0.3801149550494324,
                0.07367000222346937,
                1.8101122674961714,
                -0.8946657071240145,
                0.7553694402921743,
                0.311833946154734,
                -0.47980221511948845,
                1.0701797503340793,
                0.9790478872421946,
                0.4329791083918513,
                1.207663132909363,
                0.17965577633136443,
                -0.05113062853059037,
                1.8308532586352175,
                -0.9806370740889288,
                -0.3181077172026229,
                1.4512150087597928,
                0.1357758629423283,
                -0.072883751085122,
                0.18189039214927236,
                0.30021314889854706,
                0.13890169493023374,
                1.0939240951140285,
                -1.2797967113375488,
                -2.972265488944481,
                1.127087883043408,
                0.8045079360568805,
                0.8377563878211869,
                -0.32620091379019733,
                0.7675339269041777,
                0.022611941060711835,
                1.3655389412216778,
                0.19546515824595972,
                1.179884227326174,
                0.29360035225621484,
                -0.7515776914447864,
                0.3716282187811063,
                0.6790774708969598,
                0.7806674404398221,
                0.8189448783760607,
                0.03576354038668782,
                0.7390812188583805,
                -0.16652629490631454,
                -1.9267765825213248,
                -2.3871259962408633,
                -0.9350347577252197,
                -1.3287045977330334,
                0.001168369100772413,
                -0.9195989815303147,
                -2.059542545596952,
                -2.5099139995503132,
                -0.7507907686189982,
                -2.0819319429776066,
                -2.072199812805276,
                -0.5092903764520335,
                0.9860137977792572,
                2.978565406295368,
                -0.20168032383387807,
                -0.6063129231348517,
                -0.059807883632880296,
                -1.023962995540384,
                1.3801163399101806,
                0.3376616662398542,
                -0.3406859920591438,
                -0.17567804840002033,
                -1.0971939396973227,
                -0.9824512216802378,
                0.758265734336885,
                -0.5966105385149751,
                -1.5410505137394397,
                1.779289293778073,
                -0.8874732871571819,
                -1.2887419988392634,
                -1.8241307551064483,
                -1.0810895065783215,
                -1.8878126028131106,
                -1.2594537361945637,
                -0.015091454242423601,
                -3.274967235927507,
                -1.4425861845877224,
                -1.0829451185166303,
                -1.6202161879266668,
                -1.042532264729085,
                0.030554900391985256,
                -0.5430209555452626,
                0.9932699157841137,
                -0.8545317119642816,
                -0.4340357089217813,
                -0.19236397491467502,
                -0.2577139417496736,
                0.7921024628008835,
                1.2576157477464385,
                0.09871192279372423,
                -0.8573419972896121,
                -0.1534672650566136,
                0.8442722929253694,
                0.36259397648970704,
                -0.9381891314200926,
                -1.8881062291299817,
                -0.1808194808384942,
                -1.616640984099186,
                0.21126097782362102,
                -0.06639165041178324,
                -2.2852000979876967,
                -0.10799641604267489,
                -0.4962190693985155,
                0.6313952997164313,
                0.7853472885222742,
                -0.32208169505594486,
                0.08941462006903413,
                -2.9514139864865045,
                0.061386470099927246,
                0.9112616470437634,
                -0.7398392933964613,
                -0.752112079772376,
                0.5466180099670329,
                -1.834904098701073,
                0.536603516412229,
                0.8040813657418454,
                -1.3279875418844935,
                -0.9082013126896553,
                0.4357616058501523,
                0.9831973088696293,
                -2.01985037889679,
                -0.48642033576025623,
                -2.059957364654891,
                -1.620684772004371,
                -1.0383619523938377,
                -3.3481276157791653,
                -0.6699189332892789,
                1.3156113518865526,
                1.8159824264110707,
                1.5223808481717824,
                1.7885979280546906,
                1.4975311200461547,
                0.6261211102968699,
                0.21089622640128117,
                -2.20457385239431,
                -0.7759797214316428,
                0.2275116025811348,
                -1.7472008609638865,
                0.7609517899494582,
                -1.2654956250391596,
                -0.6541345688195087,
                0.42324258017249866,
                0.8580222031960834,
                -0.4410426532490968,
                -0.5919246477729306,
                -0.41959001569704185,
                -2.280571366534378,
                -0.7312629047916107,
                0.8851757731514807,
                -2.27538062099226,
                -2.1611404031236057,
                -1.9712230769338028,
                -3.3561157321274533,
                -0.8456417649998909,
                -2.1486894379524535,
                -0.8800616230209612,
                0.3838816763724334,
                1.2879496589788664,
                0.4817773282049009,
                0.7359402956021176,
                1.3849720471123714,
                2.510529566733298,
                2.3010107231794383,
                -0.04504467221787377,
                0.9731358900105205,
                -0.594300145051759,
                -2.3234917021986785,
                -2.9005785762778062,
                -0.9300599648671771,
                0.09813718833663765,
                1.0487663804905336,
                -2.557247373109858,
                -0.051868640487108576,
                -0.1370804461572218,
                -0.6316566976177532,
                -1.2922457199078614,
                -2.17469594908629,
                -0.4924977823909971,
                -1.4874959369601506,
                -1.1491616225354815,
                -0.5880849693810719,
                0.1980907754248562,
                0.409412337062924,
                -0.24012716920323188,
                2.039288200229897,
                0.9702468147305836,
                -0.3916616821579331,
                1.6346674382585853,
                1.1507118270881052,
                3.3560711507283947,
                0.07215670158693521,
                1.1733240227366457,
                -0.7721332140476396,
                -0.16802283019413813,
                -4.091596135739827,
                -0.8811339551863384,
                -1.8041488143718163,
                -1.3652279087543573,
                0.3784242119547605,
                0.6150731154024656,
                -1.414101790814819,
                -0.09845115896960632,
                0.2779820474729631,
                -0.4283423935093081,
                -0.40484734175229387,
                1.0173362300436184,
                -0.12845803634939268,
                2.6601721374460174,
                -0.33613252162722385,
                -0.4254993001436741,
                -1.7340162218062298,
                -1.4161197068687918,
                0.7636463794274276,
                2.9525106012770084,
                4.438967006386836,
                3.377536480227443,
                3.124809482789497,
                0.7819981862133204,
                0.4748138980058026,
                0.5386527137456034,
                0.7927069251434481,
                0.5278206772551364,
                -2.6271404057620518,
                -3.434118261010406,
                0.3302295525257185,
                1.1019114353802544,
                0.21852019801056566,
                -0.36968853040454247,
                0.9140192168198966,
                -0.38599753810244497,
                -0.20116492217256363,
                -0.11575972329298177,
                0.03427974652774437,
                0.2134161425922511,
                0.26302878167008076,
                0.7296304993247184,
                0.7819811916816444,
                -0.7917267657050324,
                -1.1957694523999876,
                -0.20698633327887894,
                0.25734284676642394,
                0.3035335682284526,
                2.1979877041611724,
                4.230135842586788,
                4.029153252143106,
                0.4821734857444959,
                0.4439456608640831,
                1.6370407762521815,
                0.9705457798726312,
                0.5857388606649467,
                -1.543517841574966,
                -2.0202597600892056,
                0.2661894358530716,
                -0.47484799575847275,
                0.7100528730405763,
                0.3521981372153195,
                -2.1312580748839487,
                -0.3751430217026343,
                0.7862387103833545,
                0.5136504265945179,
                -2.0628210345453044,
                -1.1300547112458612,
                0.5168485427099384,
                -0.40146410761809304,
                -1.0249311871004403,
                1.0159400636982892,
                0.4461922862614915,
                -0.032359609215458454,
                -0.4697725019583693,
                -1.3974211572966888,
                -0.662274473422341,
                1.7116156946152443,
                1.6488066770486751,
                2.8183789452749335,
                1.894478802796037,
                1.5600848542716106,
                2.4818025782440896,
                1.1060304295689816,
                -1.28522465167527,
                -1.9718124323148052,
                -0.362860343281586,
                1.068379840495873,
                0.4850687294702542,
                -0.3312502365558062,
                -1.378300938420428,
                -0.7972160942218394,
                0.3360239983865328,
                0.4273395492304906,
                0.9582073605688614,
                -1.6512284992226638,
                -0.9828175798715265,
                1.9691324291794177,
                -0.3870094092843574,
                0.6051125045323258,
                -0.8799063732036562,
                -0.9415173524886077,
                -2.6147707484173983,
                -1.3945090973501644,
                -4.07410748613347,
                -2.145662057531327,
                -0.3238838793039373,
                1.1532497334823368,
                4.226612448694496,
                3.2979232282628628,
                3.839393136113757,
                3.1113250860075965,
                0.4858497888925195,
                -2.2667716902581203,
                -0.4203744533912704,
                -0.25787534786209293,
                -0.8512656730552052,
                1.318029309591517,
                -1.3901715613812327,
                -3.451231479431195,
                1.4252861703150688,
                1.448769786239169,
                0.9098920988438495,
                0.12727045293831635,
                0.5315161654247305,
                1.3281990719259704,
                0.09448419534012205,
                -0.7630623009977425,
                -0.4847854116530223,
                -0.30671229036959585,
                -1.6135663806661122,
                -3.7881427183677174,
                -5.78039848724753,
                0.8218104120665249,
                0.4657868559040638,
                0.10816090848939733,
                1.5653927866151134,
                0.24699204323428406,
                2.8724318880354467,
                1.7173523454604185,
                3.2300907477697867,
                0.9438772186343662,
                -0.16975255997657457,
                -1.0237352064371261,
                -0.22231055838746,
                -0.3089050607021316,
                0.48264831321683244,
                0.1333443845070851,
                0.5276260445472704,
                2.925480688641414,
                1.5125887599724537,
                0.981688957087851,
                -0.3016029034954515,
                -0.7256236023433882,
                0.7078601311523866,
                -2.0923585604739507,
                1.1059777816401786,
                -1.7167095626339843,
                -3.2014236305916435,
                -5.08917285132469,
                -5.46180235805997,
                -0.48004336609068776,
                3.968798275646475,
                -0.5430992256847726,
                -0.6322795366176254,
                0.6489658651181658,
                1.7692516710182442,
                3.134837324130824,
                1.0961839476865243,
                0.11775439137774504,
                -1.4525591178898936,
                -0.5645448761581537,
                1.032936398048532,
                1.4205691438583932,
                -1.5975410612169745,
                -1.334963533062418,
                -0.6067548886681978,
                1.4163666179042338,
                0.47246760722129166,
                2.264194679300678,
                1.7886413321771748,
                1.5010393419404346,
                1.1408305368991978,
                -0.7910923297471101,
                2.105963478016713,
                -1.3222298619047488,
                -5.136742815303172,
                -7.371390387099664,
                -3.891070630434197,
                0.151859463890086,
                -1.42281560319957,
                0.5300370740158202,
                0.6696947692021767,
                1.0815827190324756,
                1.0735830635595984,
                2.584416187727585,
                -0.07653706094613719,
                -0.4510335100551069,
                -0.7258015734490938,
                -0.5476962192597609,
                0.5811357650980159,
                0.6203667456899873,
                -0.827885402213796,
                -0.6408582575550408,
                0.09230216688477362,
                2.0156490378941756,
                0.9734334403349882,
                0.9959551292603269,
                2.5931181898913036,
                -0.009240312846094292,
                2.131334580774327,
                0.9742811554232369,
                -0.4355826329862001,
                -4.653933524264526,
                -8.694210434331978,
                -3.87757965603757,
                -0.45486890045693384,
                -0.8940311732259363,
                0.7188414289994215,
                -1.059947074327177,
                0.6257955303417078,
                -0.48067826320826845,
                -0.009380147361811983,
                -0.015159876821208446,
                0.6892785269704448,
                -0.19015992323255582,
                -1.3210345150765286,
                -1.0709616062706657,
                0.7441883395093525,
                -0.6994477872713432,
                0.14109540945822688,
                -0.6798049150420225,
                -0.3979879238043403,
                1.5781255108425647,
                1.7232687887902023,
                2.4775155911510587,
                1.496806385195406,
                0.1707270348344746,
                -0.144457054977577,
                -0.2777778372556851,
                -3.0528081867058696,
                -7.573738032189834,
                -5.691530621066323,
                -4.10292705387577,
                -3.264159227989152,
                -0.4658696908373943,
                0.22726634963528752,
                -1.4569645469328714,
                1.6070086577118468,
                -0.6350750174695302,
                -0.29727585349859653,
                -0.5111549261787268,
                -0.9266308048471322,
                -0.4315957739568417,
                -0.8427113191706725,
                -0.19780437940965875,
                -1.724305147380447,
                0.26963124654423576,
                -0.12923840505434192,
                -0.038320526848971186,
                -0.9320215928893938,
                1.0492170132895269,
                0.7649053522445305,
                2.889848130937599,
                2.75696488878989,
                1.275156948828513,
                3.469208002257659,
                -1.3339002921711636,
                -4.978425779073451,
                -5.939666346236768,
                -3.537209443153635,
                -2.4858574391345076,
                -0.3977182995561489,
                0.5661602341079779,
                -0.037480530844563424,
                -0.3684308765359512,
                -1.1485566511731773,
                -0.6578642079166191,
                0.26142803742495646,
                -0.0550841295708532,
                -0.6492746450355951,
                0.6040107188056711,
                0.06159254150972788,
                0.6247956988303134,
                0.47392727695136216,
                0.5901324981797729,
                2.851508857598039,
                -2.2363251804844286,
                -1.5273039104057669,
                1.481242014382625,
                0.3587516571712606,
                0.21420894614515998,
                -0.028071269585513325,
                0.5670450990172115,
                2.0047128864091897,
                -2.0641518557418257,
                -5.880384635507584,
                -3.758279222422609,
                -2.126002633294061,
                0.0809822781470953,
                -1.4752491408290107,
                -0.10954214144245063,
                -0.04450148560115168,
                -1.2411122051601227,
                -1.218384120104884,
                -0.8809171423822234,
                0.4256251682919943,
                -1.6738750598486352,
                -0.8603887703970747,
                0.2094750992952697,
                -0.3017882784153407,
                0.36088883365779095,
                -1.1458036694675313,
                0.011039916146851894,
                -1.271115440283432,
                -2.4786720215458757,
                -3.0753071800073872,
                -1.5654372980481173,
                -0.9807042205576669,
                1.0962213895262565,
                0.21681018614212244,
                2.1503555735365585,
                2.4554847699772298,
                2.4997921562762544,
                -0.9068962659339423,
                -2.2872378432199634,
                -1.9245883067009637,
                -1.837267660842198,
                -2.0484579683236173,
                -0.7529521809484186,
                -0.4157457511570188,
                -2.1073954925446023,
                0.06533630515309947,
                0.5304117160181844,
                -0.20887657447514724,
                -0.7582003658131767,
                -0.524898327770416,
                0.7792281771408539,
                -1.334569112992051,
                0.7258219828157391,
                0.8195326672988136,
                -0.14518130100988744,
                -0.8727632710129368,
                -0.24497440100221313,
                -0.6610959632604022,
                1.3176100509140554,
                0.06875184639767143,
                -1.211943303002992,
                0.6247834232293027,
                -0.3389263390371678,
                2.619622310122755,
                2.102220626852506,
                -0.5259921917767824,
                -0.510538751775526,
                -1.6538359732333785,
                -0.546987805372035,
                -0.6368552506423575,
                -0.5684469018695611,
                -1.5885085550637768,
                -1.676004681573773,
                -2.1708560839266684,
                -1.1596159361801002,
                -0.7342520649895752,
                -2.2580844165186433,
                -1.170818609963684,
                0.8660765954335765,
                0.538847762417943,
                0.17898163539686815,
                0.7784471042477463,
                3.062258914709836,
                -0.8498590748643619,
                0.275862918413845,
                -1.6849908339188457,
                -0.06681723910693617,
                -0.8362170370586259,
                -0.4837143848651037,
                -2.729070188141798,
                -0.9514917116221896,
                1.7878066434587003,
                1.745436034935936,
                0.04247047654884073,
                -0.022985820143815554,
                -0.47729084892577134,
                -1.391342204607534,
                0.38812317913100114,
                -2.0451580330320094,
                -1.8615431482526166,
                -1.522539869555121,
                -0.10045656843040315,
                -1.3417974050167318,
                -1.3194990096002235,
                -0.9737930892238126,
                -0.8498293822812252,
                -0.7288506910818827,
                -0.057416038512209694,
                0.548863315541381,
                0.495325542159254,
                -0.5064432415470457,
                1.7253179461210162,
                -1.9198677323419975,
                -1.0277139034677933,
                -2.7964494619695195,
                -1.003896965712998,
                0.627905736676572,
                0.056645185375381185,
                0.6494830021786954,
                2.083612494562491,
                1.1396910332984083,
                -1.0853558337618097,
                1.2840385983965892,
                1.0254950707859496,
                -0.6125845430702603,
                -0.8418971705375361,
                -0.24840131158281933,
                0.5018672328306482,
                -1.401981423786386,
                -1.2835777270194557,
                -2.020832815304957,
                -0.7534016481474889,
                0.6900170366701016,
                0.03741488098990818,
                0.6207888292142141,
                1.1060520264300133,
                -0.018452441593718623,
                -1.3068133601577259,
                -0.6694802717956986,
                1.724354078848282,
                0.7955048732948741,
                0.40104220816765235,
                -0.1451108339009345,
                -0.8884256480557605,
                -0.4563676207195845,
                -0.9139711339946253,
                1.4559839019849155,
                0.5269057230642487,
                0.19603817904426304,
                1.8543105106802389,
                -0.563041911076606,
                1.1094985299783782,
                -0.28492400645740673,
                -1.3933162100093046,
                -0.9708293191333611,
                -0.5734015743610409,
                -2.5397295799906296,
                -2.513878469196239,
                -0.5886311963834367,
                1.5028522069150259,
                0.8770166801304139,
                1.0739633253672216,
                -0.520507118225853,
                -1.3396319588186902,
                0.7442732209938272,
                -0.4168729889100381,
                -2.7034509277124665,
                -0.20018039580705546,
                0.6223949361458132,
                0.5500834767708374,
                1.168797674666508,
                -0.11958494376857198,
                -2.304739617370378,
                -1.9985948936059414,
                1.1243403030276689,
                0.6182154666602613,
                -1.0363063699626365,
                -0.39644381249050875,
                -0.2786186839385811,
                -0.044379084266452276,
                -0.566224125393036,
                1.6593137582997455,
                -2.2067937961583137,
                -2.3778882137074135,
                -1.1686586307397668,
                -3.058927814376671,
                -1.6065888257863148,
                -0.20356826546994045,
                0.4923831900007132,
                0.04902645262637683,
                -0.044477301950746485,
                -0.79789011659762,
                1.5774361045081604,
                0.5457509784729854,
                -1.3180641124041945,
                -0.396033834411325,
                -0.35627493527735254,
                0.29593475608186304,
                -1.563540094842919,
                -0.07601615950069593,
                -1.622211269247674,
                0.2779607756226031,
                -1.8410455934685868,
                -2.3428393515273855,
                -0.8062915485843092,
                -2.8197176363778276,
                -0.629264974702965,
                -2.33547853206082,
                -1.5094466127690256,
                0.17812958636083814,
                -1.4072121453375241,
                1.161069630476255,
                -0.37052950115500455,
                0.516791691283699,
                0.11283380410857227,
                2.5344353042468524,
                -0.1114828354396049,
                0.3511312281765028,
                -0.4250628689252292,
                1.293031939217227,
                0.7000681450671791,
                0.29195075080211724,
                0.786177053722516,
                -0.9061444589197567,
                -0.15900847640508173,
                0.3793996961617693,
                -0.33420296296290214,
                -1.9325897480977223,
                0.570323012940157,
                2.4432310456778326,
                0.8548429179093172,
                -1.1357598321834683,
                -0.7963472087838779,
                0.9309133498857581,
                1.8028540047804826,
                -0.30842128091885634,
                0.9214875453977212,
                -0.292675274137705,
                0.821331247358465,
                0.9341730687478647,
                -0.45169263283817623,
                1.0498567289232255,
                2.040091486641192,
                0.7593892901174569,
                -1.3238629128564983,
                -0.11472670567749994,
                0.42001234533955023,
                -0.27078323804514537,
                0.387346224521245,
                0.335522687676845,
                -1.1870724580528837,
                0.5046659035850763,
                0.9434423041802994,
                -0.8531363303923655,
                -1.4656040018582555,
                -0.027533355890782107,
                -0.5233254157770122,
                -1.2536276079801965,
                -0.6304301301452748,
                -0.4090796883537264,
                0.7340933366341992,
                -0.26614175890864306,
                0.6682876236253199,
                0.9035536730573643,
                0.5039019795517736,
                -0.6675756068641344,
                -0.16841703306450753,
                1.1729680381519167,
                0.22401840334234613,
                1.2367429319559193,
                1.489877823103042,
                1.3915784750314604,
                0.9339322072799876,
                0.7712692139413008,
                0.5493635494977205,
                0.013670327324025981,
                0.14630101450720084
            ],
            [
                -1.9185215167993888,
                1.419888778273819,
                0.376193815542499,
                2.22118870680244,
                -0.9549666879312996,
                0.007574359017389059,
                1.853207296211847,
                1.369546274527878,
                -1.9758160691771034,
                1.7842827831073318,
                -0.606679257910682,
                0.7720298564593481,
                0.35077988371220936,
                0.8755006522243638,
                -0.18535157080859666,
                -0.20149768517792493,
                0.5028092829303957,
                0.929600089501124,
                -0.3571194176078135,
                0.7918435224924366,
                1.757763741276389,
                0.6674057267920182,
                -0.8778810451158751,
                -0.46593009133620295,
                -0.5561059776719316,
                0.13088675060043564,
                -0.2937704190649601,
                -0.6892032828840493,
                -0.006084058667428493,
                -0.6391182847325858,
                0.7084119499803226,
                1.2994470622237753,
                0.5910867149855882,
                -2.2179495075151174,
                0.27309348042501647,
                -0.2446824958295424,
                1.5613716420483787,
                -0.6981444947555374,
                0.6463784601024022,
                -0.8202658980904146,
                -0.6095448266271996,
                -0.5451172411987147,
                0.8068621172066522,
                0.5546778484619841,
                -0.9644147676427752,
                -0.39139619492363203,
                1.017904522157279,
                0.4393980389395397,
                -0.7054095687718874,
                -0.5469530468668227,
                -2.3325983912446007,
                -0.7055115590111292,
                0.5550115623454653,
                -0.7810961522858857,
                -1.1643418488016588,
                -0.49147020592360907,
                -0.8011703119328432,
                -2.4600959550749413,
                0.807526964517976,
                -0.9346615034847833,
                0.935314890117165,
                0.0665766332072247,
                0.5650261781079591,
                -0.48196678551023503,
                -0.660109580274101,
                -1.1201766335207095,
                0.12179641965396631,
                0.44672601170540743,
                -0.40069835303962875,
                2.146831207617645,
                -0.6649605752468913,
                1.148514763256043,
                -0.3704255129732401,
                0.21780382349109584,
                1.3089139061616155,
                2.5183065218434644,
                0.024353718509116565,
                0.1547936397312876,
                -0.7096302445825257,
                -1.8972074985000336,
                -1.480907581810808,
                -0.9757564392171075,
                0.07032722895338084,
                1.822016035406792,
                -0.16164860700686554,
                -0.15844500896208116,
                0.1280608119429988,
                0.07002925143533097,
                0.41941180388430577,
                0.5441494073013667,
                2.2245595166075605,
                0.7725425526388664,
                0.7139833423640195,
                1.9825990497951789,
                -0.4533553792579083,
                0.6312508910318567,
                -0.08565084249099414,
                -1.6819091368727432,
                1.7479499750788507,
                0.10332566719670486,
                3.8078833892162454,
                1.7551380836853474,
                2.956888629908384,
                0.6722245787038268,
                1.3434595473132283,
                0.11950643922090261,
                0.34747632265559886,
                2.4520198549251155,
                -2.006660008530608,
                -1.147187170910242,
                0.01780707799268344,
                -0.09368238134279894,
                0.6020263228431502,
                0.06613994528388832,
                -0.46725481379963296,
                -1.0476306497013612,
                1.706808536249688,
                -0.5994208047047936,
                0.450932969870548,
                0.28078669097215203,
                -0.8015939078759967,
                0.748520399354455,
                2.0088504842259938,
                -1.6287962041170732,
                1.3932825315337236,
                0.11475573948477398,
                1.7452774134653146,
                2.2679672189144893,
                -0.507883119529378,
                -0.274728502513475,
                -0.2967001189987986,
                2.356766451921775,
                1.4336224183561996,
                -1.5888762054251027,
                -0.44376847307198114,
                -1.0267851208582268,
                1.915403722005133,
                0.9738693126833974,
                -0.7223846937848737,
                0.7898104699252668,
                -0.3547588497630959,
                0.1404630870054714,
                -0.530273286407951,
                -1.6881754955355683,
                0.05741092916122743,
                -0.6664895255854902,
                0.19641771794335394,
                0.4176935852405317,
                -0.7260693941272807,
                -0.9092973073436121,
                -0.6313713857789212,
                -1.124282885144462,
                -0.8238216873512505,
                0.9234566336618577,
                0.8190131105899767,
                -1.0727337789634417,
                -1.009075257091507,
                -0.6202235169561212,
                -0.4582564826566056,
                -1.751280475216296,
                -2.3257833978538285,
                -2.261667644253262,
                -3.34506475238945,
                -3.8480010397631808,
                -2.6512836195164815,
                -0.7008215724706731,
                0.8038062273329976,
                -1.677251147652357,
                0.35679570913636216,
                -0.2063475627365001,
                -0.49001414042652275,
                -1.2149297446901088,
                -0.6126609454095961,
                0.5286984814886511,
                -1.056944559235268,
                -1.5243092693196072,
                0.652931591182817,
                -2.0287634525655314,
                -0.38127626803783227,
                0.6079062922173072,
                -1.0312439617541345,
                -0.12634591906068707,
                0.7331574091759422,
                2.822842424008574,
                -0.2980780960173521,
                0.07150087126012661,
                -0.9050133254749109,
                1.9652018633447808,
                -2.301787192208215,
                -0.43102042894748804,
                -0.4572204794928289,
                -1.592369496953378,
                -4.187372192599801,
                -0.8963805727634979,
                0.4160610256221034,
                -0.32093490624878446,
                -2.063533746059707,
                1.2741434192025112,
                0.7095176547540317,
                -2.366391693066563,
                -0.7433252586983227,
                0.5255715545654658,
                -1.0002030724450306,
                -0.8322802093338342,
                1.0388042219990665,
                0.19495289727847967,
                -4.419554201411108,
                -0.23851694858781206,
                -2.5681929961880066,
                0.8033737727163285,
                -1.3964619866936183,
                3.2158827756858273,
                -0.6634032994830354,
                0.019783635375359074,
                0.3023345137885772,
                -0.6606176386332466,
                -0.04612371428644679,
                0.8096752746369518,
                -1.306858640014806,
                -2.9118266478951376,
                -4.455396391875317,
                -1.9676906952145052,
                -0.8240463930908773,
                -1.8448070011590874,
                -0.3841412634001773,
                0.6412142058196368,
                -1.226066021407977,
                0.6372099781070133,
                0.5427914521743531,
                2.3286272335826346,
                0.9071369527560845,
                0.6074026945672331,
                -1.0575734861578567,
                3.179194733001798,
                0.8199797562340504,
                -1.020617295320758,
                -1.4196948024139389,
                -0.9153775498404328,
                0.07029291885132877,
                0.3655884781952323,
                -0.19063264437795488,
                -0.24121709285196433,
                -0.24667735075912028,
                0.07361969636207637,
                -1.4417535834810187,
                -1.3862808690261748,
                -0.08150402515835727,
                -5.6551067513310365,
                -3.731216289654783,
                -4.0149224353098685,
                0.41437401304245813,
                -1.600427909550244,
                1.7521076028753604,
                -0.5026877561468065,
                0.004647184110514447,
                -0.2783224205665588,
                1.6548411911050698,
                0.6530146466812263,
                2.5550157447437027,
                3.1604796634340104,
                2.708724475281159,
                1.0325844668461241,
                -0.4878801402665568,
                0.022545863336349004,
                0.4813137829134512,
                -1.034966973725868,
                -2.654675542102787,
                0.028164293400787823,
                -0.8519015560613941,
                0.7158238755162808,
                -1.9770633091727785,
                -0.10799834779068164,
                -0.6828725766999948,
                -2.715183986448157,
                -0.09231512150679766,
                -3.335710509758606,
                -5.230301785219282,
                -1.5576522732596587,
                -2.57211153319384,
                -0.6054458547044712,
                -1.1037240559469728,
                -0.47897563008736277,
                0.32775705341869293,
                -0.8448899057516426,
                0.28685808377415206,
                1.9632931610678384,
                4.648658870222619,
                0.9397129971376827,
                0.710920579261659,
                -0.964762154967232,
                -0.16894615558976833,
                -1.6495207842243027,
                -2.1837069199966046,
                -4.808585100869823,
                -6.769345538684456,
                -1.882798833245381,
                -0.8684569986605103,
                0.11900732021975625,
                1.2700984577326586,
                2.02688306857613,
                1.425935636519501,
                1.2285533800968382,
                -0.7492530168042849,
                -2.741115994350808,
                -2.49806524353303,
                -3.76865909957457,
                -2.180861430000145,
                -1.6679690514460335,
                0.7573423179966724,
                -0.32206965768237,
                0.3055803909583834,
                0.9209489627626187,
                -1.0178338602691113,
                1.6449793777492767,
                0.2665460399200704,
                -0.31904098078805254,
                1.0200252712549756,
                0.06745149552401022,
                -2.2871316589344666,
                -2.3585374017003913,
                -4.088420081821874,
                -6.5602610640192935,
                3.0853796163094667,
                4.759998014017887,
                3.8263884882331958,
                0.915523909216663,
                1.9849829024612449,
                4.049226203006506,
                3.6460694847640123,
                3.602693061531718,
                5.747338810271103,
                1.9534023590566136,
                1.132046706558456,
                -1.573075110068872,
                -1.6293573157094565,
                -0.3920501554108401,
                0.030770139264853648,
                -0.22306624189945626,
                -0.24900720341372415,
                -1.0605513314508082,
                -0.6553038969663261,
                -0.7572283210851666,
                -3.8929238628105827,
                -1.240032699199244,
                -3.1640103805296316,
                -0.518098172618019,
                -3.5886157803510934,
                -5.47659207649691,
                -3.6285913065253648,
                2.842766698816776,
                7.697039677574487,
                6.088981210428196,
                2.5247294737274912,
                3.2156964945850466,
                3.5853067301142763,
                3.765351776274407,
                5.820796961802779,
                7.010442785295386,
                4.184419050315869,
                4.236999568903768,
                2.3001145665522293,
                1.0989406039634089,
                -1.1779308479536996,
                -0.6216325176496413,
                1.9079329822804107,
                -0.4191665225737691,
                -1.100647650160653,
                -1.7697604149567923,
                -0.38427494216127545,
                -4.153400466778504,
                -3.5141296442352106,
                -3.7769605967623434,
                -3.7743765332830854,
                -3.5245739678956594,
                -4.306535197262632,
                -5.377328942023261,
                4.576903429791181,
                5.847509059992909,
                4.935694119792339,
                4.928616266756721,
                4.449230499728204,
                1.8784125243591352,
                3.724408500489076,
                1.6826642794609161,
                4.435144967363591,
                3.82660771569142,
                0.17199751388630938,
                2.479321140529012,
                0.9021044115451109,
                -0.038411986855497744,
                -0.6073184899019443,
                -0.09738784654251369,
                -0.008161679123081739,
                -0.27902291069191915,
                0.3712906558333513,
                -1.3156338749062375,
                -1.1539840694742116,
                -1.5254350129599725,
                -1.6154495972498037,
                -3.822033420039209,
                -2.960696715207449,
                -0.6800344452610299,
                -1.9813534827343036,
                3.26063221832868,
                4.894225297143258,
                3.342985181845881,
                5.10622627899726,
                2.817699373965809,
                2.495549047197448,
                3.188161620627567,
                2.3098010118849244,
                0.8594733805262942,
                1.653432014107386,
                0.6674550956244549,
                -1.1793552269644823,
                0.3083385240679173,
                -0.14387076771206891,
                1.1489703450448414,
                -0.8182116851816987,
                -0.213569669075924,
                -1.438130649189169,
                -0.8513397727740138,
                -1.3979458225274812,
                -0.15199087147872317,
                0.6905164013698191,
                1.8858934231802889,
                0.41370729246809057,
                -1.5369715386167475,
                -1.0663962624683776,
                -0.2412505019991085,
                1.3279401115868195,
                2.4330415748934175,
                1.6342891372839858,
                5.890738631093675,
                4.744625089733253,
                2.6374208846786713,
                4.981932946299232,
                2.53476097851071,
                2.406298718607318,
                -0.753599892735684,
                -3.072538019041757,
                1.0510370634693529,
                -1.1769996926063742,
                -3.0024881724141226,
                1.0930532890837377,
                0.5152482468549248,
                -1.8582283369805466,
                -0.8798477833046981,
                1.8865238149927506,
                -0.019442747437337007,
                1.0212906428896085,
                -0.7123349580513672,
                0.3290236222518622,
                -0.6807775155412098,
                -0.3852875040823372,
                1.176399489426491,
                1.1537086395126643,
                2.8319747697137863,
                -0.6028170970088965,
                2.4951819666978103,
                4.381531885675563,
                6.059834380600229,
                5.196870245178819,
                2.0109543596934767,
                4.195583917257945,
                2.1903644993591778,
                1.0239861218427802,
                -2.4805259013314607,
                -2.037297361223222,
                -1.7441385826028883,
                -1.9648507591119606,
                -1.459171146961553,
                0.40662146072270994,
                0.4273289768212299,
                0.9635118578233092,
                -0.2166518534166593,
                0.9081647630173094,
                1.3368335668332119,
                -1.1560746921753597,
                0.9904808386667155,
                1.0118449106777463,
                -0.12355449223888114,
                -1.9816560173499367,
                2.9545217002146154,
                7.114235117417182,
                6.426247337732035,
                3.806995583418284,
                2.503040883558358,
                5.679513537046255,
                5.86999712916467,
                4.0057487621083565,
                2.15047778762912,
                1.6165041569679997,
                -2.1514307731813815,
                -4.620660220133974,
                -4.125369065927098,
                -3.240068623098994,
                -1.540946479672935,
                -4.102893654573478,
                1.588458209047449,
                -0.8890002381048276,
                2.2849339043164067,
                2.0968897369636657,
                0.3641284703159348,
                0.1457031935027231,
                -1.169333606596547,
                -1.2324401393347537,
                -0.2014747935344892,
                0.11127333203144237,
                -3.066177693282504,
                -2.7799746904216964,
                1.4649178558714842,
                2.3881480464123634,
                5.247152562692381,
                5.717157260794257,
                5.837720005333669,
                5.209353800161099,
                2.3937897038538005,
                2.7941004297642147,
                -0.413030209792849,
                0.0794828314123389,
                -3.432741514074209,
                -2.866112983289571,
                -3.590756538979572,
                -2.1348671327903697,
                -4.441656507416389,
                -3.195340271968919,
                -1.2949526427545486,
                -0.30947326144834003,
                -0.2966123252267882,
                0.373057483110018,
                0.7037133122379294,
                -0.05335659115839645,
                -0.21793634187703714,
                -1.378438897960787,
                -0.9833339419588111,
                0.7403635034153703,
                -2.3649952107031575,
                -2.2641316604230304,
                -0.939028739516273,
                -0.08141170517353884,
                2.2154487541055303,
                2.4159747574475987,
                0.6611461669955992,
                1.1345432601770211,
                -1.756847471477953,
                0.5845047083959939,
                -3.461677159361571,
                -0.8117527841276264,
                -4.074144383343534,
                0.9114269443021723,
                -0.9026977045867303,
                -0.35513355669457264,
                -1.3466979580339626,
                -1.4410720386680043,
                0.9164617797074477,
                0.09566686986105348,
                -0.9062512560351157,
                2.2638212424872477,
                0.24253015928225435,
                0.4626792239351603,
                -0.16912396888877101,
                -0.7055231704230486,
                1.6386240185706569,
                -0.38958031796494164,
                -1.2751272003418765,
                -0.8520440851232034,
                -4.172285944821764,
                -1.8612170351488762,
                -0.22565488349018029,
                -3.4079727571051475,
                -3.0206959669300693,
                -5.047654589165685,
                -2.215227590974916,
                -0.32001143087652834,
                1.645568656279928,
                0.6693934493394058,
                1.768292174217588,
                0.5134295934471699,
                0.16347738146672874,
                -0.922756905756986,
                -2.598263177423394,
                -0.43648898097378835,
                0.47539559626084976,
                0.8985632219916673,
                -1.0437842174487078,
                -0.6704341444823922,
                -1.0539840265784217,
                -2.6705266678502495,
                -1.3735857666627913,
                0.034682146860564846,
                0.7572297637758909,
                -0.27280931865074454,
                -0.3672169005139441,
                -0.004432689998561742,
                -1.3066625156802711,
                -1.1054484932823203,
                0.05330663791062475,
                -1.2992556592715376,
                -2.287701796076267,
                -2.8608356316742127,
                -0.4222862217167115,
                -2.2547729182247807,
                -0.16236554486258553,
                1.799508636561325,
                0.2431608645435047,
                -0.9966533690290001,
                1.1004651895021966,
                1.3912366359239343,
                -1.0947650398178703,
                -0.9000645369926065,
                -0.26842574417852344,
                0.4793423748181705,
                0.7228579100493576,
                -0.2923578869443496,
                -0.8238802723152638,
                -0.41906607527645107,
                -0.8290942203166612,
                -0.6465648552779798,
                1.6244230947653806,
                -0.4920458186930457,
                2.797391281996792,
                -0.14778583469463386,
                0.6243822988146669,
                0.17471499153413333,
                -1.5045236022051507,
                -1.7840830103743552,
                -2.8153163129753462,
                -2.0449634703251425,
                -2.0693374726418248,
                -0.7510616998818824,
                -2.7262117784890205,
                -1.385241032266417,
                -1.510997671438184,
                -0.21152400453083614,
                -0.898135456451047,
                -1.4414774197257416,
                0.21709446014866102,
                1.6332326715981085,
                -0.4120832831589325,
                2.74878616132031,
                0.048761452642015236,
                -0.8919576452847825,
                0.06002428991243464,
                0.5746987224122228,
                0.09454674309568661,
                0.7527261843062969,
                -0.7885117610848654,
                0.7189662684719499,
                0.7882984243530854,
                2.4852695616987526,
                -1.7827992179039953,
                0.7409257631120895,
                -1.7147986849792058,
                -3.1247975918604634,
                -3.0575181984727875,
                -3.8178129792793416,
                -2.0724423637666503,
                -0.20577831707211533,
                -0.3883295101774382,
                0.30184826512227453,
                -1.6751996067950659,
                -0.233679921474475,
                0.8735805430548124,
                -0.022675031890957948,
                1.081324955040955,
                0.9955893244660009,
                1.5176778956202097,
                0.7898086036645822,
                -0.14043375893064278,
                1.1552668394468093,
                -0.46687729396032446,
                -0.31126403710592354,
                0.9472911533309795,
                1.0558400839032593,
                0.17696810897705342,
                -0.4125141248240406,
                -1.25507795628998,
                0.22609694900595553,
                -0.03445382753678887,
                -0.22300996375990723,
                -1.4285130805126451,
                -1.6601626388631254,
                -1.743045717345974,
                0.35343774874294476,
                -0.8224206508906683,
                -2.2602006509567714,
                -0.8660969144976292,
                -0.35303785706620655,
                -0.747566997981279,
                0.7356825940833932,
                -1.0944738345068314,
                1.4881028482394838,
                -0.20044832683223163,
                0.6671333687722018,
                -0.06283561917059893,
                -1.1141964572786558,
                -0.6125910698572126,
                -0.6101139972463988,
                0.5504793609446591,
                0.007463073044881063,
                -1.3171519605783661,
                0.25378150430141017,
                0.8348344651208057,
                -0.15294315381400672,
                -0.30051178239339404,
                0.16067681616589702,
                -2.368187200085708,
                -1.757847051604449,
                -1.351215531504063,
                -0.8196433506768573,
                -3.3664008294086836,
                -1.8435651252875915,
                -0.6596409917007631,
                -2.386549178916947,
                -1.5826274176000203,
                -1.9653895559744792,
                0.7254778418208789,
                -1.7408810087273716,
                -1.04967070953257,
                1.0866868072102795,
                0.5139978291150358,
                -0.23348016735930455,
                -0.3172614118004514,
                0.5136470020701533,
                1.6010222554127282,
                -1.5301961884623456,
                0.7343011567200634,
                0.9611961525748027,
                -0.3334785576518024,
                0.34916886645073536,
                0.003151097015991719,
                0.4752486624783146,
                0.8437154274427249,
                0.7407799573982554,
                -2.6959632228523196,
                -0.2982290409375305,
                -0.9963529693758707,
                1.170128272984946,
                -1.4640097734185502,
                -0.45565991344113244,
                -1.1817898344563333,
                -0.8824086566812246,
                -0.867010170408942,
                -1.3216393215567304,
                0.4131213180188737,
                -2.4979169514115647,
                -3.4812738897377002,
                -1.291889382568366,
                -0.3018022576205148,
                0.6918093911548614,
                -0.27282183409475597,
                -0.05113489642548978,
                2.017195158973905,
                -1.9029075263606203,
                -0.6121405387300506,
                1.037029678987518,
                0.3302790165959614,
                -1.2582083507067574,
                0.21188047923462322,
                0.6642895285999078,
                2.215979543879677,
                1.1282903217274505,
                -0.42125647413724987,
                0.5971921466374861,
                -1.1589163969376877,
                -1.6988350218716892,
                1.2358642865429732,
                0.145793981859031,
                -1.525714537942661,
                0.33433696054630535,
                0.9576496033947088,
                -0.8190176640951158,
                0.18469314234345396,
                0.8632175050843036,
                -0.35477620201003707,
                0.4472686900902652,
                0.04986190605497866,
                1.3421259412535709,
                -0.7520650841879795,
                -0.6844011731908343,
                -0.20946430451803622,
                0.4043002641753622,
                1.2940633242639974
            ],
            [
                -0.07613346216492026,
                1.32751871290725,
                -1.9118542458502787,
                -0.31088448309255834,
                -0.5875984741162074,
                -1.2625221040754961,
                -0.2371396286952042,
                -2.3798067135716963,
                -1.7412649521998729,
                -2.0204222009905957,
                -0.39214470741653185,
                -1.3154172669468571,
                0.167725593401701,
                -0.7101008581434294,
                0.7559750734833872,
                -0.022388680006693976,
                0.015615834033088171,
                -0.9256854010048922,
                1.969526274236132,
                -0.06917362913647203,
                -0.3352883726899537,
                -0.9991088076807669,
                2.5915485688074282,
                0.7120007489945228,
                -0.2098588722185289,
                -0.4391131984423972,
                -0.2387522714309728,
                1.472739676269505,
                0.4564171855514679,
                -0.3526615535259757,
                0.2620876432394934,
                -1.8006200311581004,
                -0.6801929572034354,
                -0.18435978750965243,
                -0.9788463967149957,
                2.085145516844685,
                -1.3959933222179555,
                2.2969641347930416,
                -0.329282302135028,
                0.13917907555874426,
                -1.4688086354979875,
                -0.8743901720408364,
                0.38283888730395094,
                -0.24682373492188323,
                -1.5617847922476962,
                0.22356046836929866,
                1.37468482776129,
                0.640154391223664,
                -0.6409615355929761,
                0.46818967253627625,
                1.865274038006271,
                0.20512179828101118,
                -1.0091081844995893,
                1.1739502567262126,
                -0.39043456664132153,
                -1.933412717774528,
                1.3719828287898503,
                0.6345715251878495,
                -0.7495370526613295,
                -1.3502102515524639,
                0.6947908673580164,
                0.18677807574521468,
                0.6059311589655043,
                -0.656424507685727,
                -2.0035582096416804,
                -1.2192287850889347,
                -1.213318392608387,
                -1.4936272216794102,
                -2.6951726536110647,
                -1.2523589038667606,
                -1.2555065374704941,
                -2.2125114102593133,
                -0.9523234120693247,
                -0.4783870726713634,
                -1.7192898081005803,
                -0.9852792831801728,
                -0.5246876077480745,
                -0.6060184322988292,
                -0.7226423838556655,
                -0.3949221747023107,
                0.7422131417183768,
                0.7161438292241223,
                -0.3033013045709514,
                -0.4490897729918829,
                -0.3638345591040858,
                -0.6720684968590102,
                -0.9941259420461837,
                0.3942459277037675,
                1.8729928815308905,
                1.5597611773232947,
                1.3744296299431058,
                0.8949207474185088,
                -2.994100721640226,
                -1.8337349089652324,
                -4.021598425439692,
                -3.0692912499219145,
                -2.0761065532192102,
                -2.935835038620738,
                0.34320715768581345,
                0.9562065246282827,
                -1.3602908186033547,
                -0.6068154872168063,
                -0.0283716919848923,
                -0.5173560870482224,
                1.4327796250101572,
                -0.45134119946846757,
                0.5566825677700381,
                -0.6500085031471978,
                -0.7759512787550699,
                0.21680060702300494,
                -1.3541081178669352,
                -0.14631175774058025,
                -1.5828508447963017,
                1.4996389642938703,
                -0.2735253435088674,
                -1.7887477826000382,
                -0.668524988918297,
                1.9750094099445792,
                -0.1418643489456849,
                0.7149853277206925,
                -0.36636692414567706,
                -1.1857445575172971,
                -0.9887203228806338,
                2.625667873871637,
                0.26615477982242297,
                -2.2878002271845888,
                1.0756553801346507,
                -0.7351081939627798,
                -0.9972328048155544,
                0.2772699783176561,
                1.418190050600058,
                1.0401204536946964,
                1.0949925327452499,
                -0.5169186990087402,
                0.9687288245414252,
                0.4617132940013862,
                1.3274910190393205,
                1.95434589650136,
                -0.01827907606003153,
                0.1283522631329421,
                -2.480302687345545,
                -0.14234918668807564,
                1.1700824832588073,
                0.34093161552269335,
                0.4656629826423051,
                2.3120589653340606,
                0.7575386932097371,
                2.6258562700335024,
                -3.0188313028319436,
                -1.080266568800124,
                -0.8312518385650609,
                -1.349399269805135,
                -0.6663936595040758,
                -1.9783021708776691,
                -0.21760040228627653,
                -0.9480287853220385,
                -0.41215810642348566,
                -0.3493710422263789,
                -1.479262830356389,
                0.7459183035387391,
                0.0720589533688232,
                0.9947466644310734,
                1.0516316959313086,
                2.397852806092387,
                1.8411383008428337,
                1.5485859643205624,
                0.5607296068199421,
                0.21433176666023712,
                -1.879926361122069,
                -2.352911837790266,
                -0.1508522203594118,
                1.7910684742130643,
                0.017739597861967684,
                2.0463148560827396,
                0.7380850790471227,
                -1.3592180217318333,
                1.3320712829749302,
                1.060849082675797,
                1.065145778799684,
                1.134157069544759,
                -0.3921175436224911,
                1.3334816557396778,
                -0.3618018408492605,
                0.05017737965957957,
                -1.3726829633971727,
                -0.08998649450184232,
                -1.5860549579343703,
                0.565260471662657,
                0.4017666805475508,
                1.372482493250365,
                1.7979182301427339,
                5.644539179536861,
                4.873379529902013,
                2.914806873080988,
                0.8159552913630088,
                0.09043714430908281,
                -0.10477638808621666,
                -1.6728139348415174,
                1.7432229507643289,
                0.9363947329621559,
                0.9298444669859224,
                2.7021561955838553,
                -0.64864767199551,
                1.0489160663014432,
                1.6918296252287461,
                0.9523610433879692,
                -0.9787613878543666,
                1.3822943742095266,
                0.632103115083992,
                -1.9638988057288476,
                -0.8797014706421276,
                -0.17123172140529153,
                -0.48089531265805835,
                2.524537223117837,
                1.920393294365574,
                0.4281015486683052,
                3.4687655003653943,
                1.505067121686807,
                0.859464701909046,
                6.061979546457308,
                5.138486072721159,
                3.015837114540957,
                0.27434222086906396,
                0.6618285311626009,
                -0.09293661966942149,
                -0.8086529093421202,
                -0.20379134856132777,
                -0.09018565340527288,
                0.39597650390592637,
                0.9328900202504266,
                1.2969095299008764,
                0.20886572795315064,
                -0.026058676627332935,
                -1.4590532666930511,
                -1.1682252541732114,
                -0.601726009400679,
                -1.303860423178888,
                0.463584589684459,
                -2.503290773910777,
                -0.12419653856110204,
                -1.7949092192733564,
                0.7351545325546269,
                1.8728260315852758,
                1.939300916533962,
                1.600862058568623,
                -0.6321349479291528,
                1.2603723846154637,
                4.23292228363836,
                4.075663982758845,
                2.497823122994833,
                0.9024302701639833,
                -1.416317052685765,
                0.35088717637432987,
                0.4700701124239514,
                0.44634295602558755,
                1.9385851938706677,
                -0.8184526201634756,
                0.14464405048727103,
                -0.4636546681359387,
                1.5773310788767947,
                -2.0502236582927913,
                -0.05281933355135345,
                -0.510208859331847,
                -0.952408541514415,
                -1.57742346477388,
                0.1017767721615947,
                -0.6164818749488784,
                -0.3343265903236994,
                -0.11547279539321588,
                2.710239916562417,
                1.1349966177555406,
                1.4084392499199245,
                1.6998627305819918,
                1.198755471609684,
                1.5928214239845346,
                3.3992174110995825,
                3.436723986599369,
                1.5078437317512527,
                -1.0006217790834953,
                1.0484809049779074,
                -0.7014373186065211,
                -0.7259019597540223,
                -0.2688170958926253,
                0.12856913314039645,
                0.33918968507704594,
                2.391629302787793,
                0.8451059536377045,
                3.7464440389942077,
                -1.2361511377348335,
                2.8381381248179935,
                2.915754660659786,
                5.08240010742574,
