{
    "biases":[
        [
            [
                -1.1195342019245895
            ],
            [
                -1.5302616694084648
            ],
            [
                -0.4190420591795072
            ],
            [
                1.5574179831588746
            ],
            [
                1.371388610848031
            ],
            [
                -0.8849334327600556
            ],
            [
                -1.2556467457909957
            ],
            [
                -1.2845461740013955
            ],
            [
                -0.34606007962366525
            ],
            [
                -2.486777522049258
            ],
            [
                0.6625498592581149
            ],
            [
                -0.4407821573764618
            ],
            [
                -1.3568954254407102
            ],
            [
                1.0168073716806847
            ],
            [
                1.5695508788663564
            ],
            [
                -0.35456547252983006
            ],
            [
                -0.04510398595019631
            ],
            [
                0.18137858294637454
            ],
            [
                -0.9175984489042286
            ],
            [
                2.957110256974441
            ],
            [
                0.5564046981721221
            ],
            [
                -2.973641164910287
            ],
            [
                -2.0545847437455382
            ],
            [
                0.1357514883543395
            ],
            [
                -1.8789567359845862
            ],
            [
                3.3795543289154915
            ],
            [
                1.7150398745615572
            ],
            [
                0.8831682836177353
            ],
            [
                1.9122670479890673
            ],
            [
                0.8320462329645695
            ],
            [
                -0.12296262714764636
            ],
            [
                -2.008394339575842
            ],
            [
                -0.07529005697546952
            ],
            [
                -0.5228040425137764
            ],
            [
                -1.3059527391737844
            ],
            [
                -3.401924891322309
            ],
            [
                0.13052846130282403
            ],
            [
                -1.6509449553013031
            ],
            [
                -2.14806740059726
            ],
            [
                0.7641023009409227
            ],
            [
                0.7959763215638813
            ],
            [
                1.648928786009699
            ],
            [
                1.2839496015603689
            ],
            [
                1.819806332420419
            ],
            [
                1.6378525952294778
            ],
            [
                -3.0735958010889246
            ],
            [
                -0.14538843423939024
            ],
            [
                -2.066155977521598
            ],
            [
                -1.0584364871445506
            ],
            [
                0.12493621453167068
            ],
            [
                -1.2139902486725174
            ],
            [
                1.0553877397599123
            ],
            [
                -0.5558378352145174
            ],
            [
                -2.0824329067147502
            ],
            [
                -1.5434068522025672
            ],
            [
                0.40877411331624214
            ],
            [
                -1.404276873568878
            ],
            [
                -1.6317503250822094
            ],
            [
                0.6578261291576065
            ],
            [
                -0.19327149752213868
            ],
            [
                -0.5568583428220951
            ],
            [
                -0.20046947420880948
            ],
            [
                -0.5059893874763488
            ],
            [
                0.60981760296636
            ],
            [
                0.3546344893294103
            ],
            [
                -0.47444046712721005
            ],
            [
                0.5729880870591915
            ],
            [
                -0.6019784782388781
            ],
            [
                2.06011410143574
            ],
            [
                -0.8738160987094858
            ],
            [
                -0.2357807681998292
            ],
            [
                -0.40723006790703525
            ],
            [
                -2.002814762051963
            ],
            [
                -0.10174004988404992
            ],
            [
                -1.9672083666795765
            ],
            [
                -0.6362700597696183
            ],
            [
                -0.13222005215554392
            ],
            [
                1.2439259962785987
            ],
            [
                -0.1616724100977323
            ],
            [
                -2.091023000429527
            ],
            [
                -3.4448766275503915
            ],
            [
                -2.3259356812667082
            ],
            [
                -0.6747059469877219
            ],
            [
                1.8713687349316233
            ],
            [
                -0.42550446534827663
            ],
            [
                -1.0846721131226635
            ],
            [
                0.022958421487221277
            ],
            [
                -2.7781344270329726
            ],
            [
                0.9637180937772003
            ],
            [
                1.5267785875669817
            ],
            [
                -1.2740545996165922
            ],
            [
                -0.24230505236746155
            ],
            [
                -0.7011394233091687
            ],
            [
                1.7771860692755712
            ],
            [
                2.004173054697368
            ],
            [
                -0.7814200180613069
            ],
            [
                -1.438205601736648
            ],
            [
                -1.437109299756989
            ],
            [
                0.4698222853360009
            ],
            [
                -0.6065506166932277
            ]
        ],
        [
            [
                -2.241413458943431
            ],
            [
                -0.9467833053232843
            ],
            [
                -2.8305946930289023
            ],
            [
                -1.5777849182056791
            ],
            [
                -2.7142609906917694
            ],
            [
                -2.3788979923310474
            ],
            [
                -1.4182883614280215
            ],
            [
                0.909699266355377
            ],
            [
                -2.5981657876737714
            ],
            [
                -1.2349563721925243
            ]
        ]
    ],
    "epochs":30,
    "eta":3,
    "layers":[
        784,
        100,
        10
    ],
    "mini_batch_size":10,
    "weights":[
        [
            [
                -1.5320301280358535,
                -0.413295574322497,
                -0.5927177495333223,
                1.0127467292436811,
                -1.5985100889530557,
                0.6576217367403818,
                -0.7496087992787794,
                0.02756626387160174,
                -0.6782607941261914,
                -0.27911008565411916,
                -0.2854126853574753,
                -1.5116456417015873,
                -1.1802003602768614,
                -0.7681151887404949,
                -0.8372750439014607,
                0.3299802914908148,
                1.8007539550528293,
                0.8751782628866275,
                -0.540727457609558,
                -0.30260988546136475,
                -0.2434429398790067,
                -0.41574495024856756,
                -0.5107269598758923,
                -0.6482870837120664,
                -0.3823334891657122,
                0.14081834442748198,
                0.9082869187769489,
                -0.31220029169517827,
                0.24701966989559063,
                -0.04168828373083005,
                1.2589692002803743,
                -2.4961454640960077,
                0.0018895275703370803,
                -0.266112813952433,
                -0.5724661731881497,
                0.1979057932232977,
                1.2705815345768376,
                0.8912681343483141,
                0.5442300362537348,
                0.4646306021517445,
                -1.7019491658499097,
                -0.05038918395070879,
                1.1039039749894912,
                0.011172872634754635,
                -0.9235394448662722,
                -1.8037877799728075,
                0.6147152829472166,
                0.9180796245284992,
                -0.7025487945449537,
                -0.3169283005819633,
                0.37185723714023516,
                -2.1472647882660203,
                -2.126647211958192,
                0.8731622901511801,
                -1.1416969619744142,
                1.3343770905026164,
                2.0295349711737387,
                -1.6398552933106483,
                0.48210288112978444,
                -0.2233275368796504,
                0.6494618425285378,
                0.35573318579980634,
                -0.5561297540915126,
                0.6659159572544733,
                -0.15502728355340312,
                -0.5147609011495552,
                -1.0772846453075364,
                0.4607571170999963,
                0.4564816003181078,
                -0.20851984497251347,
                -0.348118744221737,
                0.7504865931421613,
                -0.3475828579384395,
                -1.3433832868841993,
                -1.2130569324752263,
                -2.2185413190284144,
                -0.48605083904890767,
                -1.2444029801574026,
                1.1982837806367423,
                -0.29777476317042223,
                1.3623352948073935,
                0.6108314851695,
                2.3592205881822372,
                -0.17652471878010187,
                0.711643863515246,
                -1.0603173608448084,
                -1.8026602903363265,
                0.4627130464918738,
                0.7454366289871945,
                -0.24164511659580065,
                -0.3832979849792372,
                1.4885411769716823,
                -0.6564639273901776,
                1.6076210648723261,
                1.194557181483634,
                1.6107163824695587,
                -0.00608264571680682,
                1.4432695996846396,
                1.989291463004877,
                2.5762393966679085,
                0.4447373506865995,
                2.6697438935938296,
                0.722013290664463,
                1.42894461581615,
                0.38633270751692744,
                -0.33863979211270223,
                -0.7262834210540887,
                0.8976214876603961,
                0.20081385655142114,
                -0.9400108450552845,
                -0.4470951064665705,
                1.5996169551779618,
                -1.8198090027208145,
                -0.5336265395715685,
                0.6625630413189956,
                -0.43870908152006466,
                0.08094915268507971,
                0.7340888550320349,
                1.662807428614568,
                1.785846208861983,
                -0.0006267368491990488,
                0.975015452037383,
                1.3370165633928592,
                2.445152343775844,
                0.609400385482055,
                0.9859120696424635,
                1.3081306582277779,
                0.36621748514562,
                1.30460080913142,
                1.7886876474195605,
                0.5653855722773439,
                -0.0014526313703287978,
                -0.9077235077908986,
                -0.047868861290048546,
                0.9642027357417722,
                -0.8224572574727981,
                -1.7262616972758713,
                -0.1506463075974601,
                1.542156921807151,
                -0.33673337529878566,
                0.4124670622185636,
                -1.5750193950832914,
                0.034648176114280525,
                1.847849781160666,
                -1.163597404567601,
                1.252019724435192,
                1.6994329478631212,
                0.15166477686816,
                0.3217447844140921,
                0.7886106764279055,
                0.41189243435869277,
                1.24097120631769,
                1.4237292057359276,
                -0.5463708333336749,
                0.650305462671761,
                0.5598874980794801,
                1.3174383476018254,
                -0.10743567398319501,
                0.07630861950935772,
                -0.26518326408679244,
                -1.1763334703672585,
                -0.7238052350252713,
                0.7696543683408777,
                -2.6009430697740092,
                -1.0726506296152458,
                0.5736592839211032,
                -0.26852387959821655,
                -0.0034254812602313397,
                -1.919645938368653,
                0.5795517543831047,
                -1.2013968138411282,
                1.7917644384395923,
                1.3551173023404275,
                -2.741434086481039,
                -0.037401518298068405,
                0.836316896995186,
                0.36868939124939343,
                1.1781582596557743,
                -1.4047592246272278,
                0.3587407915054411,
                0.5848615211220204,
                -0.45019768114369496,
                -1.1983587457072808,
                -0.1977821981755638,
                -1.3908957085802303,
                0.684371807048356,
                -0.7459200338638909,
                0.6443351318815538,
                -0.4449971106740541,
                -0.06277779617060977,
                -0.6598536389024275,
                -2.131792096108236,
                -1.5872731712320973,
                -0.5093287233393661,
                -0.0006691447498968921,
                -0.40509878384846987,
                1.7577398206996213,
                0.24143075706347705,
                -0.47491796658740126,
                0.6564249869629063,
                1.4853937208922832,
                -0.4511286639246642,
                -1.6468669582646833,
                0.9290945462086118,
                -1.1493014056130182,
                -1.1026529327910715,
                0.20613055265068567,
                -0.12505468244779785,
                1.408526654658475,
                1.2462380301838765,
                -0.427397586947085,
                0.6707515751403684,
                -0.4692419696542958,
                0.5540676776034213,
                -0.5215279712205707,
                -2.3392538592267678,
                -0.3326311050905622,
                -0.038254998402569435,
                -0.4918225520433284,
                0.6728867968920196,
                -0.22608802445443524,
                -1.579415894353526,
                0.3337465524409057,
                0.568181069888503,
                -0.10411365193277748,
                -2.190831669847185,
                0.9411146817397117,
                -0.9870545320155474,
                1.0737098001989964,
                0.9908770982885959,
                -0.12714683379235323,
                -0.6502431267403167,
                0.33749119049076676,
                0.4355065788618442,
                0.2632704963300689,
                1.310678199122813,
                -0.01897915263945468,
                -0.23310680714389195,
                0.5630681263887137,
                -0.11242516066303031,
                0.7946282429486264,
                0.528160101796042,
                -0.6521749104441699,
                0.3820411047630427,
                0.11357866779070146,
                -1.8407617127886011,
                -2.001880011929235,
                0.274796775794427,
                -1.805090058519081,
                0.598552919910295,
                0.8345079710541528,
                0.6139039677499162,
                -1.402322993063029,
                -0.2996314508838634,
                -0.2442258082632374,
                -0.9604937792026664,
                0.25424234212735414,
                -0.5304987330656166,
                0.840479571621236,
                -0.9568607855669342,
                1.0085765527230677,
                -0.5009023832644316,
                -0.28764643969844644,
                0.09276572654675924,
                0.1855631913696227,
                -1.3210530202641804,
                -0.10298872163148848,
                -0.030613479210638877,
                -0.7971960661397179,
                0.6223767085574203,
                -0.9590888950938492,
                -1.2254052690199637,
                -0.4726244822275263,
                -0.13841494646556946,
                -0.05780874603089771,
                -1.0129852697385524,
                0.8937137089877578,
                -1.1657479957467782,
                0.030249125584279064,
                1.2558178046721962,
                -0.10529330602626454,
                -0.7316583905866464,
                0.5278478826657022,
                0.05438750078898931,
                0.26105468046676733,
                -0.577621002143009,
                -1.6518550610051674,
                -0.9493019737262922,
                -1.4635400134192953,
                0.07350583441655234,
                -1.7704895656647548,
                -1.2592552240422912,
                -2.1938957580646945,
                0.2282004100960885,
                0.15124950947184845,
                -0.017602386754644282,
                0.5094759093507453,
                0.25067822169170095,
                -1.7607230408655352,
                1.001250744078872,
                -1.070625242821217,
                -0.6370982421636099,
                -0.7109351297728004,
                -1.0835567561456152,
                0.08854011680933535,
                -0.39036022902149164,
                -0.6831390731487302,
                0.2770207794812814,
                1.0383429768306778,
                1.2445688805938002,
                -1.576660102512325,
                -0.8122982956728717,
                -0.8387081601037037,
                -0.7364734306097384,
                -0.5167698872938662,
                -1.7935684530162772,
                -1.1810557929920193,
                0.6966299717120635,
                -0.44653099331663343,
                0.8584553887956456,
                -0.0046240043615163985,
                2.107454745399801,
                0.027014172009429176,
                -0.6986655079401527,
                -0.8295528168122115,
                -2.4267246625545194,
                -1.4915550700393914,
                -1.4911244110109398,
                -0.8377208147721938,
                -0.6242711131746993,
                -1.8187735004049683,
                2.069790257342014,
                0.5623773693270316,
                0.2328836138221457,
                -0.6416328457761955,
                -0.27138454781780236,
                -0.5226079150077857,
                -1.7548105406786734,
                1.2902393105985261,
                2.090309308998496,
                -0.4544255282217852,
                0.07134575803433141,
                -0.10192174350629694,
                -0.3644705867237766,
                -2.1994323603790145,
                -0.7105859719050686,
                0.6760043158089376,
                0.26881066620005606,
                2.126360540630866,
                0.008958572261541465,
                0.6729758596985033,
                -2.521741741563967,
                -1.2724557548789874,
                -2.2146629578820987,
                -0.7860785372232101,
                -1.9262842493589623,
                0.2177474255541807,
                1.5564254545422973,
                2.1463439933649537,
                2.0728013390214737,
                -0.3630273224752704,
                2.1272752128228962,
                -1.403781010825694,
                -1.6045785991311268,
                -0.7073409666889514,
                0.9190917050145319,
                -0.26123791952749326,
                0.41238512363683105,
                0.5436475086757224,
                0.1877657338918368,
                -0.24090456731827092,
                0.8620307787562047,
                -0.7189416823122753,
                -1.1551718742291037,
                0.10959618813961132,
                -0.5549750819987369,
                1.2465032306226596,
                -2.12472427390711,
                -0.7574460938485325,
                -0.7238851320646248,
                -0.7248130817103757,
                -3.185581477390329,
                -1.4067030129054718,
                -1.0417382451479609,
                0.10461767233652154,
                -0.4155170579976327,
                2.160095513426983,
                2.1459843878901936,
                1.0779389602456835,
                0.5930106383895084,
                -0.7140543512347552,
                0.8672598048415918,
                -1.3603072636406777,
                -1.1918404577697215,
                0.40205933794912635,
                -0.5284281496749029,
                0.15334896654450308,
                1.9138525961535262,
                0.524249431190327,
                0.33124736002128813,
                0.05310989183587039,
                0.10491707653111723,
                0.3034843657885556,
                -1.0939095354733963,
                1.94060828809162,
                0.24592990774362897,
                1.3918618418064992,
                0.26697185445226895,
                -2.398857097491794,
                -1.0776103458545578,
                -0.43896124449629786,
                -0.31337342596176676,
                -1.2454892401638522,
                1.2799069148740085,
                -0.13363055122058937,
                0.04439909709484986,
                0.668075771393233,
                -0.17944020779024816,
                -0.47237883816991805,
                0.5507411377601529,
                -0.371732089558507,
                0.8890391515546672,
                -1.0664126839288772,
                -1.049952558133603,
                0.7961218836904609,
                0.3868539328332941,
                2.52292170352273,
                -0.12914114987986008,
                0.07433166133041909,
                0.9932051034251262,
                -2.026234234610758,
                -1.1515467206847823,
                -1.0296386075469226,
                0.13090131638167435,
                -0.2189318845341469,
                -2.5419834069537663,
                -1.159605216989497,
                -1.4800224637216788,
                -1.2318225859109788,
                0.41202574145304477,
                -0.3568384653863409,
                0.7018620664146721,
                -0.9770332718836874,
                0.639418022505306,
                -0.244360965051081,
                1.6123910609113774,
                -0.5167141281596704,
                0.9363916014753615,
                1.3421473518280957,
                -0.28987041058181207,
                0.6275887649171137,
                0.7191176769969893,
                -1.2106935501594875,
                1.1920966344652832,
                0.5533981528951908,
                1.3771553422204428,
                0.47633025837860715,
                0.697033922153607,
                -0.10547827001594626,
                1.4106420553258825,
                -0.6306800201747628,
                -1.8799585999632638,
                0.9519255987622787,
                -1.2531171378319033,
                -0.9622279216000003,
                -0.5862038328015048,
                -0.5447028207744345,
                -0.8091891736658872,
                0.8274925097434573,
                0.49677773408616643,
                -0.14871998635599287,
                0.11180636928367843,
                -0.19108475214214976,
                1.4145339616134576,
                1.000917430435958,
                -1.1764281667198735,
                -0.6437466332089471,
                0.04825947586160072,
                1.5931329688859577,
                -0.2700746959382346,
                0.11029534053840839,
                0.4066864759109186,
                -0.21447806465899788,
                1.1682060244880381,
                1.1318505466736848,
                -0.4305495390842213,
                0.5113023958614743,
                -0.7632115708787711,
                -1.0845874817962504,
                -0.1253016245678628,
                -0.18787469863382292,
                -0.2051884004329924,
                -1.2245959992327122,
                0.44969426281181846,
                1.447513168435141,
                1.673835590153377,
                2.07324189097416,
                -0.9298008888039696,
                0.4632098084028786,
                -1.5069742629967684,
                0.29244575218124635,
                0.922625608629961,
                -0.34166354975259566,
                0.15371705518523837,
                -0.4729042145339752,
                -0.892272947109871,
                0.22301337081789946,
                1.2195224606395072,
                -0.7548858197542458,
                0.43629006919448815,
                0.9378257917255838,
                0.6334677238110913,
                -0.5435317822106671,
                1.0565288936115484,
                0.384656118523173,
                1.0046484647497236,
                0.3786495389751891,
                -0.9459820635871666,
                -1.8203124220196696,
                -0.18773976701813525,
                1.4373464573562988,
                -0.031014964215429548,
                3.4714149147569624,
                0.6922417092914295,
                0.3248592935089897,
                0.9688863642076625,
                -0.019943745843453237,
                0.2667236953919244,
                0.40236508581252056,
                -0.307314366330119,
                0.3301468557414852,
                -0.02763873875998109,
                0.7051510109585649,
                1.4278769326979364,
                0.3771847928628742,
                0.6766378212605983,
                0.5431240244636131,
                -1.5410251885633333,
                -0.49620083532694004,
                0.311489139274557,
                0.041974206383101925,
                1.3055351527112184,
                0.8234010762096181,
                1.1681593158503063,
                1.0359866312920687,
                0.7114251062222061,
                0.016003123391252545,
                -1.0518383038368442,
                -0.3349673295586849,
                -1.1891474313673331,
                -0.26114496551553656,
                1.6093263111029745,
                1.1055705815884196,
                1.2701639755096061,
                -0.5691532574746271,
                -2.476339937816499,
                0.46211864625174764,
                1.6542306588938105,
                -2.102700691268776,
                0.10660523507756407,
                0.60000619653654,
                -1.9876072344257096,
                -1.5992480153373012,
                -0.3352315931388827,
                -0.8552232618751348,
                -1.4128612782390626,
                0.5728366665123459,
                -0.9971526894438749,
                1.5983414830448577,
                0.9364444918019179,
                -0.253922552451802,
                -0.9538413711759052,
                0.6612971781961104,
                0.6637570173584971,
                0.911197216054167,
                0.632576923301757,
                -0.11055863594864719,
                -0.030740526587867075,
                1.7192273681687467,
                -1.6565432414806824,
                2.2726250920799287,
                1.9325943108649344,
                -0.10991167129521189,
                0.9009846737413775,
                0.5407417688922858,
                0.08321395329097486,
                -1.6155850196471104,
                -0.1389247608669921,
                1.5602172735433912,
                0.4682036085147778,
                -1.5229196556035018,
                -0.2688750272831726,
                -1.3479263450489456,
                -0.29603750091734377,
                -1.6607572158614907,
                -1.0471647174295216,
                -0.3962575904049969,
                -0.003997312236312413,
                1.364537618751259,
                1.8353894682638487,
                1.041426164418958,
                0.6030424791769567,
                0.6596188105315917,
                -0.1526081344422347,
                2.2462335875287875,
                -0.028052516087172515,
                1.9428447259802966,
                1.1860234910999796,
                -1.2621356924122686,
                -0.7634914099182178,
                -2.453630123215157,
                1.4872982136527628,
                -0.05524700279527146,
                2.710936792491869,
                1.1837963298613015,
                -2.1038881213914697,
                -0.23561524691473218,
                -0.25845877704005854,
                0.2655672615320339,
                0.6199377296448187,
                -0.9595452673233945,
                -3.2857048541776006,
                -1.0004475265347703,
                0.6340327872103714,
                0.339105846693438,
                1.0022940002288885,
                0.24830320346200327,
                -0.7413391078490779,
                0.9016688750246319,
                0.20749002357803917,
                0.045096008843583266,
                1.6276712439470848,
                -0.5191412332213359,
                -1.3693546640857748,
                -0.3930836308541077,
                0.7317629664571035,
                1.6607462943349254,
                1.5771570110997204,
                -1.2729799176212961,
                -0.7990714987489261,
                1.3597204327077737,
                0.4287870896478258,
                -2.2605950715356453,
                0.21425425509340554,
                -1.3313175233647114,
                -0.2093791604596283,
                -0.31606128173170156,
                2.6974646680112353,
                0.5504242564126977,
                0.7455105473765962,
                -1.747253341275847,
                0.400052656720527,
                -0.5732751875928583,
                -0.701934703286283,
                -0.4104100664815217,
                -0.06449503017531164,
                0.4237251417175783,
                -1.7371009182672144,
                -0.2818525912616227,
                1.9078004576716863,
                -0.6495804124836412,
                1.977219125351049,
                0.5242974923747532,
                1.5927795605645565,
                -0.06348171109268161,
                0.4770460083409188,
                -0.683069941650001,
                1.6190358017459274,
                -0.2003107601333334,
                0.2878949247325623,
                0.5053306753699223,
                0.7661975069597502,
                1.4656576215713162,
                0.7591751203242575,
                -0.4585336839074546,
                -0.14618030561961948,
                -0.8702886408708149,
                -1.5450477409135883,
                -1.1969689460703958,
                -0.06655376623717152,
                0.5541778765580486,
                1.5877522850751706,
                0.9137137036566761,
                -0.9150358342650851,
                2.143014067185656,
                0.24704916006820862,
                -2.733100732362097,
                0.3982566158916712,
                -0.5934044843969636,
                -0.07128787810085309,
                -1.4473295504334784,
                0.5842757553250082,
                -0.8195546845403765,
                -1.4999810063979906,
                0.9360329602654794,
                -0.4569978231629961,
                -0.26031425670459374,
                1.4593137039200792,
                2.1834759325664455,
                1.2300452267071438,
                1.432404442395513,
                2.3231788992671456,
                1.1321687669661173,
                1.8502526111333673,
                0.13252669318732815,
                -0.46130185930417933,
                0.2697172288292035,
                1.511948775175559,
                -0.04580054622420662,
                -1.7101044363226798,
                -0.16945530857047583,
                -0.7649521723193539,
                -1.4309034296031524,
                0.880153020267397,
                1.8321793464653378,
                -0.3796884312543909,
                0.7412349490133355,
                -0.9826817059998366,
                -0.7509291049634922,
                -0.8404817408213975,
                0.3232422156113148,
                2.0416217514710513,
                -2.927341133275833,
                0.9552124993082118,
                -0.03213602443553167,
                -0.9809484042136747,
                -0.2108181745092791,
                -0.5715723202403576,
                -0.8073903974483885,
                1.3507365687049893,
                -2.164542452842755,
                -1.3574834051153093,
                -1.4114810769434338,
                0.1749865710888985,
                -0.18828203111022446,
                1.1502870132374519,
                -1.5081757499684396,
                0.27134737796897257,
                0.0042851029517531015,
                -0.1851783984734453,
                2.2313928433864496,
                -0.8443149466944965,
                0.9199497317652803,
                1.2173610321964463,
                -1.255750445071517,
                1.506496215403042,
                0.02362548789422312,
                -0.716102834644067,
                0.21416001493401407,
                1.2642861639549425,
                -1.1645590590227366,
                -0.0003634703505883412,
                0.5307096567215291,
                -2.276280725815727,
                -0.7252482422651819,
                0.8109277748311242,
                -1.0024377193259373,
                1.5171577475140336,
                1.336293788613447,
                0.24723252093222883,
                0.06317736941495472,
                0.49605846374369755,
                -0.976082345754415,
                0.33572693201477705,
                -1.4449766039496674,
                0.003799933110476548,
                0.4649217543908564,
                1.2432364480043994,
                -1.000960085374337,
                -0.7911727874093715,
                -0.36741459669702836,
                0.24310957786150944,
                0.11544242104209829,
                0.8841241402428524,
                -0.6804403692339475,
                0.04081041064028296,
                0.031224003951722215,
                -0.6059069679000816,
                1.0574007002487054,
                -0.15601993854147653,
                -2.059908888898904,
                -0.22628649492356573,
                1.0835328204816033,
                1.831584252008113
            ],
            [
                -2.6592998570388446,
                -0.41545629413773627,
                0.31844192303226154,
                -0.12763313603445722,
                -0.528645753243157,
                1.1601631226686395,
                1.1202335800970897,
                -0.4296349942206096,
                -0.6462769458990072,
                -1.4495539508765196,
                -0.0330307752311519,
                -0.6956482921714205,
                1.0863176045852885,
                0.16980136254142608,
                0.9628096007926659,
                -0.38291171196494855,
                0.2414854145262471,
                0.514070217362194,
                1.0570549894717984,
                -1.5368059378219288,
                0.690316297825527,
                0.05445063305904351,
                -0.1754154092913059,
                0.1493382253728284,
                0.4266182182989383,
                0.20081258319840178,
                -0.35120100803097204,
                0.24925139483836475,
                1.267884321646592,
                -1.03695184909556,
                -0.31349152055606055,
                -1.3685536654657933,
                1.1214092337386008,
                0.7682518621658075,
                -1.1256750392583168,
                0.42186576104296714,
                -0.7792369157138024,
                0.45204072223864583,
                0.16346905567536277,
                0.5669897279074316,
                -0.16822357724150927,
                1.316894574733468,
                -0.27370318453950704,
                0.06192743495204661,
                -1.1822397064838441,
                2.5298571813341835,
                0.07552927642665441,
                0.024699140747475604,
                -1.0032448465100734,
                1.4444143952616124,
                -1.6453423636063038,
                -0.13875425591686338,
                -0.39313237745104934,
                -0.6524536814422938,
                -0.37109258715416216,
                -0.12381341568204578,
                1.1670009932323837,
                1.3757604162557997,
                -1.3410998453416674,
                0.13718039970628876,
                0.030502847370605435,
                -0.05995776810067739,
                -0.07062959948762365,
                0.3398700328827839,
                -0.5922313391485374,
                -0.21309647758693176,
                0.3048479673112719,
                1.2155417388032583,
                0.934109232961382,
                -0.17316989480248732,
                -0.17688086937308867,
                -0.3732503302621634,
                -0.9802725488102356,
                0.7813623973853954,
                0.24236561165242418,
                -0.37937885190492204,
                -0.7720160815082563,
                0.7337094017606243,
                0.513217370393328,
                -0.38195608186713226,
                -0.8477698339521191,
                0.1988640130660053,
                0.22232179048015097,
                0.8043693823694116,
                -1.090164991643662,
                2.0264603010929565,
                1.8498369836079462,
                -0.9411702179140379,
                -1.7232411736604278,
                -1.2462468972594758,
                -1.3071476353723561,
                -1.6799929700535252,
                -0.21871376385395322,
                -0.1773929016219589,
                -0.49671186657866656,
                2.293983722215849,
                -0.2109197162605819,
                0.773725429775589,
                0.10782082350442754,
                -0.4596423942352705,
                1.0480456438519608,
                -1.1811409962912014,
                -0.7419925488224203,
                0.9169101284351739,
                -0.7624422006665887,
                1.4651716924499214,
                -0.46655865526676193,
                -0.2108534534189653,
                -1.710410531769477,
                -2.3653983292621543,
                -0.46651767299331925,
                0.8815181592133473,
                0.14028681792944736,
                1.4594889561033562,
                -0.5142139799442946,
                1.4126401907043613,
                -2.4910548640943495,
                1.4012057881314688,
                1.3345783704553522,
                0.7896456937633183,
                0.5918649122395288,
                0.5594320249024772,
                0.38522468253421,
                0.9301699536806965,
                0.9525192603347787,
                0.12109932730265342,
                -0.004280429252469899,
                -1.91088892579303,
                -1.4274242867343054,
                -1.3749656148900828,
                0.40094631209220866,
                -0.07357119107741676,
                1.373252098723184,
                -0.24682362566860946,
                -0.7223923136764924,
                0.3637137051705627,
                -0.9123258504818829,
                2.071798590739768,
                -0.6275683973756312,
                -0.4029169042441944,
                -0.4449263739707867,
                0.49709558596202935,
                0.478627563927142,
                -0.5319868147481897,
                -0.08790979965347974,
                2.3896039595089182,
                0.4749246201020559,
                -0.28188455486104813,
                1.419129766937396,
                0.7580774791461083,
                1.010842761657912,
                -0.03738310738775882,
                0.17160147274884632,
                -0.20466674118682487,
                -2.009877052629105,
                -0.27749080724962744,
                -2.605700591718678,
                -0.269368838597607,
                1.5502727386275177,
                0.5397738246490281,
                -0.6293693552223568,
                1.0959793706916365,
                -0.10048634126757629,
                -0.8651724405571384,
                1.153594659230864,
                -0.06474054844731025,
                1.0193191851761556,
                -0.7379703245864403,
                -1.058747203904731,
                -0.5601780622657656,
                -0.45663088039504807,
                -0.44067742178839847,
                0.054967317525906376,
                0.2387681551285084,
                1.3926530763172018,
                1.3763162252601724,
                0.41642490230838025,
                0.5906266367104767,
                1.0676551022046523,
                0.438145394552278,
                1.1978066669902727,
                -0.3289846888330925,
                -1.4045632191676207,
                -0.2111241678627092,
                -0.10361049194538009,
                1.0490706317835325,
                0.043003982904110685,
                0.46609256018933887,
                0.8409528392205229,
                -1.7705952845715076,
                -2.2389276605669974,
                -0.021074982977945293,
                1.3951142572984412,
                -1.3484423219431723,
                -0.227058009200095,
                -0.30581850744550365,
                -1.363410842368542,
                1.2126924501801704,
                0.9312641350632458,
                0.3548257005831249,
                1.162057141622912,
                1.008229680212476,
                0.9427575199933832,
                2.0296957329248837,
                0.6136329856621782,
                -0.6310187182897857,
                0.9496288346518398,
                -1.8859030956516698,
                -0.19273393040772152,
                -1.5285990892730499,
                -1.7031934226081376,
                -0.02083728997134842,
                -2.718153583404469,
                0.5894065395895735,
                0.5162882251098602,
                0.5259679915953721,
                0.525101549981507,
                -0.697541353912311,
                -0.09851629592019291,
                -0.1856803012767433,
                -1.0535422401471513,
                -0.754880561996795,
                -0.10854382834381007,
                0.061035221888663206,
                0.21007061605941238,
                0.09173196762531255,
                -0.2316964043591,
                1.215146539046355,
                -0.12286509525693633,
                -0.6050954126252753,
                -1.115848406715585,
                1.2652387501556768,
                2.3791060716720773,
                1.711733948607722,
                -1.4529361948996606,
                0.797636088737172,
                -1.6112432834437953,
                1.25137296917649,
                -1.2651261227992423,
                -0.5563433828613652,
                1.3045181867578686,
                0.460397441611294,
                0.9839893720632232,
                1.1283055320192783,
                -1.807589601714017,
                2.0545056404411164,
                0.23257765178144468,
                -1.4523530400260614,
                -0.3459777826786295,
                -0.47528460177419757,
                0.47591276900518986,
                1.3441211580234147,
                0.7568957632569623,
                -0.7547124218644156,
                -0.6375090335030131,
                -0.6014342510488745,
                -0.1655166211400516,
                -0.9226045457190847,
                0.4932972473712362,
                1.0465570630880983,
                -0.28415720543390943,
                0.633267773267046,
                2.0846618191756914,
                -0.09093897612678108,
                0.5054471126091074,
                0.10566335020402784,
                -1.3865017345360915,
                -1.0322029168273483,
                0.02097821650705576,
                0.8538527657131945,
                1.3492706188744772,
                0.7173634105746531,
                0.7281060972715936,
                1.3531554043872387,
                0.17720741435294093,
                -0.031050514628756652,
                0.15484386314186357,
                -2.24564871361321,
                0.023185306230285554,
                -0.6301495766314813,
                -0.7090768880347882,
                -1.0098942663008659,
                0.9200616639022536,
                -1.4635136978003631,
                0.4549928403848618,
                0.9245016263754935,
                -0.6335171010369497,
                -0.13645923600163073,
                0.33680412473243243,
                0.03270246876083811,
                1.9999025520110794,
                0.8057950750083973,
                -1.5748931197791778,
                -1.6983441474263508,
                0.45845767792683617,
                -0.6823044061732452,
                0.7774642694558558,
                0.6205944227423768,
                1.2577045709986125,
                2.296581494122383,
                2.242493450357932,
                -0.06543327447692629,
                1.6673201775713895,
                -0.4599190510592502,
                1.0929742268930804,
                -1.1291486346666517,
                -0.10283724192060112,
                -0.7777412770338576,
                -0.6911967374612754,
                -0.1818154112346651,
                0.20770016898477972,
                0.32801810615750926,
                0.08565572468068405,
                0.7457609401314956,
                0.5173594322551367,
                -0.577969485108869,
                1.0913486456425119,
                0.31951986774405783,
                2.240471039052195,
                0.14302328039315682,
                -0.5246085057935849,
                -1.891445436781111,
                -0.23026996271031142,
                -0.24755432476842623,
                1.9097827544279655,
                0.3797077967873367,
                0.8893080356874373,
                -1.317885474667806,
                1.6160089671707183,
                0.2874630809372913,
                0.4060684737939483,
                3.3706292496839247,
                -1.1009111891035361,
                1.4056539915086066,
                0.9294481076429577,
                0.05383463379285289,
                0.34633144114342074,
                -0.35576344142259664,
                -0.14864053421090304,
                0.3539221775707992,
                -0.12813250990978275,
                -1.1631847766063137,
                0.22574450923248285,
                1.377006708279044,
                -1.1671802687870494,
                0.515377162589489,
                -0.8988376669462088,
                -0.5586860306895667,
                -1.3510245368065326,
                -1.6691540810447862,
                0.14038959331509543,
                0.9863863430936913,
                -0.20459996374471093,
                1.3102235276306404,
                -0.46701518852569635,
                -0.41280560547544176,
                1.0811528470379648,
                0.5025278097767462,
                -0.056453987514043014,
                0.5938562435739134,
                0.3847295397601027,
                -0.6963524217133525,
                -1.3860098768834779,
                0.8485311112362214,
                -1.3668964668663264,
                -0.719844599607674,
                -0.6635570795491307,
                1.3693546438882258,
                0.16089003105968266,
                0.4061353136109301,
                0.988823978001831,
                0.3152229907233111,
                -0.22999183395193634,
                1.3265557777610908,
                0.6091469048797373,
                0.96238839824061,
                0.4474562152557144,
                1.5032066444378394,
                0.26776443522881405,
                0.7069501486359647,
                -0.2793911893453617,
                2.2594374578446303,
                1.0074122997262034,
                -0.607667655526362,
                0.4580616849962915,
                -1.3658211179042734,
                0.0997102624815907,
                -0.22080636343958573,
                -0.09009985497165603,
                0.09337447212345303,
                0.716942042546322,
                1.152855201949418,
                1.5951356585888885,
                1.0107126251245202,
                -1.3996251257175967,
                -1.210888347648764,
                -1.85906169778668,
                0.4378668164618695,
                -0.09296422927161183,
                -0.3710104542148914,
                -0.08183781936125725,
                -1.7517471733421983,
                2.134074520373496,
                0.7921627656456144,
                0.9758868000886857,
                -0.24016441754200982,
                0.23979825608097827,
                -0.7782588429015406,
                -0.30094113541733974,
                2.11428886027307,
                -0.6249459393754789,
                0.8949712879255309,
                -1.8200478147287125,
                0.8069907928064007,
                0.325206207952364,
                0.016061915271095507,
                1.6917334253519476,
                -0.39833176639142204,
                0.5667175740702992,
                -0.12384104784268475,
                0.5822505937412925,
                1.5546199877883262,
                -1.7879035134365622,
                0.22768842517769083,
                1.109897958010081,
                -1.4331814604269417,
                -0.5950901925532107,
                0.8418157956507694,
                -0.10207440101479848,
                -1.4036813398768169,
                0.6586923253295816,
                -0.6405378902002499,
                0.0944189431045528,
                1.3981198851351142,
                1.0575184651523848,
                -0.41164086135422795,
                0.6579262587478989,
                0.32265327889642287,
                -0.8880102572539571,
                1.8906350467430686,
                1.5317065384025699,
                -0.8132732365741452,
                0.9139101668826285,
                -0.14971385272054336,
                -0.23306580026754237,
                -0.41834207509541405,
                -1.7514109336684365,
                0.07370238741924086,
                0.8919053489974093,
                -0.5086985910721384,
                0.3567238504717388,
                -0.8115771402169143,
                -0.42054827982074316,
                -1.9880545112463728,
                1.1498868427844104,
                -1.1318151862960741,
                -0.89361272847569,
                0.11872443702856393,
                0.7629837443254435,
                -0.45033289053909187,
                0.8866405454028872,
                -0.014015883111755008,
                0.7268935332565996,
                -1.450456350976543,
                -0.2390802314041443,
                0.9557385884189226,
                0.3938780262379452,
                0.44062020846946187,
                -2.6037555404760804,
                0.7335976830744924,
                -0.9265725595041494,
                2.063711119665647,
                1.17053187757987,
                -0.1373118136419356,
                0.44172193436842955,
                -1.0341594346769398,
                1.2914652164294451,
                -0.5176571046807712,
                0.06556318612322552,
                -0.20854239222554538,
                0.5458503865666637,
                -0.7290279423201592,
                1.5058959751229692,
                -0.2887430220489286,
                1.0276488103207837,
                0.5671366840999873,
                0.9635203750718885,
                -0.86884833709478,
                -1.4613190135464313,
                -0.12510656656606067,
                -0.08064942426766226,
                0.7596788823298352,
                -0.836521314181642,
                0.9772900938397179,
                2.0134517057283796,
                0.35411513456512794,
                1.6729136059948524,
                1.0453625308386814,
                1.826738889263984,
                0.17324053627126934,
                0.9817490722863932,
                2.0363548343319184,
                0.6239863383617327,
                -2.042665219648174,
                0.525118658197712,
                0.7176935145554436,
                0.05849142295131241,
                -1.1762987451790463,
                -1.3203790927643868,
                0.529274510169522,
                0.6175084510737451,
                1.854872302795365,
                2.7355460564896563,
                1.2274760847867543,
                1.8821640307345735,
                1.0848759945411477,
                1.316395448059609,
                -1.31590320142465,
                0.14535684715151634,
                -0.8473499386866911,
                -0.38249263301218456,
                -1.2638697357343511,
                -0.7209630360437064,
                1.2221043539679517,
                0.43718388794595425,
                2.204662560574114,
                0.29681253406913927,
                -1.0329459165168722,
                -0.7570956482426784,
                0.2746514267312498,
                0.34338526436504035,
                -0.7551755547175306,
                0.8732268790339506,
                -0.7104943777598809,
                -0.0028433165268646607,
                1.161369089690171,
                1.6166981380685093,
                0.1503541669500712,
                1.8985530360918657,
                0.9848555419914756,
                0.2307852395053526,
                -0.5002282091222642,
                0.79943968367707,
                2.712131451276204,
                0.8578733859110653,
                0.6362624349532333,
                0.5916192695595878,
                1.8983781706069236,
                -1.3900319424990095,
                -1.1569312640205234,
                -1.0045432120095932,
                0.4222515208178304,
                -0.29238980722307717,
                -0.49134311123140173,
                -0.3986618038283158,
                0.1980054854429471,
                0.3733349501655539,
                0.12844926417614563,
                0.36382452278886745,
                -0.859246530999108,
                -0.9835905100770209,
                0.6056313341465266,
                0.03501314008312668,
                -0.5485776469142609,
                0.770146772913467,
                0.6485805899272901,
                -1.3329113848027652,
                0.19076208071859277,
                -1.3875557971779011,
                0.3092690265445973,
                1.2327991768763409,
                1.6572406313663235,
                0.10628680072861026,
                -0.8373592325683433,
                1.5922193265884421,
                0.972091436703237,
                -0.8724519944206038,
                0.4760847318035778,
                -0.4329621455295302,
                -0.39965629118479096,
                -0.21497070807084923,
                -0.6905712101391385,
                -0.9444332773251221,
                -0.8537714949642653,
                -1.887004741240654,
                -0.22853435283545723,
                -0.34414367839391213,
                1.8472126733808516,
                1.196207869781964,
                -0.8596367808506209,
                -1.8449485633483205,
                0.02246975702604071,
                -1.4058368046100593,
                -0.6484922677086102,
                -0.31923686798972717,
                0.3581972660547326,
                -0.19796824415641126,
                -0.6411818555729667,
                -0.3103227901084189,
                -1.0140277744747301,
                -0.2319579849217638,
                -1.6333065461634388,
                0.06661277002760431,
                -1.3949049630659218,
                0.8246814118488034,
                0.05466730509088957,
                0.7851865633650681,
                0.5332976839759601,
                0.15924239235822174,
                0.8337902790923597,
                0.7396556668367584,
                0.5612688910333096,
                -0.14414305673959887,
                0.7664570401164764,
                1.335579582743751,
                0.6491065828447548,
                1.2917595841031462,
                -0.085481926272316,
                0.7434266862380596,
                -0.7735518383887916,
                -0.5656626813166779,
                -1.404513397579523,
                -0.5951694208286125,
                -0.1062105006251319,
                0.9686012727212918,
                -0.4927090084266899,
                0.02006814169979867,
                -0.6543918405333654,
                -0.822096714413878,
                0.33169820563866487,
                0.9985791141587448,
                0.6766847350594181,
                -0.5535321561733066,
                2.6582849038982967,
                -0.7881467894744383,
                -0.6689442828073547,
                -0.29617671624254494,
                0.7412593105358302,
                -0.22699185934433083,
                -0.803658708377206,
                0.794037555827412,
                0.25413793736141616,
                -0.42449188767033796,
                0.9053961904846691,
                -0.5564118310249471,
                -0.6294168709211629,
                0.3349967606261533,
                -0.6370627347243655,
                -2.3273078739705575,
                1.3136434657863756,
                0.18875867773183377,
                0.7533978770027759,
                0.030786710522312074,
                1.4124145591582373,
                -0.18549543224343595,
                1.679605682335822,
                1.3110348251006534,
                -0.9650456777008897,
                1.3895211737250523,
                0.3010079920728917,
                -0.708430941705769,
                -1.4065897801715905,
                -0.9039135132481678,
                -1.5088326681732815,
                1.7134561689975345,
                -0.39734983802515067,
                0.9133396995939935,
                0.8366907335047509,
                -1.3469857225644195,
                1.6290896876031666,
                1.521743738308491,
                0.2900093174306771,
                0.9643987944218672,
                0.10387366054074061,
                1.6151331890182261,
                0.5356052579947109,
                -0.9682363011153725,
                1.1329690194266648,
                0.37313241011363635,
                -0.7383519959505099,
                -0.7308015092355877,
                1.38247319097115,
                -1.0501406194268657,
                -0.9085903603735586,
                1.0171254387686541,
                0.7020497584880243,
                0.8343287695685638,
                -0.6115120392265896,
                -0.8598873306063588,
                1.0317599996134244,
                0.6235396759799168,
                0.6056428261750885,
                -1.8454630260441762,
                -1.8842647631749216,
                0.12559590436300935,
                -1.0805189362806773,
                0.44405741315797687,
                -0.11612317936388974,
                0.48437202328073115,
                -0.3412681974774365,
                0.038635733895656874,
                0.2730812542368645,
                0.38356189770357746,
                1.0269750236478417,
                -0.8362237681611061,
                1.3456193657648332,
                1.0622542997330853,
                -0.8075326859540333,
                1.736958858052,
                -0.6627828268648185,
                1.6122401694147506,
                0.36540164989182994,
                -0.12946764213516795,
                1.2340194330419516,
                1.0102637608016498,
                -0.7616332110948902,
                1.5480542753745101,
                1.190689225422745,
                -0.24667327027291527,
                0.16709585833575394,
                1.4408026007616364,
                -1.2829295573577828,
                1.4309187646020025,
                0.6068832406179409,
                -0.5335146092428505,
                -0.45683146906653405,
                -0.12208434573360483,
                -1.0188437653405926,
                -1.1382642450169775,
                0.5909450463462383,
                -1.0473826901660552,
                0.4391755553684588,
                -1.2076366030478918,
                -0.7726054664546972,
                1.897034723512957,
                1.7184680661079386,
                -0.1736872836543849,
                -0.5464952868842794,
                0.4479586529310286,
                0.37514635103846133,
                -0.10978461673384109,
                -0.795520990946321,
                0.06166093963342644,
                -0.95685397309708,
                -0.2893556546073674,
                1.0885642391790695,
                0.42659159622174914,
                0.21463371261922862,
                1.7512220185500291,
                -1.2882345819106251,
                0.6641916269329188,
                -0.11584048226264392,
                -1.4988147932421223,
                1.2668476446542065,
                -1.067894073343981,
                1.1785115909676125,
                -0.13749839764064567,
                -0.9765175598763876,
                -0.3393561539546411,
                0.758487871939874,
                1.1121204858216531,
                0.3137326399427514,
                -0.9737198596056483,
                -0.4365609600840242,
                0.24844065745718763,
                0.47297307289028134,
                -0.9459588828208129,
                1.1646215681862724,
                1.5665698764651035,
                -0.07520437343781006,
                -0.16178871353768118,
                1.3143257872038345,
                0.2739183637650888,
                -0.9435506087806533,
                -0.7526283825928978,
                0.18901898595526298,
                -0.5173883601860441,
                -1.1581253083163725,
                -0.5908956465323926,
                -0.02411694861255857,
                -1.3072380622893942,
                -0.15801503927697075,
                0.23414610710486594,
                -0.424670455108838
            ],
            [
                -0.9660738566617776,
                0.5995273684038875,
                0.8086037303098819,
                0.7143372565690166,
                -0.2104440585805689,
                0.40240526097772933,
                -0.5976036668491699,
                -0.1408992819986121,
                0.5667720869155776,
                0.6392286399282354,
                1.51288874755241,
                0.16561948744777436,
                0.4549906787418379,
                0.9706376724704443,
                0.5280523513803003,
                0.5116572864726706,
                0.2530879381936292,
                0.5082218026018059,
                0.527327668311878,
                0.762433698140023,
                -1.6114138860205713,
                -0.37542222571867256,
                -0.12404124698179297,
                1.253955002381267,
                -0.611264721437188,
                0.4689858359736309,
                -1.1212388678856477,
                -0.4478521002725173,
                -1.8967360135851785,
                1.8047357923343974,
                1.87610400579858,
                -0.024109418302694436,
                -0.6834586197351025,
                -1.5984177588406727,
                -1.0516475046880802,
                0.1620141070785598,
                0.4709747457327687,
                -0.18653683564653695,
                -0.8716467161430059,
                0.6126988677229418,
                0.8693369263617402,
                -2.2875371878363744,
                -1.6514141724043638,
                0.16193591140189134,
                -0.08456643359993012,
                0.23496219235603624,
                -0.049150051557687965,
                -1.2965524443672043,
                0.7287222946685165,
                -0.3046348119259314,
                0.935754537685915,
                -0.4090803030490307,
                1.3056889044880424,
                -1.6161428680589864,
                -0.603092970847162,
                -2.1863864402614044,
                -0.044636023312461595,
                1.4203250051000895,
                1.4268369808085037,
                0.811323299661276,
                -0.26014413785651647,
                1.2255384957107829,
                1.082343804541253,
                -0.7232709934455489,
                0.013997761772108108,
                -1.1915449997320693,
                0.414693060600492,
                0.400504663426527,
                -2.3400884520698657,
                1.0527171269502202,
                0.5765481858661116,
                1.2901563983499895,
                -0.3758858700214659,
                1.1718515419157356,
                0.14702133864698358,
                1.44173330015357,
                1.078444973702737,
                -0.6028863952680805,
                -0.23045443250400377,
                0.48301390572212743,
                0.8642990672641473,
                1.261258949027251,
                -0.0020167472800843144,
                -0.05998648159416765,
                0.3672304488367074,
                1.6100920161071632,
                0.7873422567308688,
                0.2949925252260932,
                1.3653235119535785,
                -0.2907283287238661,
                -1.1512773048233655,
                0.10093791017845617,
                -0.04844043670228254,
                0.4869920600227215,
                0.2853895276952351,
                0.2857184914510995,
                0.31686857572862864,
                1.690558476721225,
                0.768465076324704,
                2.1285348688182415,
                0.3137122598386144,
                -0.10741613418994911,
                0.6548065152554169,
                0.3243114639777619,
                0.7660442746905644,
                -0.09476712686041323,
                0.9143806445010101,
                -0.659435183584356,
                0.14008440976054684,
                1.200810774257047,
                -1.0776708854500607,
                0.7208164492845183,
                -1.0247474362136857,
                -0.18624437411211303,
                -0.06997000166770546,
                -0.4551791509382935,
                -1.6155626376879595,
                0.5631439362676546,
                -0.0005693491250606042,
                -1.3719885302851451,
                -1.766775087496173,
                0.22566222256411791,
                1.6208903691813237,
                0.7757516415569449,
                -0.11234114093545153,
                -0.7550057473627527,
                1.8277296954027402,
                0.5670006603782815,
                0.591065713290659,
                0.10462035552090271,
                0.37640842085653026,
                0.975632023488687,
                0.17298371062069004,
                -0.9756021455728222,
                1.0775758129008985,
                -0.5483924186371627,
                -1.3387410192673697,
                0.09767149818310868,
                -1.0644969171220677,
                -0.2491521579890963,
                -1.1412169126257552,
                -0.8650088322274719,
                -1.1012533154367523,
                1.478672546837344,
                0.6484726943065909,
                1.6215343347417597,
                -0.1519352879956393,
                -2.4290850181088297,
                0.836939615524715,
                0.07011502782175856,
                1.2855755918933633,
                0.042725161282669046,
                -0.008076257873000167,
                -0.46475855885827566,
                0.9850793496299142,
                -0.7607351594007903,
                0.850491756589634,
                0.3496434052233718,
                0.5591147911223427,
                1.9748982842606864,
                -1.891292953064804,
                -0.42863777069097253,
                1.6358422819099225,
                0.9833485089373746,
                0.0019667727329924834,
                -0.4223140508075563,
                0.03407094574961679,
                0.8814570661958818,
                1.1178423036332281,
                -0.9992250614159518,
                -0.7596332527407992,
                1.179129588346055,
                0.5897641242734661,
                0.7168988763790692,
                -0.5334138714315009,
                3.4761229230956325,
                1.3755789071659845,
                0.16446964609716166,
                1.0053194722363585,
                -1.0089433106417836,
                -0.2906106408378668,
                -0.5533096582113824,
                0.755408698202766,
                -1.1846838315766508,
                0.7292421845157426,
                0.8143564276601933,
                2.0060950448276356,
                -0.7160801642207477,
                0.49658074044938433,
                -0.24796536390810608,
                -0.38868003348749286,
                -0.02716365329002213,
                0.7827343749539054,
                2.270454875465382,
                0.9486640037075272,
                -1.1857619461616529,
                0.16739776128555126,
                0.7443278728621396,
                0.12182809162795898,
                -0.025709613974873965,
                0.1019834785647762,
                -1.04610761276925,
                0.2344861027129886,
                0.2004364034961434,
                1.1712037891901657,
                0.23125770837581322,
                -0.3062040540580517,
                -0.7168571091965894,
                0.3984123343966577,
                0.25156076885035666,
                0.8203304324366228,
                2.2203609743914723,
                0.7239677855165421,
                0.9070400638182665,
                2.0661846179509396,
                1.2240240024369158,
                0.15538335894914507,
                0.22987056451726925,
                -0.37777064014507217,
                -0.6825953341066859,
                0.03137269472502899,
                0.19261565596592886,
                -1.9549887890187545,
                0.4589735409277348,
                0.11302549835393666,
                0.07476282961430517,
                -0.2820384695534522,
                0.7664463337011171,
                -1.3076834568490352,
                1.0186784947198033,
                1.913141402438266,
                0.5541939934611136,
                -0.7131854607398809,
                2.1091432519093916,
                -0.3029253896735078,
                0.28977190329810615,
                0.700305088762417,
                -0.21525585331107408,
                -0.598369283671629,
                0.789802178197587,
                -0.7468893193902724,
                0.18502952695649036,
                0.6004314045044096,
                -0.5396358028384507,
                0.47462320803316416,
                0.9620577359338841,
                -0.9838722644856068,
                0.16575615869757002,
                -1.0279017641819617,
                -0.16686014108104982,
                0.808877542788771,
                -0.6239480832329926,
                -0.0175185419640367,
                -2.96112027168525,
                0.035467430796909866,
                0.9530160625213021,
                -1.9168514461509698,
                1.0618095492294488,
                0.35764171345408924,
                0.46619361380171587,
                -1.4096340983596274,
                0.4541743405347266,
                0.9169625566158224,
                2.066763169757137,
                0.5008388288130668,
                -0.7834057669749152,
                1.4394933265582464,
                -0.3877820502017716,
                0.4787528244190221,
                -0.47154589570073624,
                -0.5018939186337518,
                -2.6765424931306696,
                0.3226378251043484,
                -0.8895740063100914,
                -0.6096819864370057,
                0.8875524872995875,
                -1.8347738046471573,
                -0.028607196667432964,
                0.41880954848945107,
                0.614349764654192,
                0.11187270280626792,
                -0.7166228506696015,
                -0.6762692409625428,
                -0.6128276811037247,
                0.9223719038378002,
                -0.05600021188072781,
                0.2998625231291683,
                -2.3507806817223384,
                -0.003938143165056117,
                -0.5992354075008091,
                1.951543989286549,
                0.12101896445654686,
                2.958873943537534,
                1.1186839999166402,
                -0.14892641696369954,
                -0.3999605797158111,
                0.6125982841014249,
                -0.9883135297466549,
                -0.5207950859013937,
                -0.14759647673323176,
                -1.0247223969267916,
                -1.134729790377612,
                -1.3944509479969533,
                -1.8783537249078832,
                -2.691498897616735,
                -1.8929223200042935,
                -0.4489715694566066,
                0.17325673547492493,
                1.1205114211625067,
                -0.5518276331524774,
                2.317533153883783,
                1.1272500754950787,
                -0.3453300739991243,
                2.4139385472573758,
                2.136721667528523,
                0.24759497444103415,
                0.36424808944856857,
                0.5547169683649757,
                1.4542046511415345,
                -1.5072846318111506,
                -1.4770279862125082,
                -0.2318514033916324,
                0.32706207669470827,
                -0.3967572343538325,
                1.2235357002281753,
                -1.3192688172397922,
                0.11026920696275014,
                1.2382333144802562,
                0.10410375799593068,
                0.6304563465906626,
                1.3707580846074126,
                -0.9225583767611879,
                -0.03702002666066877,
                -0.5799464583206346,
                0.8346965401425628,
                0.6608502301148133,
                -0.10693399668209264,
                0.0978549091419169,
                0.46017628330095,
                1.4565741334329736,
                -0.6525427738736457,
                2.5248108055440435,
                -0.08707691509689823,
                -0.4916973195535014,
                0.6005323411521634,
                -0.6546345953495781,
                -0.6629595001547711,
                -0.04142060502456699,
                -0.20548938826535815,
                0.23560188124401796,
                -0.7122493938938809,
                -0.5573689952390998,
                0.3273934086106383,
                0.949739298748843,
                0.7042373788142772,
                -0.9751151472866451,
                1.47168359055867,
                1.1199247312337937,
                -0.29593968392400216,
                -0.544629650261115,
                0.27952169560154705,
                0.36637316124384994,
                -0.288861149799548,
                -1.0591889503845884,
                -0.9813436431476886,
                -0.652686029324618,
                0.4100964151737004,
                -0.6550212807351129,
                -0.7386625227956382,
                -0.7693262189800434,
                0.533471052697731,
                -0.41876723009147643,
                0.34557329306198087,
                -1.2421942621193285,
                -0.2086548519273191,
                -0.8666292726277145,
                0.7536824316805015,
                0.26325403238055445,
                -0.7488148715364287,
                -0.38833113975061323,
                -0.33295022780828454,
                1.9101847714970583,
                0.10708148480620948,
                1.2245551821106138,
                -0.8187916553010675,
                -1.109235120945602,
                0.259572607172588,
                -1.2602078827721879,
                -0.09455074681886973,
                -0.269938388402247,
                -1.2798610292852384,
                0.03229449280115633,
                0.04541088140255148,
                1.1573721411228246,
                -1.8910477334500382,
                -0.32973446003704354,
                0.679270578048864,
                -0.6735058986678302,
                0.20826521792556538,
                -1.887718572838795,
                -0.0472219179258301,
                -1.1707319476681362,
                0.18240081391122992,
                0.382573210973778,
                -1.4558814607692256,
                1.5044007181805625,
                1.727751185075649,
                0.3280043377728178,
                0.6297395509609531,
                -1.1780801678352761,
                -0.6289885693056665,
                -0.6303699462280498,
                1.0446914730498875,
                1.2661593564385365,
                0.006580634528823851,
                1.1814884517568565,
                -1.0744747138541155,
                0.4207318090241072,
                -0.35971873598208953,
                -0.7233799666610554,
                -0.8905539857831641,
                0.48337315054867713,
                -1.384716978481677,
                0.9026282498067015,
                0.3150525103416278,
                -1.2650628518455145,
                0.28948874377332867,
                0.10302953609379957,
                -0.2347941281736246,
                1.3804741673239291,
                1.445910211140789,
                -0.24145088745377802,
                0.2514215864062609,
                0.15354028733399616,
                1.1929684521901265,
                -0.7132325986175956,
                0.7856274194455051,
                0.6458680022741452,
                0.7063472202533203,
                0.3499117280526767,
                0.1111872210515481,
                0.8631643427451589,
                -0.1495513949244962,
                -0.7513129341449709,
                0.6310790329005512,
                -1.0377153564090744,
                -0.7980779447988816,
                -0.6871100528663744,
                0.7444127866327271,
                -0.7356599637956918,
                0.8050461488888349,
                0.5465542264616233,
                0.6622772227609305,
                0.18113222445702915,
                0.2170931902740263,
                -0.8706298465198624,
                -1.0436470905211899,
                -0.7031333073004937,
                -1.0174461469276859,
                -2.331375160996695,
                -0.7572260641562838,
                1.486616349769842,
                0.5711706439053293,
                -0.011183590963434343,
                -0.3391289225742028,
                1.1422106767543534,
                0.5263012157351595,
                0.7873799478919447,
                -0.8386205108884289,
                2.859793700655442,
                1.6969681446480769,
                0.4569831375475788,
                -0.004946317854281683,
                0.3309469601720853,
                1.0512257257071165,
                1.0787953427774304,
                -0.66662200493085,
                -2.129155711106299,
                -2.099063132439256,
                1.2915021104232671,
                1.2789068803014825,
                -0.7632737978532508,
                0.5032284694462144,
                -0.20995016420431853,
                -1.3724531720044417,
                -1.1885429895724005,
                -0.2922655025083727,
                -3.107911261182085,
                0.7795789736244798,
                0.29437147226361193,
                0.5399098408507046,
                0.6509982317074235,
                -0.2636375833075701,
                0.44716182827603984,
                0.46847109463138237,
                -0.006913586437077443,
                0.6835058319188015,
                1.1783710949501638,
                0.479440195364332,
                1.3997560413283852,
                0.6650377700514417,
                -0.5583223365216555,
                -1.9975965984856103,
                0.5623212689526843,
                -0.5896830845632516,
                -0.9574812292684499,
                1.160263931303818,
                0.9382344209558979,
                -0.674107095696517,
                0.2023685682852569,
                1.6721934660462234,
                0.09041694580091221,
                -0.4703318219958683,
                0.16691605079555066,
                -0.4695193538744713,
                -0.6840273831678917,
                -0.6668419120276416,
                -0.15450309421159705,
                -0.49567009005945395,
                -0.7598631519840426,
                -0.710889859047269,
                -0.01346273233145254,
                -0.8354761602164738,
                -0.8076602120296894,
                0.2925320691499113,
                -0.35133898581860556,
                0.7200456595818883,
                -0.3903965433021927,
                0.5135148007808364,
                1.6100653784570833,
                0.8028825962267188,
                0.41196202322100484,
                -0.1840894808633413,
                0.7486491511221395,
                1.3949976254427179,
                -1.2311905819355777,
                0.8101721783395782,
                0.02372322514160609,
                0.17330119556688633,
                -0.6505722832654747,
                1.1324848959591771,
                -1.1566599243070834,
                -0.7160810669386983,
                2.0527098717038186,
                0.7644597099934975,
                1.787691086870363,
                0.05868854906102948,
                1.4136044160852357,
                0.15933901033983264,
                -0.779353545919718,
                1.9029212239883033,
                0.4475949974045638,
                -1.290277537681824,
                0.0948987214179598,
                0.4079087242260512,
                -0.7010473723155408,
                1.548240606820125,
                0.5068365566321658,
                -0.12891100279174025,
                0.021018311920237513,
                -0.06098678036969424,
                0.13498495866121024,
                -1.547558266078397,
                1.0432691241114245,
                -0.20152465569194503,
                0.44064566819224615,
                -0.7072725838373842,
                -1.1514555361201264,
                1.1536078466699522,
                1.0672853138911018,
                0.8373549482300662,
                0.7534993931839615,
                -0.448974814550833,
                -0.34215152219642103,
                -0.8769976164447727,
                0.0891842636709795,
                0.36801063938270173,
                -0.5405932890136486,
                0.7510449030326003,
                -0.37056907706145625,
                -1.0537393547932583,
                -0.09997495642250709,
                0.1269524321790612,
                -0.5209044105787798,
                1.511125735591951,
                1.1388372205379156,
                0.038421451350317715,
                -1.3372116194805765,
                0.718545447417399,
                0.7083736807625802,
                -0.9587998863163866,
                -0.35784008166377407,
                -0.13309108701898018,
                -1.2996683790985988,
                -0.9710551709900607,
                0.9715573470233618,
                1.0215373075296272,
                0.4449582211998628,
                -0.827006700020098,
                1.362645150666189,
                -0.011505783468597893,
                0.5760978991638982,
                -0.43817210933921213,
                0.34453615350150313,
                0.2445897367919312,
                0.5546141753566275,
                0.6118801525753302,
                1.0526151358229947,
                1.519134990510013,
                0.2635657058714917,
                0.24645541502636248,
                -0.31488906250805765,
                0.700202960046671,
                1.6476340464239005,
                -2.419828187149409,
                0.3860703029288448,
                0.5725621476693705,
                -0.2717153368553928,
                0.006234045288373654,
                0.55416519810564,
                1.8762152001599581,
                -0.002954100704696765,
                -0.8086374019197997,
                1.2074573396701602,
                2.5425728036620137,
                0.8442441671815663,
                -0.07028635781792794,
                -1.2389351643621012,
                1.6520434504709163,
                -0.9913205898679145,
                0.7273465532864098,
                0.4100085698153477,
                1.277660095376945,
                -1.2114432232611634,
                0.8836171486271228,
                -0.5857779698716162,
                -0.18686680693463353,
                -0.721710929564338,
                -1.8927814596061199,
                -0.37561353089471117,
                -0.4873272843517466,
                1.0526296152046912,
                2.4573840693891817,
                -0.6066583761479336,
                -0.3402416306151123,
                0.3535753501494086,
                -2.1448584850002375,
                -0.24747997402846317,
                0.6629321293592902,
                0.3337833084642723,
                -0.44236949370330136,
                -0.11715261857490154,
                -0.5184326545836625,
                -0.05920515222066881,
                1.9093013379799055,
                1.0892300732932247,
                0.017123043135945606,
                -0.19186196949004605,
                -0.8697842153635242,
                0.5183870188149855,
                -0.08658856302192994,
                -0.3279850480686786,
                -1.28871059573614,
                -0.43018987520784,
                -0.23498394272068868,
                1.345810291373398,
                1.8666593574250434,
                -0.3649647266612094,
                -0.10398611363274599,
                -0.3876091914343813,
                -0.3998526215594209,
                0.11421820384509944,
                -0.6225466155249239,
                1.168071937197588,
                0.7823140859032498,
                -1.2016679123560206,
                0.026587986346238317,
                0.6015219344863456,
                -0.4410447205920966,
                0.4465264269156738,
                1.5988336135526806,
                1.0797647204879222,
                -1.4626161780691593,
                -0.16614713224399433,
                0.21526080148548482,
                -0.03111731312481966,
                -0.3851900890496935,
                -0.9764310404652841,
                1.6940246412262097,
                0.00505063724798389,
                -0.29012669833383065,
                -0.5812931378187141,
                -1.4322012561079465,
                -0.009399987111601463,
                0.8966229277223551,
                -0.6152674369058946,
                0.29891064030458203,
                -0.7458277458336955,
                -0.36469542929570187,
                -0.9914443275240814,
                0.7101456910516394,
                0.4242954117498659,
                0.6012390932076637,
                0.21086499676014236,
                0.07959975457601019,
                0.3764220975000092,
                -2.0145463973071354,
                -0.5365744940154337,
                0.5975994826291147,
                0.2677490357076693,
                0.26357809987497216,
                -1.616996750568931,
                0.2634500372148329,
                -0.36515952671813295,
                1.233216549603999,
                0.01615857366049405,
                -1.1778871460397236,
                1.9300172861530185,
                -1.2058396260107151,
                -1.560397635862519,
                -0.5023858182912422,
                1.0794042804967074,
                0.48915782760630183,
                -0.45258319963582716,
                -1.997041752505487,
                -1.6901763400113943,
                2.7842343076876466,
                0.7087719621953612,
                -1.0386569677853383,
                -0.10452287560694533,
                0.6804321065503247,
                -0.06923281888826412,
                0.31486543664726707,
                1.1543048973774463,
                -0.24447781728011145,
                1.6718989363751815,
                -0.005787996600512214,
                0.495573532436308,
                -0.3952390295045536,
                -0.6008760788811117,
                0.035594213105335615,
                0.7583903100392206,
                -1.3487338375984979,
                -0.056647903651889854,
                0.18685153660539666,
                -0.750183953104179,
                1.63113450885378,
                0.1891862101617711,
                -1.3450576411630493,
                0.555232177026418,
                -0.9455243584210433,
                -0.36811422368503655,
                -2.3720303228066566,
                -0.17826266362644735,
                -1.9869477996488714,
                -0.2056517887906899,
                0.45086354978541365,
                1.187511978212374,
                -1.2129503416633585,
                0.5928683666748265,
                0.8671337614599269,
                -0.28119265872901894,
                -0.574145500300325,
                -0.41005413402792135,
                -1.9883437834268014,
                1.2181299823400296,
                0.09032555468050833,
                0.021916758365608215,
                -0.36851571466121397,
                0.319228163422429,
                0.16964773092576876,
                -2.2578179075335134,
                0.3586437438525063,
                -0.17857102153432894,
                0.054979172043334766,
                -1.0457063428154734,
                -1.4830241791998897,
                1.261476618238734,
                0.9036604809632117,
                1.6718709389793205,
                1.7754298274317228,
                -0.32871773247602504,
                -0.7665729944814806,
                -1.6758268289791114
            ],
            [
                -0.23697001834171785,
                -0.04413856683570927,
                1.0988048210608987,
                -0.5087993022486585,
                0.4935652741989391,
                1.5351806220148096,
                -0.42900632237993896,
                -1.4786951218597162,
                0.187736613462008,
                -0.9126506563328717,
                0.531697563092512,
                -0.9454177875869636,
                -1.5219873952162633,
                1.1916316046491255,
                1.0918536652663329,
                0.06015538293223273,
                -0.3697414128762287,
                -2.156405537718823,
                -2.5910205678467397,
                1.8564766075578796,
                1.5465199353077792,
                0.664353914407726,
                -0.3943490210731757,
                -1.7890559431738733,
                0.15635228979446533,
                1.1693224595083331,
                0.2636544032460909,
                1.9784520913961594,
                -0.3342542063442797,
                0.7148722490820281,
                0.15224090027695397,
                0.7013640488297218,
                0.9173534907169244,
                1.3495478226171391,
                0.7119846992913157,
                -0.3409273437466915,
                -0.2340446950665531,
                1.068281741141579,
                0.17278008654575477,
                0.4097524823316815,
                1.144390720026131,
                0.6922394497183639,
                -0.626703656487883,
                -2.5906777523574624,
                -1.1964667916926601,
                0.18355647340046566,
                1.635308227078187,
                -0.48733032581849756,
                0.23830335127031704,
                -0.007645793847071209,
                -1.1533373281487376,
                0.3751511787019479,
                -0.4114039186456436,
                -0.574325691590649,
                -0.9098588309575396,
                0.0009145633578392189,
                0.06710314427656854,
                2.1508574251422368,
                1.8582411136969594,
                -0.1313542887470331,
                -2.0427002440587927,
                -1.507086328794481,
                1.3686047406631325,
                -0.7757168646151964,
                -0.47547778731942375,
                1.0125369285534753,
                -0.08935481595099604,
                1.0325123163822316,
                -0.3523651057510631,
                1.5532896979062745,
                -0.4219938341070538,
                -0.878955680296203,
                -1.4748641966408411,
                0.6247845172106186,
                -1.8275488224007372,
                1.1876487062455368,
                1.4262415518241318,
                -0.8488543475882898,
                -2.3440235426969016,
                -1.939649198188951,
                -0.18059838821332444,
                -1.2554180214081734,
                1.162836792202968,
                0.036227968283524405,
                1.0845476587495677,
                0.6972342795585732,
                0.6687097433501697,
                -0.9367221592596312,
                0.887945464287742,
                -1.0040820804038129,
                -0.27809414994687687,
                -0.046761086830351274,
                -0.10075681528208535,
                0.3312574400127565,
                -1.2164152240170854,
                -0.5204555883816088,
                -0.8983242839341967,
                -0.4043630762034277,
                1.4360319336425025,
                -0.20565536980038074,
                0.28782962260421674,
                -0.5109228927631011,
                0.9842913927741445,
                -0.1747348373062284,
                -0.6382311347828129,
                0.4473734118098596,
                -0.012327667411815076,
                -1.1372366837873016,
                -0.3221252565384633,
                1.4294030492622256,
                -1.122260286339903,
                0.5168263433258445,
                0.20617544054609996,
                0.42274246343627936,
                1.3934046927062629,
                0.23585044074002814,
                -0.7815647479828266,
                -0.8574573085630485,
                -0.5790472650969279,
                -0.5921389072033052,
                -0.7424718592835718,
                0.619077944045532,
                -0.3312486072180303,
                -0.9830637667528339,
                -0.6510252395772685,
                0.3892801909264811,
                -0.43400405925884,
                1.4961905599194523,
                -1.1117789603595207,
                0.23626395591328378,
                1.8008661580018714,
                -0.25221417152920367,
                1.1427393888499473,
                1.2840619247175025,
                0.7822329618379993,
                0.4307783848297888,
                -0.08602595524618242,
                0.4392292110594991,
                -0.8188501997992801,
                1.4719189546909286,
                0.5032789162660337,
                -1.4605275747724407,
                -1.4070497671804636,
                1.0162368296538056,
                -2.0149341588789103,
                -0.15341433971201718,
                -0.10535793740738991,
                -1.1369061725508478,
                -0.1762493419304551,
                -1.1027808681059428,
                -1.7187297090944031,
                1.531662707069372,
                0.45023849702298097,
                -2.414048475462717,
                -1.7662961190443476,
                -0.11023708971822596,
                -0.005483243790042322,
                0.48657443317404725,
                0.4703748081766921,
                0.3843814518783703,
                0.4876855861494333,
                -0.2366900347864651,
                -0.11751989535231845,
                -0.08464469515710539,
                0.5533791883990167,
                1.1885687624298835,
                -0.17767381532787108,
                -0.2795418889885764,
                0.36685817609675286,
                -1.2577848208495175,
                -2.210078491659678,
                1.6908735255144431,
                -2.5120852700080842,
                -0.08048293545721888,
                0.4499443123169249,
                0.49355774023020244,
