{
    "biases":[
        [
            [
                -0.04260475422626408
            ],
            [
                -1.253398065185946
            ],
            [
                0.9560637074764812
            ],
            [
                -1.1006378214951245
            ],
            [
                -0.9136878376449208
            ],
            [
                -2.0462019367122664
            ],
            [
                -1.6874046600813477
            ],
            [
                -0.2069300363012297
            ],
            [
                4.385665850166758
            ],
            [
                -0.8504427864623557
            ],
            [
                4.300802253849545
            ],
            [
                4.99414454682912
            ],
            [
                -2.6290557450119794
            ],
            [
                4.052999820657661
            ],
            [
                -2.4634820673339837
            ],
            [
                3.7286560056864797
            ],
            [
                -0.9782431852981269
            ],
            [
                -1.4902491043430959
            ],
            [
                -6.215836687222617
            ],
            [
                4.148076246583416
            ]
        ],
        [
            [
                -1.380884959462662
            ],
            [
                -0.6315915374893325
            ],
            [
                2.1181516030779104
            ],
            [
                -1.1628657199346062
            ],
            [
                -1.3690566583299504
            ],
            [
                -2.7574457440699334
            ],
            [
                0.6886859752571836
            ],
            [
                -4.5246581611669985
            ],
            [
                2.413641751234375
            ],
            [
                -1.7395582571250652
            ],
            [
                -1.3620795737841944
            ],
            [
                3.3922086301919014
            ],
            [
                0.6652374590117284
            ],
            [
                -2.4547509127179126
            ],
            [
                0.01965929669510422
            ],
            [
                -0.5753087625509608
            ],
            [
                -2.117087688213018
            ],
            [
                2.8296990117289877
            ],
            [
                1.3751967656947384
            ],
            [
                2.7510284229132638
            ]
        ],
        [
            [
                -5.6158655551283125
            ],
            [
                -4.084432076590874
            ],
            [
                -2.6374743971014976
            ],
            [
                -4.10473624158351
            ],
            [
                -2.960083583652225
            ],
            [
                -8.059406211226802
            ],
            [
                -2.4473367052777255
            ],
            [
                -3.8326984366488746
            ],
            [
                -5.265895757833038
            ],
            [
                -2.6362093568449128
            ]
        ]
    ],
    "epochs":30,
    "eta":2,
    "layers":[
        784,
        20,
        20,
        10
    ],
    "mini_batch_size":10,
    "weights":[
        [
            [
                -1.1000082418554467,
                0.5995247457449203,
                0.25328309768031776,
                0.47006768558570716,
                0.21722866940807628,
                0.5391416588692364,
                0.962212121179161,
                0.10851122772580203,
                -0.30388492903421843,
                -0.8531339785657557,
                -0.5402798344296605,
                1.0013755746748272,
                -1.113994883429577,
                -0.15107150153425924,
                -1.0756076821229077,
                -0.5294269791652348,
                -0.4440265368051662,
                1.49050241977328,
                0.17422573628576093,
                1.2086232169992577,
                -0.07792615795488483,
                -0.7412033288362856,
                0.8084541892025641,
                -0.667003461541509,
                0.700373857845483,
                -1.7135292085298668,
                -1.308205728285076,
                0.7695775494579777,
                0.06833613863562144,
                0.06405975749293262,
                0.9132691677522163,
                -0.2922456902767048,
                -0.29615376253096015,
                0.7057368742062132,
                -1.0310733303555009,
                0.7813787064226811,
                0.11246292104289192,
                -0.3779552063283738,
                0.1658656148748077,
                -1.4041792393820074,
                -0.8469428370259482,
                0.7991836049343949,
                -1.8339499122322696,
                0.441308747399683,
                0.9125800650277099,
                -4.200632654483045,
                -0.3025157362614292,
                -0.4195279407601992,
                -0.8999046006622626,
                -1.577743815410988,
                -0.13390979702700145,
                -0.01865728539800932,
                -0.664017437957524,
                0.4338271341596983,
                -0.10796812824539151,
                -0.32875939146934113,
                0.5598082331086405,
                1.5318477162138406,
                0.8276018851054685,
                0.26018127214510334,
                0.6534509583544105,
                -0.6401670620204334,
                -0.010725311085722897,
                0.5917441787076646,
                -0.1772383582718925,
                0.9028787948305231,
                -0.40815180370664317,
                -0.3032801077493784,
                -2.326830793069668,
                0.5972463143776092,
                -0.05704918724450665,
                -2.9460561815224646,
                -0.06637590947822442,
                -1.223441331728346,
                -0.15095759221601462,
                -2.4094071865539863,
                1.5189985731521594,
                -0.738602581295008,
                0.4379554626233513,
                0.5167349290045447,
                0.16275377659522378,
                -0.19652560215352272,
                -0.9371998757424949,
                0.010227164860559442,
                -0.07087589724342412,
                -1.0829504193559407,
                1.0944425195684326,
                -0.2446207969275761,
                -0.9784610544445878,
                -0.2502108651522018,
                0.03129323284884735,
                0.34011255566170434,
                0.9032329466543976,
                -0.16604922344914147,
                -0.8754424891615538,
                -2.633776044388259,
                0.555137430877813,
                -0.6462171334199038,
                0.7183754667706256,
                0.5173640084056179,
                0.7063757313098541,
                1.3349469422579532,
                -0.18939791189497782,
                -0.17852736423445878,
                -1.1562967799055146,
                -1.7900746006662138,
                -0.6911130829452488,
                -0.8313358248442821,
                -1.511433500374564,
                -0.32893209722609423,
                1.1784296292544654,
                -0.05997751232045278,
                1.2083681337903387,
                -0.5817683534574508,
                0.8427987919444412,
                0.6430401394468251,
                0.204866505835936,
                0.4991670817437022,
                0.37320849311738474,
                0.9180053977011294,
                -0.02796737198658312,
                0.9496701564213652,
                -0.12719918077526604,
                -0.18818764147283065,
                0.6714887085657621,
                0.21881779982325103,
                0.112114187230818,
                0.9453538745725958,
                -1.5863467772650475,
                0.0673685604692129,
                1.698960346425911,
                0.9198059877987707,
                -0.0030467810958923172,
                2.239832357984455,
                -0.0027156652687858273,
                -1.9610956013772785,
                -1.23935309080817,
                -0.007601193055815465,
                -0.6459990339518054,
                -0.34472957786352015,
                -0.8945089951255236,
                0.7195728861516503,
                -2.7798598356989634,
                0.5706224469422211,
                -0.2854747247263708,
                1.093026643087268,
                -1.0648602720056266,
                0.5605292766497975,
                -0.003337171441218032,
                -0.40392842021004427,
                -0.0864757534294138,
                -0.003999219702515636,
                -0.4297266218877261,
                -0.026447213152971563,
                0.24407950135929765,
                1.539271913609562,
                0.6548937820991513,
                0.46274835189728536,
                0.9930857133973289,
                0.4198638144333435,
                0.7766740145799981,
                -0.11795838640724284,
                -1.3424743487376574,
                -1.916299505886812,
                -0.2491692067118862,
                0.8312801244018747,
                -0.11841552618021745,
                -1.2280377184973086,
                0.2558004898563404,
                -0.5182969370510563,
                2.6592238359336404,
                1.270845404534313,
                -0.8933909862633126,
                -0.8217804431299024,
                0.29830136974160526,
                -0.10016500464758632,
                0.4102620861041196,
                -1.640265989941856,
                0.09237666424020179,
                -0.07632531153734355,
                0.9768899055877834,
                1.1045919968455207,
                0.6150028511257696,
                -0.35152945841135286,
                -0.4810501997281094,
                -0.36643170143977927,
                -0.07141778329082472,
                -0.738590662630491,
                -1.9138289188637498,
                0.3024474852201417,
                -0.3772304910442962,
                -0.2364430292356618,
                0.12057010328835785,
                0.17670834023794887,
                -0.10793268316869993,
                2.0401722023552207,
                0.6295076871001658,
                1.0193575603795704,
                0.779222414783193,
                1.4498112836830546,
                -0.9943053703759034,
                0.4727044534835062,
                0.4774179266376865,
                0.6780453285887275,
                -0.4605834092857964,
                0.6273179176104187,
                -0.6903549204288687,
                -0.881128155369683,
                0.24779099644207234,
                -0.32037302870963663,
                0.16294344621542678,
                -1.032908465925992,
                1.0434091875937135,
                1.0331627659558893,
                -0.5217574832152275,
                2.0674362125465477,
                0.8504710196938742,
                1.220031049456026,
                0.08709555395408358,
                1.4570862358389187,
                -0.9706312773699824,
                1.6073943345871926,
                1.8096217179826533,
                1.492710208612774,
                -0.098904919897077,
                1.273103867698398,
                2.674185698157679,
                1.16858692467802,
                -0.3648343575098465,
                1.4655360994627853,
                -0.3690620675523091,
                0.6497108587692445,
                -0.26086722236655946,
                0.8604720576531664,
                0.6822423565559491,
                -0.38908169846331075,
                1.0821346964037106,
                -0.8498688094516089,
                0.5562955621123468,
                2.1527068156928366,
                -0.03095398289687098,
                2.185916785314191,
                0.0064696869208400185,
                0.9885743141339866,
                1.231934036816404,
                0.29739279883519826,
                1.3939259191591813,
                0.4290189711455929,
                1.6407731790368296,
                0.1911415871265514,
                1.6761957138244157,
                0.3143317029510853,
                0.655203568205181,
                -1.6718223755635766,
                -1.2352101351592395,
                -0.26567991523160067,
                -0.11510872166323577,
                1.2402505370003398,
                2.5535085810651723,
                0.8313067121177717,
                0.7305661481140397,
                2.306210338719416,
                0.25050978829877324,
                -0.3023151395820155,
                0.4498459681294077,
                -0.9065784271825633,
                -1.0651613064790941,
                0.77725782749469,
                0.14478586932698778,
                1.2644981214537827,
                2.136969229834301,
                1.52715313059933,
                1.023899243224884,
                -0.6683353243624119,
                1.9760692235813142,
                0.7781763413780061,
                2.2076202377263465,
                1.52689271028543,
                -0.4000832320273278,
                -1.7074912102678272,
                -0.4075822344774134,
                1.741520409393796,
                -0.8807326910677379,
                1.0793326850294476,
                0.8536029059741738,
                0.05634201222009219,
                -0.46327749752058456,
                2.9278103592686455,
                -0.14295752461424235,
                1.1885173171453396,
                -0.5404960469764719,
                0.6142774351992512,
                1.3606897906524913,
                1.3541798996368717,
                2.7519908236900927,
                1.9818430582905833,
                2.5684841766924813,
                1.0684383584986852,
                -0.08272122482265293,
                2.159925258562899,
                1.8478688774507201,
                1.3191530828278322,
                -0.4598192356733417,
                0.4901420504750405,
                1.728373174482541,
                0.9169050400404581,
                -0.537413433928065,
                -0.6580486708764103,
                1.2269323783550108,
                -0.6094783434896409,
                0.8085866171924352,
                0.9235692661776418,
                0.0592114273589055,
                -1.6725663854532775,
                0.045032247184584207,
                0.80397624767928,
                -1.11487549113425,
                1.7916016994423012,
                1.6431853979676623,
                1.9538607017897018,
                2.3925917872907045,
                2.879844770029598,
                1.7411442702299933,
                2.44353308410577,
                1.309238836114865,
                2.723027615594562,
                0.499326237835963,
                0.4468149682111414,
                0.398330846711825,
                0.5018280867966203,
                -0.74277158871711,
                0.43894261828735126,
                -0.10684479736801597,
                -0.41555967636473407,
                0.16826759053800894,
                0.6400890585432892,
                -0.27588386389002345,
                -0.18635571192011807,
                0.3610801838541789,
                -0.03027922805932144,
                0.14114392586202973,
                -1.0370512146788446,
                2.1787592054437734,
                0.3158702754724943,
                1.11968133515178,
                1.2200452852755348,
                0.448997635279348,
                2.185786206178914,
                2.7481482496373038,
                4.043241439465444,
                3.29386926939248,
                1.4322776953935656,
                -0.9557793132752366,
                -0.7307160246157369,
                -1.26077443408134,
                -0.4150456474784847,
                -1.156224150037017,
                -1.6547514501855791,
                -1.3391387400881207,
                0.4934799907322473,
                -0.9052808585150306,
                -0.5141367721078841,
                2.909150355706241,
                -0.24456792194954047,
                0.40227608150708916,
                -0.35334152595898455,
                -0.33295612531143276,
                -0.37650170767420005,
                1.119074171812571,
                0.5174820132957606,
                0.43905521085046106,
                -0.7592961942486255,
                0.6007250065580738,
                0.392882369591805,
                0.8454454276275227,
                1.1367254956001174,
                1.848625850405276,
                2.106801969678597,
                -2.09962607482491,
                -0.1864160378281329,
                -1.3300281651886359,
                -1.0770051393149347,
                -0.08162704153005321,
                -1.871583766111662,
                0.6788179305208667,
                -1.9121148708794848,
                -0.5494635849373951,
                1.4921285055516043,
                -1.5026300087323046,
                1.4630102999952812,
                -0.8086940747228425,
                -1.6109786616380484,
                0.7834944839878728,
                0.17915173833182146,
                -0.5405838141280729,
                0.9770810584555146,
                0.4448953840122636,
                1.2146188403106712,
                0.1717403553403232,
                0.6955916764224384,
                -0.9281634612201783,
                -1.4924952735041888,
                -0.26545679322918037,
                0.4342337706620152,
                -0.9183722094436026,
                -1.672908337127108,
                -1.9264691333396777,
                -1.1024697281941491,
                -1.1809415025680063,
                -1.9156012720132798,
                -0.6230003274907052,
                -0.6740753717383783,
                -1.416450289885398,
                0.07258687786832753,
                1.4028469763186124,
                0.016072725537083974,
                0.19717954512508767,
                -0.32429951223862513,
                -0.2821568581610133,
                0.9525027113132616,
                -0.6805542726938493,
                -1.0956033838668668,
                -0.17617749896149323,
                0.14540746577119912,
                -1.3825241945531146,
                -1.9414439189460189,
                -2.845110877077767,
                -1.3497876928118329,
                -0.7368215077060706,
                -0.17671104054844528,
                0.2293407197931008,
                0.4235939958036598,
                -1.9014860709325323,
                -3.4946115091861545,
                -3.023634108159287,
                -1.6906286195556302,
                -0.24261885959281512,
                -1.1627532370035076,
                -1.4327341545512056,
                -1.440476114745781,
                -0.6792557922503493,
                -1.0950941242401901,
                -0.1504412680920996,
                0.36912840316011075,
                -1.0297350335877438,
                -0.5761929718937397,
                1.7800986644118857,
                0.8820429283338208,
                0.1358010206709548,
                -0.6263022156444866,
                0.6110122831455812,
                -1.8300748479048017,
                -0.6146374974391848,
                0.6055897686441949,
                0.874686951152033,
                -0.35024425506175794,
                0.025544094970252576,
                0.49520369798693636,
                -0.40261823498129784,
                -0.3557956130867995,
                -4.344634289551855,
                -3.410265259849865,
                -1.5725598682879633,
                -0.07161352483466082,
                -1.4108523969686764,
                -2.11376235284523,
                1.549822095409624,
                -0.14163548340232573,
                1.6438021723134488,
                0.2736308119851275,
                2.3669000913295255,
                0.16083031359751604,
                0.22065483511853598,
                -0.6962833080439421,
                -0.9356681826538573,
                0.4226761126204981,
                -1.1058191067250087,
                1.518216549637637,
                0.272923080405425,
                0.30017939255115633,
                1.2880895023308128,
                -1.043161034305665,
                -0.82582019216645,
                0.07466953038171917,
                -0.29910082067949795,
                -1.4983571125263064,
                -2.3656761224127614,
                -1.2808293499568226,
                -3.3569634434309297,
                -2.290423411813696,
                -1.464710855424357,
                -2.469407198342341,
                -0.35291145310580774,
                -0.3215069524841532,
                -0.847237103463326,
                1.6308011345589402,
                0.38417815160820423,
                -0.7554216613398208,
                1.3763742074870735,
                1.7653561196005847,
                -0.28561145623841383,
                -2.0405529117189736,
                -0.577235653590413,
                1.1020601873908886,
                -0.7066343127825389,
                0.27225896109937064,
                -0.12188411761332607,
                -0.250898303255717,
                -1.823161627955456,
                1.5948840732782505,
                -0.3733056520926283,
                -0.016575395101491048,
                0.4375215589596214,
                -0.01861838082579784,
                -0.10713175778831042,
                0.1081498820765428,
                -3.150604291944356,
                -1.4109573080174866,
                -1.447283091533489,
                -0.6622582714721673,
                0.4514188512656204,
                -0.6676807842681294,
                0.2954555067222901,
                -1.612903577492167,
                -0.32422251417061115,
                1.2123901661274425,
                0.2101199421073429,
                -0.2406477951255096,
                -0.1607181267581488,
                -2.4286693673475224,
                0.6880381790154874,
                -0.14182660832427577,
                1.2207090408940502,
                -0.8207417888366558,
                -0.07678920133302462,
                0.7162285772878628,
                2.4759835457209256,
                0.07638821773434801,
                0.8273060994537399,
                0.6565426550455882,
                -0.49441316494937004,
                -1.3932996903166215,
                1.5310269513087924,
                0.3327574515117691,
                0.5344015702553597,
                -2.958672798155527,
                -2.1757986700497622,
                -1.9753314914560143,
                -0.7782697755338,
                1.6344805287952704,
                -0.32032869044183676,
                -0.41009895511735445,
                -0.1341771505955545,
                0.8599418096015887,
                -1.4804491714421175,
                0.24890663359664297,
                -0.7151678011012624,
                -0.731486606367743,
                1.2718327528760114,
                0.701422304778922,
                -0.6568440337582307,
                -1.1817738662920085,
                0.5161626022839982,
                0.03951713688739796,
                0.9874782821607723,
                1.9781865150625964,
                0.021863156531016684,
                -8.974417934737112e-06,
                -0.5702297089735656,
                0.7549027781343463,
                0.07678978688000843,
                -0.03429007963396515,
                -1.70435940032562,
                1.6329295928279859,
                -0.920767873144817,
                -1.3803321734517238,
                -1.915185445762169,
                0.5201061248412676,
                0.06715031709246208,
                -0.6155978334162768,
                -0.5181552526668015,
                -0.9728911722328508,
                -2.3084775381037086,
                -1.4157238424094039,
                -1.3697498507419772,
                0.5200845707419208,
                1.461174999602973,
                -0.05671173313139228,
                0.8015734457523689,
                2.243712260831502,
                -0.7175486220412772,
                0.28109410035992116,
                0.5156136388284833,
                -1.2394027657917046,
                2.599045176419997,
                -1.7831544490764555,
                -0.09104402585419953,
                -0.4575342132841137,
                -0.9216370447735412,
                1.3162569493356489,
                1.1988342197298927,
                0.2708675487956122,
                -0.5542131776627762,
                -1.458676190847025,
                0.46514407028637533,
                0.16362380475801247,
                -0.49263164126717274,
                -2.1645923704622563,
                0.48680684924433315,
                0.762195671942641,
                0.45310217392397106,
                -1.2456912847269292,
                -0.34929703207893154,
                0.21936305256930397,
                1.727395672081847,
                -1.5039945647436472,
                -0.744516683341669,
                -0.8981533375823699,
                -1.7262803140404812,
                0.026468151690800537,
                -0.8686523809007417,
                -1.5828122623862846,
                -2.5015689150383267,
                -0.5455794206333731,
                -0.894638304261853,
                0.08570426801462974,
                -0.37871506545430045,
                -1.1377404831240685,
                1.671172845171183,
                -0.1334421437266832,
                1.1125619571185443,
                0.7420266722407378,
                1.3435325803433757,
                -1.273526736368998,
                1.2802364081151116,
                -0.09847929759864897,
                -3.333274494349836,
                0.07368913451968503,
                -2.4490218394792858,
                -0.5601038853508592,
                -0.9209049748582151,
                0.5463807821884537,
                -0.17382346299374138,
                2.0600096498456697,
                -1.532743692556592,
                -1.396438893344039,
                0.22030517535577757,
                -0.08288329008866552,
                -1.524466572400211,
                -1.5824569064825569,
                -1.1112262681565623,
                0.9350112596122099,
                -1.4962011076153225,
                0.01724566131521081,
                -0.4945847880139328,
                1.157458844902386,
                0.11506478461352078,
                1.7960011136514913,
                0.3877996263391459,
                2.13701311482153,
                -0.48808671910838003,
                -0.9856906852707013,
                -1.735371498055254,
                -1.5345787578003944,
                -1.997006921439777,
                -1.7855481200446464,
                -1.8841635341920329,
                -0.10322502711948298,
                0.0189190250760528,
                0.16977721490360217,
                0.3676907933996853,
                0.0892789927905754,
                -1.0556737132832925,
                2.155252373013487,
                0.8440238218835022,
                0.44145447847409747,
                0.4308512253610768,
                -0.32964714901359865,
                0.9569671896024111,
                0.2514845805028592,
                0.10005112633307747,
                -0.7866194499094057,
                0.16240702305501387,
                0.21823353844718202,
                -1.070873488658494,
                -0.3634719607669754,
                1.194135405212531,
                -0.21898677403327665,
                0.16945049363601228,
                -1.6847695300683014,
                -0.5614218041091728,
                -2.484988561344451,
                -0.7810659919233262,
                0.7735729961646558,
                -0.15566940913327484,
                1.1398296867143083,
                0.6455118650674159,
                1.021699831173182,
                -0.440944108124404,
                0.4038767550544554,
                1.1206253692192272,
                2.2046106195364796,
                -0.8190208328285379,
                0.09974320986356655,
                0.529737935332937,
                1.7401065132689497,
                0.22654303030698494,
                -0.7068737457601573,
                0.7294943631414497,
                0.9698734511748681,
                -0.9035853044981288,
                0.12814604659822076,
                -0.28435278408007947,
                -0.799328613592525,
                -0.4315641206843344,
                -1.1204736496705958,
                -0.05579890287366092,
                0.23547561794257185,
                0.2823157574808167,
                -0.6046983288200676,
                0.13050333993509491,
                -0.928061821636014,
                -2.115337009141562,
                -0.19205402067901195,
                0.16334937715259,
                1.8901137120007738,
                1.0993731961617417,
                -1.762315458857951,
                -0.21489297703894925,
                0.05168970783157889,
                0.6928179321834795,
                -0.5556360935125596,
                -0.44198830411437834,
                -0.3212780821923105,
                -0.4990015744744256,
                0.8205296657105713,
                0.0020732048547639575,
                -0.363721229962122,
                1.0903500015801684,
                1.4754214720949623,
                -1.2067211618753562,
                0.4113160131514803,
                0.24666988183701608,
                0.05076998633819167,
                0.8248327614826515,
                -0.36297080698332845,
                1.7084974264876853,
                -0.4588426168988996,
                -0.9473306396497462,
                -1.4657924903435375,
                -0.8989859241464879,
                2.510939825913621,
                1.6766271835869047,
                -0.6266960474685236,
                -0.5105372229524735,
                1.0291776473589795,
                0.27956232861127156,
                -1.9804701315582744,
                1.2775294519049707,
                -0.21828138528848995,
                -0.07616023996094064,
                -1.9020674843131544,
                -0.6102595424981858,
                0.9194551638701455,
                0.2771106397984451,
                -1.2239611306003937,
                -0.03168920119385957,
                -1.890770576030716,
                -0.11741648617366685,
                -0.28699058714245096,
                0.6732235850915445,
                1.1054569632802198,
                -1.049684408390923,
                -2.206452062651114,
                -0.8178002568331878,
                0.026682743576089157,
                -0.05292312596757682,
                0.5923901375001338,
                2.0593414769264324,
                1.4843712528551534,
                2.2397217396029268,
                -1.3518470884171554,
                -0.7035787009250719,
                -1.7410952760189695
            ],
            [
                -0.9478040232734014,
                -0.6436273965410657,
                0.8529716461553712,
                0.3505259518578862,
                1.0397841049114913,
                -0.10141605363907347,
                -1.0223790309528518,
                -0.2344092205366912,
                1.5109162893240689,
                -2.012337011278818,
                0.38765999107956534,
                -0.5289595926651,
                -0.6274770711096533,
                1.4369307081776022,
                -1.079882049131288,
                -1.4759782360851774,
                1.3728927155880875,
                0.7910043425255657,
                1.3703803277908302,
                -0.12841538133305488,
                0.6420784406243886,
                -0.32919635775521083,
                0.566980297526674,
                1.9288773185572214,
                -0.7196742678955814,
                -1.8621737181777072,
                -0.7860124518051567,
                0.23548700896378316,
                0.607540793383613,
                -0.13589561328426053,
                -1.8144166207302088,
                -0.20404080824715104,
                0.4826981055282339,
                -0.7058590728765809,
                -0.5597231049081371,
                1.8126565704308115,
                0.10755088246285306,
                -0.15571154180685684,
                0.9225323836104858,
                -0.1365617417623943,
                -0.18633642752887858,
                -1.779469115633974,
                0.06305808045486523,
                1.1799653391130016,
                0.1184581407115334,
                -0.8580588897547463,
                -1.1668350352596064,
                -0.9066249502586077,
                0.8117602062785642,
                1.0192112238099507,
                2.2323584205517095,
                1.7374660205263237,
                0.36465780178319057,
                1.305975446926649,
                0.9234033834476797,
                0.34607646214028975,
                0.6803837828369134,
                0.01162475732344542,
                -0.06018004134279769,
                -0.9415992500445575,
                -0.9977910320875684,
                -0.3118103261080022,
                0.46099044331105543,
                -0.43902996529138494,
                0.2793001801140757,
                -0.5853791476845411,
                -0.9507509453428264,
                -0.9639359872700562,
                0.2562587480705963,
                0.49885177661024044,
                -1.623000349568441,
                0.18808149365513324,
                -0.18896099436711675,
                1.3696893396235923,
                1.0287679262683382,
                -1.5682019103646367,
                0.16970676862687165,
                0.4669301192865109,
                -1.4315318179001564,
                1.68962835868341,
                -1.0697620061965172,
                -0.6673422382452944,
                -0.31437275068020937,
                1.8743090270579068,
                1.0190323680842663,
                1.094737453374258,
                0.11300262346925714,
                1.3040039116323223,
                -0.04360910593931046,
                0.5016311684964417,
                0.31609178788339093,
                -0.10218367377636242,
                -0.5874471665999609,
                -1.072755077735397,
                -0.1023736035995935,
                -2.3006646072114885,
                -4.025593613725036,
                0.3768477084456708,
                -1.4802791412370326,
                -0.37152019871578845,
                -2.1815922650376796,
                -0.9729187094906976,
                -0.2848568823762596,
                -2.340815362894002,
                0.5814949944717144,
                1.1479603842739086,
                0.09134456905548141,
                -0.6866005380197797,
                0.6257310129049373,
                0.07084305619609904,
                -1.0358322160544395,
                -0.14445957173067542,
                -0.9408006608595387,
                -0.12669878690523123,
                0.9805909505235343,
                0.08579143835671406,
                0.34225889566952045,
                -1.1223216262493028,
                -1.5041045665143182,
                -0.29190428473765834,
                -1.4066715571912682,
                -1.0752838806741685,
                1.685446807513916,
                -1.8906770487429871,
                -0.16974736407131152,
                0.22960786681864698,
                0.7039618582017567,
                -0.4594937768603717,
                -0.23142918262914383,
                -0.2409436534474396,
                0.35129438346275926,
                -0.9838296898397312,
                0.7485180903788302,
                -0.20347067641417432,
                0.3044149467078969,
                -0.042224426827282446,
                -0.30218080341589526,
                0.5786734489792736,
                -2.0691112741263162,
                -0.14178104940209704,
                1.9642384407130917,
                0.7558178720292885,
                0.11324962366045414,
                0.5769965113221002,
                1.4116255859254783,
                -1.174466240649554,
                -0.735317849759789,
                0.36309896978527695,
                -1.5878520732130756,
                -0.7339464825238267,
                0.1077406314640138,
                -0.0500884081830815,
                -1.0604901011459233,
                -0.16161167319785974,
                -0.6912914788462073,
                2.3842821194310413,
                -0.8704197393976609,
                -0.20830489538204314,
                -0.6158967236293649,
                0.13326870484572295,
                -0.6870218780859967,
                0.6110040166350542,
                1.2004916735328945,
                0.9173370381997528,
                -0.11329648241958959,
                -0.5908937651202405,
                1.669154724430535,
                0.8217697896129783,
                -2.068260237206695,
                1.4989326965435696,
                -0.7796412704619304,
                0.9483380168236233,
                -1.5430891033217446,
                -0.1649622680759313,
                -0.45288308329770177,
                -1.2046299869333388,
                -1.823195264787765,
                -2.0803020078650443,
                -0.7736048659422121,
                0.46762313407466166,
                -0.8001887060740018,
                0.015235950713820143,
                -0.7339230548605843,
                -1.909651609110017,
                -0.9298968099205356,
                0.05301828040022618,
                -0.682934812445491,
                0.7849490647836584,
                0.47334957403178024,
                -0.364658247385106,
                -0.5751015007340826,
                1.4746073849662045,
                0.9875621587008085,
                0.15483110171097478,
                0.47635111674591946,
                -0.8614017032800327,
                2.1889971416768916,
                0.942785601807312,
                -0.6056530717228751,
                2.249904835915433,
                -0.10741532737420272,
                -1.2881882882264633,
                -0.7084244973355154,
                0.0763053778443179,
                -2.1555543180217374,
                -3.366430761494509,
                -1.04091668828585,
                -0.94912167760052,
                0.9729958730310342,
                -1.207570291227391,
                0.2852058932948537,
                -0.459232937911767,
                0.6085151921212261,
                0.039171472974649506,
                -1.062202862709545,
                -0.539647541308923,
                -0.013174352190573871,
                -0.429752607176142,
                1.482753041870539,
                1.2927665065834908,
                1.10706679703215,
                -0.27093861987493134,
                -1.6257606503212834,
                0.35415052428358873,
                2.1445109059070027,
                0.7095267101963292,
                0.5170939715073682,
                -0.022268368484346917,
                -0.5288295230159195,
                -1.6739890877628516,
                -0.5547413572718464,
                -0.9267341472732394,
                -2.775629175638746,
                0.2321721030546146,
                -0.17971829231168523,
                -0.7499675001218846,
                -0.2172497703618649,
                -0.503253336904389,
                -1.4472654301703398,
                0.5665297376082533,
                -1.7918054989410288,
                1.1462495692248444,
                -2.354816642340833,
                0.4325062968812493,
                -0.31186298828566855,
                0.5036308951700522,
                -0.009388008336464498,
                1.0468028916303325,
                0.7858245702154449,
                -2.5910570255168888,
                0.01517121164130171,
                0.02849391061804067,
                -0.636395918330554,
                -1.8053167086357413,
                -1.2570546685721615,
                0.3103690926932961,
                -1.2830518230524406,
                -2.220342407270243,
                -0.8662763870445405,
                0.793795219638011,
                -1.6552558651885965,
                -1.179239926798997,
                -0.1849714089021025,
                -0.5648558117022967,
                -0.1811417528262479,
                0.23567027587502629,
                1.0967976022177197,
                -0.5694248917855158,
                0.4204210541419353,
                -1.6442427505471489,
                0.21450275721786938,
                1.0685101270363957,
                -1.7856416892698421,
                -0.5699716571846667,
                -0.12193124218513168,
                0.08837185442582218,
                1.243035507732791,
                2.2670331569345823,
                0.41758549979380855,
                -0.5738744873549186,
                -0.11205884258653014,
                0.3736698279363388,
                0.15313229267714976,
                -0.787117279800495,
                -0.5871372252115289,
                -0.8426915220238032,
                -1.2052645906062525,
                -1.4453350725286678,
                0.00039281728545199256,
                -1.6277377401046478,
                1.1108460413175383,
                0.6312798775974742,
                0.4012791855674675,
                0.041382638571263154,
                1.6710211312943652,
                2.9255738504928455,
                0.15521486414582064,
                0.3841567125660764,
                -1.880878763103153,
                -0.5305676799315431,
                -0.4549291136235205,
                -1.3912246379006799,
                -0.4744980931140354,
                -0.11708203422144636,
                -1.9521860110446552,
                -0.39251916989198593,
                0.9921173757373755,
                0.45338995998356724,
                -0.6568262723174539,
                0.9557474306822477,
                1.1494033609146583,
                -0.6420525558088022,
                -0.602506234788011,
                -1.0574753726585568,
                0.8908955603037627,
                -1.8265489911118429,
                -1.7701510994939658,
                -1.162438528324733,
                -1.2897015721984113,
                -0.46825709194978904,
                0.5264125500297417,
                0.6006664290017928,
                1.1467449234560172,
                3.525411102685403,
                3.0639527132298094,
                -0.9186018964278193,
                -1.1167590043252387,
                -1.8771164342553306,
                -1.4048615622112917,
                -2.213643572297748,
                -1.6734934233299907,
                -1.5189503133768898,
                0.6183395767627633,
                1.0590784952244217,
                0.5451627671789985,
                0.9439638089677871,
                1.09930448552933,
                -1.3679367403930756,
                0.0872623947421185,
                -1.3040691233183748,
                -0.592693166494687,
                -1.1885452122300382,
                -0.4022742896723148,
                1.5958260631288428,
                -1.8070116501885376,
                -1.9529755434520337,
                -0.004711806347631174,
                -1.8603696070172207,
                0.858872261476291,
                3.266842165314826,
                1.1957330228978595,
                2.36401211088157,
                -1.1937516847065512,
                0.15217954742752485,
                -2.1585134094168112,
                -3.187148672946785,
                0.5353720701123222,
                -1.9956982971280828,
                -0.7903584370406639,
                -0.6986904514908615,
                -0.6436909073293091,
                -0.8077795305633558,
                2.44901128620915,
                -0.8360605768242539,
                0.5183436020542582,
                -0.6770356630522985,
                -0.9203325116110191,
                0.2247816878139206,
                -1.3247037045038619,
                -1.628656241969534,
                -0.3989375154084384,
                -0.9639145837529117,
                -0.2826014775341752,
                -2.0434194349359487,
                -1.4711374045063559,
                -1.6622447344357838,
                0.016480838022989667,
                -1.5417910127661874,
                1.5274442599948819,
                -0.3682064720697459,
                0.8863583155673098,
                1.7222962850367969,
                -0.1227686890480158,
                -2.2162862882723964,
                -1.0650044765798101,
                0.07740864208701881,
                0.4583025035429259,
                -0.576709511222462,
                0.5335634442329912,
                -0.6957233490853393,
                -0.4290822791596059,
                -1.4437502224892131,
                1.3005337031338393,
                0.4799451712121785,
                0.34191238814306546,
                -1.7524374059888492,
                -0.6661746460646486,
                -0.9917423122947695,
                0.710609695251528,
                -0.8924021282031671,
                -0.32634661460932995,
                -0.07394782064120682,
                -0.6966053875077899,
                -0.9379759354526541,
                0.10439337035812721,
                -1.302368798164559,
                -0.27290575942940837,
                0.4748059589573305,
                0.8487675335035041,
                0.25124468591563404,
                -1.0703186359835843,
                -1.3529952128984322,
                -1.676306376407931,
                -0.9835829936298806,
                -0.3778297561839779,
                -0.22559146066776517,
                0.741507334084278,
                -0.42572072148198453,
                -0.29872727022475803,
                0.5773923757554911,
                1.5440508416747605,
                -1.1291186658773618,
                -1.4317082854769774,
                -0.47142122999844616,
                -0.4452027966872484,
                2.003352265755479,
                0.03499451538674402,
                -1.478416936528529,
                0.9506410433867826,
                -0.7545034147811392,
                -2.681147569571324,
                0.5306280092237959,
                -0.22310147910376787,
                0.25462265557124586,
                -0.4389261972374728,
                -0.5550283227078475,
                2.364211777493241,
                -0.11888064053405488,
                -2.6101122572785496,
                -1.8357274065403915,
                -0.7812101502585654,
                -0.6481853076214433,
                0.28047403200468757,
                -0.08427794661410414,
                -0.4815070908483145,
                0.10099333877764319,
                -1.3264115341887157,
                0.3100937192412847,
                -1.072229237189183,
                2.5731569081925953,
                0.26895938794577723,
                -0.01680390472696605,
                0.5581014654113938,
                1.1528015897028807,
                1.406554074065339,
                -0.8559474788374325,
                -1.4252109019917876,
                -1.7343854093389062,
                1.1624248803802502,
                -0.9797107012840022,
                -0.27128982606903734,
                0.9720247573502512,
                0.6642146347310703,
                0.9648005024285962,
                -0.8866123115195781,
                -2.7231873660634554,
                -1.9504885021317,
                -1.8300308679251485,
                -2.7188612214622276,
                -0.11848244912053522,
                -0.37728228327640867,
                -1.0666691411497162,
                1.160227747150086,
                0.5183088045930458,
                0.6625779504680969,
                -0.4971682665809999,
                0.4613285240570091,
                -1.6362938430347558,
                0.735475109647443,
                0.47053725514588207,
                -0.991606458201835,
                0.23419912914430394,
                -0.4370707787143716,
                -2.105313560653308,
                1.0349160638164128,
                0.11194527108314271,
                -1.1220281900521576,
                0.37149112409553436,
                -0.7099135780250739,
                1.2495094455442575,
                1.0664639240395237,
                0.07632360519909544,
                -0.2818271252665389,
                -1.7390013406449283,
                -0.9425162302533077,
                -1.8718319485319839,
                0.21053119098193276,
                -0.5327583464426527,
                0.2766155808965563,
                -0.23088219580071387,
                -1.3572713972069725,
                0.10031012006789601,
                -1.5794317258000299,
                0.9814386718360483,
                -0.8025319643378418,
                0.029582403643016102,
                -0.6299577780975026,
                -0.10051935399179847,
                0.5973403964542702,
                -0.9750153194467029,
                -1.534547611283377,
                -0.35528361635291217,
                -2.5213324811419944,
                -0.09239461001652555,
                -0.5387561022169685,
                -0.611885251161273,
                0.5071989857137882,
                1.013751558015924,
                1.086602477716283,
                -0.9704971149240291,
                -2.3357944157315953,
                -2.1861643009572926,
                -0.04459428184601713,
                -1.0005527266820171,
                1.117909929774562,
                -0.3587815108294457,
                -1.7379151638994534,
                -0.6395879262512674,
                0.4649101595244562,
                -0.5965418319947491,
                0.9367491985860862,
                -0.4588890255132801,
                -0.4760811596613169,
                1.1060183805964248,
                1.4366082977812786,
                -0.9808821847745796,
                0.8145609418676169,
                -0.5522139783830295,
                0.9087504139113218,
                -0.1283013379414668,
                -0.09213793997070517,
                -0.010316594946404732,
                -0.6379984798433066,
                0.5383510751952538,
                -0.2860380856579404,
                0.09921756490125529,
                -1.223569054831705,
                -1.2805677026534914,
                0.8385572617077944,
                -1.4216475947060967,
                -1.50656277259367,
                -0.03392391024714443,
                -1.9447108346842026,
                -1.7380634273305686,
                0.7988803513579843,
                -0.5127695417651496,
                -0.41451391726278314,
                -0.5275748779368785,
                -0.8289873154637571,
                0.5952222221088987,
                -1.2955318772375963,
                1.1062767115903005,
                -1.7655048851772277,
                0.8664244812264834,
                -1.703134712404803,
                -0.5245712292620358,
                -0.5616047493486013,
                -0.8716455900711314,
                1.333557054931942,
                0.5883009318139206,
                0.27425524874667023,
                -0.10519395136539357,
                -0.46874813678700056,
                0.21542156253818162,
                1.4083766533701976,
                -1.5665267250151067,
                -0.2672689147549029,
                -0.20940459570175668,
                0.5441063408115182,
                -0.14917940743769673,
                -0.9396980397326273,
                -1.6474112773334728,
                -0.23996751804383756,
                -0.21788544634061197,
                -0.902744199350198,
                0.5625945028178195,
                -1.2997350585726655,
                -0.21822580837324973,
                -0.9669120198433659,
                -1.7278646295076476,
                -0.5053948982617571,
                0.9557805958245015,
                0.6013099951517314,
                1.4705501237588512,
                0.713501293047645,
                1.2441565052462553,
                0.8675800595558509,
                -2.2769657905403906,
                2.579134465266595,
                0.8948598710526736,
                -0.808708262640183,
                0.08914593623732203,
                1.6502085776491926,
                0.32968064584224127,
                1.0725455046529928,
                0.009084966842534356,
                0.7505896248870056,
                0.12388498351431358,
                -1.1148260301752189,
                -0.8876113058985121,
                -0.22298998104772216,
                0.7286064716111136,
                -0.840770664768633,
                -0.8289622986788329,
                1.2956972703083285,
                1.0230527521915551,
                -0.0710044201949733,
                1.1902705208696391,
                0.2726467670371446,
                -0.4620069084664431,
                0.4570304543979842,
                2.160381560273954,
                1.3806344003295627,
                0.16776290290800452,
                1.4898037233602763,
                0.22098254225977193,
                -0.20941901734471993,
                -0.5377026487587283,
                -0.40741887558471,
                -1.4665874093152493,
                0.1406368478368282,
                -0.3106666731586189,
                1.92301424702403,
                1.6547476302539341,
                1.386760792293951,
                0.10729221129145743,
                -0.6858458116739633,
                0.9722582122972753,
                2.417094682137927,
                -0.4295488859936155,
                0.18535887159381817,
                1.3735016162239513,
                0.14494834127191644,
                0.824493139389679,
                1.5068788533833644,
                -0.49165212873171515,
                -0.8396178432890629,
                1.3813406292934827,
                -0.8577429668412481,
                1.2048162577732944,
                -0.5686768501064172,
                -1.7721384488281633,
                0.17907320410963784,
                -0.7881779412023061,
                0.4418865404886992,
                -1.0014672825074113,
                0.5152898850565051,
                -1.3508396012660329,
                -0.6489126643698149,
                -0.14424756184520082,
                1.2465288096203555,
                0.9305251189096568,
                1.3050544111921458,
                1.145672548465099,
                -0.34655173737198436,
                -0.031803486312625355,
                -2.814202743567933,
                -1.5694725370449105,
                -1.0607457829360394,
                -0.6176615787795464,
                1.0136638767524162,
                1.3400521091225452,
                -0.23300469386548045,
                1.0484241641076049,
                0.31792120019893694,
                -0.7174234752620754,
                1.61047023055304,
                -0.6117480999426016,
                -0.09416085139369128,
                0.03399387937417031,
                -1.8285288573268894,
                1.1396267331468621,
                -0.44825246617225467,
                -1.2712926595891227,
                -0.9796443384823667,
                -0.600124919148866,
                -0.9711184566422395,
                -1.177529180787958,
                -2.1845547555793092,
                1.0019637589427315,
                0.024144785831055317,
                0.2280309246838374,
                0.14086034068390882,
                0.7390948721506753,
                0.08224716085176317,
                -0.6057021461072412,
                -0.6089658540218921,
                1.3397357531854168,
                0.10470418814094422,
                0.6680704109883321,
                -0.35941096749119017,
                0.5922012392091698,
                -0.2536016350919169,
                -0.11684700481313808,
                0.02513528435357158,
                -1.0938296917194932,
                -1.0279557027127697,
                0.8755402228772746,
                0.10299676809458218,
                -0.034416001789534224,
                -1.3447958880756428,
                -0.6484891808209385,
                -1.1856098085492635,
                -1.3672085680614305,
                -1.7449870796734805,
                -1.8720256202932581,
                -1.3714110739108125,
                0.4292342095576237,
                -1.4119125306915448,
                2.071148900516776,
                0.3287948648560559,
                -0.4281202485524165,
                -1.1388572055996793,
                0.5399891689253378,
                -0.5405909247298727,
                0.2143216806232686,
                -0.07240396199398216,
                1.4134237731203483,
                -0.18961540998173193,
                1.0358751839644105,
                -0.4215869033705788,
                -0.49079621521890554,
                0.6926461538333488,
                0.10764536328625825,
                -1.6703973905297165,
                0.46513274888162626,
                -0.2735014305213901,
                -2.544546295300129,
                -0.28346730597227787,
                -1.438121026942435,
                0.5182815553792024,
                0.04336681730496802,
                -0.37778116555984614,
                -0.4841590108175087,
                0.13094399283092975,
                -1.5663227737219858,
                0.07694354319103264,
                2.2511014848145767,
                -0.9161900504441899,
                -1.1970356941532987,
                0.5845221456698807,
                -0.7918181033757158,
                0.9592720055150376,
                0.8786607079341688,
                1.0055999358328687,
                0.6265929275737494,
                0.26535538976735534,
                -2.1232059666418444,
                -1.1190240976246444,
                -1.3713087165601194,
                0.22674179626250263,
                -2.009239770337077,
                -0.7166299589047428,
                2.6865043716606407,
                -0.7819567119044742,
                1.3992437127323838,
                0.3572198972567509,
                0.11466466729359842,
                1.5381096259819582,
                1.0303750720263305,
                -1.3477472409538165,
                -0.09757013853734342,
                0.7207373958690864,
                0.28926549144350444,
                1.3301923060513776,
                -0.5200783805412303,
                0.3465173856802924,
                -0.3213774088126494,
                0.11240823066766543,
                -1.0753797395449605,
                0.10753409077724568,
                1.3780134707045506,
                0.7573519710756778,
                -0.28022427104482767
            ],
            [
                -0.6243449030744138,
                1.0016949570360643,
                -0.33456658389038385,
                0.5666961723394197,
                -0.3141944112647477,
                1.298686007235655,
                -0.20370161045599222,
                0.6830847918992632,
                -0.9604172102182402,
                -0.12000683014014779,
                -0.2358767381811612,
                -0.7421585324950836,
                -0.1288451016577687,
                -0.5808352363769432,
                0.19734439414421745,
                0.06480500437446186,
                -0.4116754670268889,
                0.25530485579338724,
                -0.9364762961431621,
                -0.7488420114422266,
                -0.9773349899661022,
                -0.4833237696760573,
                -1.4757338785287202,
                0.0028952496424496117,
                0.3874282914612635,
                -2.413319982095496,
                1.0471557992446914,
                0.5189385782780738,
                -1.126472555430983,
                -0.15380470800504714,
                0.25426352513288314,
                -0.36776954481681523,
                0.1537744033038082,
                0.5720100470700153,
                0.21727018413589538,
                1.0013902935731924,
                -1.6263940116714115,
                -0.8646194826623217,
                0.6899315127199284,
                1.4638806598098464,
                0.6153767474646182,
                1.9871177498551067,
                -0.3025924735410822,
                -0.27493161847508096,
                -1.0900166460297085,
                1.444320604506391,
                1.4976808223619384,
                -1.0249949980969648,
                -0.7298064545439614,
                1.243470069917249,
                0.8460408422153309,
                1.08511891841408,
                2.390971674000922,
                -0.20946125452124742,
                -0.1943430117837863,
                -0.8773374026419758,
                1.3946541108256103,
                -0.05455066730995672,
                0.31260076677025744,
                -0.5712636873764293,
                -0.4652987386510629,
                0.5848043046909116,
                0.30572399571455566,
                -1.484502688283025,
                1.105390533137148,
                2.1491252624609,
                0.5766395489235486,
                0.5414299482870776,
                0.46741599876468903,
                2.3211622688275857,
                1.0031077764902896,
                -0.5378042938592451,
                -1.1549735232700429,
                -0.23097086219099916,
                -0.33301324820120237,
                0.6466538860180281,
                0.792608884214492,
                1.8470692422971677,
                0.41532122068077243,
                -0.39035666078774106,
                -0.24403100943031236,
                0.8257107679139061,
                0.06512659492392808,
                0.13560475779332992,
                -1.0782829411254018,
                -1.5579671765677148,
                -0.11293664233726446,
                0.22746224630546477,
                -1.4729217546874263,
                -1.4789237213095232,
                -0.48237281408993365,
                0.20415134456971085,
                1.5031764565463046,
                -0.23449981115487897,
                1.2236103419435163,
                2.1845766453974957,
                1.9867624637321561,
                2.3670047659126157,
                2.9466418021112695,
                2.3566603031319744,
                0.5682578351010512,
                -0.3552695699156578,
                0.6106275023219969,
                0.29653457704167696,
                -1.0965148419837498,
                0.6869865272962358,
                0.684767404922933,
                0.19795356252822363,
                0.12109283823537895,
                -0.44549315302662285,
                1.1241874901465572,
                0.9443666450243857,
                0.27054615989379366,
                0.5900562447962614,
                -2.0441217200551915,
                0.5909306171191878,
                -1.398460991533756,
                -0.1617406375188656,
                0.015299489829917379,
                -0.1906847009807688,
                -0.05171683023170539,
                0.24290396316787913,
                2.588701587649265,
                0.7291950765167796,
                0.5990455915502909,
                0.890280417803385,
                1.9695219301386249,
                2.3148894235253854,
                1.6273691424054972,
                2.5988701197937285,
                1.402886103051196,
                0.30274932520636866,
                0.3005216865917945,
                0.5728001127541259,
                -1.2214365036368,
                -0.6972150395105768,
                -0.019318603167255036,
                0.6147983109950661,
                -1.4097501507566779,
                -0.3043570734729486,
                0.3593698692966579,
                -2.1727332514534674,
                -0.5563285116411892,
                0.9009949511649231,
                -0.09614311747352786,
                -0.45861770488538023,
                -0.745913138987327,
                0.04822647130281619,
                -1.1071495563556173,
                -1.219943502933871,
                1.956730439152682,
                -1.099240340706531,
                0.47865632517132933,
                0.7188292600173111,
                0.8485343291321324,
                -0.15235871266121287,
                2.0900926722693685,
                1.373521067972418,
                1.9085450383526366,
                -0.31266290136977215,
                0.5679011532219287,
                0.9281146081042321,
                -1.1283202851056444,
                -0.9097813120990699,
                -0.2954863884945876,
                -1.092276682719385,
                1.6255764510896227,
                0.7461214470693665,
                -0.3655486751254281,
                -0.7547671958731876,
                -0.23401894552439836,
                -0.7731949292673882,
                -1.9188425263451534,
                -0.2531465906264845,
                -1.1900914154466717,
                -1.0535737731243116,
                -0.3597028370288356,
                -0.37575759604465664,
                -1.0902318050641437,
                -0.984593431257237,
                0.0900221442931557,
                0.18092832520368907,
                0.2411439842912206,
                -0.8775575488290136,
                -1.1954206078818959,
                -1.4338552833385583,
                0.7515613993237085,
                -1.301066527950906,
                -0.4518073963567179,
                -0.663616379129248,
                0.07507247927487977,
                -1.3810761021824414,
                -1.4197428106237662,
                -1.1775595435550161,
                0.7739121412092714,
                1.765916208872049,
                -0.8080789877831718,
                -1.8385284003234903,
                -0.5479063786651932,
                0.4073573325005979,
                0.4023560002361196,
                0.27853112909571537,
                0.7480057406060785,
                1.9898560028587373,
                -1.0148455821905213,
                0.39496367870997023,
                0.8605990932631119,
                -0.053705831159001155,
                0.304859226689574,
                -0.3429521029128333,
                -0.43273250509535743,
                -0.5661385947543504,
                -0.35336325000017466,
                -0.08800364377587433,
                -0.21801802504536594,
                0.41971600737896464,
                0.33653454620222156,
                0.8583820678811158,
                -0.3393221049799985,
                -0.6716456752949147,
                0.22677274103583353,
                -0.5880899729253248,
                0.4587381285633986,
                -0.28447277294375384,
                -0.4902229837640673,
                -0.22354163771251592,
                -0.3139211615472056,
                0.38009426401078583,
                1.0730882509497277,
                -0.7816511883534177,
                0.08478447822629358,
                0.3928931951015763,
                0.8333835870512557,
                0.7372095016734881,
                0.21697735549654917,
                0.3520496368070203,
                1.079596674103624,
                -0.8742461695341293,
                0.14545176407566757,
                -0.10710293017382279,
                -0.9558749935835009,
                0.7120479759781637,
                -0.6764313828092886,
                0.06968806905385636,
                -0.31714329221758025,
                -0.4395119131524037,
                0.44718486074976477,
                0.9556346030555832,
                1.057610526764484,
                0.32947830699859615,
                -0.788707501341234,
                -0.0743219135029852,
                0.3743157772641088,
                0.6339019198167899,
                -0.5650888852751982,
                2.3921911512044662,
                0.3033877427435552,
                1.4088135944146094,
                0.5812410584854353,
                -1.2862260310054483,
                -0.3173304275038909,
                0.7878344249069491,
                0.7687169840711555,
                0.19862228606400786,
                -0.027815392958535422,
                -0.3336128670247402,
                1.3330483280775969,
                0.9233113382007181,
                0.31177150222644523,
                -0.08793479657316633,
                0.5094244657253685,
                -1.0484653699556448,
                -0.37412263671222823,
                2.2928913439251546,
                -0.3077314199329975,
                1.5660635712827355,
                1.2329174352212011,
                0.7469696539956723,
                -1.3079796711366047,
                -0.19559040582615053,
                0.8727674429554898,
                0.6959994483583163,
                -0.5662398147391181,
                1.1398937812656051,
                1.9443226359497388,
                1.8471232447880812,
                1.2730849792309749,
                1.7577883529170961,
                1.148983812621958,
                -0.04635057871299935,
                -0.2557181651464659,
                0.9481517074252465,
                -0.17908605282363851,
                1.894326847710906,
                2.0746288766409453,
                1.6265066665988013,
                -0.4142099270018517,
                1.0662447732650784,
                0.7817217883715554,
                -0.18517053358788657,
                1.344736270477359,
                -0.4173899716515181,
                0.748494220593823,
                -0.4675895340255861,
                0.8112070474821769,
                -2.2866387791480807,
                0.41341606586997465,
                -1.4472511210676853,
                -0.6933159367943986,
                0.8677508615095932,
                0.7953462230991337,
                0.3585241602331279,
                0.3090334129276264,
                0.731082904837553,
                1.4015790621729156,
                1.6601824043398679,
                -0.6212352739985212,
                1.423942219086776,
                1.647362290354094,
                -0.14305354217254726,
                0.3700702149079518,
                2.1161601061477175,
                0.5481827128606749,
                -0.16120180790755287,
                -1.2372000315746705,
                -1.9142715787265507,
                -0.1835990831708473,
                0.6169373195040475,
                -0.9707084911575081,
                0.698495023272848,
                -2.0018598014032474,
                0.7895105223199643,
                -0.3156292352241128,
                0.46198786363794403,
                1.2100659234339137,
                -0.6224219868035246,
                -0.3988041202942681,
                0.2242550795267157,
                0.44977001180528176,
                -0.04114502388216233,
                -0.34324234966898537,
                1.2288624249227995,
                -1.1113925805182976,
                0.8058592979242812,
                0.09919487824677092,
                -0.4238557079595233,
                -0.25338390664476534,
                -1.6152651005571377,
                -0.2811554091559445,
                -2.2888347748580884,
                -2.5626684126827906,
                -2.5415158054548908,
                0.2746162721890348,
                -0.33714587379683303,
                -0.7495230470671961,
                0.6980047684607892,
                -0.6666479813872099,
                -0.4621924981096779,
                0.10094334441342452,
                0.6652366164701166,
                0.5041673407214883,
                -0.4155011199342577,
                -1.1396728431647598,
                -2.6029995527056933,
                0.4908065637111425,
                -0.6076220824880618,
                -2.6159271942210665,
                1.6575558001172528,
                -1.6042305773673287,
                0.6391701455388588,
                -2.362479490560427,
                -1.1341924318525574,
                -0.7787766495016968,
                -0.14891891343351538,
                -1.386095367892084,
                -0.5321196640686624,
                -1.5143371595007555,
                -2.226268652798273,
                -1.5063027506771227,
                -2.8733461426181313,
                0.11948373294967603,
                -0.8221368300328604,
                0.16410373717959229,
                -0.3313686649795755,
                -1.1933558949970975,
                -0.35483263624732014,
                0.7760280511356966,
                0.8161217022995284,
                -0.5079003994728188,
                0.8698682346657556,
                0.2440469689845777,
                -0.6720272449566208,
                0.9122463249604513,
                0.5238902027489487,
                -0.3948771564694294,
                1.3693642493684266,
                -1.3290724564688263,
                -1.6888223720203965,
                -0.8202283321787031,
                -0.7443855875617436,
                -1.8637481751035652,
                -0.7251343645808257,
                -1.0266814706411265,
                -0.2079992461815878,
                -3.6170699188699285,
                -1.1896839554480998,
                -0.5618504699615967,
                -1.639795886473152,
                -1.4747003738032356,
                -0.2487594112303805,
                -1.7789897958222407,
                -1.2779557875280962,
                -0.25332944788675205,
                0.2242414377167348,
                -0.2642063250657241,
                1.8272540343156258,
                2.115163324533421,
                0.814194141753669,
                0.8178965814031685,
                -0.10498789867016725,
                -0.5987065179496599,
                -0.4032263323473442,
                -1.0528955004097098,
                -0.9896928122104813,
                -0.645810858786326,
                -1.1349207688163439,
                -0.9790470801273635,
                -1.7762784340744435,
                -2.170257457058316,
                -1.7289026228411846,
                -2.8888666369502447,
                -1.1029526384875208,
                -1.2864402083523152,
                2.03021323555907,
                0.24914272423889708,
                -2.6470486699685143,
                -0.10811008190854132,
                -1.5473989539141502,
                -0.5683017632936097,
                0.42711463907366076,
                1.2161837958318837,
                -0.03368267639229634,
                0.8913058490795698,
                0.04648176607529441,
                0.13968566814333616,
                0.7736096352336409,
                1.3846769013093947,
                1.3584135393925965,
                1.3305638292341335,
                0.1248916142278341,
                -1.953851208221794,
                -1.1922251501811036,
                -1.8432110517495657,
                -1.3184067659011554,
                -3.745867833363597,
                -3.0934234064482076,
                -1.1323526102694792,
                -0.45010548499789566,
                0.33755393924792,
                -1.5133179936259054,
                -1.1943440188691423,
                0.03403333351874561,
                -1.6009125670626394,
                -0.8954836147356836,
                -0.31299629989318273,
                -0.054351693600830545,
                -0.7529125870825117,
                0.10506040777686836,
                -0.3483993990960879,
                0.8913403841790629,
                0.423531950918752,
                -1.362289606394861,
                1.2614962024732808,
                0.30675693236112356,
                -1.0511509121387477,
                -1.655468629476094,
                1.1163957186799547,
                -0.6577175375590275,
                -2.1673055463537017,
                -0.7136791609842615,
                0.13210211862792948,
                -1.063189786486716,
                -1.793610864043825,
                -2.209562023442998,
                -2.594003159846253,
                -1.3114216083780637,
                0.43365621513266744,
                -0.24555041922561915,
                -1.9469195287499683,
                -0.12428576225372469,
                0.7025784015373598,
                -0.9051085111163172,
                -1.8752938357771831,
                -0.7054447373242104,
                -1.7915762045056474,
                1.03902413207094,
                -0.09800363247689421,
                -0.6581478383164906,
                -0.19562874268094305,
                0.5228275948808694,
                -0.9946601447011265,
                0.16275338404141101,
                -0.5152847458872564,
                0.3139518872551519,
                1.7562368764766705,
                0.6845216074600488,
                0.5586222835603849,
                1.3291831624411923,
                1.0106324760051475,
                -1.2611477752910971,
                1.1968530516528153,
                0.028166358895350133,
                0.00759009032229084,
                -0.43046933722338165,
                0.587666486125566,
                -0.09575985324985777,
                -0.1576067898746436,
                -1.3107160591456726,
                -1.9880875825055748,
                -0.5941271135966625,
                0.2134032184032765,
                2.2836128834355343,
                1.9069752221786953,
                1.3562170869200092,
                0.37265369496912987,
                -0.4805831507884398,
                -0.16563126118468344,
                0.2521456392493043,
                0.7673251251968143,
                0.6284417719953554,
                0.14959691568110603,
                0.7273072017934712,
                0.35951774912168294,
                1.579789092498821,
                -0.5136497235209201,
                -0.5583801500983534,
                1.9402654403656003,
                1.6098515188372224,
                2.228636644499612,
                4.15353330279525,
                2.7433326358388044,
                1.561390436071882,
                -0.721756210740293,
                1.2853032125607151,
                1.4675835804803876,
                0.11642293028527295,
                0.7497441951992087,
                0.960947387305554,
                1.7530296704285881,
                -0.7774833849085334,
                1.5004662716404904,
                0.08061128827304968,
                0.8721770289762084,
                1.0361258998698961,
                1.708737649780991,
                1.2969121518229108,
                1.4471619739836392,
                2.3645656884999564,
                1.8171258804103905,
                -0.1735594946464343,
                -0.2698261392490691,
                -0.5761442288598336,
                0.4452978340547163,
                1.9810999853133837,
                1.6925673847098008,
                3.0432018664168154,
                4.084222583079659,
                5.4554451803315605,
                8.379661545313658,
                5.591758521137944,
                6.416102157846977,
                4.369536308819988,
                5.56757785496999,
                5.4114038527868855,
                3.9185207062257956,
                1.606163911347258,
                0.1344796033989269,
                -0.6577180371066608,
                0.39712175151608137,
                1.1287254783208662,
                1.2525059523846136,
                0.9688542516424415,
                -0.4189075605393172,
                -1.7172540683093174,
                1.7604221090753152,
                0.8263786746914623,
                -0.3933401565650045,
                0.3062414215331934,
                0.33179186509879977,
                0.35333475663032926,
                0.6041608228257787,
                0.3607605291920376,
                1.8999847199110367,
                0.8778999131341467,
                0.701933691547108,
                2.7901735713638707,
                2.4875132875308656,
                2.5948603791202167,
                2.2945395820294383,
                3.3326171144768404,
                0.8740162853908651,
                0.5594855535438419,
                -0.459322781676249,
                1.3577589225639233,
                0.24013577054250704,
                1.346778313162288,
                1.4136281919531706,
                0.49469373228105445,
                0.2984256281917639,
                -1.3731619941965136,
                1.7596560898933773,
                1.0848717707154616,
                1.5653152390782645,
                -1.414658327137547,
                0.9716195275636086,
                0.5917337088018152,
                0.3547556418708645,
                1.2242972942920651,
                -1.3099564630063272,
                -1.844772771921361,
                0.825940014264073,
                0.6920055384605955,
                1.124332733042506,
                0.036297062219733035,
                -1.607651370277252,
                0.23152192406173708,
                -1.942836662124165,
                -0.4159008535397293,
                -0.6452608998489505,
                1.4338300967381998,
                2.0603278293612397,
                2.000447932205065,
                0.41096914397527345,
                1.5778884349764468,
                0.10997889971662717,
                1.3589754469838558,
                1.7095979457361552,
                -0.7574445903922961,
                0.21094499960524538,
                0.8106614475353311,
                0.7704238271227678,
                -0.9943104316035303,
                -0.5080784817244012,
                0.49769610321424795,
                2.1237737336167304,
                -1.5210794121367697,
                -0.7145488605484273,
                -1.723051547764881,
                0.07812060024807622,
                0.43111152588495677,
                -1.4023557160117983,
                -2.695054965204423,
                -2.3558875003298674,
                -0.9150979911422203,
                -0.048242795562561204,
                1.4981519033913617,
                0.3568232691387892,
                -0.39201078149724355,
                2.1263911217816265,
                1.189719221725394,
                1.1690934152857573,
                1.2047245630151362,
                0.23845048842998184,
                -0.7500103183320445,
                0.18095122144597878,
                -1.3516469844222587,
                0.3586556773979567,
                0.11599049024417736,
                -1.6834753072505764,
                0.42834145806364593,
                -0.2439762677189997,
                0.584237776679788,
                -0.9133309303982826,
                1.5011476913626807,
                -0.4778637923939065,
                0.028632675257879055,
                -0.24885853437996402,
                -1.2049209874008378,
                -0.892635594672068,
                -1.5347513372096981,
                0.4701928673582,
                -0.6539657779131245,
                0.4824911760666754,
                0.6232656374055503,
                0.8788059582626433,
                0.9369741069956922,
                0.47053117026508906,
                1.516578785881279,
                -0.18919394501087622,
                1.1253786706724391,
                2.015781705568024,
                -0.12817621304904833,
                -0.837944721645124,
                -2.5198454894764346,
                -1.5633318697782603,
                0.7013943954210874,
                0.2866136319449508,
                -2.5021293306831054,
                0.3271192056612966,
                0.661176790790575,
                -2.0516724277680884,
                -0.11551496841245534,
                0.18118907426776215,
                -0.4237621387016114,
                -0.15848478142642256,
                -0.18308341483278265,
                0.0752319557805115,
                -0.7870194236559657,
                0.3950479718798164,
                0.9226317290013333,
                -1.4166209566379095,
                0.28957106198751775,
                0.4723966456944986,
                0.49793276456218466,
                -1.1677993414125187,
                1.985669860901554,
                -1.675933504244623,
                0.9501971119324853,
                0.5463283117081136,
                -0.5091559544954748,
                0.05589281177030741,
                -1.3211910407220633,
                0.6874564486359966,
                0.3777783193831769,
                1.5176800275543803,
                -0.9097459275914025,
                0.5707140491576032,
                0.29356007345733975,
                -0.668114250058717,
                0.2951865258853083,
                -0.7260440377569358,
                -0.365936904063923,
                -1.6146745335909902,
                -0.49903414034507887,
                0.2974548284723627,
                -0.31600129556119627,
                -0.26455917465461043,
                -1.156598836369515,
                -1.7943756704071525,
                0.9188078051441312,
                -1.2175282433099872,
                0.24949896971992178,
                0.4697923116535191,
                -0.8087490826065521,
                0.16460977899855364,
                -0.11180669745411663,
                -1.8878649522539153,
                1.4070466480812402,
                -0.6898854657657112,
                0.7117033485412785,
                0.45643460464439767,
                -2.5077668399502437,
                -0.9397273616838174,
                0.8789879363093209,
                0.3017481956785887,
                0.41380410014635216,
                0.31538272855833777,
                0.5267576255590983,
                -1.5466715512849036,
                0.6550955426927836,
                -2.276472375800186,
                -0.5574016664113116,
                -0.48395827965865557,
                -0.5048230888838713,
                0.22673717397526574,
                1.6504833259348146,
                1.1743168219666498,
                0.5073944515141834,
                -1.1449571347125658,
                0.2657747055273233,
                -1.5150289852347063,
                0.333314260235111,
                -0.6247744494255429,
                0.32843697187412524,
                -0.7691159037213453,
                0.8204121402739629,
                -0.056685399056092635,
                0.14744347135081523,
                -2.0054098482954,
                -1.682945555084013,
                0.38660493424923925,
                1.387833887228124,
                1.0238827908823418,
                0.9433880787575708
            ],
            [
                -1.423398652539395,
                -0.6938543920846514,
                -1.144283347379806,
                1.1279761282409329,
                -0.16234284256061257,
                0.7502951601248633,
                2.0559175330810553,
                0.6268428882542673,
                0.10168395793964063,
                0.37816062883507356,
                0.665270979489769,
                -1.7673612000775878,
                0.39513068299313325,
                2.367003163276731,
                -1.3743945406534608,
                0.05951559283482368,
                -0.5110875505361061,
                -0.001065510195702497,
                0.3421225045421289,
                0.9454023178710842,
                0.44346025849722737,
                -0.5000466495204899,
                -2.3166507346775576,
                -0.8730057449479307,
                0.10703802441537243,
                0.9923786021497875,
                0.1088581907495201,
                0.4488943699572818,
                0.39715132724466823,
                -0.24590814639844275,
                -1.42988965711815,
                0.6590191528570519,
                -0.5352469806960317,
                0.7709294378911085,
                -0.5712570198374494,
                -0.9142442525015438,
                0.5927395186427713,
                -0.035052684060354077,
                1.529694666141191,
                -1.4645423319067306,
                0.3931073935569861,
                -1.598898009091398,
                0.5044355354697265,
                0.791934419682829,
                -0.2665297285074828,
                -1.2743710431870188,
                0.5074218619454882,
                1.0810818185137112,
                1.9633036913122583,
                -0.7661662951575652,
                0.4375059466131591,
                0.28993228408210525,
                2.0208769785561285,
                -0.840894488261678,
                1.4188156073815599,
                -0.2990914637927701,
                0.27891773500894035,
                0.8028043730284061,
                0.3675671942496374,
                0.27406460666183635,
                1.6290534260661593,
                1.5482921206385147,
                0.26047761351769255,
                -0.7165975902212081,
                0.3165109445983845,
                -0.7422711988911309,
                -1.371399685752452,
                0.7576451383129497,
                2.6212683111935156,
                0.019891299710579655,
                -0.9454019073405259,
                1.8633607004266106,
                -0.7403332395646128,
                1.1986428710470511,
                0.2329104518878728,
                1.505860503932709,
                0.19211628510892348,
                1.307418553468744,
                0.635181486533982,
                -1.5926231560103281,
                0.6367726641889296,
                -0.18145464656383198,
                0.32288202578703495,
                -1.491115956858012,
                -0.5162378503579541,
                0.4681877214642742,
                1.651095146861073,
                -0.4766951970434871,
                0.5637319690571988,
                -0.33307954418528446,
                -0.18159212113803452,
                -0.8765994554892532,
                0.8578050911726289,
                -0.5302614322208365,
                -2.5484960020784646,
                -1.455581425651519,
                0.7027558238217709,
                -0.6482852242630341,
                -1.3744294725759043,
                -0.23565912515045856,
                0.2841314827472275,
                0.21583833039000075,
                1.4749817803539769,
                0.6256475862846742,
                1.802787096891261,
                0.9997493945075608,
                2.6291148856268785,
                -0.1663385899011041,
                0.07286594776712275,
                0.55792459788945,
                -0.054614254498063244,
                -0.09533000471192969,
                0.8143517648024552,
                1.1121221991754153,
                -0.8923434497566135,
                0.684384402759275,
                0.024049547970555207,
                -1.1413430498360038,
                -0.44280780923771385,
                0.08509781159424969,
                -0.9744714547481583,
                -0.895155369604071,
                -1.1981432950304167,
                -2.689626348452657,
                -0.7925869159052193,
                -1.0874911412883976,
                0.8008154544748328,
                0.28661067046287897,
                -0.6869090403842225,
                0.19872855477334397,
                0.9841937557608279,
                2.1754062035686497,
                0.09966435097208394,
                1.50176444370081,
                2.5004349056979653,
                -0.6879226184227776,
                0.3556478449181036,
                2.073962801804337,
                -1.6314000572762999,
                -0.168746825187856,
                -1.348769318445906,
                0.10818357005117067,
                -0.7623207878215104,
                0.483796148584966,
                -0.38500704294122085,
                -0.9736121107030188,
                -0.9033526068161744,
                -0.03871476489878084,
                -1.4742574090317129,
                -0.490349341083356,
                -1.6135377115953624,
                -0.9697257857012825,
                -1.208896754476767,
                0.2678036832789267,
                -0.7825650560892982,
                -0.7994105312727571,
                -1.270760740939921,
                -0.2547953978490678,
                -0.9626010667995728,
                0.17100633974658289,
                1.7189056989842375,
                1.1170209370706747,
                1.1323509217365983,
                2.5130618758119034,
                -0.4212851531222087,
                -0.11360095909493852,
                0.43558615407053264,
                -0.13531035838364291,
                0.09804512966738436,
                -0.1986979909218728,
                0.38866703824095744,
                -1.4047698492944667,
                1.750441219561722,
                -1.0177659250935314,
                -2.063624645475572,
                -0.9249494502740571,
                -1.4450272118431537,
                -3.3775475721857977,
                -0.9580820282575925,
                -0.5028800222783165,
                -0.7093780691168895,
                -1.3359736465036904,
                0.16623366470980927,
                0.6954421174717778,
                0.2927140271884909,
                1.1304186416734983,
                0.5044596057054413,
                0.10336178031681703,
                0.5271141849902317,
                0.6834585977927168,
                0.9488869041631312,
                -0.0249092314682223,
                0.8901262099597982,
                0.11650538783694972,
                1.0093652270711326,
                0.6226250972378768,
                -0.34038288332596184,
                -2.0467832539743345,
                -0.8194844759936724,
                -1.1299124970929142,
                0.436790211607596,
                -2.0058749076097855,
                -0.44557344614240424,
                -2.420609468341418,
                -1.0452241207889732,
                0.8090156116021848,
                -0.992450655337529,
                2.1666921006969413,
                0.4677138563102051,
                1.1919471767585788,
                0.722777455295143,
                1.026995779567361,
                -0.46469908389164083,
                1.8294163490920665,
                2.3909543199218555,
                2.271848858170747,
                2.6504513055712953,
                0.6604333168430678,
                -0.9174715387923709,
                0.01883026407739181,
                0.20011360142124623,
                1.769101203388084,
                -0.17103795836564817,
                1.4346297285969454,
                -0.08989774197786472,
                0.38347407927074395,
                -0.5661648940866417,
                -0.09809976822181259,
                0.6014564892825879,
                -1.3799689606912449,
                -1.5697352932020578,
                0.7544105574964232,
                0.23372501935248466,
                -1.1942930228247188,
                -1.2003065618552604,
                -0.6175618877062926,
                0.6587310583445041,
                -0.14007777939429128,
                0.3432873191016471,
                0.6674478684321534,
                0.9586995715062074,
                0.26434957122909997,
                0.6225578712325208,
                1.5686334036321785,
                1.4139659824626984,
                0.3544060662643782,
                0.4067470895619977,
                -0.13754553988554633,
                0.3824514759426946,
                -0.5614558437496225,
                0.3295364660956671,
                -0.3730526492827832,
                0.8253453772991518,
                -1.8413661938942103,
                -0.9206305289809241,
                -2.1412454908510434,
                -0.6678750921814292,
                -0.6838056895779625,
                -1.9821007271769038,
                -1.5643858496722511,
                -1.8696682331534002,
                0.10564053872155503,
                -0.6456561869257215,
                2.162953847850739,
                0.4703335342650907,
                -0.17254001382708212,
                -1.2047628166702908,
                -2.2420654022757316,
                -2.2119366026165315,
                -4.2925156664891215,
                -1.0970281169746119,
                -4.416537705273034,
                -4.111193900611304,
                -3.846733370617978,
                -1.57395080558169,
                -2.676050819727843,
                -2.2424943446964356,
                -0.35328949030407975,
                -0.578996819924869,
                -0.7456527821294981,
                0.23068231038663184,
                -1.1464415300406348,
                0.14901268320445185,
