{
    "biases":[
        [
            [
                -2.948522749610148,
                -4.772182577802606,
                -4.90811514204715,
                -3.262300004006688,
                -2.8589149335149284,
                -3.4685805665669176,
                -2.3276302628300054,
                -2.688767203459009,
                -1.608067440162898,
                -4.436549129998485
            ],
            [
                -1.822200703306739,
                -1.6681763466754207,
                -1.6723624158871115,
                -2.5283098974201255,
                -1.4372004996886631,
                -1.0799989145862319,
                -2.873335716031533,
                -2.4301658215298594,
                -2.3996386898982323,
                -2.232489598166879
            ],
            [
                0.8726951803865319,
                0.5672585478484816,
                1.0224558525628755,
                0.8235433066544493,
                1.0159616228056223,
                1.6660377166830422,
                1.090223065295522,
                1.4330385768416924,
                -0.16213213553213376,
                0.9085545527744899
            ],
            [
                0.8235468514175722,
                0.37538486335628196,
                -0.24496369809471974,
                1.0129256676706595,
                0.7503990598493292,
                -0.2801526499284677,
                1.0982421648130147,
                -0.35162697024032036,
                1.586792007452139,
                -0.01000206759209391
            ],
            [
                1.156377305661848,
                0.7054785011563631,
                1.8379992887679886,
                0.4297597929551248,
                0.38232332859272644,
                1.101371589361054,
                0.6008191289632576,
                1.2104839708988857,
                1.268487426284201,
                0.8468785310432633
            ],
            [
                -0.4795734598376339,
                -0.6205743788310557,
                -1.9883919591567982,
                -1.8770149055317524,
                -1.301326308804374,
                -1.5081737572622567,
                -1.2627677536517283,
                -0.4114039394797076,
                -0.5730545434811654,
                -0.2675900162950568
            ],
            [
                -0.09099252444376128,
                0.5088992144606947,
                -0.24340183734064666,
                0.8926234180184429,
                0.8155259148996374,
                0.3874558595274782,
                -0.34356954412511026,
                -0.41982690574326326,
                1.3907540682444843,
                0.4544725899145197
            ],
            [
                2.866607148718889,
                2.4180005511439897,
                2.8395752939646672,
                1.818936134123398,
                2.999300668047663,
                2.0194311154247253,
                2.6810992693667335,
                2.774883564388828,
                3.069413803467461,
                1.7010451127780792
            ],
            [
                2.052143495461543,
                2.521204882859344,
                1.8942676880987745,
                1.7183556759062215,
                2.748581333418458,
                1.6351979092527194,
                1.9873518222351763,
                2.5596476857797095,
                1.4783901844177258,
                2.1429495273745696
            ],
            [
                2.1934663804459325,
                1.6482196372120648,
                2.9290085867778535,
                2.0705378970041255,
                1.9100602462661846,
                1.9627978463791793,
                2.720468603079364,
                -0.20176103578578794,
                2.892947721115008,
                4.038620817725927
            ]
        ],
        [
            [
                -0.6886987632546833,
                -1.0883749927229516,
                -0.8779293895765822,
                -1.1909866976353118,
                -0.5696946826446838,
                -0.972290026527229,
                -0.9818942943667854,
                -0.6729230434424048,
                -0.7286281988400022,
                -0.888498781824068
            ],
            [
                0.6793985551433834,
                0.5917022420002412,
                0.18023954555092012,
                0.5385961902385948,
                0.6136847603402067,
                0.21870194774656998,
                0.6464797725831771,
                0.5317215920571898,
                0.5789725276348723,
                0.778727416032081
            ],
            [
                0.5405585160820557,
                1.0093481323196933,
                0.5578690360784679,
                0.5194913735226332,
                0.4495659653298024,
                0.6972357220439426,
                0.8077757384975173,
                0.7316614488114528,
                0.8018590792036165,
                0.6620669097419906
            ],
            [
                -2.3799258846944435,
                -2.3805943687671975,
                -2.3362103250238295,
                -2.2435304747778217,
                -2.349050920526252,
                -1.9032179374929326,
                -2.154819873776733,
                -2.556025835516306,
                -2.0866078528082204,
                -2.1567795735760718
            ],
            [
                0.9481226234038644,
                0.9645000624901209,
                1.12518366513696,
                0.51845084662991,
                1.0919103698070767,
                0.9690346924479875,
                0.8469398174128534,
                1.1858271855588738,
                1.014008405433152,
                0.8572261158726604
            ],
            [
                -3.3408106922516017,
                -3.384831147173259,
                -3.4479767191177415,
                -3.109549674998712,
                -2.944831448721286,
                -3.5138601495039503,
                -3.3886952631545335,
                -3.1950015202786104,
                -3.2404023848297947,
                -2.929576881408091
            ],
            [
                1.4778942190684294,
                1.4892397399714181,
                1.4020710671726881,
                1.6677575908959386,
                1.6088542470484384,
                1.7089352163625398,
                1.197799387060641,
                1.095237786904802,
                1.4537007430453468,
                1.3623169923451195
            ],
            [
                2.217767919758769,
                2.3513373722991098,
                2.1377891202835997,
                2.294068616111445,
                2.2284113788294095,
                2.0680780086430137,
                2.266720652710099,
                2.110955710032887,
                2.194959245795739,
                2.398358073737543
            ],
            [
                -0.10121658435421602,
                -0.1540336669205946,
                -0.24743504481125206,
                -0.00033461979560920615,
                0.16732436223646943,
                0.18271478968498625,
                -0.07913073789576794,
                0.27240784064150797,
                -0.02086214504046545,
                -0.3868431588933183
            ],
            [
                -0.31966473715762367,
                -0.35827970893204686,
                -0.2846161005782281,
                -0.49845803427791274,
                -0.21619855154749112,
                -0.0720807577116836,
                -0.4288780040276489,
                -0.4104665718851684,
                -0.3955138945265009,
                -0.32543022094682383
            ]
        ],
        [
            [
                -0.9170261288844164,
                -0.9140858098650387,
                -1.0075392102737646,
                -1.1228708323276688,
                -0.9333486553914838,
                -1.13298808975319,
                -0.8811980081571419,
                -0.93540418950565,
                -1.2557577218460556,
                -0.9689886381974724
            ],
            [
                0.36682958148079525,
                0.6032735452971827,
                0.5712672120639158,
                0.7988615717768779,
                0.6024374464555808,
                0.27584387479749434,
                0.6130587674233976,
                0.5679324687500141,
                0.5796691070259552,
                0.6555507074795969
            ],
            [
                -0.3793841811655412,
                -0.5410668774490845,
                -0.9058008044977659,
                -0.6188627250371475,
                -0.37608405303463777,
                -0.3401760559104956,
                -0.3006382289688235,
                -0.17135563579557422,
                -0.20554069724500768,
                -0.6759606765310572
            ],
            [
                -0.47130632213360857,
                -0.36105091364129926,
                -0.5881291204708445,
                -0.6268338606947209,
                -0.35298832010088405,
                -0.49627226889007026,
                -0.7380599263249544,
                -0.46863918594772835,
                0.0229306867022195,
                -0.4692607518595016
            ],
            [
                -0.9571903328781985,
                -1.158968580675396,
                -0.8658579175720396,
                -0.936402577089937,
                -1.0718287560801265,
                -0.9184043908834324,
                -0.7955705601521813,
                -1.0141552496727326,
                -0.8158260028212645,
                -0.8269650779531925
            ],
            [
                0.8725367174167035,
                0.8209584627355944,
                0.9592903501768751,
                1.0465615265399006,
                0.917611194110266,
                0.9364518768644093,
                0.6203819979079268,
                0.9118535660936177,
                0.9812023567844748,
                0.7156304149736754
            ],
            [
                -1.6126885421393913,
                -2.0165244264006636,
                -1.843009238274018,
                -1.752251272623935,
                -1.7728090116672437,
                -1.7978049124973368,
                -1.6468276347819202,
                -1.6776966992477305,
                -1.907941232979916,
                -1.9729584001762752
            ],
            [
                -1.6565383078148133,
                -1.4179180083094969,
                -1.2119968095996536,
                -1.473832346222033,
                -1.4076150220670738,
                -1.5836099305357052,
                -1.596536681378901,
                -1.3290813491439395,
                -1.1969952326441888,
                -1.6125682361420688
            ],
            [
                -0.29384172761363836,
                -0.3332250126682334,
                -0.39436675723005865,
                -0.2864118024185827,
                -0.3243546849044832,
                -0.03548636007358056,
                -0.2649231175846658,
                -0.32274587351644857,
                -0.6033407202057975,
                -0.25813448701073954
            ],
            [
                -1.1782689432348772,
                -0.6604528631038344,
                -0.8373104455802305,
                -0.8716351309885733,
                -0.9522850817692793,
                -0.8792030499513376,
                -1.4384723464667177,
                -1.0243082444863356,
                -1.2392640858361437,
                -1.2417153709706905
            ]
        ]
    ],
    "epochs":30,
    "eta":3,
    "layers":[
        784,
        10,
        10,
        10
    ],
    "mini_batch_size":10,
    "weights":[
        [
            [
                -0.5378499445272905,
                1.0236799015825488,
                -0.7883584365161614,
                0.6214905692907117,
                -0.21143062928206727,
                -1.537686758718204,
                0.9289779979491183,
                0.9907640359903838,
                0.7467187044391068,
                -0.6013466876096649,
                0.9590713782590408,
                1.055754086324348,
                -0.16093822559501655,
                1.2279312437110228,
                0.1680426472065778,
                -0.11794335953895742,
                1.4379934288409768,
                0.6359862312236135,
                1.933786925575414,
                0.023949308262988973,
                0.7539744417355138,
                1.4717614010707256,
                -1.533617978073208,
                0.020198056217881396,
                -0.40676227883481614,
                -0.6845078871255758,
                -0.17489085381523664,
                0.6182197837460278,
                0.6285892697100836,
                -0.3505780970435162,
                -0.49533343511281885,
                -0.7006984365658788,
                1.4740277605795826,
                0.8579290118804503,
                1.270911518374117,
                0.16727477484361636,
                2.5081294029730783,
                -0.9377003008302517,
                -1.7138762714921136,
                -1.1658784317424191,
                0.3310989257677479,
                -1.1009019088619991,
                -0.130526415531184,
                0.12980092230715123,
                0.726913695409016,
                0.2689072577205124,
                -0.9765982019588015,
                1.3641600877754638,
                0.9734348872845286,
                -0.4006818860368537,
                -0.3592436777720597,
                0.8724965934245041,
                0.13269872272416977,
                0.45425852234615627,
                0.7786500429821789,
                1.3715668273706514,
                -1.1614277753954765,
                -0.5045823992774109,
                -1.4701966567666123,
                -0.48562148616724343,
                -1.185217644563407,
                0.09254589859716815,
                -1.7642528031986748,
                -0.699185118355192,
                1.0853375348946008,
                -2.524054476434939,
                -1.2532931669805754,
                -0.5440248414577303,
                -0.2583024315760098,
                -1.4064375643411315,
                -0.2745887556193197,
                -0.6108313116349153,
                -1.931319584655059,
                -2.2191398849582304,
                -0.20386470632386233,
                -1.1679311233671485,
                -1.5043191843977015,
                1.1087475092004644,
                -1.683668593074512,
                -0.5366583319560468,
                -0.19284684360285717,
                0.514527591849312,
                -1.024137914197399,
                -0.18414552626216965,
                0.9835028445561359,
                1.480799032763579,
                -0.47968091474104696,
                1.1074732239482439,
                -1.7356971304042716,
                0.20021666148313136,
                -1.7133235954898887,
                -0.9762589365901244,
                -0.7084085622239535,
                -1.2398985144562165,
                -2.1617192064699897,
                -3.4678291280252806,
                -1.857021366011194,
                -1.336271808813006,
                -3.0745152422327893,
                -2.8674005422136277,
                -3.005586717090329,
                -2.186826099144696,
                -3.458256514732531,
                -2.66296718359992,
                -2.742194839581503,
                -1.8934783691226489,
                -0.7343014211340378,
                0.046461636183066764,
                -1.0537330569326842,
                1.160909052302749,
                1.7730811816776528,
                0.7673107543691364,
                0.5471304918160622,
                0.044416663391851005,
                -0.6694248026683859,
                0.3334240108735055,
                1.0469535313991631,
                -0.2808449201676624,
                -2.476190966604853,
                -2.970108890394154,
                -1.546886751202949,
                0.2674894318294926,
                -3.9075740859119317,
                -1.8685818111920793,
                -2.3605343880290164,
                0.5410574893270457,
                -0.929245851046264,
                -0.49353779981767354,
                -2.0734183531447896,
                -1.8817569866745019,
                -3.351390819954939,
                -0.4598944205660356,
                -2.1875438333828203,
                -2.2941356096004824,
                -2.4614187867567754,
                -1.881913130442698,
                -0.9568520039092391,
                -2.035719355935614,
                0.2259570905419058,
                1.5912817153401255,
                -0.45623840658019593,
                1.275483413196489,
                0.3777609528505126,
                1.385085214056196,
                1.4706378832309492,
                -1.1318275127197628,
                0.4103002569581135,
                -2.1487957760922423,
                -3.294702295953098,
                -1.2418170598395368,
                -1.9321614492210637,
                -1.7571915572018162,
                0.2072984357050628,
                1.3937750770142354,
                0.34655643067980546,
                0.5877802177058311,
                1.9281548292162554,
                1.1993254079526725,
                0.9831174934386578,
                1.5793793903972446,
                1.1180728459176585,
                -1.3803810258729299,
                0.5518595848421607,
                0.05707707635758817,
                -2.3092483135999844,
                -2.208166516575422,
                -0.5989133876313746,
                -0.3619505804163576,
                0.2155704811910305,
                -0.6489916167347561,
                0.1915693962896282,
                -0.7281360840573881,
                0.5647625475257907,
                0.134845078559634,
                -0.7884647719197453,
                -0.7620755317453108,
                -1.3408136813559175,
                -2.357717714557522,
                -0.920003848559042,
                -1.3889409757621884,
                -2.6123155783665304,
                -0.9470141436241712,
                2.0442998156460663,
                0.22031627737974502,
                -0.7096386013517854,
                1.0239095928004343,
                1.3373097543638366,
                1.8367762762631181,
                -1.247545671919003,
                0.9656403471801043,
                1.7388354765004028,
                -1.2281753318889044,
                -5.552407033662452,
                -2.3365670799441682,
                -2.6944244435183644,
                -1.7583824912399235,
                0.9846141425260728,
                0.519328654946433,
                -1.096647808059275,
                0.39004215218300553,
                -0.7188518102629526,
                1.9852242276447858,
                0.4858775059180621,
                -1.4802021595181358,
                0.0949923246003539,
                -0.2549883606092602,
                1.0913579403057283,
                -0.13909225917482768,
                2.1649866071709893,
                1.56158837549481,
                0.9000733427128216,
                0.12498385680105382,
                1.38544724638422,
                1.0222237511640044,
                0.5743352102159892,
                2.590202794407759,
                0.17459492000506124,
                0.7692912739634206,
                -0.009762016113613017,
                -2.9349711410441714,
                -4.326465196840253,
                -4.1255775528738186,
                -1.2754630799356237,
                -0.727434883253995,
                0.909557433345897,
                0.5538845046947484,
                0.06620790192422357,
                -0.27270880330326686,
                -2.729255483052513,
                -1.1763930545784527,
                -0.2445315466727285,
                0.07583993481629552,
                -0.2587560184429537,
                1.0959321983572543,
                -0.9532445508952775,
                1.1861657350698533,
                0.18176274204689458,
                -1.0793217951566125,
                0.8701546243618228,
                3.018892154665126,
                5.616814933545804,
                3.2618263597427863,
                2.5786546959039494,
                -1.0268535554798641,
                2.0897692493342888,
                0.054522569521616805,
                1.1040814843187545,
                0.43497196060416665,
                -3.9471247975712527,
                -5.7934914006802805,
                -3.1712969139655245,
                1.5814228129167878,
                -1.3233295502028255,
                -0.005827216699722475,
                -0.23832128745488818,
                -0.2139617896577351,
                -0.036462080321043325,
                -0.6881533970757351,
                1.2920008600523583,
                -1.2040438114228151,
                -0.22778416947856298,
                1.757084899519196,
                0.29531357551602155,
                -0.7465869652829549,
                -0.12061684725763802,
                0.6906941058972216,
                1.0437892447040638,
                2.65461867172401,
                5.09424994669904,
                3.3830951203654496,
                4.208891643903369,
                3.4925468017938583,
                0.6726088187864805,
                2.3022827399257597,
                -0.8047827820897462,
                0.9275935266345235,
                -1.9299023964852717,
                -4.78075323154452,
                -2.4440082968424375,
                -0.6723956185484461,
                -0.5471681288980252,
                0.5635750008863406,
                -0.1078300119058556,
                -0.9646517124033137,
                -0.7848777170844341,
                0.34709957305935885,
                -0.6084052671947543,
                1.9819738255513155,
                -1.5698901649011878,
                -0.8636695753404974,
                -1.1513961406307225,
                0.48656694521628835,
                0.8664255622993006,
                1.7940575308442075,
                -0.027536472645065188,
                0.5192634520327031,
                -0.4725831696620562,
                2.7514206868579056,
                5.21671163769104,
                4.671983804041681,
                3.809236428743227,
                1.6731268481837431,
                1.9486668817314086,
                4.642627028910715,
                -2.4769436109462775,
                -1.4979613728117112,
                -0.7422659262244602,
                1.0472758442201102,
                -2.254710069315842,
                0.7287057992889574,
                1.2440804589440482,
                0.5810543960332276,
                -0.5005863266191618,
                0.2853600455518995,
                0.45118239869051396,
                0.9869912979539046,
                0.005495508018337501,
                0.7583805500654568,
                -0.13070170851569476,
                2.7414761616865806,
                0.4474018084117779,
                0.47171524306603807,
                -3.3687662185362353,
                -4.529460682274103,
                -6.02796894851359,
                -3.410805360729749,
                0.32605753757169287,
                0.8963134752689373,
                2.769611901504932,
                2.0896351056095908,
                4.08613635218346,
                4.1627919759683225,
                1.0300359928040776,
                -2.720458788933224,
                -0.9663385922496829,
                -0.4729405953846624,
                -0.5000922679027083,
                1.3885952147430187,
                0.7779550795670319,
                -1.0030091092631963,
                -0.4453590618337214,
                2.486727094310619,
                2.068304126885261,
                0.48224552802671955,
                1.5346329913348387,
                2.1683667605632815,
                0.8045342274693574,
                -1.0981521133899614,
                0.40312067233314514,
                0.27820479249262936,
                -5.682475924640338,
                -6.67310407708763,
                -7.399124123160771,
                -0.9236453057429385,
                0.5590307182372631,
                3.0696707583223484,
                0.6168017083274145,
                2.1243015577622013,
                3.520058348358644,
                3.347467012807534,
                -0.5816773383485938,
                -0.30222959849995257,
                0.1790781854317676,
                -1.3882433075041183,
                -0.35590126213015283,
                -0.17945421016819943,
                1.098604332826114,
                -0.022623245768856215,
                -1.570977195157039,
                1.75840836144869,
                2.87362928431895,
                0.9285275447839021,
                1.927845196531264,
                1.204832076666681,
                0.9577658456562821,
                -1.6381031890792885,
                1.306442554717108,
                -1.9794873807486495,
                -5.644607131538059,
                -8.79752523808572,
                -6.476979562802944,
                -0.252383310835386,
                -1.2515740579604882,
                -2.8445319834069176,
                -1.1909538024590673,
                -0.03184176005516015,
                3.0324314614463055,
                2.1656845335691965,
                0.8924235112503048,
                -0.8517311252561944,
                -0.38220286679653526,
                -1.0784591389540434,
                1.2574852260574294,
                0.6624087502454228,
                -2.332423070347017,
                -1.1019522935725052,
                -1.120780990902755,
                0.69428016017551,
                1.1800411681443512,
                2.582784307805683,
                1.0588955996596396,
                1.2474912025715443,
                2.166187864089972,
                -0.7377095393378391,
                -0.7675507386367787,
                -8.401378650356893,
                -9.703520877440377,
                -8.600162428163756,
                -4.531404224174866,
                -1.4690331390216629,
                -0.07571460746003585,
                -0.7251278344369122,
                0.817894433734852,
                0.11100575573534129,
                1.1457305340168982,
                1.6365150619233684,
                0.1400998055656031,
                -0.8958053556363298,
                1.9604724245871006,
                -0.013460910747640777,
                -0.6966919047484698,
                1.0684461752867933,
                0.802558941385945,
                -1.1122191176058873,
                -0.48979309009758076,
                3.640139652808874,
                1.3009486470476872,
                2.680352952032624,
                1.24365727547845,
                1.6776438357700232,
                1.9269890550278324,
                0.15197046939444062,
                -4.215234123171867,
                -8.89937872231655,
                -10.194854428852537,
                -5.053787558951485,
                -2.7556938991509785,
                -0.16802806702649442,
                -0.6914774892434794,
                -2.764263052638818,
                -0.1988442406985946,
                -0.17375422800993293,
                0.5209184425282888,
                3.505304792186729,
                -1.631526892554199,
                0.10140639512988908,
                0.09156306149071589,
                1.1521792432018836,
                0.17487375813190387,
                -0.25923470188027187,
                0.22619161565707271,
                -1.609191127451484,
                0.07961654979935757,
                2.7097559246343015,
                -0.4525444250084812,
                1.993390666540877,
                2.9275669072572748,
                1.7762770586533272,
                2.393520025836196,
                -1.5059369314137603,
                -7.66129144431911,
                -11.228851634929608,
                -8.226232460707323,
                -1.7818358081787704,
                -2.6263054608182212,
                -1.0629974348830598,
                -1.284359779030443,
                -0.8333449414359494,
                -0.8726765855523063,
                0.6844638691003494,
                -1.1340712635657053,
                1.0036070095480218,
                -0.03500882563010974,
                -1.8475800682107295,
                0.9587996678717746,
                0.7439680111788411,
                -1.5472692350757338,
                1.3430047139032406,
                -1.8166014842171634,
                -1.7284522908550362,
                -1.570970406761184,
                2.7021418982587413,
                2.237243144099312,
                2.4611180419852534,
                0.3352205636165561,
                1.42284451381218,
                2.69562548191423,
                -2.0410517639886967,
                -11.102381571752229,
                -10.849516769606605,
                -4.639711444739681,
                -0.948139101599205,
                -1.08283452245052,
                -0.6236032130844925,
                -0.22613028052822956,
                1.3990744866909588,
                -0.6968037291685226,
                0.813413333797393,
                1.9329320937103345,
                -1.3484685611766616,
                -0.30116938897477646,
                0.7817666943588731,
                -1.9794531531272366,
                0.017876025797003453,
                0.32781203692682304,
                0.827489919023749,
                0.5525834835445731,
                -3.095208638233967,
                -0.9713390925483704,
                -0.2945112336318106,
                2.1304140694008007,
                -0.047222810731842584,
                0.38266859184134877,
                0.3623478760635748,
                2.400048873822522,
                -1.0227570096882332,
                -9.714218033683002,
                -9.606489166891516,
                -3.1059659871195318,
                -0.011114661663105622,
                -0.9245948403672177,
                -0.19859113149522445,
                -1.8712982094702226,
                -2.87191951482873,
                -0.9179158787379257,
                0.27249936826207055,
                -1.0700302329526268,
                0.9085386289478355,
                -3.1382993547650657,
                -0.6070391551819426,
                0.1846311574644462,
                0.9766492566514247,
                -0.5820764856675904,
                -0.7676517598069594,
                -1.0091187706976958,
                -2.919535199427634,
                -3.404378426852984,
                -0.995325750190242,
                1.184398527634311,
                0.8725454993489502,
                0.5375941145854265,
                0.3976422457531715,
                1.5343730429005102,
                1.3152870190294035,
                -1.3908861024254122,
                -4.088623440882493,
                -3.444613032105089,
                -2.8664255877865403,
                -1.3726192221057942,
                -2.769055970181671,
                -2.057145363198691,
                -0.997020516002615,
                0.12157840730675201,
                0.3652204159601285,
                -0.6883970818142406,
                -3.283894524246393,
                1.698293143833081,
                -0.863398813764886,
                -0.5478560727652853,
                0.8710600856467523,
                -0.8115633084244619,
                -0.05206639358965253,
                0.9309110623144464,
                -0.37296160583971333,
                -1.9594046891415544,
                1.185776993079012,
                -0.3061397909363889,
                0.08321347927553042,
                0.07708331654369038,
                0.37112129344978234,
                0.6323908874893269,
                1.4396356784461486,
                -1.0008668452716682,
                0.4760096941072767,
                -0.5597524718060863,
                -3.4566900226991546,
                -3.1562384017188383,
                -0.5571706408876039,
                -2.662936902772522,
                -2.072478628465784,
                -2.0651382173821573,
                -0.4935786099145085,
                -2.729900864356404,
                -2.320527467572804,
                -1.6571559313925202,
                -0.5291071760643703,
                1.228255731037466,
                0.3076380795668941,
                -1.1471751549130655,
                -0.36538223965873723,
                -0.22870094597663654,
                -0.2140123303657595,
                -2.2348366606572743,
                0.6910165615712578,
                0.5947824165626607,
                -1.482678859077529,
                -2.4773969771468756,
                -1.5561815590082544,
                0.5193020323632381,
                2.7372344458583573,
                1.4919601313580961,
                1.0488441307671819,
                -1.7050175782449333,
                0.056581579416511395,
                -0.8757158807293131,
                -1.6920051932517493,
                -2.139106838144984,
                -2.9938732576895397,
                -0.6187640433810344,
                -0.4997676942712373,
                -1.3775318910630998,
                -0.5901197685973616,
                0.8389039894765887,
                -0.04584131242508213,
                0.1686172262439925,
                -1.5739539811083543,
                -0.6778576289132316,
                0.3528908014198763,
                -0.27142640271236373,
                -0.7760564483817852,
                -1.9945248173168186,
                0.008426472786182021,
                -0.5673488867926196,
                1.320103298184007,
                -0.5162956961189044,
                -0.8171956997608153,
                -0.45683902197906734,
                1.9872278543298612,
                -0.7413794400247262,
                0.10258679908828053,
                0.5653888398201667,
                0.9915981091805233,
                -0.3934456673776271,
                -1.5131329418535358,
                -1.668584025566584,
                -0.41254576050479286,
                0.6420203181327192,
                -4.06129424228421,
                -2.3026252246087533,
                1.0925585482835098,
                -1.438335980492488,
                2.5126279644712466,
                -0.6043914901421606,
                -0.8994009837595435,
                0.9470120063112619,
                -0.2567375861402597,
                0.01414334842414815,
                -0.34602905477936197,
                -0.7968550342366028,
                -1.5030200977493853,
                -0.8370410339126233,
                -1.4673714116575782,
                -0.3637544042663061,
                0.3557332120540588,
                1.6035807848132642,
                -0.8309397243850714,
                1.79348047242192,
                -0.6944073296407213,
                0.46010196638864415,
                -1.6222583507874007,
                -1.5919458578108636,
                -0.387598889184311,
                -3.4017842142839374,
                -1.9691783598181023,
                -4.376718787017791,
                -1.2886633598991957,
                -1.411651074595937,
                1.917416849831986,
                -1.4836187986350184,
                -0.7174062411320424,
                1.0281144132443585,
                -0.6991043411914358,
                -0.6253587760361102,
                0.4224673508192731,
                -1.4577799609728253,
                -0.44753492924751515,
                -1.5848044924097853,
                0.7743864276221962,
                -1.485039934501372,
                -0.9289207156559971,
                -0.6328870927087533,
                1.5386756998933864,
                1.8069953963270515,
                -1.5787212546899716,
                0.8998508475192039,
                -0.5658791711890968,
                -0.9815782363559739,
                -1.3090244315489217,
                -1.3818875964563877,
                -1.9267915880101787,
                -1.2251221234484453,
                -0.7129986045435642,
                -3.4559205144872056,
                -1.2006070621424512,
                -0.258545387888454,
                -2.9312211797526526,
                -1.4131635611098134,
                0.128461886595708,
                -0.7604490613316007,
                1.8116327024896954,
                -1.1639154069408488,
                0.08005769958149671,
                1.6885672381292525,
                1.0223526019811529,
                -0.1331771636375576,
                0.7860288495824836,
                0.02100552059929826,
                -0.9980201251171464,
                0.4136967015582899,
                -1.4616377102456,
                -1.2505006636852345,
                -1.5478447504514674,
                0.44871306207210204,
                -1.4399176543333259,
                -1.868388221838766,
                -1.0023333595247124,
                -2.6880721613140506,
                -0.7200892078916221,
                -2.2197399904561026,
                -1.2691028854296231,
                -2.1257653321832595,
                -0.282226710060054,
                -0.02489330955394306,
                -0.7568062150688668,
                0.7034115582366164,
                1.0786852052971112,
                1.899590626082482,
                1.1622620315014671,
                0.656235394066771,
                -0.5062091125073545,
                -0.30166199767759033,
                -0.4903677737414749,
                -0.31140033001178663,
                0.09495149580906667,
                -0.9415653000528174,
                -0.701896090158245,
                -1.0011990787996017,
                1.748173956593123,
                -2.6161849472031515,
                -0.6932735010602007,
                0.9727773726259789,
                -0.12400292463572633,
                -0.6444633243640725,
                -1.492974621132224,
                0.5785002577123212,
                1.3837723440811702,
                2.1361039380770563,
                -0.344000928349458,
                -1.2620177892062379,
                0.6613266003730985,
                -1.5975775846189526,
                0.5316621282766315,
                -0.4832616126499736,
                -2.576303674352976,
                -1.3030311568121025,
                -0.8872885089084184,
                0.5287910852144853,
                1.0336234473510215,
                0.5381276179693228,
                1.294002129686637,
                -0.4370329910985888,
                -2.3961534246839404,
                -0.2306748361224144,
                2.436728771949414,
                -1.3121299108173397,
                -1.5092041192473273,
                0.17918890424853157,
                1.2112916352833167,
                0.8119280950050592,
                3.8052664839069346,
                -1.350202342124026,
                0.2785491229592239,
                -1.8223765885316032,
                1.248546951592043,
                -0.8430353380227158,
                -0.787431681598379,
                -0.6081204756415334,
                0.0033798016464704,
                -0.24175399972164766,
                -0.5881153115650413,
                0.8024783547158929,
                0.8648791480943466,
                0.8708313918230101,
                2.0215601951358995
            ],
            [
                0.03878247113767732,
                1.6288325653943005,
                -0.06987999134525201,
                0.610036488960816,
                -1.5903969436807899,
                -1.4793773707576583,
                0.49075251160488487,
                1.50334155524141,
                -1.1751336713975082,
                -0.6152203473334696,
                -0.7909776149383536,
                1.0794439819588615,
                -1.3155354243867963,
                0.6751761328818142,
                0.4683324528433114,
                -0.9840844010913703,
                -0.5948584774375492,
                1.0682797118063803,
                0.13376691204781654,
                -1.3296214584490709,
                0.3019866377519032,
                -0.31976862178962495,
                0.33900965631304025,
                -0.2411608828479233,
                0.34260617423889483,
                0.5619027005587215,
                0.5769969595282702,
                -1.7756814976944735,
                0.31767839326363473,
                1.1128139157202148,
                0.13645052620334253,
                -0.4101080317985369,
                1.5243261660129954,
                -0.7270601790714066,
                0.258727203581984,
                -0.9101909352482126,
                0.39212888904722776,
                -1.4366913042240894,
                -1.0245241203956117,
                1.1710053049080777,
                1.1645933366284753,
                -2.415940759938248,
                1.0361407490511698,
                -0.9372332520789077,
                0.07270718618304554,
                -0.9163404177704709,
                -0.3622957046924492,
                1.7211477247298823,
                1.6045610057476007,
                -0.35203019772626504,
                0.9130441613613389,
                0.18273647556452585,
                -0.18784699754708545,
                1.0376712047267995,
                0.2416729917582852,
                -0.5225645832452109,
                -1.225136184961994,
                1.3659807891983258,
                0.39308885951721606,
                2.56377304993369,
                -0.5479300187854134,
                -0.14620883017124178,
                1.2811409437033243,
                1.3447890005707137,
                -1.0288619325737332,
                -0.9399609569058407,
                -1.4991473816509837,
                -0.04744691064146067,
                -1.8625089051047,
                -2.309144005989985,
                -1.264053383801849,
                -0.6045216166973959,
                -0.8487299462454968,
                -0.4832413732994519,
                1.2017685309301482,
                -1.5332740616365996,
                0.10698875830892317,
                -0.352541360575642,
                0.653212468223537,
                -2.855786097272186,
                0.1783578378151314,
                1.4173848120744066,
                -0.16833149005794446,
                1.0049670137097177,
                -0.0007170391197220966,
                0.3622972793701897,
                0.40851763517647227,
                0.43085277262506383,
                0.6533583585432686,
                -1.8697940143053564,
                1.807817123461423,
                0.4468655579064501,
                -0.1300534240513539,
                -1.7483734553006056,
                -0.5424559393357966,
                -2.242088068159532,
                -0.9926873477091732,
                -1.8144083782830303,
                0.39883869366452507,
                -1.5729787558919825,
                -1.0403090358382303,
                0.864628703304541,
                1.257629968859559,
                -0.41364046525716486,
                -0.12217513166620095,
                -1.785519758402854,
                -0.03177099339855297,
                -0.34315882729384084,
                0.299083853286907,
                0.7165056080089163,
                0.6111963543526525,
                -1.288143260944018,
                0.11591119553215538,
                1.355563894784912,
                2.1579813978340865,
                0.3416333174934773,
                0.6771338654703728,
                -0.08792472096258283,
                1.3618726075535095,
                1.867110836982331,
                0.13224558408766082,
                -0.40469100101399313,
                1.0627324306438697,
                -2.9713909028350076,
                -1.3266801225462501,
                -1.141058455921182,
                -1.1299379421724665,
                -0.2634419813985759,
                -2.443245170864693,
                -1.4269513083248149,
                -0.5751478527823984,
                0.24526359597709613,
                0.9677617900964863,
                -0.6605034102261877,
                -0.9004476817593777,
                -0.8604997372523758,
                -1.4160538675832512,
                -0.8510213252628698,
                -0.054883949636517035,
                0.8190942685984421,
                0.9826657947999936,
                1.7159974681864143,
                -0.17831806379997714,
                0.6008165552574626,
                0.3944543619635344,
                1.5676062912805488,
                0.659491982114112,
                1.940331834135552,
                -0.5935341708988235,
                -2.0606683247463886,
                -1.804854553161511,
                -2.342879769711634,
                -2.434827504838659,
                -0.832270046848092,
                0.5887517361926292,
                0.6333484367188544,
                -0.16512658117657764,
                -0.09693072545352598,
                -1.1232663548723059,
                1.0738496376455058,
                0.6895197141166656,
                -1.4919716737729882,
                -0.6123642665519485,
                1.1380076421123697,
                0.5496060665443537,
                0.6798656001782674,
                2.325050722747456,
                0.44548342170200456,
                -1.9545672817506698,
                2.059746086232363,
                1.1803564656918601,
                1.4361314175691722,
                -1.192977481553689,
                0.6793042795049496,
                -0.38544764112757124,
                -0.21157395159551623,
                0.7922065827636317,
                0.14065589560194755,
                -0.40705531006580736,
                -1.669490587038659,
                -1.0474599802602833,
                -0.27052223544332876,
                0.5078612398695294,
                0.7275901722706453,
                1.464160636990594,
                0.7060789509034134,
                0.27267875734442376,
                -0.8519646571811156,
                -1.4377853700817522,
                -0.9617429354887458,
                -1.3426491241161047,
                -0.19565386662997608,
                -0.5887968649972527,
                -0.37861017364532423,
                -0.5750579149415966,
                -0.3306204263631564,
                0.8319697869788405,
                0.6447608700951627,
                -1.8881204414324468,
                -0.4590807051378411,
                1.0607103539370033,
                0.6720949311581997,
                1.1015569438872317,
                -1.3514534111102445,
                -0.7930931388034796,
                -0.6502105350949842,
                -1.92178869854884,
                -1.4010970886666274,
                -1.5822898512936248,
                -0.31865475253315384,
                -0.6198446053487766,
                -0.9681788230004011,
                0.128054363814751,
                -0.8158399059760278,
                -1.4569752053585554,
                -0.563979464752969,
                -0.5207928614688435,
                -1.3496291672864442,
                -1.1600648644994487,
                -0.38728023133396794,
                -0.7186090228644073,
                1.0091063156679874,
                1.4319088125004193,
                -0.8983355587794757,
                -0.6733902044159047,
                0.06153790479001647,
                -0.09411602504222367,
                2.2212603123276216,
                -0.5170447167072372,
                1.0073230209418649,
                -0.01328717024181247,
                -1.5963175617355891,
                -3.978780620850159,
                -3.1953545497230524,
                -3.1003868239177357,
                -2.9812267703116784,
                -1.180117513735888,
                -1.8670330892498521,
                -3.1490369212002296,
                -1.3681698263131876,
                -2.338970498202859,
                -1.524182979609807,
                -0.7503797010481156,
                -1.9225824187793117,
                0.5878671225204568,
                0.05453021367993219,
                0.27765903459636093,
                0.0360846870562643,
                0.5238425892128844,
                0.4568709356984846,
                -0.37333258390397484,
                -0.7819514483647346,
                -0.1291155817717985,
                -0.044580180270241514,
                0.8330838714917245,
                0.21246063761605183,
                0.6590234490186663,
                -0.41423197033815334,
                0.17100042155691847,
                -2.2902307349780306,
                -3.7361903292265977,
                0.850701426570925,
                0.536112814944806,
                -0.5723506332328611,
                -2.339937730755654,
                -1.47357623561601,
                -1.0829946615383124,
                -2.843558597316041,
                -0.7582624260502848,
                -0.8406874158990089,
                -1.1730624741938587,
                -1.6278357773844396,
                -1.4213080160201905,
                1.5299999773685886,
                -0.3885092152295189,
                1.0300694376485275,
                -0.46959388325447016,
                1.4788591316803286,
                0.3904055165563189,
                -0.6544669796307895,
                -1.2215733894487815,
                -0.6588675475162917,
                -0.3907570196123971,
                -0.3659968911137045,
                0.05970034562910773,
                -0.19391197663505771,
                -1.0173274207391099,
                -1.0904916116501235,
                -0.4174763822722852,
                -1.4463198965243802,
                0.20611931786991178,
                1.3908210436139046,
                0.6002953532970278,
                4.3316647025078145,
                5.252790241499707,
                2.1010163206978576,
                1.2154301107506542,
                1.302398291803792,
                1.1088857154345098,
                1.000985357669809,
                1.6150516182743881,
                0.21637554620707372,
                2.669765325839752,
                -0.43449251316576754,
                0.49026236517488664,
                -1.29057480993645,
                0.6846604494214222,
                0.004942010035910716,
                -0.5226321824156402,
                0.8613946338682019,
                0.3135302732048556,
                -1.0044127740302846,
                0.5234303202603569,
                1.822081552474823,
                -1.8129796088856844,
                -0.42513799205885455,
                -1.8051622758106578,
                -0.5005838671299591,
                -1.7957185996166407,
                0.781824554952853,
                4.241658718455573,
                7.407485926887255,
                7.576163427967316,
                5.536203653112997,
                2.8102874129302116,
                1.2723675138619626,
                3.637517200982855,
                1.3178956802192812,
                0.6155715932255895,
                1.5961381582667862,
                1.497851669059219,
                2.2979322080587514,
                2.1266785580321916,
                0.08937209043437994,
                -0.5333873595318076,
                0.4117472742749527,
                -1.660028592607267,
                -0.4724827116375562,
                0.4463718010985241,
                0.6432952702915415,
                -0.011047848307690952,
                0.8428048031638806,
                0.19349790747383594,
                0.6378653072290832,
                -1.1381275382221792,
                0.5613799130397747,
                -1.0864538345599024,
                -1.8003157376568486,
                2.4171361546800703,
                6.557492234457542,
                4.94560662643984,
                2.3248890968083384,
                0.288080354575104,
                1.5694098702993509,
                -0.4835049599556019,
                1.7857445543036499,
                -1.212457728236614,
                1.33554572871871,
                0.13990379765266947,
                -0.004416799137682133,
                -0.2868709642902516,
                -0.5691736573597415,
                -1.033776168677591,
                1.0392455478455962,
                1.0980158920691434,
                0.9854412411928718,
                0.7264405908986091,
                0.49914267197788903,
                1.2511246905093525,
                0.16848380007434915,
                -0.21477058682558595,
                -0.8095924603061321,
                -1.5520986891319328,
                -3.0076184558067425,
                -2.386498137966425,
                -5.3781493318789675,
                0.31428965462562947,
                -0.4148022040359543,
                3.352864982716929,
                2.6628590565076466,
                2.8172866027188532,
                0.16064097563129418,
                1.4588684468825017,
                1.4710941545226626,
                0.4893795251157383,
                -0.7198086819391941,
                -2.585536894536818,
                -0.2551737558438137,
                -2.5427321468140245,
                1.2551431298765128,
                -0.3041989292599387,
                0.1859303194982763,
                0.9202071209410114,
                0.7220402499705659,
                -1.4725638747450598,
                1.0255658580684388,
                0.23658724504038467,
                -1.8039360413278795,
                0.7707354454469026,
                -1.457851867599097,
                -3.019919801676414,
                -1.8015413226911126,
                -3.0846402588355484,
                -4.043301354950265,
                -0.8396738585449361,
                -0.6771991417481412,
                2.0126073518331804,
                0.6329132173697815,
                0.15419584715237145,
                -0.275413153322399,
                0.7089663178696519,
                0.7274009165459194,
                1.4396133084904146,
                0.5575136175007281,
                0.25733794008348926,
                -2.05119761898463,
                -0.9972030271519086,
                -0.5641293635969691,
                0.594520728410598,
                -0.5114869206825723,
                0.8677650320044085,
                -0.2098106429868547,
                -0.2957634435158127,
                -0.617800884765625,
                -0.5074624404877182,
                -0.3225524522948822,
                0.4322057022807739,
                -1.8269598924809476,
                -0.2984973027011485,
                -2.727036515852004,
                -2.3511958079244657,
                -3.7388294760149066,
                -2.0512543923264044,
                -0.7951065795227271,
                1.8750169943180917,
                0.8243902506277312,
                -0.9496006408098885,
                -0.9544000779922635,
                -0.6719869997087444,
                1.6677692169757485,
                0.36224849125491443,
                -1.0922073022138943,
                -1.4340122707675098,
                -1.4974694957823043,
                -0.33039524124818476,
                -1.365461929096456,
                -0.5057265371165419,
                -0.0330076899633225,
                -0.2530663186483157,
                1.3469506734869359,
                0.5712893991825875,
                0.3691222172890075,
                -0.17581808500000964,
                -1.0986205384529295,
                -1.0842005666156784,
                0.7717669682596181,
                -0.809876266962316,
                -2.5994580416405304,
                -3.7648596828863243,
                -3.686299450548663,
                -4.131035872456667,
                -1.5218183977191477,
                -0.7625247778316886,
                -1.1479437762053544,
                -1.6084389573624935,
                -0.46408446597164216,
                0.636594234642536,
                0.7532060147913057,
                -0.5711141106257073,
                0.6895005584470683,
                -0.6092696351353396,
                -0.19448620047767032,
                -1.5011282200707348,
                -1.191767082592499,
                1.085289868648966,
                -0.16097946336889338,
                -0.48499037224637565,
                -0.0034677212240722907,
                0.012100811607616058,
                -0.27425260898150144,
                0.4308329375750089,
                -0.13079082263747904,
                -1.3310835706981798,
                1.544348226212662,
                -0.33599848151182315,
                -0.16398778598800692,
                -2.4979283852004825,
                -2.101310945358214,
                -3.167758511691639,
                -3.2122226404268623,
                -2.4531659727546082,
                -1.7934316730180966,
                -0.34793043573019533,
                2.3746165602497524,
                1.5688083313726682,
                0.9106399395057803,
                -0.42753024031294007,
                0.5407531889225848,
                -1.5111832296607872,
                -0.7130868426980119,
                -2.826732281653371,
                -0.16263274783354045,
                -0.7270480908215512,
                -0.10338542924741453,
                -0.9824348122328722,
                -0.16869020881497823,
                0.9313889568465511,
                0.7281678461068792,
                0.42637863230047995,
                -0.6232437999787911,
                2.1357960402047134,
                1.1622018606760176,
                1.2819268583214598,
                1.2367047512817737,
                -0.014011061477470976,
                1.0675092624156588,
                -1.896342804579568,
                -1.8782380860984917,
                -0.1456290201466104,
                -0.13453799363087965,
                0.3838218199142691,
                0.6635691627753575,
                0.7554401149936418,
                0.03654174335459476,
                -0.49341555180540736,
                -1.0772373759084337,
                -1.8926991671679279,
                -1.567163973252173,
                -1.2033952376883597,
                0.18893223684825988,
                0.07790964774428481,
                0.9636420987506213,
                1.3744983231076247,
                -0.26280003704430316,
                -1.0099662192123222,
                0.5927125133089022,
                2.1993377888320653,
                1.1325893602745165,
                0.7914209565340571,
                0.9626326016323737,
                0.8051752843982019,
                1.9366524724270298,
                -0.1383346935323656,
                0.2437929187746236,
                0.33151416770672304,
                -1.1138051576978898,
                -0.7954089773011667,
                -0.9860493336515042,
                -0.6856973752220646,
                0.3341878434906632,
                0.37083530605226306,
                -2.270471878974584,
                -0.6885357249121755,
                -0.42986767120150005,
                -0.7074425096893242,
                -1.4556049260506603,
                0.8427821605427467,
                -0.6801827179283623,
                0.6223749112263571,
                -0.5003539554262525,
                -1.6041085793038399,
                0.002870078496672233,
                -1.5371611088035102,
                -1.1232788923269912,
                -0.02111220481343079,
                -0.4314981181910628,
                -0.2650324795999998,
                0.2760228925109164,
                0.6220673136078264,
                2.0778979263898516,
                2.8104841576926716,
                -0.7163773974453473,
                -0.14884451580063687,
                -0.8749717069191635,
                0.2551153560275807,
                -1.0200955110851073,
                -0.8025526252748821,
                0.42436928912530664,
                -0.3003258186224812,
                -0.5508382641582695,
                -1.2030687986635311,
                -1.8085235087716074,
                -1.7847927381663273,
                -0.28826335372677636,
                -0.6684388144002623,
                -0.7422238695244109,
                0.06790861799513731,
                0.18874097651127003,
                2.2408041913707715,
                0.590126832925631,
                3.341058755141587,
                -2.164081303778501,
                -1.030203155084576,
                -1.189531008356315,
                -1.314149908613208,
                -0.19153096137313524,
                0.6815972398136078,
                -2.179756727529459,
                -0.10631984588341069,
                1.4518150976233732,
                -0.24148042391402177,
                0.26278609115316515,
                0.0626087019195099,
                -0.3131455374164992,
                1.0942384051433736,
                -0.6169655201599694,
                0.35334789056586574,
                -1.4146565507292748,
                -0.5456739956349,
                -1.5644345497178738,
                -1.9332389004762272,
                -1.244956559114608,
                -0.4775062784766809,
                -1.059411754944498,
                0.37575200855616697,
                -2.4755987129508195,
                0.4789316832719579,
                -1.198275922207483,
                -0.7116143518140439,
                0.9271347396060691,
                -0.7573375247519136,
                -1.2884291462624118,
                0.5608660664444111,
                -0.8845512269562638,
                -0.8420941808842191,
                0.3551380154863571,
                0.11209874068155741,
                0.33437471838001515,
                -0.914019568009447,
                0.2804447209872889,
                0.9088151249154083,
                -0.09199157100267698,
                -0.8143059184173189,
                0.876153149919657,
                -0.3728003637621809,
                -2.786884033254249,
                -0.518590658479875,
                -3.6962558139045414,
                -1.1825881141295247,
                -1.0739005779607267,
                -1.7054521556518576,
                0.9670827037868479,
                1.272179921131478,
                1.3860382848472659,
                0.7164743524088649,
                0.9210312188019371,
                1.1258734113937652,
                -1.2778353419521136,
                -2.217580045236194,
                -0.9415241627625781,
                0.30874795946776573,
                0.39818074548371496,
                1.6884620459742898,
                1.86718614824672,
                -0.035102640628641046,
                0.47500672141142364,
                1.050085831753563,
                1.6911021092901453,
                -0.32775288533558,
                1.2384294968846319,
                -0.8418016864185544,
                -0.7466151155158535,
                -1.548073850668543,
                -1.7163219428851064,
                -2.009512573120309,
                -1.566601817628411,
                -2.59511152235642,
                0.4193072690312805,
                -1.3003770900727252,
                0.11599063381459065,
                -0.48829577588027273,
                0.0795261009463766,
                -0.9780543953504285,
                1.3113538292365698,
                -0.7949728419190704,
                0.34481863451757555,
                -1.3996746950528791,
                0.44646759629291627,
                -2.7665115723799536,
                -0.4715691081780157,
                0.6077716545429062,
                -1.7041390060017867,
                -0.4897582491893728,
                -0.2640979097007679,
                -1.347800284017281,
                -1.7029458734715468,
                -0.7213832016121172,
                -2.5662195371062984,
                -2.694855866104126,
                -3.175841842953389,
                -0.9061896003899517,
                -1.3810218218279429,
                -0.7977617986530745,
                0.28709318951692525,
                0.31661215891124406,
                0.047316379376988585,
                -0.26131058318108175,
                -1.0902161351376514,
                -0.03104155800674486,
                0.6680945535668075,
                -1.0113776664672383,
                -0.4072368962246622,
                0.8024594826736718,
                -0.33860662624522136,
                -0.7843466864187003,
                -2.226323606137396,
                -1.2196445044221451,
                -0.9954007093259931,
                -1.1718468501736385,
                -2.8111301391358245,
                -3.17545535463647,
                -1.0889184067107336,
                -2.6224265972175536,
                -0.17123913058471646,
                -1.5536524321324285,
                -3.6437885703765285,
                -1.4343702321586227,
                0.12502939691764356,
                -2.9761183515648946,
                -0.10111819074607473,
                -1.5439715926682043,
                -3.3758157816880066,
                0.07969792979108699,
                0.5528249552735486,
                0.2293359790639654,
                -0.5023514921332436,
                -0.5225849754905157,
                -0.7171466890735037,
                -1.066279286721107,
                0.9536977693121469,
                0.35001783960826804,
                -1.681076448527488,
                -0.7146027137729476,
                -1.564680904248378,
                0.1964567508939102,
                -1.743455848662509,
                -0.0744966204042693,
                0.41651354966054965,
                -1.1413830491929535,
                -2.221199206652745,
                -0.44252715956028466,
                -0.02481892295174048,
                1.7302718545108535,
                -0.6783842365466779,
                0.6380855132750335,
                -0.7597446284485765,
                0.5348965522392136,
                0.8938032076081333,
                -0.7049496938712085,
                -2.341631145776563,
                -0.7996752625343709,
                0.1719713958390702,
                -0.45020867572170176,
                0.21037867689545708,
                -0.4157149226494487,
                0.7373630351468524,
                1.7787798703231381,
                -0.38844638227549,
                0.369726391561533,
                -0.987257349651876,
                -1.085770550467785,
                0.7748484770491306,
                -0.6784797072792874,
                -1.4509365289385032,
                0.7998345628107204,
                0.3773634117042026,
                -0.8840695620913335,
                0.5326787701695412,
                -0.14920881327092064,
                0.19692817420890016,
                0.6888376017188832,
                -0.7596693379103734,
                -0.5602063350657013,
                0.7412415314021844,
                1.5654498660652232,
                1.7597465590312844,
                -0.48136917207148483,
                -1.6467615834217548,
                -0.4525374017063897,
                0.8800655908816336,
                -0.8013598367335313,
                -1.177458141672876,
                -1.9425221739386047,
                0.7167921463642075
            ],
            [
                0.7710720113449241,
                -0.06273097657648385,
                0.8210717569084425,
                0.06652852182779798,
                -0.7348929043276979,
                -0.608916971295165,
                -0.8649635167743447,
                0.5500520344290022,
                -1.2164972969326622,
                -1.5589753672498694,
                1.028657758526668,
                -1.2398432839851903,
                -0.560593156791603,
                -0.036966086528010825,
                1.345848427085739,
                -0.9714914380176494,
                1.1791809226632026,
                -0.7935460169953937,
                0.5485694782039634,
                0.18975916597596929,
                -1.4692796676132092,
                -1.407984367613367,
                -0.4529416937638184,
                0.14089305607508154,
                1.1646144809126937,
                -0.2899851511243341,
                0.37451906071729213,
                -1.4261907083636203,
                -0.05714760448377272,
                0.38194072028284987,
                0.32792707861347664,
                -1.6606356109317524,
                -0.1852328242444311,
                0.8792575026391652,
                0.6193234452906423,
                -0.011326127736409527,
                0.39487412037898034,
                -1.7998468452724075,
                0.00020528621044044228,
                -0.0919579818374402,
                -1.082159511526336,
                0.42295886219758644,
                1.0525411028503644,
                0.004010975249654326,
                0.34437927878155655,
                -0.6759475607279639,
                -0.103130423959934,
                -0.47936139591026894,
                -1.5774153959512542,
                -0.4377000710864067,
                0.05770875530484925,
                0.762672513050359,
                0.6089017534127004,
                0.3485937050876259,
                -0.36908145390982283,
                0.2288847520745473,
                -0.8849607757772218,
                -1.554970380513577,
                0.33632948452348504,
                -1.2656354226199777,
                -0.34228390618216076,
                -1.6259165379239024,
                1.5792083335272922,
                0.04311589445956845,
                1.2302494759658469,
                -1.2348870583614986,
                -0.4810763492782342,
                -0.33580062707756364,
                -0.2841931400049782,
                -0.7646887561414253,
                -2.920399156040516,
                0.8825467594632048,
                0.8237177458165447,
                0.70515666487596,
                -0.44057779694810945,
                0.29321483747702154,
                1.5626023733081922,
                -0.0784470126351268,
                -1.0696244587385786,
                0.5180332040752083,
                -0.32759440517405736,
                0.19094853135402529,
                0.6710745822033576,
                -0.31367336254439043,
                -0.25391463961348243,
                1.2794474158959477,
                -0.9237747266368899,
                -2.3455215915376995,
                -0.7719432132753422,
                0.23024683100456436,
                0.14573600681791007,
                -0.5728282918391833,
                -0.9571675633614138,
                0.34569929425253143,
                -2.8274223968491725,
                -3.380928677962702,
                -1.9750448592403664,
                -2.134990372429062,
                -1.481786657707219,
                0.49867513269637964,
                -0.7760615143132841,
                0.10087266579636507,
                1.1632365808879654,
                -0.11180063677032992,
                1.9425654452203318,
                1.1422892031494751,
                0.7285207672111936,
                -0.0538585819840421,
                0.734200039738513,
                -0.20712379384076482,
                0.3131845397482993,
                0.8040607654734055,
                -0.9704087299609361,
                1.112268688535071,
                -0.08737243624833929,
                -1.9243046124902685,
                0.9153765671290937,
                -0.20049068872483844,
                -0.3296932946661535,
                -0.9181884187480288,
                -0.07675236538130273,
                -1.1990828984707957,
                -1.495191063731332,
                -4.3239014967194365,
                -1.5746899800858465,
                -3.1474495176753727,
                -2.2491886286587426,
                0.29552641166805727,
                -0.4321051420675343,
                0.3769363708389065,
                0.47430896303534553,
                0.698860391715426,
                -1.1432683136423993,
                0.031097778799741505,
                0.413655756637094,
                0.00489543797254272,
                0.2407653338373467,
                0.47171742068303446,
                -0.4971743875030375,
                -0.6879605284412528,
                0.11829980268069723,
                -1.3693894599804486,
                -0.48326552816637947,
                0.39659849532513824,
                -1.3839872551083463,
                -0.4164471190866339,
                -1.8951844259365853,
                -0.27751388555995893,
                -1.584862435411284,
                -3.301327062186425,
                -2.1383133582459872,
                -2.5094398836149012,
                -1.8404350435486276,
                -1.940882389336456,
                -0.6557093689628704,
                -0.6935352356115043,
                -1.625645907119686,
                -0.5430960443643641,
                0.3570618117856854,
                -0.9667841059173998,
                1.84948178220055,
                1.1588496534306811,
                1.4084284832278768,
                0.0040482109677956925,
                -0.22568509563064365,
                0.6860151990310963,
                1.1526302574043343,
                0.22435843162444946,
                0.7199829815409583,
                -1.3972583585596259,
                -1.0132297373569334,
                0.6419924751371887,
                -1.6082004853769314,
                1.3458801889806262,
                -0.4764925493623504,
                -0.5059746137406927,
                -3.1640720172834964,
                -3.091249879946985,
                -0.08961948298692657,
                -1.88752001549665,
                -0.7739913040717097,
                0.442790801482854,
                -0.01707863366577311,
                -0.5917896701575136,
                -1.2578097398941452,
                -1.3027812382457238,
                0.38594616541208093,
                2.01449148852596,
                0.5181242150079309,
                0.27322409142884746,
                1.4034427344986684,
                1.96905696379054,
                0.5209748407913698,
                0.4653591357278668,
                0.6778734362139796,
                -0.7011855447816904,
                0.7727296871576035,
                0.6323803078518818,
                0.21184743372590203,
                -0.8369457263285354,
                -0.40202101453426003,
                -1.0752732026218286,
                -3.5988855136162603,
                -0.761032663068535,
                -2.3529421954912273,
                -0.4916808469064309,
                -0.27537965763591865,
                -0.7650484562893446,
                0.8667354913822587,
                0.5866219439968582,
                -0.11037779329652783,
                0.7869096915270748,
                -0.294625248959949,
                -0.08375759177153326,
                -0.504286301479762,
                -0.8079974201684494,
                0.6763578435918298,
                2.0958030457577097,
                1.5223168127342412,
                1.9241067823911973,
                -0.09349055413772356,
                1.298890586514558,
                -0.21369023246991234,
                -0.24398563889787322,
                -1.1438157064288461,
                0.3122438777065828,
                -0.5000414047740814,
                -0.30591115289781545,
                -1.2599102131156907,
                -0.6359680626475992,
                -0.031055669615718557,
                -2.6174975135926,
                -0.3227975917621521,
                -0.2794446609846838,
                -0.24120418258231388,
                -0.2898396198002566,
                0.3089313086256638,
                -1.980956999441776,
                -0.5682603998668441,
                -1.1454584627841804,
                0.5778414777524163,
                1.4248375012144818,
                -0.47999776993416965,
                -0.240049209484824,
                0.20754973091057938,
                -0.22875757937867103,
                0.8068392074321616,
                1.2024608821235163,
                3.172819919295378,
                1.7197363844675901,
                0.006955863650821636,
                -0.7577472692350471,
                -0.04827635006289865,
                -0.9635536926149438,
                -0.0765558487625679,
                -1.2880762427870696,
                0.7526851774933221,
                0.9721659828620904,
                -3.346450604324915,
                -1.3642342898876247,
                0.015452347038593628,
                -1.4454457414489932,
                -0.013112903990392357,
                1.684619177017061,
                0.14220660549405045,
                1.5935779538311206,
                0.02405537647170152,
                -0.3264934245454457,
                -1.8782691069349053,
                -0.7964635790537811,
                -0.06340738072378886,
                -0.27100540968410003,
                1.9619337640554062,
                1.0849808461328494,
                1.7511291182009938,
                3.565898565426559,
                3.0810342277439804,
                3.2283006294000876,
                0.8952327459162694,
                -1.2231391602609565,
                -1.1144451235689998,
                0.5334193038905592,
                -0.32067865818764235,
                -0.1191534264329483,
                -0.5056773398989488,
                -0.09382876795591992,
                -0.8241731139203691,
                -1.8937314645867631,
                1.084194382514648,
                2.7489685960222574,
                -0.09182949729707379,
                0.7008994376939655,
                1.4722011135187105,
                2.1922752606886524,
                1.0318525401213392,
                -2.383480618133847,
                -2.6299058999861287,
                -1.710267217014421,
                -2.322354015788379,
                -0.6064714821207391,
                1.464764015553037,
                2.544198940813927,
                1.722935572662045,
                6.266492620931844,
                8.022441682121805,
                3.7846132353198847,
                0.19234407416984375,
                -0.07295032731007865,
                -0.5018803823586866,
                2.086263548332389,
                1.6957768118660135,
                2.4253030975639125,
                -1.4818981124518862,
                -1.9810108067483452,
                -0.5288001552042862,
                0.1570785731222483,
                0.7511313500081827,
                -1.207553336224354,
                -0.40457636314073175,
                -0.7706900464597188,
                -1.7029695966395766,
                -0.588239855995653,
                -1.4364197746108942,
                -1.6477998461057652,
                -3.3235254595763153,
                -5.326136917823196,
                -6.141367584656175,
                -3.6990347740055736,
                -3.5795140911525842,
                -3.308701076936862,
                -0.4289555358854906,
                1.4463137950113567,
                2.256904707651292,
                3.31593982096831,
                0.4953163557357396,
                1.8380725500099004,
                2.6540229285732475,
                2.5762224311618382,
                -0.5916921283313635,
                -0.8211403955238793,
                0.5047764361077206,
                -1.8804970540744816,
                0.8930467028765217,
                0.6980621424400315,
                -0.6354331932365541,
                -0.6664684847354485,
                2.1182595004649873,
                -0.009117688548058629,
                0.37812541374616854,
                2.891997424127523,
                0.4822620537551906,
                0.8562947264023607,
                -1.310855213764989,
                -4.1403615146585535,
                -9.264290653856296,
                -10.417711615577014,
                -8.06586119490071,
                -6.773726773789667,
                -4.5979790165180345,
                -2.8539225061947073,
                -0.4242594247372349,
                0.03241531987998569,
                0.8615385770614338,
                2.515703093944247,
                0.8766939458089003,
                1.087801503743754,
                -0.9057900771342071,
                -0.6286836446234207,
                1.8287287100757916,
                -0.49984870850050617,
                -0.5982015551329806,
                -0.39627350180056115,
                0.8685235914391194,
                0.03484088754969163,
                0.9103801848927688,
                1.9769295322532372,
                1.4944318961402474,
                -1.3471711563179318,
                -1.3049138547208916,
                -2.1109739458304526,
                -1.8089942994011377,
                0.5145325099222131,
                -1.9189243584303672,
                -6.733850790464975,
                -6.9102542814668055,
                -8.041733634805732,
                -5.124833614100987,
                -2.797231926132823,
                0.5533848215623203,
                0.13274690389165142,
                0.5684439997062093,
                -1.6378008470840053,
                0.46190342618630953,
                -0.7484206025083775,
                -0.826253796817338,
                1.0640975244188824,
                0.5196675248013235,
                -0.04426969955461473,
                1.021582536508461,
                0.12481473854763239,
                0.5394380530300565,
                2.863849975407289,
                0.49046167983688416,
                0.4065529097487984,
                -0.36023265009499267,
                -2.3234982249043754,
                -1.565361301155249,
                -0.3432224147781748,
                -1.5795442685484054,
                -0.9541440261988413,
                0.7675064859670366,
                -1.7577889937157272,
                -4.355660981691836,
                -5.06335351296932,
                -2.8185425605747803,
                -2.382932169691067,
                0.2661899971358236,
                -0.6598486234875262,
                -0.021823502683903557,
                -1.3846166154609447,
                0.9914340801788712,
                1.6661499269771116,
                -0.3482539539803655,
                0.14945121443106082,
                -1.3496424138676615,
                0.07731980915836179,
                -0.22800795015340367,
                -1.3623794544187675,
                1.550050221473148,
                1.8667271396952283,
                1.3104466008057323,
                -0.6737663441529048,
                0.6549373868310351,
                -0.624690973753327,
                -2.128248042448963,
                -0.47058861074102265,
                1.6425929889706674,
                -0.9071588785669826,
                2.4697983914531823,
                -0.06911298391271468,
                -0.09483259074487789,
                -4.090558721463067,
                -2.56930927925524,
                -0.8014766919783354,
                -1.2661705205081009,
                -1.0515099963204566,
                0.5965225737771299,
                1.3447918919636594,
                -2.2791360764827906,
                -2.203832252269955,
                0.4035228557627044,
                -1.3838243712595977,
                -0.7547162065059098,
                -0.09250047869525753,
                0.8732378499450476,
                -1.0254071741731914,
                -0.48449179451300134,
                -0.1465534849351792,
                -0.10170569883577718,
                -0.12305552271282649,
                -1.368158446973779,
                -0.016623980980018577,
                -1.5818651994783826,
                -0.7768625278227437,
                -1.0874915856792025,
                -0.35181537619928877,
                0.3750233038595693,
                1.6686472020540724,
                1.5559987222730243,
                -1.5765071883217698,
                -2.4984135389689803,
                -0.2453342233629947,
                0.3715140087115518,
                -0.34315020087580345,
                0.18057048344227997,
                0.5703494202967677,
                -0.11861029090869424,
                0.14713654162232934,
                0.3863703169457033,
                -1.922921757898557,
                -0.4341224725165835,
                0.9481808146655321,
                2.509752661535565,
                0.5862358500772011,
                -1.577051742830806,
                -2.1182134242372133,
                0.14961515162112882,
                -0.2691763760142195,
                -0.9939529163295753,
                -2.0976207372771767,
                0.9067468199971519,
                0.47073557075335715,
                1.4775078361612621,
                0.7938053405320844,
                0.21256107708056404,
                0.8109491822856728,
                0.8584732483169323,
                0.20747454998685655,
                1.0727073464855281,
                0.33001323654066556,
                0.10512363895163442,
                -1.7908923624187536,
                0.3844717648228923,
                -0.660532184296927,
                -1.152157800708309,
                -1.8882504749740951,
                1.571086063281269,
                -2.1434064481677506,
                -0.7525842363895853,
                1.076830818727224,
                3.249319485922134,
                2.487091317835029,
                -0.6340870433345893,
                -1.0617686170901535,
                -2.0397602783082283,
                -0.6537542625325884,
                0.3258222440125668,
                0.6380270487378094,
                1.0108417582051996,
                0.1769243483210246,
                -0.5994630506599354,
                0.20894247717101289,
                1.5428425757026318,
                -0.9892955011706691,
                2.3868705308366938,
                -0.5879108676124842,
                -2.8811937638872727,
                -0.0360842727599057,
                -1.3526648771581065,
                0.22267295439454798,
                -1.6595770364772786,
                0.47369182447137437,
                -1.4508372122401068,
                -0.06824357621174891,
                1.256232603537433,
                -1.5450784748838222,
                -2.1346854466561864,
                0.09518694741229652,
                0.3389329241999423,
                1.4136662446327581,
                0.7379787625304486,
                1.2009072192445946,
                -0.22259855214150961,
                1.3888786960054593,
                1.0335060884880147,
                -0.042809477440094945,
                -1.4346668686667077,
                0.10313127806269506,
                0.44801524935997566,
                0.22142981744856904,
                0.6779111708685096,
                0.8110820738379585,
                -0.11285044700113207,
                0.9751114759321768,
                -0.7745837947550009,
                -0.42516602827141503,
                -2.1369176201234232,
                -0.9482368211080086,
                -1.3287692149897068,
                -1.5551839812570625,
                0.11321050661465977,
                1.1102164906239456,
                -0.5810015941645618,
                -1.901463021634883,
                0.30667427967464855,
                -0.8276850496778961,
                -1.4175824726340673,
                0.05126521832255615,
                2.756941811367174,
                0.8995130658051526,
                2.351870199649447,
                -0.5708787284116585,
                1.0927671022042638,
                1.1520852089803437,
                0.7607878257180529,
                0.730116220799614,
                1.7078742971067922,
                0.04784533719856632,
                -0.011498143326919107,
                2.130192229831435,
                0.7525382050067103,
                -1.200513663879323,
                -0.5559302063686015,
                -1.9197634764464304,
                -0.9794065030033148,
                -1.0666230620778638,
                3.824085599869872e-05,
                1.039552928496677,
                1.2254689267679524,
                -0.7566293943056678,
                -0.9806373550748954,
                -0.5125554736721359,
                -1.0689407485165285,
                -0.19335440673735443,
                -0.4861418869971349,
                -1.245193090197601,
                0.9072927439373107,
                0.685981422192296,
                0.6778244924651018,
                0.8813335254600594,
                0.6223903464146786,
                0.011920932468161127,
                0.08752549599340385,
                -1.48285077544781,
                -0.31274653579467604,
                0.9278297563566804,
                0.7094970761522617,
                2.8388933266436363,
                0.5851042435644579,
                -0.5089438043890091,
                0.39170702659966616,
                -1.2729927479599266,
                1.2130346282884066,
                1.720379785286534,
                1.237502791573155,
                -1.2526343303805316,
                0.49500845524505993,
                -0.49786980058730446,
                -0.1892841012548311,
                -1.4356218012105249,
                -2.251621065417241,
                0.14010602514937626,
                0.59154753841943,
                0.027529836699416596,
                0.445271043240752,
                0.5561528191673101,
                -0.9468148707179952,
                1.914309999124417,
                1.6671600556745312,
                0.488678069911611,
                -0.12356567407086703,
                -0.6602759366798839,
                -0.5758226429513015,
                0.43820828679983054,
                -0.1116344863134029,
                1.2425066926215986,
                0.01926454241828323,
                -0.3158327776412402,
                0.8107012515060367,
                -0.20418145047976521,
                -0.32925387104204834,
                -0.5961981749854012,
                1.4498109942781794,
                0.40387557460387763,
                -0.8757285146233799,
                -0.20379976373270436,
                -0.5617903542107693,
                -1.259420847603537,
                -0.8335807663289101,
                1.9035826033350902,
                0.011145538373335729,
                -0.5610368584565546,
                0.6097153544014564,
                1.16242205387302,
                -0.31521717554997186,
                -1.762517143750936,
                0.12889649795997307,
                -0.6908115218804805,
                -0.08706894321463797,
                1.4953830399197805,
                -0.6052248876224703,
                -0.8722990503090347,
                1.9176274756723775,
                0.6485516737818179,
                -0.0889884514408664,
                -0.38408599203296145,
                -1.2890237176530317,
                0.5441444180133592,
                1.4025373985953091,
                0.4721240923724126,
                0.5846937540576729,
                0.4762607357294505,
                -0.3401150355551479,
                1.216382044221451,
                0.09110293692260243,
                1.3210714771741574,
                -1.5425706792080929,
                0.12805799451564423,
                0.9338576885615353,
                -0.6327150249685617,
                1.4425920384689863,
                0.7531069253499942,
                -0.654713401194034,
                -0.5829344181789458,
                1.2965835218575106,
                -0.8713508179129532,
                -0.5683509906338116,
                -0.7012698620360834,
                -1.2764354921841314,
                -0.04479847572795002,
                -0.4456483411310532,
                -2.54226866620584,
                -0.21416943282852302,
                0.32010456106852136,
                0.3190617881953935,
                0.3681471087931683,
                -0.574362238362984,
                -0.13083305338041265,
                0.9648990514742364,
                1.8901071964262366,
                -0.6150346974431644,
                0.1385015454220897,
                0.1904367862218574,
                -0.8584022981410191,
                -0.49389363540806414,
                -0.8036188486788918,
                -1.079553816891184,
                -2.2264928707464935,
                -1.3322516527340476,
                0.6631650553073342,
                3.0153002850701354,
                1.0270612401235515,
                0.6713143327214087,
                1.0726109683390705,
                0.8492189953954121,
                0.6180214884362742,
                -0.8019292445781753,
                -1.376584562121641,
                -1.214301153428413,
                -1.116542987084924,
                0.4265662400021033,
                1.2174124186189728,
                1.6322161936239004,
                1.2081857863425562,
                2.3318689427374903,
                0.9363317236531588,
                -0.6963156843223606,
                -0.8282978989738944,
                -1.3987633613063708,
                0.6428938740280226,
                0.9423314252690991,
                -0.4554855628707365,
                -0.654650624390188,
                -0.2667139850137997,
                -0.10039232578532199,
                -0.5426247555801991,
                -0.8219996404690637,
                -2.584385498280531,
                -1.0213243915757693,
                -0.7712489159025858,
                0.9919536989990378,
                1.1705662012564744,
                -0.36631635485190533,
                1.819022957194102,
                -0.48308702015417126,
                1.3273558832796415,
                -0.8215873905044161,
                -0.4136332241727035,
                0.2226895068028962,
                -0.24395651374014674,
                -0.7080369018330961,
                0.08529701861164704,
                0.29191873732055523,
                -1.7920796509716854,
                -1.1469308229922826,
                -0.8581689157478619,
                0.027083750521562096,
                -0.4095237455773459,
                0.8651546799629121,
                -1.6040088431047055,
                0.9435078463234344,
                -1.617746166135306,
                0.787617524251038,
                -0.43239809430175213,
                -0.035238104298014876,
                -0.8944471847497458,
                -2.1944816723981906,
                -0.2702545551021575,
                -0.13915941000905113,
                -1.8075838836434737,
                -0.5085076817645309,
                -1.0660307364499617,
                0.14974403511427686,
                0.231868113115143,
                0.7532554444673839,
                0.009915271578185043,
                -0.3004755843703035,
                2.5569498220136198,
                -0.7110583866229789,
                -0.9634105965379994,
                -0.5555146285298199,
                -2.5676747980684174,
                0.9109895118937088,
                -0.22819095753682722
            ],
            [
                0.5448200629336457,
                -1.0515185559566516,
                0.4986919099977898,
                -1.6790110618131622,
                -1.0105750188613845,
                -0.29889929451478403,
                -2.1143429249099825,
                -0.40020962406859767,
                1.1442369151513332,
                0.19121937647743986,
                0.8905219091115462,
                2.1654448324104383,
                -0.14941124889063048,
                0.31486044392467183,
                0.3204859418274989,
                1.8230130006093261,
                -0.3145731524117471,
                -1.389734537821762,
                -0.7022902117938872,
                0.31785060986870145,
                0.2255350471312238,
                0.13243753195723174,
                -0.9290639398943928,
                0.45473844426428206,
                -0.6400755290300799,
                -1.3846326689545678,
                1.022006691779769,
                -1.039957698840889,
                -0.8243924268448295,
                -0.7342979372946962,
                0.17931198520236932,
                0.03931990213738694,
                -0.6237664780079198,
                -0.4109276298254403,
                -0.7562716657324224,
                1.6363911498845343,
                -0.17947650551272673,
                -1.1158806399261783,
                0.9599618364925819,
                -0.5176149897620841,
                -1.0554743070729629,
                0.6962033302390546,
                -0.4520311832693481,
                -0.3490860754227347,
                1.4681985093636953,
                -1.6415499932620914,
                1.2101590803904405,
                2.2171242451024837,
                1.8937211941918384,
                -0.03892318470854109,
                0.49530900183568477,
