{
    "biases":[
        [
            [
                0.7042384269539385
            ],
            [
                1.0250056999337054
            ],
            [
                0.24176163406508103
            ],
            [
                0.7866096264899698
            ],
            [
                -0.7938770797202128
            ],
            [
                1.345668026778453
            ],
            [
                0.3726274898209474
            ],
            [
                -2.228938199331998
            ],
            [
                0.16543799497864164
            ],
            [
                -2.186505088597152
            ],
            [
                0.06435665487857826
            ],
            [
                -0.22300266128928378
            ],
            [
                0.7722927311081738
            ],
            [
                0.4687174468085799
            ],
            [
                0.584224996797008
            ],
            [
                -0.6501639087250095
            ],
            [
                0.8770389502233521
            ],
            [
                1.0775386185771563
            ],
            [
                0.8927111264768104
            ],
            [
                -0.6098634846322005
            ],
            [
                1.3747048092924794
            ],
            [
                -0.4563070647122999
            ],
            [
                -0.9865956579403937
            ],
            [
                -0.8147501924574074
            ],
            [
                2.0153952537133013
            ],
            [
                -0.9356669479814397
            ],
            [
                -0.5997353341804325
            ],
            [
                1.0952340687893358
            ],
            [
                -0.6556820887302708
            ],
            [
                -1.3721097186468953
            ],
            [
                0.7200328041441907
            ],
            [
                -1.4108458981369496
            ],
            [
                0.6379957610792634
            ],
            [
                1.7927359164121317
            ],
            [
                -0.023468830798172288
            ],
            [
                -1.4398456385332852
            ],
            [
                -1.979361385336411
            ],
            [
                -0.9607971336217516
            ],
            [
                0.6742369705139443
            ],
            [
                -0.35633491066316075
            ],
            [
                0.05303777117865497
            ],
            [
                0.9618431998021657
            ],
            [
                -0.43543822069589033
            ],
            [
                -0.4915833095100485
            ],
            [
                -0.6813957458873404
            ],
            [
                0.3167115559626582
            ],
            [
                -0.5209315058587082
            ],
            [
                -0.42912189432204983
            ],
            [
                0.9765504986915164
            ],
            [
                -1.2824737972675042
            ],
            [
                0.33343244125642163
            ],
            [
                0.6425643841037951
            ],
            [
                -0.8071917913179139
            ],
            [
                1.6106640341481417
            ],
            [
                1.0509319013587135
            ],
            [
                -0.7591650944424164
            ],
            [
                -0.45063160402683505
            ],
            [
                -2.1309816620951145
            ],
            [
                -1.5263441923788967
            ],
            [
                -0.5506241540752319
            ],
            [
                -1.204373040161669
            ],
            [
                0.42135902191470487
            ],
            [
                -0.21193424521211146
            ],
            [
                -1.138037881801115
            ],
            [
                0.6853244987765212
            ],
            [
                -0.3533284157535704
            ],
            [
                0.5309182666812967
            ],
            [
                0.5686452484719187
            ],
            [
                -0.728623963431281
            ],
            [
                0.6700249478573934
            ],
            [
                0.79030375164155
            ],
            [
                0.03639822112536219
            ],
            [
                2.0776218295134417
            ],
            [
                -0.1571013764176987
            ],
            [
                -1.1488337749733188
            ],
            [
                -0.657715261654891
            ],
            [
                0.5804932384238405
            ],
            [
                -0.6190907831055074
            ],
            [
                -0.571247505260654
            ],
            [
                -0.6599636494042754
            ],
            [
                -0.20191249963948568
            ],
            [
                0.20388811768056703
            ],
            [
                1.083106849907578
            ],
            [
                0.44158146797932757
            ],
            [
                0.41465437244642617
            ],
            [
                0.657415342534727
            ],
            [
                0.6885186103643351
            ],
            [
                -0.6648791392705818
            ],
            [
                -0.045591200098866205
            ],
            [
                0.6697887084074886
            ],
            [
                -0.02012270109055815
            ],
            [
                -0.9079923286330261
            ],
            [
                1.4840756732119496
            ],
            [
                -0.8611938221340513
            ],
            [
                0.6669978100505813
            ],
            [
                -0.8590172462883858
            ],
            [
                1.3195863298582517
            ],
            [
                -0.8368868517386137
            ],
            [
                0.14296567417608189
            ],
            [
                0.9733715370162259
            ]
        ],
        [
            [
                -0.26727571214935214
            ],
            [
                -0.707156773853597
            ],
            [
                -0.6052794851727378
            ],
            [
                0.25696028552940614
            ],
            [
                -1.2558389078734944
            ],
            [
                0.9034255798742248
            ],
            [
                -0.5916018685327478
            ],
            [
                1.0925649636170713
            ],
            [
                -0.5684005240826348
            ],
            [
                -0.6916460214474495
            ]
        ]
    ],
    "epochs":1,
    "eta":3,
    "layers":[
        784,
        100,
        10
    ],
    "mini_batch_size":10,
    "weights":[
        [
            [
                0.6080348858364749,
                -1.1176944365426913,
                -0.22368123504111784,
                -0.5513875125001866,
                -1.3913022766629122,
                -0.6491308725994321,
                0.930676902153934,
                0.35969057347264527,
                0.752471568352357,
                1.7927787480789177,
                -0.491067706470815,
                0.15804643188830458,
                -0.44582204856824215,
                0.31473276377535,
                0.0072885976942439175,
                0.7403975333329803,
                1.02289442761615,
                -0.6567243620755331,
                -2.6955602565127195,
                0.30194797924459177,
                0.23808988260467695,
                0.7359267827556323,
                -0.308202717698242,
                1.8337672890495536,
                1.047906006932806,
                -1.3288936402340974,
                -0.09108095699218444,
                0.05118645176405219,
                0.28562126691623513,
                0.47025872441048944,
                -1.29333704284427,
                0.02451669431882838,
                -2.7275180081646395,
                -0.9090936915630717,
                -0.11388412319179687,
                -0.7022460043404674,
                -0.6611831980434212,
                -0.704729817320734,
                0.48845709748652766,
                -0.915645049002184,
                -0.49992975203164147,
                0.869040880646694,
                -1.4043043824836625,
                -1.4171627386548664,
                -0.931248020441656,
                1.572803850476757,
                -0.6528293054429608,
                0.1521737375994151,
                0.5405522080445347,
                1.518499213619003,
                -0.6843531992762704,
                0.30210532961190556,
                -0.5669237569308037,
                -1.4245714767062758,
                1.7808609938934599,
                0.5170248339658573,
                -0.7447537364607412,
                -0.9731642184171002,
                -1.4970881728799097,
                -1.8599415296301927,
                -0.6397650028131094,
                -1.6047068283913628,
                -0.5348379693608885,
                -1.0725051882129126,
                1.152817888036484,
                1.3257319864033283,
                0.7970798697207067,
                -1.787823942384707,
                0.16267938328664316,
                0.769308406037187,
                1.016141945757678,
                1.4179597417175849,
                -0.015973585703301218,
                -1.4381854580313234,
                0.28046045468153297,
                -0.6506653109551535,
                -1.2446150761675003,
                0.18188647877954192,
                -0.2597360226985189,
                1.4216460116989944,
                -0.517357333838276,
                2.3335693403671667,
                1.6261437702304948,
                0.1682066931669544,
                -0.4242645205884975,
                2.100483704981551,
                -0.1459454122875938,
                -0.42107901790596775,
                0.6985131114101055,
                0.7722179873606876,
                -0.901794372323938,
                0.0575830507340657,
                0.7529345102911879,
                -0.3749332439842589,
                -0.6894140290594961,
                0.029381848110541595,
                1.1049030608833774,
                -1.2394332075938799,
                -0.3619126151133846,
                0.5400594553272322,
                -0.9744725782740344,
                1.1927670459382422,
                0.33951074659711394,
                0.11913196562594372,
                1.1020318508278482,
                -0.5059872903093089,
                -1.6390467685544339,
                0.3682602471370538,
                -1.6392724159159238,
                -0.8564954804473565,
                1.972141006921638,
                0.33230639833311026,
                -0.5044288639418457,
                -0.9095110002312733,
                -0.5146443494087031,
                -0.4381630186214767,
                -0.3764053560093196,
                0.16034061284176113,
                -0.7899085442276804,
                1.5223781218359838,
                -0.08011674004445166,
                0.9079625456927177,
                -0.5236544322511213,
                -0.7017058188068901,
                -0.5067316044290818,
                -3.0002942663994405,
                0.057360430076871846,
                -0.7183863091164145,
                1.1810012206968281,
                0.8035298082365516,
                -0.2714984924453641,
                0.6556501310387737,
                -0.5215608307273927,
                1.0388272699944083,
                0.5493184062202704,
                0.12917606005834034,
                -0.7770077671831356,
                -1.1803995109827634,
                -0.0601141967110417,
                -0.6940276239339139,
                2.914863756650524,
                -0.19156600480728114,
                0.7423701758462401,
                0.32022465269623285,
                -0.11838065634346111,
                -1.1908898475380638,
                -0.2931871380595135,
                -0.4530904611899514,
                -1.352147426378951,
                -1.080546179495236,
                -1.1861441717920584,
                2.652765857912995,
                1.671709157107152,
                0.1303782621183191,
                -0.8803429029081422,
                -0.7307141145955754,
                -0.11733967304428916,
                0.5417188225536398,
                0.7927621883922945,
                -0.5114766649739767,
                -1.1534047000601286,
                0.37005319142034043,
                -0.7867074571079042,
                0.6712448500033947,
                -0.6591854010233725,
                0.36815802852008933,
                -0.7364858639130754,
                -0.2952287306895364,
                0.1990209152973824,
                0.5694704236166478,
                -0.19818421442759576,
                -0.19361838926751557,
                1.0635517784295607,
                0.4210849174356328,
                -0.08238413060425019,
                -1.3183572945114053,
                0.618955769546172,
                -0.5040019964396615,
                -0.7766275259168255,
                0.653116775667957,
                0.5161798236020908,
                1.7478270670639822,
                0.33378077543992296,
                -3.22614818314508,
                0.13035521202288222,
                1.2851453791163172,
                -0.3561949242495096,
                0.29848805315941473,
                0.7242554073582281,
                0.17839943812120948,
                -0.6694529041976431,
                -0.8933799019187303,
                -0.39930196869501655,
                0.839139305504004,
                1.8716992383007884,
                0.36037930299910986,
                -1.4026195377356028,
                -0.41205883455947767,
                -0.20612757260397244,
                0.19245860639610987,
                -0.3176362210617253,
                0.027233253403097065,
                0.03505930761738009,
                -0.08505965007786219,
                0.733078838054446,
                1.1255811024832039,
                -0.7624488313971809,
                -0.7710585114411526,
                -0.7469714801063793,
                -0.4691150575653034,
                -1.4896444245513916,
                -1.9966283975431793,
                -0.7661699198371906,
                -1.2625363855046474,
                -1.5588957615794397,
                0.5135934053983187,
                -0.2579968707603272,
                -0.07118118394550865,
                -0.7365265750750717,
                -1.4420824371011791,
                -1.1422630804744407,
                -1.1779715263452402,
                1.369218195710264,
                -1.3536681369033463,
                0.7854903895281278,
                0.3762244243321665,
                0.5167120201610892,
                -0.44189258634732326,
                0.49445727225799774,
                1.4940038278242778,
                0.012092932383748959,
                0.47580544196034896,
                0.16831965929972603,
                0.6729803791265601,
                0.07218791114403336,
                -0.22245601977426122,
                1.001641645580858,
                1.6913086321603947,
                -1.4940879530723004,
                1.1442027270292652,
                0.20618088268799004,
                -0.8658827880547157,
                0.8719882682055949,
                1.2174116092008036,
                -0.8731486836654261,
                -0.1760804234821774,
                0.9788001305785379,
                -1.6508697552375553,
                -1.1655597599096736,
                0.25393249413455715,
                -0.6796327029938578,
                -1.0891501624156503,
                0.4459967973597356,
                -0.7367095205816127,
                -1.1358038684806877,
                0.4803901614413145,
                0.35619049387658175,
                -1.0808840170411815,
                0.6420315899467074,
                1.6567096710056701,
                -1.0467559724734987,
                -0.815730017932489,
                -0.3391385324664667,
                -0.0006698081844225157,
                0.8748472849050829,
                0.29329682562144566,
                0.9164964943280148,
                1.0434682015328642,
                -0.8260122785448548,
                0.37287115089792267,
                -0.3013585872278512,
                0.9716922113734919,
                -0.041222255378313234,
                -0.08421484044328123,
                -1.330606705699592,
                0.6834284787492397,
                -1.8376526267256266,
                -1.2864410033988372,
                -1.6664900839277055,
                -0.8140057239648253,
                0.05758341247423229,
                -0.02392928504590255,
                0.5234556009805367,
                0.5210247244024439,
                0.6598466140403756,
                2.1798801802486047,
                0.015472497167793066,
                -0.9368703204686463,
                -0.05194731700034506,
                -0.2650118857104357,
                -1.4249665816408115,
                -0.7277364305971193,
                2.0546885869231266,
                -0.43106510607396925,
                0.6327145063510251,
                -1.3451895352659657,
                1.2204600347837342,
                -0.7577716289591439,
                -0.3060078924017463,
                -0.30520971352469967,
                0.705493801224332,
                -0.433852708126493,
                1.04857988358692,
                -1.7602999635191818,
                -1.7643197930616892,
                0.6927912439924392,
                0.6882671704492308,
                0.6994598152887761,
                -1.3490833269094125,
                1.4296142792905302,
                -0.47090444415043553,
                -1.6828703162935459,
                -0.661331697020692,
                -1.320834917177102,
                1.1009687387398692,
                -0.7916529330989379,
                -2.0038685806392476,
                -1.1246398547119412,
                -1.3869759960050867,
                -3.1854537740895226,
                0.5427473164468752,
                1.0472085637098227,
                -0.13220853010321687,
                -0.4261920072362495,
                -0.7587312685107782,
                2.6875015356282854,
                -1.8703573034023513,
                -0.2128586327471325,
                0.4280057346061832,
                0.38851598586806063,
                0.197030113307252,
                1.2010986072164744,
                -0.6044826835654808,
                -0.2477531333498022,
                0.3817336884912274,
                0.14742738765517227,
                -0.09097551169462216,
                -0.5851351470512687,
                -0.6006170357099494,
                -0.11785803987566458,
                0.8601257101232892,
                -0.005443651703648063,
                -0.23594507460266295,
                -0.9177830765535832,
                -0.4496231755287982,
                0.12036234421922448,
                -0.674111489307091,
                0.46387400940119355,
                -0.11162717552670279,
                -0.9087550944144789,
                -0.11849498789179219,
                0.33236822558606116,
                -1.8009256735522285,
                0.019197606480339774,
                -1.0471088364655163,
                0.6933977996039848,
                -0.8067598397687165,
                -0.07306214120785734,
                -1.1904908590596524,
                -1.5143217842176766,
                0.8587305296817019,
                1.0444324770841655,
                -0.752305862504462,
                -0.5359667121035936,
                -0.8269342660602287,
                0.2537889693371749,
                0.9852692971100152,
                -1.1154639380785847,
                1.6596552342855795,
                -0.6951170079698555,
                0.721556978082451,
                0.48666354029874886,
                0.07616636250887338,
                -0.4670226149648437,
                0.3856636191851741,
                -1.160835430699582,
                0.20013599177836813,
                0.19099203819080526,
                -0.9263767985778525,
                -0.3037145765339448,
                0.42856941145642374,
                1.066388667028964,
                0.0038206357713647886,
                -0.542560138031211,
                1.7364435030977616,
                0.24150250692359582,
                -0.16298472308551076,
                -1.544164406638367,
                1.4728293880887215,
                0.35639845023121125,
                -0.9753158508745658,
                0.981349219117758,
                -1.2749798520931885,
                0.7241243605729667,
                -0.14867495372012485,
                0.1615543980292188,
                -1.0687826973406376,
                1.770281220575046,
                -0.5660255484919721,
                0.15639876548640644,
                -0.3733784928122773,
                0.9345656839789082,
                1.0556512692026727,
                1.969142751444176,
                -1.2019841779934441,
                -0.35432137161028376,
                -0.7884425591590545,
                0.4431990854357911,
                -1.5884973936252078,
                0.2886812837014866,
                0.3429836228278388,
                0.48992418823887185,
                -0.24524432741815708,
                -0.07275789774685361,
                -0.707473769917876,
                -0.886927866127229,
                0.5630052612792945,
                1.3615479231918761,
                -0.2633359046597454,
                -0.19604297308553723,
                1.0114664419555892,
                -1.1540138091502157,
                -1.1036063689733815,
                1.4614215421918575,
                -0.7345567223761976,
                0.8174473975052954,
                -0.6099968538167861,
                0.6613918762224571,
                0.3278384059511291,
                -0.837517584027228,
                1.8959507799023703,
                -0.5215871888326417,
                -1.1403466050278754,
                1.119604980012731,
                0.6802401128380048,
                -0.3512803066364281,
                0.7173395631155665,
                -0.8922594008880822,
                -0.694050080902371,
                0.18381417826779842,
                0.5616118610517324,
                -0.05763302582757515,
                -1.8870252215197698,
                -0.2726462898963282,
                0.30954839418265145,
                0.2192419353178458,
                -0.2872590483577294,
                -0.6260032758862042,
                -0.4584008452799939,
                -0.6069143147618743,
                -1.316888532884325,
                -0.2990907930870056,
                0.644948204839635,
                1.3397899269568738,
                -0.5331300102774105,
                -1.1081965223284482,
                -0.9407307764480575,
                -1.0503205419813582,
                -0.0432467195214226,
                0.26448651995596323,
                0.5868471856000954,
                -0.19908626029837576,
                -0.5508739075192578,
                0.428872336278233,
                0.36087373634071107,
                1.208004606288822,
                0.4453738516967826,
                -1.1108042978445272,
                0.6124566201268774,
                -1.151149916989543,
                0.46686001200738103,
                1.7102979048320222,
                -0.10392129732053962,
                0.2430043605291949,
                0.09962659396675692,
                0.7933631496838702,
                2.26057583676534,
                -0.42384705345355056,
                0.8189010117431349,
                0.4330831706087638,
                -0.5817558084297323,
                0.33937062572463755,
                -0.697831870149486,
                -1.163508444323557,
                -0.07416025828895088,
                0.5928097908785308,
                -0.893624445921445,
                0.007340545555428843,
                -0.5909037207904706,
                -0.07119364683720464,
                0.19325612043567833,
                2.160900376493082,
                -1.3372010038888185,
                -0.9965495700208602,
                -1.0279871096457014,
                -1.0090950026353525,
                -1.7628853898981593,
                1.576771861781639,
                -0.949358881943936,
                -0.8355431305562472,
                0.5499526626191534,
                -0.8607233830077166,
                -1.382515504914867,
                0.8904702301609216,
                0.4028010202064436,
                -0.6815134432275821,
                1.3814235044707635,
                -0.24873135127357704,
                1.249322230047303,
                -0.891516673368865,
                0.6718355117803179,
                -0.09908963663501541,
                -0.20679009761785294,
                1.1519940432615985,
                -1.2285503261242903,
                0.30819572217803237,
                1.449122573085163,
                1.3477321833659122,
                -0.9767164142569912,
                0.1897584556402479,
                0.8077064984708698,
                -0.9905349551265437,
                1.0836992729790176,
                -2.009244381989134,
                -1.964564726326207,
                1.4093407438993009,
                -2.641554004794259,
                1.821619250127978,
                0.3724501799417132,
                1.6785361707866229,
                -0.24692278308400636,
                0.5332038530076803,
                -1.212535774965367,
                0.02845380015163247,
                -0.30644081745669083,
                -1.5292365036397557,
                -2.457932320299276,
                0.7621954250544698,
                -1.605396212541581,
                -0.1821379355326918,
                -1.0691810400390784,
                -0.5746256310967539,
                -0.0240477472776635,
                -1.5032691158889198,
                0.9273684250957184,
                -0.09480189704366727,
                0.4987532672837922,
                0.73903243615849,
                -0.17266945628011543,
                0.449251066007461,
                -0.1667241099443013,
                -0.36287364064900385,
                1.3164552335057604,
                1.621834708717502,
                -0.3979776544378366,
                -0.2565638475600724,
                -0.8540956904782101,
                0.5373521803524979,
                -0.23511147783671182,
                0.540975775446977,
                -1.7079616407873024,
                -1.0154416005679152,
                -2.5248681951601206,
                0.525671210870586,
                -0.6594674836317665,
                -1.2906370009402035,
                1.855728385676468,
                -1.5316452872115343,
                1.6334799940199751,
                -0.5943004256592977,
                0.011333521352843776,
                2.234164897348665,
                -0.5865704911375815,
                0.9450558150288576,
                -1.1674489034922204,
                1.3779819409131266,
                0.08452421902914123,
                1.3979395152201568,
                1.5617380596700339,
                0.3761460686989586,
                -0.9552651601062269,
                -0.19164649135202907,
                -1.787544040914245,
                -0.11673656784088218,
                -0.030902952948498805,
                0.3584066865478561,
                -0.4052759594421381,
                -0.23848423764570512,
                0.41349990477001886,
                1.5547501722654178,
                0.09943177343621595,
                -0.32586988353649277,
                0.44043110647336525,
                0.033383800414939026,
                -0.086509666918211,
                2.2944969438590515,
                0.19020881934130424,
                -1.1758575207573643,
                -0.46218335245020004,
                1.142970629128784,
                -0.5529097706186029,
                -1.2183982416115355,
                -1.6659768318151909,
                -0.9937769392217928,
                0.88481507526814,
                2.524724170032794,
                0.4510697844778483,
                1.117343973121991,
                1.964612138502186,
                -0.5435108196105954,
                -0.4341896253473474,
                -0.19036900963256045,
                -0.7614646132390194,
                1.3182336212233656,
                0.8576525550331746,
                1.5526343518231216,
                0.8462904644342141,
                -1.2574190712306381,
                0.2794532612802635,
                0.49142986188557203,
                0.39738810320348633,
                -0.8089933906202621,
                0.8158941634301619,
                -0.5159303584134355,
                0.6528286633199125,
                -1.5979364953644015,
                0.25228849592127617,
                0.588044827713745,
                -0.7866289085477025,
                1.5472038719259642,
                1.366060472489247,
                -0.4720631135714455,
                -0.2556417623406688,
                1.3640475767825406,
                1.9195466427932897,
                0.5701190842169536,
                0.02238503216373346,
                -0.18414579624854896,
                -0.4450137809506863,
                1.874829563038241,
                0.9132229849660307,
                -1.633786008474618,
                -0.8967946550474021,
                -0.41356645235808864,
                -0.4842662695826449,
                2.453311882302378,
                0.2100137267649833,
                -0.04361028767399827,
                0.17525423762750303,
                0.11771570487309803,
                -0.6854663385363782,
                -0.3983156820496312,
                -0.498076505466422,
                -0.3401425934565076,
                0.4760562917673167,
                -1.0301968374493473,
                -1.902024899221816,
                0.3003931168849297,
                -0.4813816869819905,
                -0.8388059403926457,
                -1.5708370402918423,
                -0.26995930647935124,
                1.1985655590744202,
                0.4413107277197074,
                -0.3548508023713063,
                0.9536847198964559,
                1.0147993307096985,
                -0.21642823764996452,
                1.073877535620721,
                -0.6895385976449169,
                0.9422734617791956,
                -0.18540171722892526,
                1.4702932668309312,
                0.46426377146792064,
                -2.5131318432208345,
                1.3367941319124468,
                2.6779226551355735,
                -0.04377671556231243,
                -0.7182565216965632,
                -0.034120848261691795,
                -0.4869005933716332,
                -2.9283199356212166,
                0.2585229468854037,
                -0.19616564697026126,
                0.6713129270719164,
                2.024280355370281,
                -1.0705894620654792,
                1.4991124439251198,
                0.09222123850736622,
                -0.003887526427763984,
                0.49883146722625,
                -1.2313495940651091,
                -0.3056975492087299,
                1.6768303156498834,
                1.5581808321164523,
                0.7808704822386575,
                1.108768052748311,
                -0.48271493166564816,
                -1.1814079140557536,
                0.20804818556877563,
                -0.45202307769038774,
                1.9814110737396127,
                -0.22682311585563913,
                1.4290627987784326,
                -0.32804785810440856,
                -0.08579891188717322,
                -0.6969672368328279,
                -0.1653072613606543,
                0.48349045776787697,
                -0.6423582908707013,
                -0.6031335315417653,
                0.6909779378453689,
                -0.1369697958125148,
                -0.4125955237758401,
                -0.2720129281475849,
                -1.2802739360033217,
                -0.3349309870385641,
                0.07583575504285738,
                -0.7498032797067917,
                -0.23971749868898024,
                -1.2120011425327324,
                -0.18362397266307431,
                0.13697816963226953,
                -1.3355177770638988,
                1.2210977147630573,
                2.572728697841219,
                -3.020893018651862,
                1.3804942688660378,
                0.2206420226884883,
                0.9525661224027209,
                2.0283332896209654,
                -0.9180229772541055,
                1.5065636220383225,
                0.56247020628032,
                0.11783300634231175,
                -0.5072213996745005,
                -0.06759022950023585,
                -1.2922915865428863,
                -0.023561359093505794,
                1.6706241428629596,
                -0.5648050830967047,
                0.45690195048721066,
                0.47870045369204495,
                -2.4102955961893584,
                0.41920405364979574,
                -1.0831379098216571,
                0.14337833370274708,
                -1.0079255521466608,
                -1.897671601105418,
                1.5962352715936938,
                -0.11938400940112438,
                1.753312154944277,
                1.404457578049572,
                -0.21038650521383434,
                0.07923301696465795,
                -2.5982965289862965,
                1.3339427231251257,
                -0.4444727736849792,
                -0.8789906770240623,
                -0.48610112705674885,
                0.7670829412871972,
                0.9439482505133324,
                -0.38588286077955697,
                -0.8155678951558882,
                0.18581115880515586,
                1.1432500282337414,
                -0.962800427331475,
                0.7182667152033101,
                0.18909703298325664,
                -1.0145076966533675,
                1.5554112181063304,
                0.26397050563124624,
                0.5462219323112479,
                0.5412413076994652,
                0.45408507807177284,
                0.8065152142711632,
                -0.8800275933706615,
                -0.8695137768287202,
                -0.1367275810782927,
                0.49545650093210836,
                -0.0003727207207525111,
                -1.4094503806610166,
                1.2321322785072162,
                2.42362952902005
            ],
            [
                0.10064696895959312,
                0.5413195298200971,
                -0.2908102948372484,
                1.091648418842215,
                -0.8161713365885434,
                -1.0225956817732254,
                0.04456704016558216,
                0.051084358363092976,
                0.11650360010024773,
                -0.9202176152008712,
                2.0334098839772867,
                1.5414254127999787,
                1.2968693625543226,
                -0.38701624234565996,
                0.9597905807921838,
                -0.6752360315655555,
                -0.5308789568682077,
                -0.15391837869717434,
                -0.6085942556753141,
                0.8887549877075539,
                -0.9055357604550743,
                -1.2834072135626993,
                0.7411906980459985,
                -0.20260211157626667,
                -1.3529397122501219,
                0.7817624896753431,
                0.24299935761388797,
                0.9020491323665754,
                -0.4006295984377269,
                -0.4604856579851285,
                -0.1827548443314384,
                0.1654466846043592,
                -1.8947795840321668,
                -0.9773398662977903,
                -1.2192549670831623,
                1.3874991517489446,
                0.8820828241491812,
                1.3105355641586929,
                -0.8114751425029091,
                1.4678708078773886,
                0.1211851547272711,
                -0.7374839003554806,
                1.762852319102713,
                1.3990605597769579,
                0.3830817340250817,
                -1.2421580232222083,
                -0.42697968075981374,
                0.3387252342476027,
                0.09438283718110975,
                0.5960080263181916,
                -0.6845894117974989,
                -0.2921501724961957,
                2.392878929822534,
                -1.9305662677463957,
                1.719563568165391,
                -0.6678457417656143,
                -1.4670049762202029,
                -0.81450595225783,
                -0.9759504318448929,
                -1.102973640155646,
                -0.20836508495355988,
                -2.048495650333348,
                -0.2584802930867664,
                -0.15861823038407147,
                -0.7879818637098894,
                -1.3179071000723042,
                -0.2905316263585667,
                -1.1444399025028795,
                0.21726344860432167,
                -0.35413645112548203,
                0.23796334833660102,
                -0.3900036810899133,
                -1.2541329869867652,
                0.7760541141525952,
                1.3230505703176327,
                -1.059618515945583,
                -0.5898658962336907,
                -0.07330735067432802,
                1.2365323833030895,
                0.20575854602844681,
                -0.9399427920101965,
                -0.30218325526677237,
                -0.7190215497859804,
                -0.0759306894702482,
                0.10794989002736885,
                -1.2701967281479578,
                0.8737337213257174,
                -0.9674436865024241,
                -0.8334154405662567,
                1.0346563616634012,
                -0.21071695863675463,
                0.6711630398770637,
                0.3205632129101998,
                -0.3177861225443325,
                0.32916473375351735,
                0.8392177074059786,
                -0.06502915035124603,
                -1.2230298558898747,
                -2.6075050151655623,
                0.4532965575952932,
                -0.5602049549535723,
                -0.3484119068098165,
                0.1649158888467981,
                0.8240955790740347,
                0.32554736177326093,
                -0.17677557981003184,
                1.0297837765752078,
                -0.16550590254385258,
                -0.7642576849770047,
                1.141879315134502,
                -1.3453140092586349,
                -2.7422358409093817,
                0.4581566918932305,
                0.05279544613223525,
                -0.14721920081014792,
                -1.1522562725097627,
                -0.07917803945928112,
                0.23510478725850958,
                -2.3363320574932223,
                -0.9184395914818649,
                0.016521453044966758,
                2.1141832191623346,
                0.12147164186527398,
                0.17486905048341433,
                0.5723964024799065,
                0.03874414059204169,
                -0.24058124699192499,
                -2.1910483031875274,
                1.0202330390326342,
                -0.22192256721827805,
                -1.8074374237822735,
                -0.4201387924504336,
                -0.6526736656536231,
                0.35116336382988145,
                -1.4814808367376833,
                0.8327461031392369,
                1.0013305317573298,
                0.09741136224897194,
                0.3684793628957028,
                0.6494279808799719,
                -0.02235213596968893,
                -0.8012515527630277,
                1.3743934577522419,
                -0.5101420870968117,
                -0.3085248432634852,
                0.4973996575622104,
                0.2557958231568715,
                -1.1526946772854436,
                0.21566961517446895,
                0.18569411275594927,
                -0.7135737288779799,
                0.05048756219479246,
                -0.8452446429999929,
                0.45648085861121845,
                0.8086018656385112,
                2.0351722165405515,
                -0.038717251652829174,
                1.1903434345818678,
                0.978423585861334,
                -0.107059300364154,
                -0.1849984525798465,
                0.6141610812601598,
                -1.6278787322012083,
                0.23548803939392682,
                -0.6416086079682954,
                0.7790494548686646,
                -0.8740804646608819,
                0.20322204463019636,
                1.0675396496877672,
                -0.6496459265739286,
                -0.5207106463991434,
                0.05456618395708053,
                2.2447599998062615,
                0.5857286430344111,
                -0.05741078116895426,
                -1.0116890488136967,
                -0.26972475357181613,
                0.820175535096381,
                -0.3083571914711164,
                -0.5231509961083475,
                0.22083363962021074,
                -1.1959879226602221,
                1.174084226754478,
                0.17729749894139557,
                1.24743354911735,
                -0.1901213857979753,
                -0.24915528418814128,
                -3.2292544696775187,
                2.162349019854196,
                -0.5835213638703558,
                0.6267128046898421,
                -0.4704229321792146,
                -0.7029182155988186,
                2.3994161298078285,
                0.8325740128040245,
                0.6138172921494273,
                -0.6453442770220291,
                -0.28809639681062604,
                1.7020704301867808,
                0.022877425986855462,
                1.5600991214069397,
                -1.1435050944841205,
                1.3604206287646883,
                -0.2996642927207441,
                -0.6955597251219425,
                -0.14654132319089222,
                0.7218041369021577,
                -0.047019165146397125,
                1.2797942843449452,
                0.006178608617412218,
                2.0334817005589154,
                1.353654953272418,
                1.0171133465014466,
                1.2239080822623918,
                1.5847055520470077,
                1.2459683459196507,
                0.10376305794871132,
                -1.271826380471509,
                -0.7191347760765541,
                -0.7702288867881112,
                0.0162466216786411,
                0.6402582317063571,
                -0.7524491798571564,
                1.6956928461156549,
                -0.7875349688861558,
                0.5480345135219391,
                2.030158125560845,
                0.18065426457126338,
                1.560923154400516,
                -0.47904851815817756,
                0.2825396545053977,
                -0.7589155379442288,
                -1.054231568932286,
                -0.11227976846015367,
                0.750350668937398,
                1.9181554274530659,
                -1.628738017157513,
                1.9587473079467868,
                -0.7411459377739313,
                -0.05101352930875597,
                0.3597426566258921,
                1.39479774914722,
                1.4516398719573884,
                1.8672509354941689,
                0.38788951176196534,
                -0.6067308442616582,
                0.7707218893360006,
                -0.06568546069688945,
                -1.2288800516729774,
                0.5480986583711261,
                0.20949779472946517,
                -2.197720953198089,
                -0.9310344699520133,
                -0.2072651911887886,
                -0.04789498889046208,
                1.7609757126978198,
                0.2067551004383765,
                3.424370122388264,
                -1.5969974421938287,
                0.019207702355043366,
                -0.6695007177158242,
                -0.4703125814026989,
                -1.1203859044302515,
                -0.4684514135700227,
                1.0165171884997852,
                0.4818873791074755,
                1.3135777363606287,
                -1.6576730486889646,
                0.41287836234605224,
                0.39808912785095224,
                -0.42982343167634623,
                1.5409100273888936,
                -1.165100571644548,
                0.2633146447610248,
                -0.13785096390567483,
                -0.07456045174921073,
                0.27220216763992217,
                -1.8328573778212671,
                1.5083011485296758,
                -0.428327045661573,
                -1.198712247814227,
                0.538126133358978,
                1.8484844153524584,
                -0.502377710172164,
                0.14110465503427808,
                0.20742403634858592,
                0.9454105375694244,
                -0.03734773213495672,
                -1.2093996587785227,
                -0.7495674966615666,
                -0.6897528960449452,
                0.8434395385104692,
                -0.10570671171438974,
                0.6729219984824122,
                -0.7971786584436507,
                0.07841824304598545,
                0.6437237434138596,
                -0.6766922368652043,
                -0.23497850489508754,
                0.9901246730336135,
                0.7463583711371555,
                0.7326294200193962,
                -0.44529512766103085,
                -1.0466702664381846,
                0.49467217946409764,
                -0.797485354169447,
                -0.23357840235436214,
                0.5755548140607323,
                -0.6956475098850654,
                -2.609978765704179,
                -1.3577054746763013,
                0.6371099594895949,
                0.9803806830559799,
                0.30878488447485375,
                -0.07545540570252389,
                -1.6551865564722898,
                -0.18677399904181344,
                -0.9788225450119584,
                -0.17843277110857295,
                1.0063539775912855,
                0.50972140568676,
                -1.8007321076952845,
                0.26951162560109826,
                -0.08792818672643747,
                -0.4958281165877341,
                -0.1075512352280488,
                -1.3195866014630722,
                -1.6779512609047569,
                -1.35596162403591,
                -0.3232017511720093,
                2.6275787809113864,
                -0.4446748597222258,
                -1.091942319596327,
                0.5967641677423855,
                0.873511845188173,
                -0.32334399943400594,
                -1.0750273806629844,
                1.8162612778398592,
                -1.0494784937223378,
                -1.2416275358429485,
                0.28832276204206103,
                -1.584669660632184,
                1.0924827812553122,
                0.8573718458345336,
                -0.20038874104178317,
                0.5132380165083723,
                0.26432276277749667,
                -1.165566096341511,
                -0.3644510276442181,
                -1.7984137014287798,
                -1.3180485397655626,
                1.2143246732114243,
                0.41708005736378506,
                -0.6351028361076309,
                0.6148642571280591,
                0.6331430734633748,
                -0.8728472268562858,
                0.2521447228362764,
                1.7506945186568075,
                -1.4384205001528103,
                1.2622241217288388,
                2.194554779629636,
                1.9996306880465646,
                -0.06322209490670218,
                -1.0362437693319353,
                -0.20813301819626295,
                1.1626519797927986,
                -0.9587196479044828,
                -0.13727569839005646,
                -1.1163113070427741,
                0.6454107989265752,
                0.859266677617539,
                0.2889478668377784,
                -0.7599335284181801,
                0.8093292650526414,
                -1.517192331807299,
                -1.2847158172441904,
                0.3202499983530055,
                0.9925332007310403,
                2.3590496054064785,
                0.7990785707368238,
                -0.14111221277194688,
                -0.5931888061944757,
                -0.06708392762246758,
                1.3310773645434952,
                -0.04081447035338496,
                0.9995986922901875,
                0.25136795252048405,
                0.8778915308734219,
                -0.4993318513981815,
                -1.010356779004611,
                0.6263278830302248,
                0.4951918345264595,
                -1.227681901471594,
                -0.13136208359710444,
                0.6470492652848193,
                0.9224178357315111,
                -0.1779597472292594,
                1.235879055013961,
                0.198473650470956,
                0.7574081616120006,
                0.6241387251120316,
                -0.9451213226360448,
                0.25784711066425803,
                0.577610800004484,
                -0.11651021086515016,
                -0.43810621654848036,
                0.8566320251741812,
                1.0223713962293883,
                -1.1673332543213075,
                -1.3973287018502991,
                1.7820439820505576,
                -1.4000764039331983,
                0.25323914002311754,
                -0.5086804563766462,
                -1.032948344520952,
                -0.42960561293993427,
                -0.7219564585857446,
                0.11745514858675318,
                2.03759888920444,
                0.16343818659209808,
                -0.22335571871893975,
                -0.842365502553838,
                0.41061368827896927,
                -2.704327670179573,
                -1.4788137868826825,
                -1.2860230962912804,
                -0.17279388998831938,
                0.38258599814258715,
                0.9469398561259236,
                -1.003771271658989,
                0.009443845746175069,
                -0.8453897918962447,
                -0.8540358732895371,
                -1.0059567417487327,
                -0.6107074728499474,
                -0.8786732960758225,
                0.5704938894623708,
                -0.4340896734900239,
                0.27071693869647,
                -0.04401227499509523,
                0.06400760490666237,
                -1.7891822488507099,
                -0.1751092746784019,
                -0.5425468479618158,
                1.063973790400775,
                -1.401610078962641,
                -0.5825749375947282,
                -0.46074578563696067,
                -0.06407216585081628,
                -1.1798528029389204,
                -0.1821130842953849,
                0.5831556701152344,
                -0.7681674465576489,
                -1.5827260693649168,
                -0.5441578142782795,
                -2.8807492260289607,
                1.3437989775034924,
                -0.07339102877982229,
                -1.146493423776629,
                -0.8085079071535551,
                1.101354079593137,
                -1.2326065254336838,
                1.514014720295514,
                0.032790540335704055,
                -0.3639401233574353,
                -1.249260278671763,
                1.5904790201902648,
                1.022541000913511,
                -0.16759772688953412,
                -0.17284829843073277,
                -1.1413928198808705,
                -1.104033399269326,
                -0.4181105110834538,
                -2.2147492879747563,
                1.6389997516613635,
                0.10452896084460012,
                0.3174790431260856,
                1.1484083226927309,
                0.3754633914020291,
                2.1823318580770694,
                0.6133960239335856,
                0.4628613064317431,
                -1.695084471033049,
                -0.34517933036583387,
                0.5941407315372721,
                -1.0028548312539833,
                1.5727663175570308,
                0.10722817835661475,
                -1.5862022227885693,
                1.4764582009890441,
                0.3067247626692233,
                0.9769304639163904,
                0.8492324851966335,
                0.999706718473709,
                0.29543289517461907,
                0.4863607523579448,
                1.5229066001929799,
                -1.6978123932844291,
                0.6749736682630066,
                -0.42073882559658227,
                -1.6014072488844813,
                0.3015640133513882,
                0.2673129411791288,
                0.7112019962993202,
                -0.3821349847972403,
                0.5416015020097678,
                0.6280473361427644,
                0.4512661578248933,
                -1.8791981273665088,
                -0.7417000877302846,
                -0.07989729606912696,
                -0.5586804788214116,
                -0.04203399531374997,
                1.0282159521868808,
                2.4658195494389044,
                0.32710465555661283,
                -0.9361012974302859,
                -0.16203311513441365,
                1.5399849716179967,
                0.930298537882948,
                1.5073115559915762,
                0.9270415088522611,
                0.012736339221515082,
                1.7570934351270837,
                -0.7648749057081959,
                0.5786446198188506,
                1.2547281376224613,
                0.6153770322135963,
                0.25970291084474667,
                -1.1324538908153492,
                -0.980088902233919,
                0.8343801734892535,
                -0.16914976867847997,
                -2.1795679568861055,
                0.23907326002112628,
                0.6577376238636211,
                0.519645782182095,
                -1.5899036974733285,
                -0.08316315010770765,
                2.071950733229251,
                -1.4091069230821565,
                1.7813084864049877,
                0.23187407546136737,
                -0.16943294915771281,
                -0.2909750350654369,
                0.7044309071460595,
                -0.5305927096817666,
                -0.5005284742615106,
                0.534397811385196,
                -0.24785133879157797,
                -1.257073231573437,
                0.3744761509265726,
                -0.01790907821065772,
                -0.8124481440802039,
                -0.9559058829819764,
                1.0976691556602283,
                0.20181496162799797,
                0.5582974013524739,
                -0.28613383984028595,
                -0.8340312057207274,
                -0.3925165000286316,
                -0.3313585858762978,
                2.041273308676866,
                -0.8037164123109511,
                0.9130829434471568,
                0.8615502183230881,
                1.5006846289228264,
                0.5618833846390058,
                -0.9364687540156678,
                0.12294685778641382,
                -1.0349544676209859,
                -2.240499644280759,
                0.6638291994938107,
                0.9451256026799807,
                0.42208652092219784,
                -0.2903879374420746,
                1.1333803729436551,
                -1.0572979209115092,
                -0.9049065266871528,
                -2.597332252903396,
                1.4298877888522938,
                0.09157411400548404,
                -0.2493962820259164,
                -1.212248978923065,
                -0.12243370540586207,
                -0.5328477362281104,
                -0.04670831572610446,
                1.7335767970775333,
                0.5718943497086778,
                0.0883648505951902,
                -0.26105822649952026,
                -1.597552707324158,
                -0.7254712577455801,
                -0.9175442382756366,
                2.1533655986521736,
                -0.30454265066349323,
                0.4110231273050329,
                0.6980862573805776,
                -0.9304690275150661,
                -0.6687968593348503,
                -0.18558864513328371,
                1.8263649713572851,
                1.8989857352487869,
                -1.4868520065901805,
                -0.5189396828221154,
                0.05185390288808539,
                -0.23929964520523345,
                1.5697890128709617,
                0.9882228440847782,
                -0.438610822014367,
                0.033491687256445205,
                -1.3762258818413762,
                -1.3572472242490505,
                0.4759160652769435,
                -1.408989163818935,
                -0.47257599332091577,
                -0.9279526764459799,
                -0.8007355551519524,
                -0.20671299043878652,
                -1.0669209259713939,
                0.08747250225587275,
                -0.04410743818910443,
                -1.0096761488325157,
                0.0963650763156171,
                -1.218042870219518,
                -0.6258092630694613,
                -0.9792589822907645,
                2.376336009477669,
                1.2587633687996778,
                -0.8648713981269252,
                0.3964379490470324,
                -0.8893244507641693,
                -0.2827160344802215,
                1.6097011508019914,
                -0.9215933704269785,
                -1.1081646130904916,
                1.3509838008324606,
                -0.43764282164560864,
                -1.1123604674002436,
                -2.614069453839006,
                -0.37609863459754006,
                0.1110968582851301,
                0.6048685222884701,
                1.6668685904985998,
                0.26489368445819195,
                -1.1357352507074239,
                -0.21469202230291579,
                0.005984798201469579,
                -1.1424838688702756,
                0.35241742572020146,
                0.37305410238617587,
                -0.623550502120726,
                -0.04309683850072206,
                1.5551331305306557,
                -0.06808725904862134,
                1.656018748432993,
                1.1712566390239687,
                0.7215657012573022,
                0.778588355509315,
                -0.4312314806101687,
                0.5822519710113404,
                0.06930542533112327,
                -1.6456793997386325,
                -0.1683785265667182,
                -0.0979032484001591,
                -0.18127692016481867,
                0.46801637780192984,
                -0.2058684560396989,
                -1.502402566799436,
                1.3781977979250344,
                1.1772771112531484,
                -0.25565052251100584,
                0.7237907526894347,
                0.1630667600210305,
                1.093424490119655,
                0.2073117129582018,
                1.0276461676631803,
                -0.8043373900509944,
                0.31520714240841397,
                -1.4045853455982384,
                -0.023757743147049416,
                1.0290638953694815,
                0.7918584957262854,
                1.1905913511210215,
                -0.36631082436114215,
                -1.0102230199717488,
                -0.5175386980769622,
                0.07789288017795298,
                -0.5071760178511683,
                -0.5015706805248459,
                -1.4939858717717756,
                -1.116276283932867,
                0.8705524406008082,
                2.3899671536634552,
                -1.5562596048836035,
                -0.0877823172054824,
                -0.7274593656480445,
                1.2434976446294623,
                -0.7236835446643987,
                -0.5227245485599866,
                0.12205367957842596,
                0.31197796063426164,
                0.10826503020953313,
                0.2534715380623751,
                -1.1250454712466396,
                0.7214925493988764,
                -0.8584718357878236,
                -0.10382622433941995,
                0.1076544157072051,
                -0.09717370319362313,
                0.841122110218198,
                -1.1231835786372617,
                -0.26665728437084585,
                1.4768687816769983,
                -1.7633714062757213,
                0.3605545650929209,
                0.6356886881542906,
                1.6188459758403815,
                1.034658192245817,
                0.9040717506736576,
                1.1960358066463104,
                -1.9978484551011095,
                -1.1382001694077528,
                0.12830706835060557,
                -1.3975268772569807,
                -2.2399667885341015,
                -0.8161308768575711,
                0.0691392578017131,
                0.3413304015729382,
                -0.10798606746555171,
                -1.0418510111985102,
                -1.0888798817901022,
                1.574468662194799,
                -0.4531735500751318,
                -0.1330783095645871,
                0.3804290831126064,
                0.7420847197681502,
                0.6774596439092917,
                0.13506952449089626,
                -0.05881674218951623,
                -0.37417437219002964,
                -1.6230208561658919,
                0.8289206237507677,
                -1.4259365401045079,
                -0.5372277813564903,
                -1.3026706072599008,
                0.9366036001597637,
                1.3769584914102586,
                0.42318191675955275,
                0.5308788704201409,
                -0.3491492055141149,
                -1.6051587285813729,
                1.1691504906936054,
                0.37703088505151683,
                1.459989595650028,
                -0.6752898949696554,
                0.3774150263740126,
                -0.16124208322955222,
                -0.018671149615911594,
                0.5100566947930274,
                -1.6375117272039506,
                -0.5527844185475564,
                0.6282487918571477,
                1.484587522543648,
                -1.0858114543050996,
                0.8754003091040693,
                -0.4377351249393605,
                1.4716478626983753,
                -0.04086191609333144,
                -1.0282319008616645,
                2.028225511450831,
                0.6609880915232874,
                1.0691479234883878,
                -0.13698979849603377,
                0.2856534446437682,
                0.9285446737277212,
                0.0049814333245626,
                -2.002817096536439,
                0.8036172019710781,
                1.1099542997707506,
                1.5635843622152321,
                -0.49421454429676276,
                0.3192171664574356
            ],
            [
                0.8763427086001977,
                0.8022106871864113,
                0.8766090906629258,
                -1.492927241081135,
                -2.081221408893628,
                1.1399956982960173,
                -0.7367750389242014,
                0.929092225367363,
                0.21128679224951727,
                0.2138401646667572,
                1.7383875885068347,
                0.7436759321153056,
                -1.0753271947419858,
                1.3016926730282923,
                -1.3016844533460163,
                1.0173154047525192,
                -0.3621286305890473,
                -0.1570085189387755,
                0.9865993767568831,
                0.5913496783599858,
                1.8793398472206624,
                0.19873583797769379,
                0.8088202531304072,
                0.4404913390070948,
                -0.7180757156987304,
                0.9689623895791959,
                0.8065198332714497,
                0.07995266189751667,
                -0.3693480976292582,
                0.20388916188675524,
                -2.5114306146821432,
                0.5841819401007793,
                -0.3107310161143796,
                0.6092682050015491,
                2.407877550507578,
                0.8112814417798205,
                -0.6456993568177214,
                0.45556703279676886,
                0.6125279802035996,
                -0.10475905764726487,
                0.9691494309348961,
                0.9792642766107893,
                0.38001726965971844,
                -1.9267623459411511,
                0.9449409434204143,
                0.35708192744163686,
                -1.1242611951160437,
                0.42737113138973276,
                -0.17580098985370107,
                1.0522837656169772,
                -0.6893880537204473,
                0.6011749837840185,
                0.6798408581701915,
                0.44581038877421686,
                0.67040497789241,
                -1.1526521987819445,
                -0.8360702102557168,
                0.4091968704900606,
                -0.8173600862774253,
                0.8029777952507842,
                -1.323132645535875,
                0.31605420350538344,
                1.06088260562375,
                -0.8271682038098773,
                -0.28282661632012446,
                0.2910214501520655,
                0.13129575874158791,
                0.11259716055039788,
                0.4333116828769675,
                -1.7202784907217812,
                1.8921288704949681,
                1.1405091581163167,
                1.8970152869647345,
                -0.5290000179167965,
                -0.4220190251712101,
                -1.6608052073979276,
                -1.2273180568227413,
                -1.0361139022319223,
                0.23028864486276898,
                0.729583932213441,
                -0.05512174343803409,
                0.39192088390911817,
                0.34157854248211766,
                0.9815928527270606,
                -0.4599704596910204,
                -0.7590443226295098,
                -1.5918505621551464,
                0.5163957300926354,
                -0.46540661710725917,
                0.2275352253688781,
                -0.7854670797395332,
                -1.950868632234979,
                0.6455354046895185,
                -1.4763555071912136,
                1.443107262243646,
                0.929772467278753,
                0.19140842442694736,
                -1.3750531904548877,
                0.8030057765791739,
                0.38333204175337726,
                1.1440335322690263,
                -0.6592024790619746,
                -0.9846055248575748,
                -0.0976656046798284,
                0.23879654432136882,
                -0.38969602090812483,
                -0.49982057399265234,
                -1.404289698544435,
                -1.7817263637689633,
                -2.8047985960263215,
                0.7028135170007717,
                -0.45122790665354123,
                1.139991788023702,
                0.8515611900847204,
                1.7559173833493447,
                0.8168960073395152,
                -0.09121783535951838,
                0.4419654056802499,
                0.5317397811120581,
                0.7300992651377096,
                0.08332787862598573,
                -1.3277612938602468,
                -0.3472377153763204,
                0.593586077849155,
                -0.42159859903446917,
                0.15052432365633667,
                0.9766759352117824,
                0.41243997158260076,
                -0.6613935363533469,
                -1.614572174353999,
                1.101929645640196,
                -0.34149334248396546,
                1.1765282152338192,
                0.7630784112960136,
                0.8229639704103582,
                0.7096566241444524,
                0.9124992804972286,
                0.04236251376749043,
                0.2017391521584949,
                0.5107287373994129,
                1.592164146556433,
                1.470377513948769,
                -0.13726304435115055,
                -2.052129032413311,
                -0.1872863739616718,
                -0.3138558094651815,
                0.9795810166566042,
                1.999369075380464,
                1.5903331143068973,
                -0.9959351502665815,
                1.1998467972865905,
                1.2340821124507357,
                1.7998778132766617,
                -0.03778450082828899,
                -1.285322031005591,
                -0.28865415532261246,
                2.2166723105758774,
                0.016915409787816037,
                -1.0499877108442381,
                -1.5191550972833017,
                -0.5296305980135834,
                -1.4175336852198737,
                -1.5962465793846514,
                0.33193970264357237,
                0.9219616495942141,
                -0.2876727704006635,
                0.4976783702521959,
                2.069430822871823,
                1.265250154341112,
                -1.1058967225034622,
                1.000587323991301,
                1.0488397531591482,
                -0.11577507434656767,
                -1.3390012235241497,
                -1.4087004917374628,
                -0.8268528561506001,
                -0.6276600362754703,
                -0.06277156699340923,
                0.44464979711706387,
                -0.5740110620603912,
                -0.7355926146384054,
                1.4446315155754523,
                -1.0439352858698265,
                -1.449761789080171,
                -0.30707836635885377,
                -0.11500847248859641,
                1.1111259166644396,
                -0.27504597726483637,
                0.5362613400080707,
                -1.1290633682207218,
                -1.7038989983215678,
                -0.15065130921715972,
                -0.3366004491458134,
                -0.6180785099828268,
                -0.7703728005247698,
                -0.38138658103459827,
                0.3530374618471299,
                0.034185312624844574,
                0.5039212088123842,
                0.7135210128517935,
                0.3293480071267309,
                -0.3043581712780364,
                0.8238219362664099,
                0.7601007979038478,
                0.16357243823725862,
                -1.2245234915737664,
                0.3786058522773482,
                0.4203821504901401,
                -1.402612799451347,
                0.2526004866999328,
                -1.044620531737468,
                -1.6459340326778,
                -0.40830286870044624,
                -0.7988797419779892,
                -0.0377186942272704,
                -0.334525752214346,
                -1.2189928677193969,
                -0.8064104876703829,
                -0.16965330498245143,
                0.09194763910314316,
                -0.08606786780713153,
                -1.4357160729460647,
                -0.40958063675405626,
                0.35635009689660874,
                -2.1075475423936205,
                0.7988750433610472,
                -0.5071379489219244,
                0.6079492423767164,
                -1.4116143688645184,
                1.003815483788625,
                -1.9101017846146733,
                0.7546433791910926,
                0.6760550149278927,
                -0.23745708894398085,
                0.14147441475084319,
                1.2455544526625941,
                1.77300993506044,
                -0.32117045532158356,
                0.5815782367490839,
                1.3744399332068475,
                -0.5513893433457151,
                -1.6020623997912429,
                -1.3602409381216836,
                -1.7673794213208391,
                1.8240727011355469,
                -0.2223170704538092,
                -1.4058771465598654,
                -0.9121982272706439,
                1.2405148010399025,
                0.29034807616551916,
                1.0841983187184723,
                0.7414402326817018,
                1.5330811426690882,
                1.0492750635959291,
                0.6889618420266908,
                0.33392689863188574,
                0.4976058949005913,
                -0.1606299550501024,
                0.6808500132145133,
                -1.183429036869303,
                -1.025231392181725,
                -0.614103065694346,
                -0.39954177039387595,
                -0.036008659429269604,
                -0.6227054593054131,
                1.7508935217809216,
                -0.4111171968361313,
                0.3062316429132269,
                0.8962673231217186,
                -0.1354958295847013,
                -0.6467985598561394,
                -0.3615220661918338,
                -1.4212984658752479,
                -1.345895183101554,
                0.19450256325981985,
                0.7894209721614645,
                -0.4772801119360465,
                0.5392865960198373,
                0.1581284448123659,
                -0.060898663385242045,
                -1.6233816732725015,
                0.26554374348017973,
                0.03396196453617129,
                1.4436834731578905,
                0.4793029451605416,
                -1.432308525002914,
                0.8301927888097154,
                1.8035191049562642,
                0.17446643825415073,
                -1.7258312412552066,
                1.680479315139639,
                -0.23247807600286555,
                -0.13787030997337718,
                1.5242597364524602,
                1.2350683925955122,
                0.910057470694022,
                0.9678426181588384,
                -0.19410899043854674,
                1.2079010610973309,
                -1.2591636753650468,
                0.7009229690279081,
                -0.43658842197684095,
                -1.3424903529772185,
                0.6457702914239849,
                -1.3365866676288058,
                -1.1203066015715852,
                1.0375779952135464,
                1.24978361866924,
                0.19215040474869796,
                -0.934758616946653,
                -0.24490462207862485,
                -0.8230584142468721,
                1.4763798118284874,
                -2.027416553315208,
                -0.15539430787938785,
                -1.290494144707138,
                -0.8723994483535721,
                -1.5059469547012159,
                -1.6309610708823858,
                1.6106768013605086,
                -0.05407476363900237,
                -1.5817361153732248,
                1.5980010794595727,
                -0.30952970669334445,
                1.2348579638198902,
                0.6399872905167893,
                0.9247377178450085,
                -0.6403372043110759,
                0.23384052094026733,
                0.8320555168550269,
                0.3988673472163461,
                0.9073229564414538,
                -0.261357868713072,
                -1.6943653808754835,
                -2.6983374283600083,
                -1.6241109683007375,
                0.5443314549857093,
                -1.8401424219262479,
                0.2856464953612959,
                0.1659760087241998,
                0.024794713600347573,
                -0.6088555019553663,
                -0.46557644064780074,
                0.05497331900398522,
                0.12545712863711414,
                -1.2625447179453095,
                -1.0546645632137757,
                -0.9754279394006716,
                0.671758970922241,
                -0.5219500758435333,
                1.0495879381348625,
                -1.0394553418132022,
                -0.2119885677821439,
                -2.0498706636604496,
                -0.24628426462282949,
                0.7331013515346373,
                0.6218629994672688,
                -0.1098439192222598,
                0.7583720944590567,
                0.12837958140151276,
                -0.3046164572506062,
                0.8950065499395765,
                -1.910406421693506,
                0.6389943562839314,
                -1.3089467437973272,
                -0.886014473080914,
                -1.7554682031621638,
                0.8453578825485678,
                0.2894195993824274,
                -0.8188574255143924,
                0.9787532274928672,
                1.3282714844135222,
                -0.17581533079612516,
                -0.35087418157980305,
                0.23923992620000775,
                0.7994023268060947,
                0.23276492786931594,
                1.3072248099220254,
                -1.1508255532664102,
                0.18105132759896062,
                1.2506491037792147,
                -0.28820858294584256,
                -1.2642925108390473,
                -0.6772954819809153,
                1.987113310801277,
                1.8922440788240336,
                -1.5893508580806142,
                0.9538172963568748,
                1.6809099031504868,
                -0.308352813102572,
                0.33568966345010637,
                0.5168750511812131,
                0.17566334861743851,
                0.5918162235548723,
                -0.4126249639856359,
                -0.3513193188811183,
                -0.09170688813669767,
                -0.5336071638295775,
                -0.5637126119071529,
                1.4690749213471264,
                0.4083731497237627,
                -1.2344554002726345,
                -0.5033939130340914,
                0.4196086614830337,
                -0.5554653289220215,
                -0.4048094454242963,
                -0.059531518677929926,
                -0.7014931617821317,
                2.0340996038773236,
                -0.09403714274201844,
                0.41234068162012777,
                0.16913077463187,
                -1.4404347401377549,
                -0.043259155406049965,
                -1.1225541817207598,
                -0.47938882163453095,
                0.048329796890295124,
                0.9466868260089034,
                0.8954933279420716,
                -0.9329176014800825,
                -0.8743606476078555,
                1.0602377112239723,
                2.2321321972140065,
                0.385685142303381,
                0.7781105518329955,
                -1.154798437903526,
                -1.4395721145275067,
                -0.22063692270995056,
                0.787150985798258,
                0.19415522591027204,
                -1.982562103280955,
                -1.0389172351799372,
                0.26749012671277905,
                0.35900846647471435,
                0.8888539915373023,
                0.3160033423423511,
                -2.1865057286111584,
                0.6883210120571298,
                -0.5375259423299518,
                -1.4668454507845916,
                2.074283867026533,
                0.1398745802936419,
                0.8615410911821396,
                0.6140126363502141,
                -0.23891682948389711,
                -1.147281165686777,
                0.12037839991392457,
                -2.905992882096598,
                0.5566737815459951,
                -1.3043235988287671,
                0.4664475339852433,
                -0.1554081503737262,
                -1.2039907417736568,
                -0.6581097124433963,
                1.7401859703746747,
                0.05277220154624928,
                0.1749280897410519,
                -0.967299425918467,
                -0.8997307178350127,
                -0.1462929624892499,
                0.8855504096618465,
                -0.0009241041875500826,
                0.999208691194793,
                0.0785944291162673,
                -0.258565516679507,
                -0.9562013039187547,
                2.053419111873044,
                1.456990363955811,
                -0.4755477089987933,
                -1.7305003473321943,
                -2.0373905080495733,
                -0.2989365580795955,
                1.2521274948907373,
                -2.453335296408638,
                1.8340989921747943,
                1.257500635014474,
                -0.21242309723644742,
                1.9464780107027837,
                1.7378806763976171,
                -0.6109413120310732,
                -0.8509832764206863,
                -0.2541688217367789,
                1.9329662590604895,
                1.1343182664486204,
                -0.2933518733937087,
                -0.9172405132549056,
                1.4213833229836923,
                -0.36172680201462815,
                0.9165528374905313,
                -0.3227965570424618,
                0.5189597859523408,
                -0.8585908800026661,
                -0.8594854546061161,
                -0.7916334514533492,
                -0.34096474883299116,
                -1.3669586955278779,
                0.9454307038042508,
                0.2039574862510962,
                0.09861075993901879,
                1.110225451502495,
                -1.2443930640659624,
                1.4019263048542305,
                1.617158900820317,
                -0.19189861455081061,
                -0.1600311306121732,
                -0.48678364954332193,
                0.9873055427837593,
                -1.0564298953582403,
                0.814033582608017,
                0.1252663536597479,
                0.7881627965463711,
                1.3579310989247202,
                0.0927080230345046,
                -0.24229813605000278,
                -0.402563527005418,
                0.42745312694554766,
                -0.7193680737031793,
                -1.4645844142847195,
                -0.377857719628226,
                0.05538811797298067,
                0.011027368674314714,
                0.7239915609607992,
                -1.2700591009037336,
                0.15459172988602143,
                1.2314297103690355,
                0.035212123118214124,
                1.586868189704814,
                2.2389515113127962,
                -0.4923973642337048,
                -0.03225964298959903,
                -2.2361819124022038,
                0.6327747625445705,
                0.9732473176946796,
                -0.6195198475454593,
                0.8213588121198984,
                -0.5567732882971923,
                -1.1021503514453719,
                -0.5583463899718589,
                1.8465383213180082,
                0.07523858854134512,
                -0.9039110787622271,
                0.18610809676132223,
                -0.03296066560935921,
                -0.2965265987144043,
                -0.10351811866247339,
                -0.8567546255711274,
                2.0015912556077895,
                -3.681195165475295,
                -1.7920509826471591,
                -0.3813645416672589,
                0.16637263852068446,
                1.5892617819610015,
                -1.176393264923729,
                0.20152984235136082,
                -0.4706492697901744,
                -1.058512971038954,
                0.07160047924768309,
                -0.5365104997067713,
                1.2572823169798781,
                -0.31289453101518755,
                -0.011004385308304766,
                -0.1286322152808067,
                0.32591828245561294,
                2.412573818044575,
                -0.5205546906127652,
                -0.5374973911444851,
                -0.9930030881686853,
                0.3692072426587847,
                -0.07330796853387223,
                0.1743330570196563,
                -1.4294023139288405,
                -0.47457565080465214,
                0.7600192980311226,
                -0.20087956566679277,
                -0.6474296836234853,
                -2.081104054627393,
                -1.9180436779456476,
                -0.1188808531432305,
                -1.2786724439760377,
                -0.45374181401868074,
                0.45575670387333334,
                -0.31950692942928766,
                -0.3681915776245208,
                -0.9202183367430986,
                0.11895124397506367,
                1.2310864387057088,
                0.3254439590099913,
                0.8147095229487462,
                -1.5511125325922919,
                -1.370447048702788,
                -1.7784500876074618,
                -1.1546420642825708,
                -0.12817693234833155,
                -1.4215408915439967,
                -1.1748577281544965,
                -0.7706962712340235,
                -0.25355723022260307,
                -0.33602686898589007,
                -0.9837072883202056,
                -0.36104663290531624,
                0.0852312481808945,
                -2.7234497335645984,
                -0.9564416812176199,
                0.3006779829138685,
                -0.357788200830796,
                -0.7949815594145317,
                1.1234758247356282,
                -0.1508790327857491,
                -1.8481622790240664,
                0.5043435330838183,
                -0.4076323789709844,
                -0.633052663149813,
                2.124211976615792,
                1.1616510314602537,
                -0.20526483302053602,
                0.48541577630828,
                -1.0109980508087912,
                -0.8090299747430073,
                1.0815054541087927,
                0.8172190507808842,
                -0.8372433005639437,
                1.176238414679312,
                0.4790412992066867,
                -0.4289510982604683,
                -0.5034808126625543,
                0.2036757524045696,
                0.6698527628750377,
                -2.099894787260173,
                0.6825751381880264,
                -0.4997231718498723,
                0.13646497486770598,
                0.6735591096881827,
                -1.0017240379873225,
                1.2030478233642208,
                -0.24993331351061618,
                0.23943549331286368,
                -0.28162419554590457,
                -0.6230275154083719,
                -0.9243138085042851,
                0.6444165582192907,
                1.0058524989033466,
                1.5287225822620132,
                0.9695161732311873,
                0.8168877789248896,
                -0.5524325883779643,
                -0.2763233662533726,
                -0.8846372679401008,
                0.5621029480496361,
                0.29397234733746636,
                -0.9711699780092022,
                -0.07787475954516301,
                -1.0428704207949655,
                0.2479883754890053,
                0.6737780156501082,
                0.8905819856812383,
                -1.284336041356149,
                -0.03517273328209723,
                -0.9663099803200889,
                -0.7625921086593007,
                1.5069597287647285,
                1.6250103353673573,
                0.056030742425563385,
                2.539038897249863,
                0.40203357787858174,
                1.3301735929267093,
                -0.01737827191464009,
                0.2651912021235358,
                2.6088071347280324,
                -0.715549773769214,
                0.013512862793454908,
                -0.3818457583308903,
                0.03407966737363327,
                1.1212795610156274,
                -0.4912002611012023,
                0.31972309255132286,
                1.2106962263982954,
                -0.8686004699352228,
                -1.3433930254916362,
                1.1948395864286068,
                1.1384657089795431,
                1.5466094589862647,
                -1.9652364501745792,
                -0.39911605194639505,
                -1.1306192762064124,
                0.39071669399547154,
                1.2250473015330734,
                1.4467015073621172,
                -0.6991745690646083,
                -1.3119595587308401,
                1.9532369448136528,
                0.8385035595638272,
                -0.0665259281845857,
                0.01225682483102881,
                -0.9444454531432421,
                1.5377565254728593,
                -0.10245187581236505,
                1.1771916326468257,
                -0.3679534443810989,
                0.42339824850884694,
                1.1046215929463465,
                -0.7011201206366613,
                1.2842096222513544,
                0.12654078154192705,
                1.756976067484821,
                1.748936976293769,
                -0.7285488882979528,
                -0.7364589464422809,
                0.38809085664900467,
                -1.218873813152559,
                0.4107696897593707,
                -0.07631575398455127,
                -0.7608194399835152,
                0.1623121102830763,
                -0.24938636516545473,
                -1.4489151952079216,
                0.5018713336667593,
                0.054932657597503154,
                1.022962210943097,
                -1.026976757143617,
                0.5300905779869043,
                -1.1307558396803192,
                1.9226790793948898,
                1.7128926395744464,
                0.5535079114655238,
                1.4015484580506525,
                0.8780385086849991,
                -0.5182941957883332,
                -0.5434525452969684,
                1.7163794750287322,
                -0.48054385587162324,
                -1.0462842609917737,
                -2.6820152389248406,
                -1.1974427865294526,
                0.42242785713876047,
                0.6759116056478359,
                -0.5930470919340367,
                -0.9041328186113818,
                -1.3015004432970563,
                0.20861530536827746,
                -1.666803994057415,
                -0.46550294242821566,
                0.7931786267454118,
                -1.2630074853103783,
                -1.3140003210677504,
                -0.2928779419016923,
                -1.2909271760105867,
                0.7883143871940351,
                -0.16395218842749948,
                0.5766924397070621,
                0.5177472268875993,
                0.028205667311567137,
                0.7201859386702514,
                0.7028331646897378,
                -0.5161545184639156,
                -0.32483983655318494,
                0.5906041517888418,
                -0.5475960119435503,
                -0.8201353277249102,
                -0.6862532746713235,
                0.6000127744740579,
                1.4620927690339494,
                0.9822074871335105,
                -1.6654525781258005,
                -0.44719767771074037,
                0.6342511719539203,
                0.6958496431103345,
                0.5951186379148212,
                2.0905874746351087,
                -0.6233249964160134,
                -1.4578610910421972,
                0.8124576424913523,
                -2.1649824894430045,
                0.26538329846336217,
                -1.5209507993055533,
                -0.6789580517367348,
                0.5392641480007059,
                0.770457040195109,
                -1.4935522721126717,
                0.050738022887982404,
                -0.292158243580398,
                -1.7160893781464324,
                0.9563319975733032,
                1.0228723947410656,
                0.5519021979338508
            ],
            [
                2.156940270232997,
                -0.21675426379349227,
                -0.42166042459352643,
                -1.00226826565959,
                0.8277538311495033,
                0.0621278587918932,
                0.23060997287571078,
                0.4249139774841998,
                0.0005055277730376613,
                -1.4154237802787133,
                0.38628188265085805,
                -0.11601242312852883,
                0.42457237329118724,
                0.7319291837212457,
                0.976389803960869,
                -1.9310291482594655,
                0.2398383523804493,
                0.019780380147860783,
                0.030459656734566434,
                -0.8914255683198662,
                1.167419833453253,
                -1.0446920804895965,
                -0.8260623741324008,
                0.3077050553224458,
                1.504718990914387,
                0.30112572953063815,
                0.2842235289415594,
                0.44083687143407974,
                -0.7144558692554018,
                -0.31631999471313227,
                -0.7124451345352392,
                -0.8658757667787669,
                0.7064156725499049,
                0.8675850914044569,
                0.427671483068253,
                0.686733279008878,
                -0.7124650142749184,
                -0.07456205528665656,
                0.20782414648760505,
                -0.8628841055086264,
                1.5164957068878198,
                -0.5045107749545288,
                -0.029529884868105753,
                0.2853313023886066,
                1.4308138234518335,
                0.3658475591359218,
                -1.4586510395842547,
                -0.5363638068453986,
                0.08026171683870184,
                -1.5761690725055308,
                -0.1413067464464164,
                -0.4156312477860531,
                -0.23936169250001715,
                1.3087958380134315,
                1.0584926263690628,
                -0.8459421840615179,
                1.0054957245306124,
                0.22499397882952668,
                -0.9602888061832818,
                0.31559988091348307,
                0.42392209452324997,
                0.7503849628556256,
                1.3059897899392892,
                0.5455337988695824,
                0.733224347993873,
                1.630655960935919,
                -1.0135231723300948,
                -0.8850710453705617,
                -0.6548893646579832,
                1.478898162856376,
                1.1339053637872347,
                0.36212482821740055,
                2.2786835135056247,
                -1.0183000020033768,
                0.6603432593285055,
                -0.2615336908239388,
                0.5813406878579044,
                -1.2554278989321648,
                -1.9498426490347216,
                -1.8286484637722773,
                -0.5783305913127208,
                -0.07794294448219093,
                -0.016087454640304838,
                1.760459833449173,
                0.16450204878620092,
                1.0019859076437005,
                -0.31000136286871827,
                -0.751516520066163,
                0.24625045166563467,
                1.376278867355971,
                0.7992270018001604,
                -1.4500499262118365,
                -0.7435277074682167,
                0.6383279164099821,
                0.7063169258975188,
                1.3900023301838267,
                0.1608910127683968,
                0.42706393395908776,
                -0.4906641752203299,
                0.35138159371988853,
                0.085167687328851,
                0.08875747369793723,
                0.005703587260651871,
                0.04543112520480956,
                0.15153458852563545,
                -0.8917142033567721,
                -0.4952646294234293,
                -2.267850263597626,
                -1.2037727247082235,
                0.8112769183326853,
                0.48407549082613,
                2.351074079480546,
                0.11867281322387158,
                -0.5718675106555782,
                0.4612565925674755,
                1.181735683385194,
                -0.2572220200140823,
                0.3579302744636398,
                -0.023475195477169808,
                0.04383525560930941,
                1.4627636640376969,
                -0.9102037637502882,
                -0.4625445379374374,
                2.2333941224950338,
                1.4104849645685662,
                1.0059556666931946,
                1.5359336536692305,
                0.9166171426714709,
                0.9515376449020669,
                -1.2116168298649903,
                0.26158353610917345,
                0.7221910748013666,
                -0.49886793737908536,
                1.2878723059355344,
                -0.1389738985464055,
                -1.681404065413555,
                -0.8980351906827274,
                -0.7537276844007171,
                0.3757768564559522,
                0.8355246461450067,
                -1.2899433758232968,
                -0.4779939932425615,
                0.039810604324066794,
                0.3249011088119071,
                -0.7604529859561614,
                -0.304570407071686,
                2.2661903163996455,
                -0.71729137352769,
                0.5600691241799982,
                0.19192937205959323,
                1.3590675396187624,
                -1.2925061535913274,
                0.30104469725065,
                0.31624810939509085,
                -1.6661400761773535,
                1.1336240616812754,
                -0.002871961823819172,
                2.581643117945332,
                -0.5720355557385667,
                -1.109106081078875,
                0.42303362381292403,
                0.41393664322228013,
                0.7838409161903613,
                -0.5570924121259689,
                0.27104702900982164,
                -1.7895950967435152,
                0.23798719914359576,
                -0.3922261944686749,
                -0.5954799595094477,
                0.4933914703851755,
                2.0463659502978135,
                0.6364887582534478,
                0.164455862200353,
                0.1630280950902361,
                -0.6531871565830653,
