{
    "biases":[
        [
            [
                6.934521192260316
            ],
            [
                -3.01998194599578
            ],
            [
                3.890245834665872
            ],
            [
                -0.9663636694327857
            ],
            [
                -3.8870540136645375
            ],
            [
                1.6457800799882722
            ],
            [
                3.4868100135218416
            ],
            [
                3.8460033028351424
            ],
            [
                1.565536797119128
            ],
            [
                -1.2475128986202118
            ]
        ],
        [
            [
                -3.3461723200042135
            ],
            [
                -4.62366311123399
            ],
            [
                -5.846367882608887
            ],
            [
                -1.3950131945806266
            ],
            [
                1.5867372985307735
            ],
            [
                -1.0201115007328572
            ],
            [
                -5.160911103500917
            ],
            [
                1.5805434866332624
            ],
            [
                1.7990409012496633
            ],
            [
                4.169474823034889
            ],
            [
                -3.098230185881944
            ],
            [
                2.3913988101262262
            ],
            [
                -1.4917435259388812
            ],
            [
                2.0799559974502664
            ],
            [
                -4.226297285866807
            ],
            [
                -1.6945281992231485
            ],
            [
                8.486549326552392
            ],
            [
                1.0468536693586115
            ],
            [
                1.394051656543063
            ],
            [
                -3.1597403264025923
            ]
        ],
        [
            [
                -0.8022910007568476
            ],
            [
                0.06281242198585703
            ],
            [
                -1.3259958743988245
            ],
            [
                -0.32357391578717326
            ],
            [
                -0.13277519717038386
            ],
            [
                0.2578057510682807
            ],
            [
                -1.4572484229436846
            ],
            [
                -2.964878088848104
            ],
            [
                -0.603278365245073
            ],
            [
                -0.8683257206300915
            ],
            [
                -0.713408603314949
            ],
            [
                -0.8120288960127889
            ],
            [
                -2.3184629833659223
            ],
            [
                -1.7913129755001136
            ],
            [
                1.1065702570455536
            ],
            [
                -0.6176758385219921
            ],
            [
                -0.9845077742316546
            ],
            [
                -1.826789488873327
            ],
            [
                -1.1582427572515457
            ],
            [
                -1.202411222594979
            ],
            [
                0.5030556061384625
            ],
            [
                -1.4180421600043625
            ],
            [
                1.6494835659787117
            ],
            [
                -0.6401534817770539
            ],
            [
                0.257946940777011
            ],
            [
                0.18324654468912133
            ],
            [
                -0.2567617670387282
            ],
            [
                1.1524002182207398
            ],
            [
                -3.2962368040896215
            ],
            [
                -0.5756768002850954
            ],
            [
                -0.9549156471696757
            ],
            [
                -2.1593704103440796
            ],
            [
                0.2454576347758207
            ],
            [
                -1.0502347892455062
            ],
            [
                -1.5426069896028993
            ],
            [
                -0.16686167225587736
            ],
            [
                -0.5695406857844754
            ],
            [
                -0.5040009764751986
            ],
            [
                -0.3510764373249796
            ],
            [
                -1.1801743016232769
            ],
            [
                0.32298069851144895
            ],
            [
                -2.3727181912245037
            ],
            [
                -1.4877752580884305
            ],
            [
                -1.849080721217982
            ],
            [
                -0.2654658365910026
            ],
            [
                -1.160058353281453
            ],
            [
                -1.6503605479626362
            ],
            [
                1.101989390350797
            ],
            [
                -0.8543837196730527
            ],
            [
                -1.0691881583165395
            ]
        ],
        [
            [
                -0.6718526179679823
            ],
            [
                -0.5808027614475662
            ],
            [
                -1.9660432789883369
            ],
            [
                -0.39652305729686116
            ],
            [
                -1.3987888394424117
            ],
            [
                -1.617875871796444
            ],
            [
                -0.3848360428575237
            ],
            [
                -1.7350506873753748
            ],
            [
                1.2139100920577133
            ],
            [
                -1.6392905076094044
            ]
        ]
    ],
    "epochs":50,
    "eta":2,
    "layers":[
        784,
        10,
        20,
        50,
        10
    ],
    "mini_batch_size":10,
    "weights":[
        [
            [
                -0.6095164566150826,
                -0.6748688537203281,
                1.4839820571031548,
                0.3804439934696389,
                -0.65213809076543,
                1.0852084867429752,
                0.614203434793874,
                -0.8520840206381417,
                -0.3848421927570699,
                2.6760748493659663,
                -0.3892511214270469,
                0.12581978643349595,
                -0.2620196263690914,
                -1.9723902641653939,
                -0.7971109211779994,
                -0.3843373802305005,
                -0.14554512580125514,
                -0.47637630055671226,
                0.18451672380378123,
                0.88927795816946,
                -0.3166924439743785,
                -0.28600135622449024,
                0.7624160054092712,
                -0.8677629872770237,
                1.3028764180251045,
                -1.271329157173775,
                0.47998138160219367,
                -1.1760460457815587,
                -0.13769792248550042,
                0.8823005839270021,
                0.020206825562176293,
                -0.31955693501812915,
                -0.9395823353613875,
                0.3818064836274416,
                2.6368256604803744,
                0.7890670022601436,
                -0.6375583908649335,
                -2.1178355933176505,
                -0.10437940275826023,
                0.2937522786066313,
                -0.015482342701754708,
                0.4898280665520644,
                -1.3382426129563514,
                1.1050460715164567,
                -0.8096643311016447,
                -0.09657104706768635,
                -0.26615543471980446,
                -1.3801162377922607,
                -1.2754275786654659,
                -0.724486268698633,
                -1.3198628040511249,
                -0.27986306793290805,
                0.40217321868777095,
                0.886417341262417,
                -0.6059856321726865,
                0.8043204062579159,
                0.4418697216588432,
                -1.6272931407611848,
                0.21932863100443295,
                -1.2736692035826964,
                0.27772355004847765,
                -0.4354062787733805,
                -0.8142124874671784,
                0.0038651310140472564,
                -0.13492580444559849,
                -0.9247464775717839,
                -1.5020903060007764,
                -0.9027952035438805,
                -0.04574613217284551,
                -0.28127686000069746,
                -2.2766630697334027,
                -0.5895299531588079,
                -1.3206058740304483,
                0.350758622419221,
                0.6499521330685221,
                -0.8631018172152295,
                -0.831545905354131,
                -0.04729151400198158,
                0.18010188364721774,
                1.1723769169085008,
                -1.898079816740698,
                -1.0482868398323046,
                0.6500294178406087,
                -0.8738069675002743,
                0.4068216055767899,
                2.6373873796453853,
                2.0825639232160515,
                0.909392984221713,
                0.823900381023636,
                -0.6950064752477424,
                -1.6007489994551007,
                -1.6296525435702212,
                0.7162840602523686,
                -0.9547686614307805,
                -1.1139343811644251,
                -1.7324741348337611,
                -1.8928160988399136,
                -2.955040019754142,
                -1.2873277539106205,
                -1.055454138454293,
                -1.952176734412316,
                0.43857395104679525,
                -1.6533970655448893,
                0.7207510035658402,
                -0.03774581262457042,
                -1.1281945260781958,
                0.4199482515646457,
                1.1386614914295916,
                0.9089963355711868,
                1.9116164236945359,
                -1.1756781510190595,
                0.30396643727725875,
                0.26417431932244384,
                0.251192838012049,
                0.2826403048567282,
                -0.15715204551756445,
                -0.3755326276895711,
                0.1801167257747899,
                0.24795154377615833,
                -0.02736545530012041,
                -1.227734386272518,
                -0.029105659438987772,
                -2.3756132699713466,
                0.3439614174395505,
                -1.5228044298380863,
                -0.8789491663372224,
                -4.566271130660619,
                -3.362015773617564,
                -2.428087527655171,
                -2.8773468580706396,
                -0.2103665085447444,
                2.986893899336183,
                1.851462773579564,
                0.7330392956561749,
                2.3498223387171517,
                0.8281150144040642,
                -0.6660519443325751,
                -0.2812879824843486,
                -1.024474872909946,
                0.26680852637265734,
                0.1849012209958661,
                0.6732933580453965,
                -0.8596908987408294,
                0.6464989631870437,
                -0.7728661405057189,
                -0.28576800213488934,
                1.3554285779324031,
                -1.8079004194506452,
                -0.5934921784862881,
                -0.038788203428050366,
                -0.0827607551523714,
                -1.6234667860483825,
                -1.6688706360114196,
                -1.7539908693075734,
                -1.1164623943927832,
                -2.472153236053128,
                -2.6202746264096026,
                -4.128162621931848,
                -1.3904364302345598,
                -2.1460832456560044,
                -2.219084944215202,
                -1.2958205889275456,
                0.3220716632005241,
                0.36588324105417624,
                -0.31943250995832617,
                0.132773568566594,
                -0.8165395945986016,
                0.04272347545016136,
                1.1049857638939102,
                -0.16219695197319914,
                -0.5751057611362861,
                -2.682115506136465,
                -0.2796755413579493,
                -0.11901395446353111,
                -1.2252594285485978,
                -0.4978155795973816,
                0.10145756939961106,
                0.05316726096895135,
                -1.6713888088325652,
                -0.056081675436149586,
                -0.8212499568180495,
                -2.1944942763762683,
                -1.1279065715024503,
                -0.06092156706952046,
                -0.0944053014533474,
                1.6043770085667393,
                -0.009855702458898717,
                -1.0143565890124775,
                -0.562726767157521,
                0.10880159702452115,
                -1.3869939553503292,
                -1.2944590608461282,
                -1.1543349780590522,
                -1.4704081450857933,
                0.3029194962059013,
                2.185997306190725,
                0.8102925790407443,
                0.713145367265018,
                -0.5858732604753655,
                0.7586110533998683,
                0.4967456739452561,
                0.28735005341323394,
                -1.5568635471986667,
                1.5615621576371874,
                -1.5640982705872053,
                -1.4936499221107122,
                1.2305961216710353,
                0.6152708010683939,
                0.3976333672977326,
                -0.6146169636199262,
                -0.11562234277921939,
                -0.9135050777128244,
                0.8617281628751062,
                0.4302381519205289,
                -0.27555271504564405,
                -0.5254542776609911,
                0.14598999480993113,
                -1.0130276704070822,
                -1.1808480887131634,
                -1.0167447581955709,
                -1.845071421925263,
                -1.7078502347362747,
                1.7782381101403244,
                -0.2942850091656463,
                -0.9495447345200368,
                -0.6888062061652603,
                2.126436024523748,
                1.1270282119571315,
                1.5115870759118784,
                3.043182555446705,
                1.072518624922167,
                1.4158948363925365,
                1.318798247789884,
                0.5213915166858255,
                -0.5774604702364501,
                -0.3428705506371292,
                -1.1445793761723342,
                -1.8224748251316347,
                0.37191116620595244,
                -1.0485178178797627,
                -1.243553944297087,
                0.6043629760236812,
                2.7931513117695634,
                -1.4471804719789392,
                0.8146766324398078,
                -1.9038676897775786,
                -1.488261465398592,
                -4.078163688555921,
                -3.123245311988023,
                -0.08859885145862618,
                -1.3967443197829525,
                -0.2461281183818535,
                1.2498490473734671,
                0.08588183372340416,
                0.27080662825232577,
                0.3308234328680523,
                -0.04861634596074499,
                1.5245796023045681,
                -1.4781381227126336,
                -0.4435907103593587,
                -2.6854970456438956,
                1.4766029538446976,
                0.6017583732817002,
                0.33185751201181707,
                2.3867700682409345,
                -1.0583439390887082,
                1.065779561250581,
                1.3200012262435958,
                0.27455145460626545,
                0.8340046675033764,
                0.9547966262966272,
                0.12900512413551538,
                -0.09205605962131502,
                -1.377278447475704,
                1.0871284183027448,
                -3.662783735248561,
                -2.402894559817455,
                -3.261476853704159,
                -0.48719050756780746,
                0.192514632560099,
                0.7213775606447033,
                -0.2082312460622283,
                1.928706081917834,
                1.6289321058671098,
                2.0769242672703454,
                -0.2598488308716259,
                -0.5897133885434763,
                -0.11341037981158769,
                1.393072342714463,
                0.21617454941915284,
                0.1443015896473002,
                -0.3178701053189953,
                1.7119211058750554,
                0.511848594667953,
                -2.6898378421471305,
                1.0585335203835422,
                -1.1370227142138902,
                -0.566405185339605,
                -0.45238557376987143,
                2.0682227245868665,
                0.2740867684705106,
                1.4677172374875431,
                0.9277651110173262,
                -4.399285723843936,
                -5.429972820747591,
                -2.650039961504711,
                -1.3824242847698602,
                -0.5663040954880423,
                -0.777615563370247,
                -0.4729898763416685,
                -0.7337682707824373,
                0.8006779622573047,
                1.4767641930091433,
                0.15073580078456558,
                0.11417458231037833,
                1.8362844759472519,
                1.4480081569945051,
                1.4435760388685481,
                1.293847353881878,
                2.296763908563639,
                0.11114006278648758,
                -3.5800722146906,
                0.46332261693078236,
                3.748227792229232,
                4.432128066847791,
                3.2457639984117437,
                1.4246640287614896,
                0.5989923889306082,
                0.6020566271729851,
                1.5623028434720567,
                0.2576143592537524,
                -4.677635946140438,
                -3.405809310717343,
                -2.839209129343313,
                0.44189543114358376,
                0.14791643083200035,
                1.182589275702845,
                0.5039486930831064,
                0.08388743098640677,
                -0.6086336626772505,
                2.089455860560001,
                1.013015051631147,
                -0.26758161517856016,
                2.4533288535122333,
                1.3343700363472704,
                -1.5423657463091913,
                2.007489609300985,
                1.7528086519904822,
                -1.833507242750504,
                -3.7805743515354804,
                -1.4942872293389722,
                1.8818976565161165,
                2.230391275656845,
                3.6884604674048735,
                2.963021038355712,
                3.1553889001639077,
                0.358123159470693,
                -0.8493114891294045,
                0.7389914629723054,
                -0.5927413732608061,
                -2.986319644125006,
                0.6466388845980205,
                0.7287044624067579,
                -0.3407422271756327,
                -0.05212846792315254,
                -0.6189504514071027,
                -0.07899868355003074,
                -0.9679609852131422,
                1.9367327930952072,
                1.1913691678951503,
                2.0840163067890267,
                2.031208651832917,
                0.36158958722850293,
                -0.22384802814970034,
                -0.40099507030418746,
                -0.9110645197216484,
                -2.4263905888642148,
                -3.608272377411856,
                0.6824622645072337,
                1.8292923333482456,
                2.24191513721537,
                4.028153534875838,
                0.40092011485130585,
                3.8547283546593625,
                1.7504444237253665,
                2.3752728984931135,
                2.129621123454733,
                -1.7400665725407658,
                -0.2870245482505028,
                0.198896280751243,
                -0.666335815155142,
                -0.2990156407225987,
                -0.33337254648740716,
                -0.08531854428182932,
                -0.6568621206001403,
                0.781715039815561,
                0.3162207455724008,
                2.5840870109460745,
                0.48204043053687173,
                1.2006507971889422,
                0.8335195862966096,
                1.1596458807374284,
                -0.24188179209614752,
                -0.7705971972751728,
                -3.8480434185129377,
                1.3780922863654914,
                0.277384393031847,
                2.5083001299152077,
                1.606929635935042,
                1.7587276555598716,
                2.0233061254254245,
                4.838841831748935,
                1.8021154303710427,
                3.8762913652264968,
                4.039240386779937,
                -1.2789230163431555,
                -1.9514912948979826,
                -1.4464410736944875,
                -1.3294303812055324,
                -0.5975002765807936,
                -0.0800083597497493,
                -0.17226464065205505,
                1.0755723033612605,
                0.8456675800519985,
                2.56948609633159,
                0.10480335598668888,
                -0.31486856350695497,
                0.42357681108759865,
                1.1645624437915485,
                -2.443007013987679,
                0.07194754573077852,
                0.050520468159863774,
                -2.775932961099758,
                -1.4766596736421893,
                0.2789032948281815,
                3.245400784650483,
                2.2710622443123905,
                4.6636377683008075,
                4.0790743092272255,
                3.740347175836745,
                3.713911478080128,
                3.0304884807934,
                0.4674228574199304,
                -2.292226285785221,
                -3.096847499646964,
                -1.0918336932882007,
                -1.4618718430224484,
                0.13874457815832453,
                -1.173542647975705,
                0.4321739257068553,
                -3.776233755428331,
                0.14521609547250022,
                0.7240080945557458,
                -0.21685318950190285,
                1.1803798137169692,
                1.0785032251947273,
                1.8594781428863076,
                -2.7027292973448365,
                -0.06672298352317685,
                -1.0440023819770659,
                -2.1590906406304895,
                -1.843778757262026,
                -0.23306688647078608,
                4.567558874952384,
                2.7839922528889303,
                4.157742146748803,
                1.8950515219361395,
                -0.4511767457933036,
                0.7463426405715997,
                1.9961171482455835,
                -0.49651829948409143,
                -1.7154732778094324,
                -2.065183153016107,
                -0.306527274687074,
                -1.0884650345289586,
                0.03631465839575185,
                0.4321761577667245,
                -1.2946380271912679,
                0.5601510979737511,
                0.10702725449617843,
                0.4939154727624123,
                -2.136050407657983,
                -0.9945535514971017,
                1.6863652065099044,
                -0.7670462030557798,
                -1.1424105557972957,
                -1.0675493758107353,
                -0.22934718666886206,
                -0.5519523502216216,
                1.2249830066352243,
                0.8170790007490476,
                2.5380616472316366,
                -0.5268941188354744,
                0.37183456026710304,
                0.7796125483699728,
                -2.2590094236825142,
                0.21355188712285975,
                1.4175221948810321,
                -2.3795942091301545,
                -1.7857995925807826,
                -0.48998571032021665,
                -0.18320135487331857,
                1.4192788351903785,
                0.0130545117178714,
                -0.6055089880875092,
                -0.7047810148133759,
                0.4481240231060689,
                1.7073678434637625,
                -1.858708626518166,
                -2.436899487444075,
                -1.715712454994007,
                -1.812839877094341,
                -1.493342808053877,
                -0.9362816516181552,
                1.223743642002848,
                1.4682576432931644,
                0.7195012052773565,
                1.200308991355023,
                0.6744793363833838,
                2.2886832245762223,
                0.10557006272459378,
                -0.32727584936585524,
                -0.7003112315220391,
                -1.6450989371371774,
                -0.9782580300402841,
                -1.537522513732793,
                -5.233567434585885,
                -3.6947119219647835,
                -2.5398110729448913,
                -0.3575109589882859,
                0.3023477345134479,
                -0.8563936953018052,
                2.1644266508546655,
                -0.1388124917107156,
                -0.7461525302673504,
                -0.20493401958148202,
                -2.931374704542519,
                -2.227163146006748,
                -4.267856300645895,
                -3.4254759375398565,
                -2.9063181463554963,
                -4.413713594659831,
                -3.199194142373179,
                0.6790341810415407,
                0.05936896604960421,
                -0.1990966649111141,
                -0.28655606879500367,
                -3.117994450143948,
                -2.046638015435527,
                -2.4880938952212333,
                -2.0284569902498,
                -0.8161846470736148,
                -1.8105662989205995,
                -2.2395214896799347,
                -4.813702755878459,
                -5.674860957332736,
                -2.4756604696406352,
                -1.8967802557617635,
                -0.36284949925252113,
                0.13266209383556393,
                1.095999095419841,
                0.8731651438006056,
                -1.2055166548300338,
                0.047932751569089875,
                0.3883159747900073,
                -4.785620226357206,
                -5.338148493740903,
                -4.958067792616002,
                -3.503526015835926,
                -4.320368494676916,
                -4.533173075103108,
                -3.1508482424006465,
                -2.30760646987602,
                -2.4346329666216007,
                -1.9567239775283294,
                -2.373460192115458,
                -1.1879990072210302,
                -2.6514418341725277,
                -4.319312795322136,
                -3.325060231995358,
                -4.136986750243893,
                -4.147413360829115,
                -4.238295873097626,
                -6.194537950222805,
                -2.8085101179764536,
                0.595676434559584,
                -0.2853043225754763,
                0.27456303899915774,
                1.1062976708150523,
                1.0210789784568945,
                1.0563547960955173,
                -1.2339088177337554,
                -0.6914383049824242,
                -4.518840220726701,
                -4.979919745189108,
                -2.7871936928905,
                -3.641308029480501,
                -2.332962574568391,
                -3.812010636599739,
                -3.1684067475095117,
                -3.1809417267662647,
                -2.735598460268603,
                0.5285730209819315,
                -2.1727235431518577,
                0.3100694762000371,
                -2.5661490785730923,
                -2.1801364075618737,
                -2.790175887101404,
                -4.677605248545499,
                -4.4794591064209595,
                -3.1396456388842657,
                -3.018714752920284,
                -1.448084082843373,
                -1.3646468969776648,
                1.0260440902178534,
                -0.17444891552662437,
                -0.6692639588485096,
                0.18052621016858772,
                -0.14027617907506099,
                -1.7837476446094316,
                -2.422697840016271,
                -2.0019036463093105,
                -3.080601473825829,
                -2.22444006587977,
                -0.5389199631669612,
                -1.952863632298548,
                -2.6104180808003488,
                -2.4983503560578266,
                -2.6642855450492786,
                -3.327740558720027,
                -2.140843641609575,
                -1.7183107759518947,
                -2.3564574828652036,
                -2.0501597405789798,
                -0.7559100318393358,
                -1.486231735630921,
                -3.040506760991624,
                -2.5059042368764066,
                -3.142849916069218,
                -2.0854758389463024,
                0.816943993858801,
                1.2030135083740419,
                1.0210504936671734,
                -0.23368654437246228,
                0.8623904136585416,
                0.2171077439330083,
                -0.9747352176521165,
                -1.3100332878598977,
                -2.206929190404441,
                -0.4067335874604508,
                0.9777966640132023,
                0.4758761096974545,
                0.3915332356553705,
                -2.737125183661105,
                -1.0598591177657517,
                -1.8511834194229262,
                -2.5826457845757016,
                -1.0364910213036573,
                -2.965408634368904,
                -3.388374233677183,
                -3.2829462931828184,
                -0.9087714345096329,
                -0.23289218594618094,
                0.26050266589270193,
                -2.01757242273007,
                -0.04336743294934263,
                0.37941787753042516,
                -0.6304800868838542,
                -0.7115609173773436,
                -0.03114757273074723,
                -0.44360756605117535,
                0.7424897762782878,
                -0.07078936313772365,
                -0.8585955667915912,
                -1.256211234959219,
                0.906745311363921,
                0.6357038507260208,
                2.3623199176557685,
                1.6458306542220245,
                -0.8620370012514447,
                0.08140144733442543,
                -4.295745314932316,
                -0.4815952001162043,
                -1.260094208065739,
                -2.124703305555114,
                -2.350226870855435,
                -2.8757877736268136,
                -2.131003814027515,
                -3.6022679442477803,
                -1.6968880368268695,
                -1.0738128779082192,
                0.5025049586647653,
                0.060673376641239285,
                1.3590632078238287,
                -0.6329384181767476,
                -1.42532105228658,
                -1.0625314793306928,
                -0.02650504696030366,
                0.76031640517152,
                -0.5777497567418598,
                0.3858090841020128,
                -1.230709890836338,
                1.1825908262190885,
                -0.9953880480542016,
                0.5121804592829836,
                3.196811063698823,
                0.31827666968614093,
                3.2577441363271675,
                0.022880070656560912,
                -0.2847397829023157,
                -2.437576234088109,
                -0.0446443019026633,
                -0.5023519615811308,
                0.9624063628366221,
                1.0208174784546034,
                -0.08105725749365915,
                -0.1515568592039097,
                -3.0989585630754375,
                -0.48494103825304574,
                -1.1156325609392068,
                1.9540136749283954,
                2.605876337723041,
                -1.4037985500409773,
                -0.5262364220535761,
                0.9930239714173396,
                1.5829939719953696,
                -1.003018275860488,
                0.4879616383185116,
                1.2302217983920354,
                0.0864276492101184,
                1.0157945577830276,
                0.24650563186626176,
                0.3209033883221162,
                1.0242411826781808,
                1.768038346275501,
                -0.5163043449000446,
                3.0422986285570115,
                3.6611153496178255,
                -0.0881826826565343,
                0.6370060285308582,
                0.8310816514880612,
                0.9780454282839073,
                2.707705388422107,
                1.0520643535679939,
                0.7697928744782452,
                -1.2834606058877618,
                1.4899280261465537,
                0.3149655317877603,
                1.6972155117581609,
                0.3614951482529515,
                -0.43454787840895953,
                0.5880742738272778,
                0.40901490509593447,
                -0.5966629407208832,
                -0.09039958687769854,
                1.3991011589446218,
                0.3615591857590732,
                0.011625095326370362,
                -0.9084356669306601,
                0.5941618843051772,
                -0.6296282698940956,
                0.420819525864842,
                -0.23405433916666823,
                1.0712645878211555,
                1.3436169029161622,
                0.9667010448871386,
                0.5490836719068133,
                0.7453034470615119,
                0.7810675755790712,
                1.6891260808431148,
                -0.8826670283143255,
                0.5393577297575505,
                1.7153786962974786,
                0.5835722121782314,
                0.2640276369074408,
                -0.7732154909901662,
                0.3941263936484026,
                -1.0341401963299652,
                1.6282371044043755,
                -0.8822094373571281,
                -0.018841857867441174,
                -0.1311566185472789,
                -2.094374508893899,
                -1.768876594831911
            ],
            [
                1.5693335461265119,
                0.5502122619157225,
                1.093433044888217,
                -0.14994319096697412,
                -1.0560970343347194,
                -0.4530902708780808,
                -1.0432204038858417,
                1.5001175825287623,
                -0.5930849607238726,
                0.6289110610942406,
                0.5479157682207867,
                -0.42506515568978986,
                -1.116563602837779,
                -1.158412167954911,
                -0.2774956583915369,
                -1.2874729889696166,
                3.18215223567232,
                0.588594112805936,
                0.36398550176234995,
                0.7558107581133965,
                1.0093498332643653,
                0.03828140508194564,
                -1.3986887415826688,
                -1.3026107457679033,
                1.7323238649971289,
                -1.668877785586478,
                -0.9354026934136734,
                -0.96479155495059,
                1.372908235106312,
                1.2912051351705685,
                -0.7973620820005893,
                -0.49752019787390483,
                -1.3551857270238192,
                1.8054164370013166,
                -1.5864828630481749,
                -0.3843609932971762,
                -1.0391032971486718,
                -0.26165642005157574,
                1.722091992547244,
                -0.5215428235437514,
                -0.8626404185397437,
                0.7856839398746275,
                0.28765441915771117,
                0.3325370600838257,
                -0.40960763255189264,
                0.7680884352267406,
                -1.4168910986587937,
                -0.6077210139281605,
                -0.9721704567842607,
                -0.0876720811866071,
                0.801232959191152,
                0.7274896827531788,
                -0.08308112651030432,
                -1.3616571737194276,
                0.12659710858025272,
                0.8429226561960096,
                -0.115816655402983,
                0.9699037182514851,
                0.5691941921898612,
                0.5927956584077771,
                0.07271450139158343,
                -0.21497456382850066,
                -0.9690976815889014,
                -0.46460348937335316,
                -0.11657706471380651,
                -1.651292316469319,
                -0.40683898978064076,
                -0.20141227247051166,
                1.594397080171648,
                -1.820623545797075,
                -0.5729300360889011,
                -0.763507908480116,
                -1.557160074495876,
                1.3900062690912534,
                -1.1428229036083866,
                -1.0640581657995591,
                0.09612541024458653,
                -0.5243146216820006,
                -0.2711417639363715,
                -0.7694782901460446,
                1.1483734007275752,
                0.524647038171341,
                -0.29755435394428204,
                0.009502317226663545,
                -0.3011356723892002,
                -0.4323613189559862,
                -0.11814968511822913,
                0.006672482164823565,
                0.3881026051389353,
                0.9564543845060077,
                0.16225986307414428,
                -0.8889239653654147,
                -0.3447312760000822,
                1.038656948189111,
                1.1712094381844647,
                0.816310029908167,
                1.0790787529659778,
                1.320366917275879,
                -1.6189592081742576,
                0.7823628664218746,
                0.3205561516769446,
                -1.9797226053745933,
                -0.7577732172844793,
                -0.8404646598648381,
                -1.7323419125163475,
                1.0929654488305545,
                -2.0356517604908166,
                -2.523590577153755,
                -0.29078766556767205,
                0.1531804584807768,
                0.48190832427966585,
                -0.9210974317026174,
                1.2900993004691952,
                -0.48705844746709037,
                0.5425491188549836,
                1.1327753500977267,
                0.7552166533263328,
                0.9604241456444281,
                1.106791882614195,
                1.4274525328046133,
                1.3252400202379713,
                1.2093365862227203,
                1.6364110212698546,
                0.23668036618322197,
                1.4735047944136916,
                3.3059624943325754,
                1.2776085815227132,
                -0.668263570143135,
                -0.39721956061715724,
                -1.8451658970500608,
                -0.043541170332006156,
                2.4553547893305643,
                -0.09788511956714613,
                -1.5991122462223706,
                2.6715495621372876,
                -0.5035941916799717,
                -0.49396036481346983,
                0.5167230544235811,
                -0.26210070109245626,
                -1.1922796155103865,
                -0.3631034652562617,
                -2.031099305059585,
                -0.888380358662751,
                0.053486806575577105,
                1.4656511285287095,
                0.9074759867321235,
                2.0298584528518897,
                4.48872273332752,
                3.443756040559602,
                -0.06722203622607173,
                3.2784880086020594,
                0.6651968207031408,
                1.8765200319390776,
                -0.7774922621272785,
                0.5277519360270215,
                1.1851289201359911,
                -0.852644167633372,
                -2.3404406446382824,
                -3.1651105203959395,
                -0.3400204533595528,
                -2.368575926020422,
                -1.3927868383387472,
                0.04485485597520573,
                0.27275017182271255,
                0.31933999016857856,
                -1.51368394612093,
                -0.9067262247945205,
                0.2437038670176662,
                1.8454920596522444,
                0.7882203995712631,
                1.0744076428714424,
                1.655453781757791,
                1.421490660494848,
                2.511166988255923,
                2.4335177220919624,
                1.3846527551284897,
                0.04352031571797075,
                0.45899580727546985,
                1.0730538612943956,
                2.6480782660349447,
                1.6805528242357743,
                0.7642784293980889,
                1.8705431420987455,
                -1.6530690071509029,
                -0.8332219710619793,
                1.093264152774718,
                0.39397279688916703,
                -2.3907301442936557,
                -1.1950634710486943,
                -1.572442098028504,
                0.6646008634793332,
                -1.7532448690265576,
                -0.44692623461244624,
                -0.5261992595711469,
                0.4729333312323698,
                -0.35826879472850315,
                1.7012245120036011,
                -1.6742042497613463,
                0.8051179799796788,
                1.0342594971806358,
                0.895986965522334,
                -1.1178486225341273,
                -0.4478717514272949,
                -0.05760942144735655,
                0.3304564671829073,
                -0.9099403423839717,
                -0.4404707468712198,
                0.5145598671556914,
                1.0010928619336625,
                -0.045396418568647755,
                0.663745763512964,
                -0.9779126500127087,
                -0.9055889010678554,
                1.4470403029014396,
                -1.4601606437366006,
                -1.165395273129054,
                0.6171530681771847,
                -2.762292493229467,
                -2.322374931147422,
                -1.74715753052391,
                -3.5495605254931553,
                -2.1142319451504687,
                1.7856926270252456,
                0.16374268430665725,
                0.4851821160144396,
                1.1301933168987548,
                -2.108996983735666,
                1.2583501927824847,
                2.5513951538298705,
                0.13258649103359796,
                1.7165982607307482,
                -1.1653643898303074,
                0.3242387087131501,
                1.8387468927099342,
                2.0600432884130795,
                -1.2020508299426913,
                -1.5484026520834964,
                1.3151468757762823,
                -1.3681568293368374,
                1.548022569842877,
                -0.012851021400674019,
                -0.0676318834369578,
                0.5092579324372284,
                2.0619046710164946,
                -0.6992232753904499,
                -0.48162654931593546,
                -1.9830119115996578,
                -4.410857216430192,
                -4.001109847230153,
                -1.8958779624760551,
                -0.3279088823919402,
                0.14793601334275308,
                0.40983943869230366,
                -0.2102494036576169,
                1.3655149342351207,
                1.7188157289777812,
                2.380162993022049,
                1.8927631282513708,
                -0.6271252996708343,
                1.7684762135107872,
                -0.9635401849325383,
                -2.6313358221296794,
                -5.215869512180138,
                -3.265063956431827,
                -1.2362588319183105,
                -0.0827813799329618,
                3.983650423096185,
                7.083745749720838,
                2.803345146020194,
                -0.09417128048538878,
                2.5051134299484326,
                1.2591585251039945,
                -0.36454163892567115,
                -2.0248094594339285,
                -2.0061472277477836,
                -3.8424720097748124,
                -2.361711372442725,
                -0.2007703058914715,
                -1.7496395582221806,
                1.0974107477662431,
                -0.7446245596534332,
                -0.21655376734230453,
                1.0651758567143297,
                1.3729460903916404,
                0.5765274339583126,
                -0.8820185844041898,
                -2.7800820824493138,
                -5.347807641773084,
                -4.978783047292462,
                -6.054030665461344,
                -2.093708016139175,
                0.8551997691517478,
                -1.4141202717396495,
                -0.03296276532997996,
                0.3093628513341168,
                4.372432141827308,
                4.0037539097914046,
                1.181227998852198,
                1.0240168610865266,
                -1.0220938326034235,
                0.2541891457580643,
                -1.9421582336616299,
                -3.8524577021775213,
                -2.0703374820878278,
                -3.114527662143581,
                1.290920146333564,
                -0.626120971414671,
                -0.376253104409571,
                0.4655742684724763,
                -0.8019152205053212,
                0.00853562803158952,
                0.044916472070327916,
                0.3696316034760448,
                -3.1331538204992873,
                -4.88020443676937,
                -5.848684922863168,
                -4.050922971074388,
                -1.6780844710669534,
                -3.8896999760031283,
                0.253135164268935,
                1.9075879695210198,
                1.8605974394518832,
                1.2934894167079098,
                1.2060152230423198,
                3.285927268628607,
                -1.825044928311549,
                -0.1533029818602774,
                1.5576414711544297,
                -2.187938391451008,
                -2.5241407507547957,
                -0.9028606281372963,
                -1.5478383275933238,
                -2.0228482680836564,
                -1.0457348087948763,
                -0.8063654676243356,
                0.23710587047677453,
                0.17425867115634558,
                0.7621205920686788,
                -0.7588048510882279,
                -0.0379797761189264,
                1.188726999729476,
                -0.8245989541584139,
                -1.7634710490371452,
                -1.583093444648407,
                -1.0114001099976218,
                2.1495093863221864,
                1.8922312405388404,
                -0.5592767726111916,
                1.8652960399702918,
                -0.9640147746180674,
                0.027287464603611974,
                1.0899251334314548,
                2.0464612612156414,
                -1.2962136641300954,
                -0.07671297242234401,
                -0.36026946150695077,
                -2.4374223167204665,
                -2.2479158733716744,
                -2.5429498651011535,
                -1.0365244035334267,
                -1.1363216551988642,
                0.4140362701363151,
                -0.08301746766930973,
                2.0850321269572376,
                0.4550855499588034,
                -0.7731158595417459,
                -1.0066842744236553,
                -0.7316877079337053,
                -2.851142690523126,
                -1.6203391318219273,
                -1.4116083693296928,
                -0.5561977832205794,
                1.0850309651528058,
                0.08670338972172108,
                -0.3809685947345288,
                -1.9318674218998855,
                -0.751403429148575,
                1.320596706603342,
                2.3581387949996393,
                0.22973234231041942,
                2.374204393061507,
                1.0811029010029463,
                -1.1149646678369316,
                -1.189827021983083,
                -1.3562514190662707,
                -1.4060256941684663,
                -0.8564358098996528,
                -2.4235010872678338,
                -0.7490215106908164,
                -0.30090852255572437,
                -0.45853546591353234,
                -0.35710682238284297,
                0.2548019868502832,
                -1.6854744789002374,
                1.5294383518867325,
                -1.8352697471242223,
                -1.390402217652062,
                0.8951491448247,
                0.12091096035727214,
                0.5703876690185772,
                -0.7432406084473784,
                0.47367126066775744,
                -2.4058111261053745,
                -2.118529614871547,
                -0.7506472852949728,
                1.1845891191987568,
                0.46711884256361974,
                2.9602014452386425,
                0.8341511706770404,
                0.18829847303036618,
                -2.068619282033085,
                -2.127918811845184,
                -1.348612314418255,
                0.14495868869030035,
                -2.21205621316784,
                -0.08756488948740072,
                -1.2912949220063412,
                -1.5862305451950374,
                0.9334926933918469,
                0.40907120901877414,
                0.5907359163706961,
                1.874233038973657,
                0.46419768387997323,
                1.0739980267590354,
                -0.609836668718635,
                -1.0162606269890087,
                0.7365494989099739,
                0.2001762329038357,
                0.1375132464731411,
                -1.2792150504149318,
                -0.01619843984546006,
                0.35904873929654074,
                -1.7342638135876474,
                2.2468063665792757,
                1.5911459456659065,
                2.585215004325491,
                -0.08232544709167502,
                -2.357202084671134,
                -1.5668582386627623,
                -0.2053380995867617,
                -1.2099379726565944,
                0.7945495452434826,
                1.3671501225897063,
                -0.8519707562754639,
                1.6891336927478366,
                0.03256447380567168,
                0.4428387033738297,
                0.8593335325602339,
                0.19071844542691072,
                -1.2366346371468264,
                -0.06495191430036698,
                -0.3187677485447789,
                0.9217005387493707,
                -0.14218869232235784,
                -0.8932943838104974,
                -1.8224833406940562,
                -2.737717195999605,
                0.4480133645272405,
                0.6609853408895444,
                -2.763796078866495,
                -0.6562732876753371,
                1.1818608659704921,
                1.5736148835784585,
                -1.1088137343043767,
                -2.267476275121771,
                -2.620605115730778,
                -1.4340448429253523,
                -0.4302080482896623,
                0.07796063159493179,
                -0.8917581005404162,
                0.042093188771505086,
                0.6357368166246793,
                0.5879619580154777,
                0.6595968410185186,
                0.025859100498931253,
                0.10813409354882916,
                0.42724552939183547,
                -0.770975759505463,
                -0.06439064155784732,
                0.22600475325730382,
                -2.184843085191828,
                -1.7244882673454653,
                -1.7734716187851107,
                -0.8445074391397932,
                -1.1693342768453534,
                -1.9375617145095858,
                -1.6274948683888881,
                -3.4301970304612737,
                -1.569555555013215,
                1.7853376671457917,
                -2.0770050825325725,
                -4.217170359101117,
                -4.3611199981559805,
                -2.337912624249932,
                -0.9749692312641188,
                -0.41276958906491645,
                -1.3754583733264514,
                1.6642493675459498,
                -1.0599540896248294,
                0.26726722616100435,
                -0.726133492908803,
                2.113287596455049,
                1.7699644400105325,
                -0.5435606676946032,
                0.07642474822888196,
                -0.05621526667026871,
                1.4964687173301103,
                -0.7217746885095399,
                0.9816363907628026,
                0.639274871675681,
                -1.00003183390933,
                -1.0194818966495538,
                -0.6447082349243278,
                -1.9312839395846055,
                -2.1252807170806554,
                -2.536320375251069,
                -1.97261837386806,
                0.02813908920189454,
                -3.085358189600139,
                -1.495353973179766,
                -1.3864903044069425,
                1.4447565278416157,
                -1.18669386758076,
                0.603773812687171,
                0.7036779497187386,
                0.6073560939719521,
                -0.43856943339951227,
                0.7955988670884495,
                -1.3683297811260995,
                -0.7244455177707874,
                -0.2983820270942679,
                1.9974333263088762,
                -0.5760570456951107,
                -0.010551258183160672,
                0.35776694280766563,
                0.26638476531393723,
                -0.34660482114015273,
                -0.4476221148878719,
                -0.6302958375524024,
                0.9271726936090907,
                -0.8787068775481033,
                0.026036996477878306,
                0.17087678261877906,
                -0.358695275010446,
                0.5573157859918726,
                1.3123704243893348,
                0.7533750076830411,
                -0.088438473763146,
                0.5565509816460579,
                -0.46209316331820616,
                1.6726004794197582,
                -0.14645710201978512,
                2.3396982610869648,
                1.1453185746133896,
                0.9889733119624757,
                -0.22866789055530282,
                -1.2579597297955916,
                -0.9702922680878846,
                0.7104663271944079,
                1.4815082860086646,
                0.5106510341424532,
                -0.7475394121980387,
                -0.2608974369832105,
                -0.38717195224092693,
                -2.527280681881956,
                -0.6608043450310045,
                0.6783970897642788,
                1.4542801050203626,
                0.7858617250728254,
                0.8184201628027878,
                0.3656535225645691,
                -1.9508689110348714,
                0.08067718187915926,
                -1.8621431265696722,
                1.0403301875729063,
                -0.2850893365150306,
                0.5260685723108959,
                -1.3092223540184802,
                -0.49780885378448286,
                -0.13054919893021927,
                0.17003878931810404,
                -0.23438853663300313,
                -0.5140186752746557,
                0.676065208718535,
                -1.374646317007056,
                -0.48328230161613783,
                0.9215330291938899,
                -0.5805355264000265,
                0.5591761297376834,
                -2.354655672443062,
                -0.5403500657792765,
                0.1294944989392514,
                -1.4099684949887064,
                0.7859494674509941,
                0.528656373374676,
                0.0334909673345974,
                1.089474050496386,
                -0.5791439318923605,
                0.27163571293246375,
                -1.1447443416074217,
                -0.5301224303046592,
                -1.7115930370907066,
                -0.9400330613117983,
                2.026112253108668,
                -0.9031949300484532,
                1.397779221207801,
                -0.41652355353614734,
                -0.726434633583876,
                -0.16586017479423218,
                0.2953879896429504,
                1.426953381998677,
                -1.176530963838942,
                1.36504189486132,
                -0.4522002250032067,
                -0.26680227842683113,
                -0.08035471471460799,
                -0.3887794479769779,
                0.283759326242463,
                -1.575977435205647,
                -0.04784924403764605,
                0.5869359561713867,
                1.9499772823595234,
                0.5022688483656111,
                0.9453862465408892,
                -0.4103622311503179,
                -2.154947894272173,
                0.024042008845246998,
                -2.2567630243331673,
                -0.4139195872001852,
                -1.7263276581980103,
                -0.870349388866033,
                -1.2937983862910967,
                1.1097974490258482,
                1.8327332781264247,
                1.7877528421901603,
                0.0021917531990921766,
                -0.22385658985300286,
                -1.8512943050239148,
                -0.6770126344006715,
                0.4264965854933753,
                -0.4390440208515784,
                -1.3870957221738802,
                -0.0737227674894447,
                -0.005220473828894667,
                0.08647557557853368,
                1.1523835586285975,
                -1.4453520281892556,
                -1.1036583506060453,
                -1.545482798855629,
                2.18548149305156,
                2.8706721373376523,
                1.1038775507130687,
                0.79299334523964,
                1.7197585112580351,
                0.4869013356357859,
                0.10155956120763794,
                -0.2631293942701447,
                -1.3697136508666434,
                0.5489310454132812,
                -1.3790036699133856,
                -0.6535095098945309,
                0.5631503296579911,
                0.05516830367307594,
                -0.4699942531983722,
                -1.7213786124622774,
                -0.8773347481685979,
                -0.5391122330556403,
                -1.3091919566506012,
                -0.8848791450905761,
                -1.2697398595843687,
                -1.836438460923953,
                -0.5070245438856332,
                -1.2070277808366063,
                0.5180268649603101,
                -0.529236767679525,
                -0.42988839781348137,
                0.24129372128097973,
                5.131025258512052,
                2.7710776205735743,
                1.086521998417136,
                -0.13438351848232918,
                -1.1798088980885222,
                0.549428316511413,
                -0.22606185775812088,
                -1.016912066504601,
                -0.060983597038359816,
                -0.831383585910341,
                -0.8154245748241808,
                1.1774909070883006,
                0.6572172047616601,
                -1.4306753997314565,
                -3.3475152267900263,
                -1.869790479077337,
                -0.6741894347024983,
                -2.2661235816594876,
                0.1163614243778454,
                -0.3863158242292599,
                1.0915507968838754,
                0.4963453219322956,
                1.4803759769829719,
                -1.1873087710878298,
                0.95872865824578,
                0.6003334573934861,
                0.8098657340177257,
                -0.5840831494835241,
                0.9476837141039062,
                2.0935118652871245,
                1.6135163268126058,
                1.3605992014364963,
                0.06963928896465645,
                0.5109887254503358,
                1.2596826838572572,
                -0.3320375702835457,
                2.1315831993461205,
                0.32904369387259785,
                0.343230742569906,
                1.5017874134666376,
                0.14999522932073098,
                1.7691229489786162,
                -1.0499178978714065,
                -1.3942385051870647,
                -1.0352567888051825,
                1.5591633887698384,
                0.412803330729466,
                -0.4835651767389744,
                -0.0794364825353392,
                0.8596743619284749,
                1.2548908294506078,
                -1.7394028076640715,
                0.1165346499404301,
                0.1370230499099496,
                -0.5561476330609516,
                0.8854169341428427,
                1.3113589471553049,
                1.3621744173812462,
                -0.6674355324568388,
                0.2406685748890629,
                -1.5586980096593952,
                0.13363230060951442,
                0.35547943132810506,
                0.6129053278132355,
                1.4468763246633474,
                -0.35620914678428117,
                1.1408356794474643,
                -2.5012051357180085,
                0.5320407783457104,
                -0.8115319703249845,
                0.3002776050238142,
                0.7947024648447937,
                -0.20201714071225885,
                -0.28675611112354343,
                -1.0587155484565354,
                0.5968466478478989,
                -0.3687441935912632,
                0.9490859255452282,
                0.9830159573107431,
                1.698517828569446,
                0.2465062125148137,
                -0.4305609366302039,
                -0.2799203956938119,
                0.8349252932539363,
                -1.794244974394534,
                0.043281197523172915,
                0.015944046552534463,
                -0.6662414245741186,
                -0.828695432115175,
                -1.2265558592724068,
                -0.6466349450838801,
                -0.29516864194685394,
                -0.5750083262665636,
                -0.34129943374702726,
                -0.1703142310643069,
                0.6212249505321795,
                0.4116765783245201,
                0.30198114674165005,
                0.01895406219831978,
                0.8886293515402631,
                -0.42192207368733314,
                1.183750638727975,
                1.6393414690770423,
                -0.3328167330316724,
                0.362017843953126,
                -0.6656646997946304,
                0.6245543431452028
            ],
            [
                0.1132580132975224,
                -0.6009378636337003,
                -0.9831826433167437,
                -0.21187766118389662,
                -2.4231709241905497,
                1.089571505476747,
                -0.4535026146687369,
                1.134492981332967,
                -0.7034330624851021,
                0.8700390926774443,
                -0.043390055428445824,
                -0.35766382523628265,
                -1.2572293355503197,
                -1.6694834543203354,
                1.0653830047853496,
                -0.22057313069807424,
                0.9120372797956037,
                0.3303033636845705,
                -0.5964726064471039,
                1.2681477886525687,
                -0.3434029497116952,
                -0.4405630248562092,
                -0.04760511566355535,
                3.6408924737829826,
                -1.248712822641498,
                1.3971481677445072,
                0.4055136297497748,
                -1.2560898245318797,
                0.034059975568260445,
                -0.9209969825183649,
                1.1824378599887795,
                -1.1184498029185586,
                -0.9053186652947623,
                -0.6226067163296902,
                0.7711293621443225,
                -0.45384502904288726,
                0.980177375461305,
                2.281570331494168,
                0.2622355958210314,
                -0.19375704945699646,
                -0.5456741718521998,
                -0.8312596725954465,
                0.11311283671760514,
                -0.9832790611778145,
                -0.2214666837237171,
                1.6116460463217004,
                0.7013469275196752,
                -1.4587027503552783,
                -0.9750073828583935,
                -0.5191780960873146,
                -0.31023355603566377,
                -1.695411799392633,
                -0.8101961797749255,
                1.3660573472666595,
                -0.05499847563235601,
                -0.06636396498395662,
                -1.1222883194007334,
                0.6074781179930008,
                0.3655517264237996,
                -0.036953975149949386,
                -0.9970241805407757,
                0.005437495686645162,
                -2.696717379160097,
                0.1730637378623888,
                -0.6978363372386314,
                0.0058791196452379355,
                -0.06436651689611433,
                0.757263735560147,
                -3.1081687123849195,
                0.09231808937196603,
                -2.3608794891416176,
                -1.7156540624669736,
                0.14264932942180206,
                -0.100424329439468,
                -0.2804808562445022,
                0.9672688474615782,
                -0.39254996159629085,
                -0.01887012705247525,
                0.6884375463836393,
                0.9896401394480887,
                0.7047965004100435,
                0.6620119859450104,
                0.8310300349326033,
                0.2993689607073016,
                1.261484085966062,
                0.4685789758473015,
                0.02119498285694346,
                -0.44820786273925967,
                0.36800920528854525,
                -0.21731157343443927,
                -0.06366008001785942,
                -0.7065476778558262,
                -0.32910923146848414,
                -2.470743329918398,
                0.1238847408827852,
                -0.915412881176213,
                2.3639821216120995,
                0.9863688517695156,
                0.3172629121338621,
                -0.41806479713471373,
                -0.8729216532191105,
                1.0732439341801987,
                -1.1007375693175252,
                -1.9622578576879102,
                -0.9175434052190263,
                1.7802321647782087,
                -1.212430761845062,
                -0.3472557802599745,
                -1.103467437878018,
                0.48091209426225984,
                -1.9016500778538823,
                0.058301152121642885,
                1.066497929644744,
                -1.2532150599741396,
                -0.19746438747776732,
                1.5819109179617377,
                1.3787510574372177,
                -1.8523429726158827,
                1.4126093218866846,
                -0.1822066126833132,
                1.0238848807679166,
                0.5734561811856119,
                -1.3231755975428574,
                0.498147498630773,
                1.7567168522759657,
                1.122433699530087,
                -0.9038333663172198,
                -0.5148449832726378,
                -2.1730441312688673,
                1.8785384814524422,
                4.206951794103943,
                -1.8020872465527067,
                0.8669502752874387,
                0.7497942674679232,
                0.7041064533243372,
                -0.06656820984810546,
                -1.1461236523848466,
                2.088465284826183,
                0.09474987205804809,
                -0.830138304210302,
                0.21422114649862062,
                -0.7175023722316773,
                -0.2874111824582274,
                -0.4144135515434043,
                -0.9606245865724672,
                1.2105323624554976,
                0.14823253224144228,
                1.6267875983227418,
                0.9444782736194557,
                1.1514816972630282,
                1.9517611485904913,
                0.7665047017940126,
                -0.01405562479006198,
                2.2895375069751482,
                -0.18349522098060456,
                0.508060657558127,
                2.36948375097742,
                0.7996709761265798,
                0.8912177412828369,
                1.688238564921689,
                0.7626753299741837,
                0.09988664148021541,
                0.3358916481916173,
                1.2822931186183995,
                1.0875226472265056,
                2.611672085185547,
                0.7576172296425704,
                0.8196711218832158,
                0.5857606276687913,
                0.15865384143159197,
                0.07572194463823927,
                -1.0572709219059424,
                1.0132347118506686,
                -0.1078200454796461,
                1.8386097444680285,
                -0.32314300703267096,
                -0.15116836808760228,
                -0.6580509054739319,
                -0.09706246292097294,
                -1.3939065915281401,
                -0.9267997304379354,
                0.8598049610156444,
                0.06592190664057954,
                1.5839256438482385,
                0.07998976543323098,
                1.7444069108813076,
                -0.24965381304068612,
                0.6620755014783573,
                1.2051666204267235,
                -0.5607415698542726,
                0.6198125909941451,
                -0.2843631382916339,
                3.838657832773794,
                1.9335558529846462,
                1.4050793277547136,
                0.4707119848097685,
                -0.6112460918882711,
                0.8860806511336028,
                -1.0855761127487167,
                -0.55469633893105,
                1.1414403216202071,
                1.290665751713562,
                1.6882799160299482,
                -0.6472643319623042,
                -0.8009361758880839,
                0.3785817083134087,
                0.1939215171723944,
                2.2418109694813233,
                0.3258452748480098,
                -0.07721292434861794,
                0.9423219268028801,
                1.024521605820876,
                -0.2782156738786621,
                1.4129823709431122,
                0.7709916976345649,
                2.6323822571608333,
                0.6349910173394951,
                0.20800179170893687,
                0.30545260341532676,
                0.19456281651401536,
                0.4967531161240275,
                3.2387590704089075,
                1.6371197518310192,
                0.777652853652599,
                -0.03269524665454193,
                -0.2918489725190693,
                1.0361301755217474,
                1.6453698809468735,
                0.30503711621852847,
                0.9733263326281747,
                0.9274503951271741,
                -0.22209871507267565,
                1.4770961757917187,
                -0.9044735559896064,
                0.8133315730356161,
                0.364315227444401,
                0.772660964036044,
                0.3149400447084758,
                1.1463461995885469,
                1.9720350223923502,
                1.3813256903223066,
                2.5618377779679924,
                2.100278347990635,
                -1.2236525166738708,
                -0.05733613104479551,
                -2.0223966034346317,
                -0.11527549900018935,
                0.22842876647949084,
                2.886720059455074,
                3.318693368880728,
                0.6581503830891037,
                -0.7836584487672369,
                1.7416450317883228,
                -1.270049294977147,
                -1.2154811510068688,
                0.7419938373896586,
                2.6460896533260727,
                -0.1358290109804833,
                0.11397462458006842,
                -2.038955031531865,
                -0.6450335788827982,
                -1.6376522616974807,
                -1.5677064881929186,
                -0.29193256033862436,
                -0.09810680999293593,
                1.3096674932883146,
                1.4069416404103892,
                3.2382134053052036,
                2.8746465722480234,
                1.2056770266800596,
                -0.7508198460809269,
                0.2912743532355152,
                0.8966256526173314,
                1.8772268770326115,
                -0.058893726733635084,
                -0.6965450682756523,
                1.7766302382490473,
                2.4566576407012213,
                -0.024556228181038343,
                0.9855738912788808,
                -2.108320180414092,
                -0.8569762049147489,
                1.4430921263078156,
                1.2975798281278204,
                0.7414710803004714,
                1.0503442047571292,
                -0.6637013128226124,
                -0.043239389232279435,
                0.09107120300186997,
                -0.73074472531717,
                -0.5309778423667956,
                -2.0432675345438627,
                -0.8445934760869452,
                0.27586492302479565,
                -0.9921502063940038,
                -1.5183307162005757,
                1.7359492472425084,
                1.5122636269353114,
                3.419846936281998,
                -1.1268209883180729,
                2.147797084329246,
                0.2024787752676858,
                -0.10901095950972702,
                -0.9308459139043858,
                2.007348984795258,
                0.7605780980298527,
                -0.16848769432162186,
                -1.9898570359000964,
                -0.3515659922441668,
                -0.6737635394104765,
                0.06979584097001339,
                0.9087943311519109,
                0.09053705377760488,
                0.7699431436897147,
                0.5511246001637283,
                -0.43131997380743853,
                -1.0070922943593479,
                -2.0384077797559463,
                -0.7354460365553761,
                0.9740068474863797,
                0.7821303912913559,
                0.6361246671963713,
                -1.8868246100454364,
                -2.782885912837083,
                -3.4861874219752376,
                -0.6989329620140304,
                1.497948973186722,
                2.214088678856228,
                -1.579988212864352,
                0.3037834332448972,
                -0.6631140423971578,
                -0.9289957178968153,
                0.19424832189014915,
                -0.3074973205452246,
                1.7086544951263094,
                1.0397355242990727,
                1.8736272708098516,
                0.1996530609356714,
                0.08866708747881027,
                -0.8144599423441843,
                -0.2211321233048037,
                0.5843428979218863,
                -1.7617915782404043,
                -0.9341078023309763,
                0.7350286185346859,
                -0.7095329974282457,
                1.7017913556045006,
                0.6425277992837559,
                0.20411726908630548,
                -0.2835355372822245,
                -1.846709478317252,
                -3.1221297953127234,
                -1.4443203861201277,
                0.16658541888024378,
                -0.6189675535678808,
                -2.124733626766441,
                0.44936322875713725,
                -1.3074141651481601,
                -0.5921141835912411,
                0.10417419182642398,
                1.4757195591887078,
                -2.2154602805250816,
                -0.2938331154144389,
                0.4004753346244776,
                -0.9627735011093781,
                0.1182345351105234,
                1.9154404586068874,
                0.816605833539304,
                0.42019994304154273,
                3.7417760116088954,
                1.0311575202819248,
                -0.041306981091257335,
                0.6891549645010275,
                1.9960680543589095,
                0.1390755697605874,
                0.8061815165071097,
                -0.3483879521600267,
                -2.368546390480116,
                -2.1537550981363327,
                -2.5475255223430024,
                -3.4016040543106545,
                -1.5656351261821848,
                -0.2231551984443325,
                -1.5144711087879332,
                0.38082011033280555,
                0.018210313623485498,
                1.7645018209216121,
                0.3098055664446364,
                -0.1396339134329488,
                -0.6571397552540144,
                0.4475526972252873,
                -0.6743226318237543,
                -0.6434900099867278,
                -0.9640868041182591,
                0.1901069026438471,
                0.14264515293995988,
                0.3104113601277655,
                1.0876059390952224,
                1.081066068840342,
                -0.7540829042230497,
                2.358921034396169,
                0.5070136809264718,
                -0.26297391985472596,
                -2.884573606599691,
                0.18050064826355888,
                -1.1322711571276884,
                -3.9340520054290677,
                -3.256141038002597,
                -4.461797859128617,
                -1.6673603587706323,
                -1.9298415512949312,
                -1.1220222834345368,
                -1.6475637956986,
                1.827566113405139,
                0.7822839198550388,
                2.9535609375517646,
                0.39681019245701266,
                -0.5534697523475889,
                -1.2520350162050258,
                -0.9563758842728268,
                0.8275441889854771,
                0.5659378867438355,
                0.9963760828360388,
                -0.4154956733924022,
                -0.21136357723372823,
                1.7276476919592947,
                0.5848790431026375,
                1.175482432564627,
                -1.367985375085358,
                -1.1674721862914097,
                0.12306819027127125,
                -3.0509150409200885,
                -1.1536023626102332,
                -1.2798704908564902,
                -3.8467004642948655,
                -4.585676338443352,
                -3.0661423133936445,
                -3.36343107379818,
                1.8010346629650122,
                2.2199987124162925,
                3.181566387040792,
                0.9416134162550233,
                2.2209470635988726,
                3.1937884196545503,
                2.764069602139239,
                1.0490877464754946,
                0.9391070453621592,
                0.5170399317115226,
                -0.06559237337050168,
                -0.8540935734217171,
                -0.3243241441193831,
                1.3793676866912141,
                1.5781962075125253,
                1.2594771935968474,
                0.06925403426193334,
                -2.9008572429521977,
                -6.685686072133982,
                -4.520477364984823,
                -2.075897844947562,
                -0.7817676956467413,
                -3.0956560461099176,
                -0.8392213390543148,
                -3.1773625374213945,
                -3.2260121020719796,
                0.08502613997695055,
                1.9242080392965868,
                2.7665516495611158,
                3.697554902515979,
                1.6942280447869003,
                3.1683079185896776,
                2.166035994888316,
                1.8774917909386613,
                2.3087308977688523,
                -0.7148518038793013,
                0.12044161207429477,
                -2.1893547149769077,
                1.1332779040111958,
                0.8908300327089143,
                0.7992083722755121,
                -0.8010619153925566,
                3.621389503634374,
                0.2646252536728923,
                0.09835829233132547,
                -3.673693565346378,
                -5.072636728323587,
                -7.030127523426742,
                -7.983730424876535,
                -4.5050051744246336,
                -8.140022820844761,
                -6.908643796900618,
                -9.309765052684826,
                -1.906168498852964,
                -0.21084315173757223,
                3.5537714910739044,
                2.1686945306532994,
                0.7213239601105829,
                1.1313795173939685,
                2.2362462717239344,
                3.2906137360849006,
                0.22795662503486505,
                -0.7393915722425327,
                0.3732305881480347,
                -1.6581261672646481,
                -1.5400774099229961,
                -0.28519797620933496,
                -0.9753690880419382,
                -0.9030057806900187,
                0.9991278727175541,
                1.3311386368899951,
                1.9258323489581342,
                0.5787003382186112,
                -1.605087635236607,
                -3.2079393459614516,
                -4.546456927856806,
                -5.1058520573749195,
                -5.941892253651777,
                -5.500711966039068,
                -3.38929109265311,
                -3.277210709053373,
                1.8277268503110682,
                3.4950581313785847,
                2.1088466982593594,
                1.1922777507579838,
                1.3407583952601376,
                2.734157969102234,
                1.4273513175474577,
                -0.2567388682674526,
                -0.5635273968820297,
                -0.06981602963662353,
                -0.1787355872648905,
                -0.009107587242920198,
                1.4876150145879412,
                0.17259542165671019,
                -0.03905775234425009,
                1.2477150469319214,
                1.7613485833568396,
                4.705732170792435,
                3.6757280577986418,
                0.1685581290749967,
                -1.5636079125759257,
                -0.9606967842071614,
                0.2652182602700595,
                -0.2743294528574546,
                -0.319570735345165,
                1.0869244462835361,
                1.214260131594918,
                0.9715445671994213,
                2.3419976474865236,
                0.7526630831118515,
                -0.8093883581410148,
                -0.3569443790424319,
                2.682371733145918,
                -0.7129772357041654,
                3.9815690096629903,
                -0.4374589291635193,
                -2.2838522190231303,
                0.500440505590901,
                0.0487867039772284,
                0.667068717849839,
                -0.06662650046526182,
                -0.20126828840397104,
                -0.9154012003598219,
                -0.7935843612290305,
                -1.2268256838566665,
                2.6058872730531357,
                1.1313570758445275,
                0.16272689496256873,
                0.18836935907605828,
                2.4996104639144017,
                1.901350327197002,
                1.2879734911161524,
                2.518966332758824,
                1.6888801738735462,
                0.19980417398974798,
                1.8882312867549087,
                0.8262860264320775,
                -0.6971916673568347,
                0.39131985550214876,
                1.2943570464275103,
                -0.7748916256100246,
                0.5039386641176435,
                -2.7639388128013094,
                -0.7437623877071139,
                0.5547841590188082,
                -2.638844651346106,
                1.089990627868455,
                -1.2238220985533972,
                -0.6326196300885103,
                -0.07457558110738328,
                0.5193948861319864,
                -0.7538719550428631,
                -0.6162874845655297,
                3.2505849295874283,
                3.4259498321482313,
                1.0444350592355016,
                0.5112721390964707,
                0.043387354002973305,
                0.0973742341255394,
                1.433852761687065,
                0.6055663456687018,
                2.2821710531962087,
                3.226039109094944,
                1.4220161732520218,
                1.4753147928115562,
                2.7505540888618336,
                -0.03635655086309393,
                -0.1948990146162318,
                -2.1217571327284044,
                -0.22026887091540054,
                -2.3593799722234685,
                -1.6132968766576055,
                -0.3749235202526035,
                -0.9603282182440122,
                0.6544463713803895,
                -1.0424791589983484,
                -2.1813410889239537,
                0.2821284526534837,
                -0.7812190834730116,
                -2.33737665832079,
                -0.23784408504392415,
                2.56759529502593,
                1.2921741367145478,
                1.380848120956275,
                0.9629397223207823,
                0.2835935545256246,
                2.15207667469134,
                0.5487344628632325,
                1.4355870197782108,
                1.054977691171356,
                1.3498490033239687,
                -0.09504338275259394,
                2.2350893696176364,
                0.5351459857096276,
                0.7420335650030035,
                -2.8907736503100914,
                2.9175829090922,
                0.7060756294183272,
                -1.1010590131075726,
                0.45240497115439854,
                -0.12282488794402091,
                -0.7195783254973313,
                0.3205923128193021,
                1.0236656397415624,
                2.0005820877360367,
                -0.8614401308948849,
                -0.11641885671661888,
                0.5013149606060219,
                1.616992799218185,
                2.073487604095841,
                0.5032000830254506,
                1.0517357663260918,
                1.3191968789097552,
                1.3942086776417668,
                -1.1556137359194059,
                2.965639129978801,
                0.5176944012663787,
                0.22516108295191525,
                -1.075775267955259,
                0.30249145693437485,
                2.0790716751016625,
                -0.13056001192827454,
                3.165762746572731,
                1.5009058019538997,
                0.21761052136197212,
                -1.223924597726011,
                -0.15485090540373825,
                -1.6629530681538256,
                -1.8258309730543656,
                0.21771292405202122,
                1.7147839535064076,
                -0.3658744876514894,
                0.26054607068613655,
                0.9223366594995995,
                1.25856702035389,
                1.1356275370913123,
                0.7303802809370574,
                -1.1295485189151153,
                2.2305293036835874,
                1.7615395732154533,
                2.7287210900451035,
                -0.1937472586670697,
                2.7065497826629445,
                0.1930278971554251,
                1.232245921545565,
                -0.053456141713202975,
                0.0854956629180593,
                0.5278235461130768,
                0.27840273088109435,
                0.06613175945528477,
                0.8566779242999751,
                -1.28342600031239,
                -2.5332668510024923,
                -1.384688568575058,
                -0.22814548125391063,
                -1.62038572843837,
                -0.7306810195189145,
                0.5438017097823576,
                -1.7855360540426692,
                1.133628193062538,
                -1.1894118312893736,
                -1.1701259820008445,
                -0.2506430047528524,
                -1.9789423499650867,
                -3.0898425676947525,
                -1.3285233853890093,
                -0.2287922627123691,
                0.4800686831186291,
                2.7003245919879713,
                1.2565227027404755,
                0.600347164016574,
                3.1428881674880134,
                1.5498347366937648,
                2.725735552556374,
                1.9271708308107753,
                0.8814561955805619,
                0.5636517533720682,
                0.743212581627393,
                0.9079687427332448,
                0.2174362448251328,
                -0.10416630823284063,
                0.7718768962508646,
                -1.047486790769437,
                -0.3850622507762977,
                -1.0209671929617046,
                0.792979267072389,
                -0.2272644048538223,
                -0.9125875504467484,
                0.15588628528874585,
                -0.10567659200279575,
                0.8959475984279252,
                0.2261109081258366,
                1.6277217477047732,
                0.12968977586372893,
                -0.8250134466965384,
                1.0372346527407135,
                1.1948154730667129,
                -0.3250674776357165,
                -0.17106021687075487,
                -0.2578952926905354,
                0.6107317906632942,
                1.6254277103677086,
                1.7103935019363365,
                -0.23819055070871845,
                0.06677588021136749,
                1.2718581635167767,
                2.5963855815515364,
                0.9703480346451641,
                1.1132145923613366,
                -0.399479826863536,
                0.9179281390998741,
                -0.9671816637073334,
                1.1737681940386335,
                0.37136206710491126,
                0.36655469424278647,
                -0.14443157149936403,
                -0.30189637705287276,
                0.3528392755725378,
                0.5095000508964641,
                0.2726154639692355,
                -0.3431688829511236,
                1.3153389946194596,
                -0.20863955939166554,
                -0.9926610776151475,
                0.3294105120889311,
                1.5719028023835988,
                -0.07937407246819113,
                -1.8235071323200598,
                -1.062199721782437,
                0.6052131973835558,
                1.3283657441727088,
                -0.6051484487883461,
                -0.6187609594785137,
                0.2890906106640065,
                0.9493445652399446,
                -0.6315506483855581,
                0.1541330868505149,
                -0.7282894980082093,
                -0.8707046091811779,
                -1.206226692474056,
                0.8596036623178066,
                0.07514704515729043,
                0.37745369599574224,
                -0.2018450931853769,
                0.5411346065872823
            ],
            [
                0.27567629977924063,
                -0.21099142279031832,
                -1.2714649659246844,
                0.8121212533662244,
                0.11111188600755607,
                0.039701308255033874,
                0.6297490369300953,
                0.3424131176749067,
                0.7456961906147849,
                -2.462864863208688,
                -2.0988736698226496,
                -0.30263566807335945,
                0.055005156659546195,
                1.779971323589814,
                1.2953119677335119,
                1.5382418945907552,
                -0.6535325992001519,
                -0.3314611110154613,
                -0.9120103706425351,
                0.13948311409247535,
                -1.2501914917223784,
                -0.7314541379827821,
                -2.227238536868716,
                -1.7062169842777253,
                0.6691866965199028,
                0.308836243103839,
                -0.44607504746490073,
                0.49715863681836653,
                -0.2353736068741927,
                0.5019383102070429,
                3.3863073715288023,
                -0.5227132079936541,
                -0.5641016318207899,
                1.9235851298144688,
                0.9098906887875119,
                -0.5054366717482666,
                -0.32388470556690163,
                -1.100714135164597,
                -0.34887114738814196,
                -0.10954460387310447,
                2.061374076677029,
                -0.13419443534139863,
                0.42275601306918265,
                1.1186923003241325,
                -0.5675834049847673,
                -2.25530716738337,
                0.8191972675904053,
                -1.5437465815744589,
                0.6689067354528517,
                -0.07716838819063296,
                0.9502555063413655,
                -1.0499841504298677,
                0.34626077429511537,
                -1.6238581921718651,
                0.7555384497541459,
                0.025643393896863452,
                0.9715626623901681,
                -0.4082391835650644,
                -0.01617062978564397,
                1.3974250632702832,
                -0.3819461537362033,
                1.2174813628472163,
                -0.36047557994524043,
                -0.018463931538238988,
                -1.0899794357236168,
                0.400940675894646,
                0.5865757460143559,
                0.13755324729939764,
                1.4799672296440545,
                0.33091173652463485,
                0.688086681011697,
                1.0786793423204728,
                2.685993605366903,
                1.4139775447076768,
                0.905095682939077,
                1.6261364082552625,
                2.0908650968757803,
                0.4839603505191962,
                2.344063564081681,
                0.6274593344394814,
                -0.9380465365645069,
                -1.0788811359520625,
                -0.7759062907303571,
                -1.084333871543817,
                -1.4506584182584137,
                0.0029504459958418212,
                0.26649949786116767,
                0.315315594003075,
                -0.06581048721423548,
                -0.887303854466016,
                0.04148007549513029,
                -1.7433018014411699,
                -0.24198096371705485,
                -2.627507413426007,
                -1.5665866826954171,
                -3.158661185048847,
                -0.08544807965402895,
                -0.5814811553982272,
                0.38114679336601165,
                0.35288313737133936,
                0.2368482336426788,
                2.0463717439964646,
                2.2090486239068023,
                2.2118730132324846,
                3.6723875244006075,
                3.3016194047496428,
                1.7208192587055153,
                1.3841847067246542,
                1.441245260790694,
                -0.23612378389780583,
                -0.9204768948698032,
                -1.6588155137594158,
                0.5441174145986111,
                1.570402916560917,
                -0.7492120972590851,
                -0.9757371335249344,
                0.8454034758582766,
                -0.281556334097938,
                -1.0425085159326686,
                -1.3786182654911807,
                -3.3176299640203153,
                -0.9072370362307067,
                -2.366646027832774,
                -1.211355154951933,
                -0.41816883622740514,
                -1.5049237365924693,
                -1.4482152150365364,
                0.47399834061677515,
                -0.34210067927822374,
                0.5237146940607241,
                0.26436593547060394,
                0.18256682479837705,
                -0.6479581494015225,
                1.3681501132279446,
                1.9128057031056704,
                2.948802062693166,
                0.4540322953493736,
                -0.39819207289236636,
                0.7406101317898581,
                -1.8345901023511595,
                -2.104449103691869,
                -1.2343661050123733,
                -0.12109441560852933,
                0.16264818664183747,
                -0.710994155672614,
                -1.6086921420145572,
                -0.8871576438141456,
                -1.2100223967655275,
                -1.8471690708629607,
                1.1656017480042948,
                0.7508943937604942,
                0.3134916644212327,
                -2.425091976750816,
                -0.4147968451118796,
                -0.5470434697218247,
                -0.03837993407898589,
                -1.340832615248067,
                0.9072721492374913,
                0.0719062846028368,
                0.0944158948912101,
                1.2298064585882211,
                0.31576613399367837,
                1.1145930981509506,
                -0.5341250493326618,
                0.28942724761847466,
                1.894343432503083,
                -0.2452968733906754,
                1.2561622243003208,
                0.9756950574892962,
                0.09573299656257228,
                -0.5741691670367058,
                -2.979812623865219,
                -0.9969445767112702,
                -3.4012855973995864,
                -1.8419084533062462,
                -0.006152756928812304,
                -0.44003559333146297,
                -0.3810198157325328,
                -2.2120164740627497,
                0.6074951115562671,
                0.14498417754536852,
                -1.560660281058562,
                -0.006115797604263236,
                -0.22130548589009355,
                -1.4365238763324315,
                0.15330925183259392,
                0.6167941032667732,
                -0.04688544777908737,
                -0.4544070076924029,
                0.04436534392522419,
                -0.32293955675350283,
                1.1365367537172257,
                0.44366505380000837,
                0.4846809063337986,
                0.28057058406113017,
                1.8223917770248246,
                -0.6202969657253825,
                -0.7715789346252545,
                0.16389065313906404,
                -1.7780067635284114,
                -2.3326585005204383,
                -2.561305827219929,
                0.21992288306794935,
                -0.3702908929101909,
                -0.10880302220713182,
                -1.3287290299654855,
                0.19315655132364912,
                -0.9923495894682745,
                0.9566111988896292,
                0.20964922259451177,
                0.650247534176417,
                -0.13904827127178745,
                0.10696157452375026,
                0.2547527696996812,
                0.17807361050417272,
                0.490265325408242,
                2.665254567197379,
