{
    "biases":[
        [
            [
                1.3255307753612078
            ],
            [
                0.4683088768982868
            ],
            [
                0.6857348093922659
            ],
            [
                3.27433345905132
            ],
            [
                1.2968909208496995
            ],
            [
                -1.211593856022646
            ],
            [
                -0.7218745532802311
            ],
            [
                -0.6762038698124622
            ],
            [
                -0.4572340017933499
            ],
            [
                1.1354660378086856
            ],
            [
                -0.4783695209769946
            ],
            [
                0.6293551779846835
            ],
            [
                0.28328339600840285
            ],
            [
                0.062240936625551115
            ],
            [
                -0.18255302887039757
            ],
            [
                -1.6056483716367955
            ],
            [
                1.7781429246529414
            ],
            [
                -0.06887794195611366
            ],
            [
                -1.5474686625560448
            ],
            [
                -0.9203589811014904
            ],
            [
                -2.5977062932693733
            ],
            [
                0.28424461419307395
            ],
            [
                -0.14185791031357087
            ],
            [
                -1.3755701968565237
            ],
            [
                2.321048289615705
            ],
            [
                -2.1377367856696385
            ],
            [
                -1.60740156147315
            ],
            [
                -3.203803976156345
            ],
            [
                0.21279675806111964
            ],
            [
                1.5958768163538763
            ],
            [
                -0.01262313640295396
            ],
            [
                -1.3003449506111349
            ],
            [
                -1.833657014647286
            ],
            [
                -3.3249962205898993
            ],
            [
                0.9305191030993302
            ],
            [
                -0.7861670952756875
            ],
            [
                1.7424431898612425
            ],
            [
                1.1795844199313414
            ],
            [
                -2.230450658626116
            ],
            [
                -0.9106416039923722
            ],
            [
                -2.3867220042068493
            ],
            [
                -2.5234351808293773
            ],
            [
                -1.5541243189360787
            ],
            [
                1.7696046035342003
            ],
            [
                0.9295653774811886
            ],
            [
                0.7735940602181035
            ],
            [
                -1.2516777026386274
            ],
            [
                0.2733045336714751
            ],
            [
                -2.8687182980112715
            ],
            [
                0.26252159226987926
            ],
            [
                -2.3357476702919406
            ],
            [
                -1.0927956638384495
            ],
            [
                -0.99125437078305
            ],
            [
                -2.310554345141858
            ],
            [
                -1.9321667403061495
            ],
            [
                -0.3601307120498174
            ],
            [
                0.4185177594828856
            ],
            [
                0.8155098591026105
            ],
            [
                -1.629181365430288
            ],
            [
                -0.3635008065271273
            ],
            [
                -0.8343428175538015
            ],
            [
                -0.43716696966075286
            ],
            [
                -0.6340648557464759
            ],
            [
                -2.33807363716681
            ],
            [
                -1.0350997456805893
            ],
            [
                -0.5150153200420243
            ],
            [
                -2.613322214854898
            ],
            [
                0.0915294664588694
            ],
            [
                1.1739760730333522
            ],
            [
                0.1271603172135138
            ],
            [
                1.1106467756522351
            ],
            [
                1.1389995011004945
            ],
            [
                2.7105524032560075
            ],
            [
                -2.6835517758098764
            ],
            [
                -0.025749621321454155
            ],
            [
                -0.7373889229106294
            ],
            [
                -2.597029960723098
            ],
            [
                0.5606346769342209
            ],
            [
                -1.1560510689838397
            ],
            [
                -0.4555136653881043
            ],
            [
                -1.0130470938082508
            ],
            [
                0.48229186327754836
            ],
            [
                -0.10561010523443688
            ],
            [
                -2.0722181724375317
            ],
            [
                0.6559907750339538
            ],
            [
                2.514483327622184
            ],
            [
                0.6312020867930616
            ],
            [
                -0.8382161433375955
            ],
            [
                -0.6234901651597606
            ],
            [
                1.3073006287867943
            ],
            [
                -1.4720270648878921
            ],
            [
                1.8794675569920867
            ],
            [
                0.43594527962882546
            ],
            [
                0.2521836518914936
            ],
            [
                0.45760609613996384
            ],
            [
                1.0252534899759709
            ],
            [
                -0.7791574309646434
            ],
            [
                1.7752906177457324
            ],
            [
                -1.2427765699254933
            ],
            [
                -0.7021409889805942
            ]
        ],
        [
            [
                0.5573583304713219
            ],
            [
                -1.3102146572318116
            ],
            [
                -3.6907841346096344
            ],
            [
                -0.23540033837392443
            ],
            [
                -2.3849182628895886
            ],
            [
                1.085273833218171
            ],
            [
                -2.0193037126756623
            ],
            [
                -1.493270080309093
            ],
            [
                1.1906097173434511
            ],
            [
                -0.4378004135258099
            ]
        ]
    ],
    "epochs":30,
    "eta":3,
    "layers":[
        784,
        100,
        10
    ],
    "mini_batch_size":10,
    "weights":[
        [
            [
                1.8675589604265699,
                0.9060446582753853,
                -0.8612256850547025,
                1.9100649530990337,
                -0.2680033709513804,
                0.8024563957963952,
                0.947251967773748,
                -0.1550100930908342,
                0.6140793703460803,
                0.9222066715665268,
                0.37642553115562943,
                -1.0994007905841945,
                0.298237587968868,
                1.3263846111801612,
                -0.6945678617895913,
                -0.1496345404134303,
                -0.43515355172163744,
                1.8492637284793418,
                0.6722947570124355,
                0.40746183624111043,
                -0.7699160744453164,
                0.5392491912918173,
                -0.6743326606573761,
                0.03183055827435118,
                -0.635846078378881,
                0.6764332949464997,
                0.5765908166149409,
                -0.20829875557799488,
                0.3960067126616453,
                -1.0930615087305058,
                -1.4912575927056055,
                0.4393917012645369,
                0.16667349537312925,
                0.6350313532830957,
                2.383146539576666,
                0.9445058650235355,
                -0.9127344594938265,
                1.1170222555393239,
                -1.3158561503736228,
                -0.4624180613348844,
                -0.07012490556543695,
                1.712391002518663,
                -0.7447686710605962,
                -0.8288799863153329,
                -0.10197470507361504,
                -0.6628284066705992,
                1.1309528175650694,
                -1.0771035048554927,
                -1.1474682053898002,
                -0.4378201126652344,
                -0.4980265583417973,
                1.9295406067157945,
                0.9494208069257608,
                0.0875512413851909,
                -1.225435518830168,
                0.8443629764015471,
                -1.0002153473895647,
                -1.5447710967776116,
                1.1880298008543346,
                0.3169429561327879,
                0.9208605209935959,
                0.3187564032764186,
                0.857323844540904,
                -0.6496877302022539,
                -1.033114158457871,
                0.6837911624056431,
                -0.8053001579105182,
                -0.6924460114589401,
                -0.44806364295829926,
                0.013329550432975778,
                -0.3608190752431832,
                -1.376362667206781,
                -0.6379851369812365,
                -2.2049943173040467,
                0.6461589977179591,
                -1.5872699706706288,
                -1.1019012400574297,
                0.05475993332744242,
                -0.7330113519446682,
                1.5483983539992932,
                -1.2925438868063974,
                0.2670508684666809,
                -0.0392828182274956,
                -1.1680934977411974,
                0.5232766605317537,
                -0.1715463312222481,
                0.7717905685387545,
                0.8235068290957305,
                2.163238921045196,
                1.3366236380093213,
                -0.3694564388235193,
                -0.2393309755039923,
                1.099074129357259,
                0.6497845150925909,
                0.6197896591614498,
                -1.6079761101267749,
                0.015615659782820526,
                -0.7326787387503967,
                0.2897918369170765,
                -0.09397043625251447,
                0.9444713804549012,
                0.34102318259716596,
                0.7641263208042,
                -0.5038492702423509,
                -0.990541497955215,
                -0.4435060311489421,
                -0.04811874831658087,
                0.38174797438398006,
                2.2592464561480754,
                -0.04246463176836108,
                -0.9559628024511904,
                -0.34598177569938643,
                -0.4635959746460942,
                0.48148147377346084,
                -1.5407970196241283,
                0.06345344436470787,
                0.15715023780576073,
                0.23402784704238835,
                -0.5976598601455692,
                -0.2381847675223456,
                -1.4171384969733893,
                -0.513183405219131,
                -0.51453788051783,
                0.41751631114519483,
                -1.125385434045382,
                0.7484210969602899,
                1.4439107359912329,
                -2.0660873957309587,
                0.42254899333949647,
                0.574055029005762,
                -0.7802601247915509,
                -0.5063809881312189,
                -0.22941765356214538,
                -0.3760985043999537,
                -0.3667568672060853,
                -1.691883598207362,
                1.1399695680766209,
                1.0810558050410823,
                -0.8126259904356137,
                -1.466411368776705,
                0.5210648764527586,
                -0.5757879698130661,
                0.1419520924852776,
                -0.31773654936622764,
                0.7030838691237913,
                0.7635532390936022,
                -0.653837501131469,
                -1.352196546160892,
                -1.5509797565487928,
                0.6975717048533793,
                -1.1594543404259163,
                -0.6667779476008056,
                -0.9060702965275041,
                -0.4039044281659321,
                -2.200211795296935,
                -0.0386826307013095,
                0.3270698468629905,
                -0.0831731308555726,
                -0.4782314433933225,
                -0.02955388097683585,
                0.32564951199940534,
                -2.8225485484394865,
                1.9305892330446888,
                0.3643473531516145,
                -0.6700811286879377,
                -0.39593785046182534,
                0.49419294098115996,
                -0.11608478491151762,
                -2.0306844677814944,
                2.0644928613195455,
                -0.11026212669283932,
                1.0223129041694372,
                -0.6686712770495431,
                1.6305845486761368,
                0.4248506418085067,
                0.6498488408188802,
                -1.0823575235384197,
                1.198158925518692,
                0.48977383616902037,
                0.9375470672118463,
                -1.059817734478719,
                -0.9858394828847338,
                1.8919071876242657,
                -1.4163426790631155,
                -0.23219074147455568,
                1.115882194610966,
                0.13288216289397092,
                0.5996218888077818,
                -0.4633200497707281,
                0.2920731251507489,
                -1.3190659581258455,
                1.641358020682371,
                -0.11893771419583503,
                -0.6807364973066278,
                0.6698445605121328,
                -0.46071966110176427,
                -1.3342584714025665,
                -1.3467040954606406,
                0.6959815908918429,
                -0.1675453412583576,
                -0.1325144519794749,
                1.1835724121132163,
                -0.9400242732227704,
                -0.6600843091782389,
                -0.44275336533490095,
                0.02131531059946812,
                -0.22010686894592194,
                -0.45874932415206693,
                -0.237643234562307,
                -0.4293065570840437,
                -1.032446746073398,
                -1.1136841580518932,
                0.19142381971776642,
                -0.9319049140838651,
                -1.1606372409876404,
                -0.234618207283151,
                -0.09290182709925959,
                2.1879545497740054,
                -0.703375323110341,
                0.9300347146927371,
                0.7571500507037984,
                -1.1970446116096212,
                0.7650851240785175,
                -1.183882592053137,
                -2.659172703601286,
                0.6062682231899834,
                -1.7558410843156522,
                0.4379586622330648,
                -0.6618150051276892,
                1.7981281668393523,
                1.2468814578214804,
                -0.4429420572262125,
                -0.6351265658059848,
                -1.1889937294568442,
                -0.5864014760664779,
                -0.3998776441244351,
                -0.6019346970570261,
                -0.10501548010066213,
                0.35849832240401336,
                0.06930315707754772,
                -0.8040876259357319,
                -1.5154513689725146,
                1.3787082641628265,
                -0.5670275288135468,
                -0.5181568957345596,
                -0.5429895292900121,
                -1.8700027625230462,
                -0.5067740668011826,
                -0.48140562725300234,
                0.6074181742698463,
                0.6840385848055158,
                0.0037667480866582525,
                0.9318047258621813,
                0.33979639619650986,
                -0.014036056059210747,
                0.14677833962871073,
                -0.16401694849962833,
                -0.2641979682939663,
                -0.2062533931406505,
                -1.149687525329667,
                0.3377184859357587,
                -1.0751220972821485,
                0.7070875892909407,
                -0.46016688526957766,
                -0.24610810583427162,
                0.2231988241299265,
                0.4800406992482685,
                -1.7518592562393964,
                -0.38580563230562365,
                0.7299411982057337,
                -1.6356636001656393,
                0.4834662492830064,
                -2.199979943333895,
                -1.0811485210288219,
                -0.022925131763825383,
                -1.673847540150436,
                -0.9941383008628681,
                -1.4939176877486948,
                1.629031861414009,
                0.16202227193100416,
                0.5671851864600534,
                -0.22334726829353116,
                -0.3514507407188875,
                -1.614419172125284,
                -0.21652364568827737,
                -0.628888480289366,
                0.9371688671764997,
                1.2189889899806452,
                1.5151795473018597,
                0.8165960731836474,
                -0.6477432541465423,
                -1.3309652304356463,
                0.5556439243020899,
                0.20137076511907978,
                -1.899214290915105,
                0.19491286165340416,
                0.5758250599837982,
                -0.031928586760584854,
                -0.11869324871959877,
                -0.8416833416821289,
                -1.5020286215485983,
                0.7423786527308804,
                -0.3707458925060687,
                -0.2403676136863801,
                1.7241996859600761,
                0.6669656825175752,
                0.3683565025997561,
                0.1414714732724876,
                1.5199635868471058,
                1.7202523074766387,
                0.9285268258704691,
                0.5948593327454815,
                -2.0223952700574603,
                0.29595899965468175,
                0.07166698943282011,
                0.17390619931339701,
                1.0807466572898665,
                -2.6207132576140166,
                -0.6327951427391868,
                0.12517824654368923,
                -0.5229268747453598,
                -1.4868843366396132,
                0.7094893245644801,
                0.06415654328805886,
                -1.1238311155931306,
                0.17804853922967556,
                0.8547899843501975,
                -0.09496348724014282,
                0.6908234694448413,
                0.14278302907283946,
                -0.34263008041910137,
                -1.1190468850588158,
                -0.051968851582664594,
                0.2211283392746946,
                0.8885348642656391,
                -0.1180446294183089,
                0.4574157764021245,
                -0.9656531746007914,
                -0.7845803370800231,
                -0.1125970240898256,
                -1.0710582060865212,
                0.8811268853519397,
                0.6627757190950863,
                0.31305680762701427,
                0.48017949446598746,
                2.216385383906244,
                -0.37751873830833305,
                -2.1157831724238854,
                0.2877963294441323,
                -0.09040406205562955,
                -0.8464766871909974,
                -1.23391985714696,
                -0.5733242591702749,
                0.10207797729576396,
                -0.4727023317106587,
                2.353558790149159,
                -1.0349915431902392,
                -0.7077596089571075,
                -2.2656825003846226,
                0.2553109434921543,
                -2.0104110580674597,
                -0.538465919972414,
                -0.3016683879502103,
                -0.7206629293003488,
                1.7388726766503257,
                0.9915492871457666,
                1.3175048974249959,
                -0.8843957973790246,
                1.1046894677765582,
                0.5226171242878461,
                0.9317101297623285,
                1.0771534492378294,
                -0.6929693781869375,
                -0.1962880891041488,
                1.0018072271461358,
                -2.537231925381327,
                1.573898600034091,
                0.38760873978312604,
                -0.4121523836224082,
                0.12187408648964797,
                -1.0218376948193675,
                -0.3414925989962093,
                1.1541244767904464,
                1.4039124945706856,
                2.6270785185710843,
                -0.09049207382664394,
                -0.6271780427654845,
                -0.47121882774211704,
                -0.9845756249609959,
                -0.05311692859736385,
                0.37361750756857515,
                -0.034263914658205656,
                1.0963468461131487,
                -0.23639306288234363,
                -0.3502555556045677,
                -0.582929025628803,
                -1.6212117644668933,
                -1.5271320133580644,
                -1.1261357205576463,
                1.3013263082356061,
                1.075585977630043,
                1.5665836677281193,
                -1.239626189544841,
                -1.884159090719303,
                -0.6041093762984555,
                -0.028617066706037583,
                0.2321834178373973,
                0.9637542500609383,
                0.18576759505508134,
                1.7120754570650296,
                -0.18583134922436295,
                -0.8129820636745573,
                -1.7775680569717964,
                -0.9459895299396232,
                0.27472070035096124,
                -0.8655889365173649,
                1.003123430918369,
                1.4606224588389523,
                -2.3696201122390823,
                0.8640520137130534,
                -2.2396040534203405,
                0.40144233264902085,
                1.224242620446091,
                0.06573707238855452,
                -1.252254752335214,
                -0.5765628721470031,
                -0.2602284986554801,
                -0.31190771483287144,
                -0.26020095582427744,
                -0.026699905520810547,
                0.2826019557828319,
                -1.1565103698674053,
                -0.22763199184035243,
                1.2735671353955458,
                -0.7555325530135147,
                -0.7006897275068376,
                0.9269312206147204,
                -2.47891672737493,
                1.3589280393251595,
                -0.6097734307250889,
                0.017483984397302782,
                -0.07861018821593514,
                0.9211770582109212,
                -0.23086953049878503,
                -0.6312908853504623,
                1.3340072875351694,
                -2.364177754396522,
                0.02033411713922913,
                -1.3479253935152888,
                -0.7616002536069556,
                2.0111488377683386,
                -0.04405871414192523,
                0.22436915174893843,
                -1.7704555402556974,
                -0.7200336613702386,
                0.09967779586674584,
                0.13171121781115486,
                0.42448432911282274,
                -0.16877666738743968,
                0.38521395544881676,
                0.1980116934662174,
                -2.2934707616385124,
                -0.4453357287601787,
                0.4137950778465092,
                0.518087574863672,
                -0.20573976514930334,
                -0.5975884977624959,
                -1.0349405531673705,
                -0.2315464592055613,
                0.978280253990828,
                -2.0069163923474203,
                -0.6424922819364245,
                -1.0993494016953955,
                0.8085196787419472,
                -0.5543260700187421,
                -0.4706377472258042,
                -0.216949569936649,
                0.44538396070238456,
                -0.3932107929536756,
                -3.0483526701373007,
                0.5688334961558912,
                0.4563125753340362,
                -0.2194233107014296,
                -1.1631921801210152,
                0.175419180231109,
                0.3009776885389724,
                -0.573363088302485,
                -0.3636323047403918,
                -1.2114549829738028,
                -0.6137777773233182,
                -1.959029338698829,
                0.1352947197135504,
                -1.0280827099825682,
                0.4423510189998589,
                -1.1918644583712372,
                -0.5163697562487938,
                -0.15729324129743918,
                -1.764632846071117,
                0.07515345082516957,
                -0.3445447787198689,
                -1.7181192607309472,
                -1.293836881577653,
                0.6035344595695583,
                0.893431427527995,
                -0.1319167077174603,
                0.4047618118884644,
                0.22114235478198435,
                0.3224460392632198,
                1.3031245103508067,
                -1.4901566383997562,
                0.7068109485451207,
                -0.47745607035535015,
                -0.39528891271135336,
                -0.3928085853917566,
                -0.4479767549575399,
                -1.3776454110697107,
                -0.035168510318441606,
                1.3508744538106139,
                -0.3565289925319871,
                -0.1507353211939738,
                -0.5764049716763181,
                0.1137771115192519,
                0.6758347224107965,
                -0.3170586245321967,
                -0.5516618629522179,
                0.3379038628365509,
                -0.9062024724077793,
                0.28065486601635503,
                0.8081105887552839,
                1.3463323608196796,
                -0.09740027994859056,
                1.3628801800891173,
                1.0344098860019746,
                -0.9962126541922816,
                -1.2200604021939214,
                -0.3074994759687473,
                1.0216248444149834,
                -0.07576046771692783,
                -0.5852420002199079,
                1.4491028374758976,
                0.13973374897693505,
                -2.501406802699188,
                0.10612150368395264,
                0.24834037696162975,
                -0.060840547876519886,
                0.1739290450029161,
                -0.1797771235002375,
                -1.349052357369413,
                -0.1328085030234646,
                -0.7296521314207924,
                -0.8333086975008237,
                -1.233260688353032,
                0.38360362928437997,
                0.06572062513281375,
                -0.42746000059235806,
                -0.6538528984218743,
                -0.0492420811534494,
                1.0749635093903798,
                -2.004626537330912,
                0.37687653990019204,
                -0.5457119740177824,
                -1.8845886353371364,
                -1.9468700614462968,
                -0.9155624801380888,
                0.1744968624802378,
                0.34436360085394224,
                -0.960312704914125,
                0.8591930474921694,
                1.244042789106083,
                0.2139180257323,
                -0.8913743660854048,
                0.8083723737852011,
                0.47324904963270886,
                0.6908837815792109,
                -0.6617724873753306,
                -2.743966253628113,
                2.3260898192738,
                -1.3560467916674819,
                0.07452052831471091,
                2.4223609688723973,
                0.24996963363268557,
                0.9463340129400309,
                -1.4844535415584579,
                -1.7718226663422028,
                -0.5463043826651551,
                1.083698695311353,
                -0.3462500204739986,
                -0.7946357563522302,
                0.19796728746137332,
                1.0819300754095058,
                -1.4449592417676917,
                -1.2111744314291464,
                -0.803838724234454,
                1.0737307009008437,
                0.18140673359388482,
                1.9737366346503098,
                0.7678527348260459,
                -0.23954484566399545,
                0.9714038431541869,
                -0.039750132572290535,
                -0.849794657480715,
                0.6027041814309372,
                -0.6752058172439097,
                -0.2106033672094153,
                1.5010595987577449,
                0.17850881893552079,
                -0.7664240419630495,
                -0.5039529619438391,
                0.945902304281019,
                -0.5290808016371484,
                -0.3613060402312457,
                -0.47976787862672504,
                0.20989069946072555,
                -0.37550617170131845,
                -1.6018362208346015,
                -0.8871809418450403,
                -0.9327890439124199,
                1.2433193836790313,
                0.812667195066582,
                0.5870515293404107,
                -0.5054644952196349,
                -0.8090318243321237,
                -0.5330035083119142,
                -1.1643567972846476,
                2.2747028777057645,
                -2.493003063315495,
                0.36934344992794943,
                -1.447434497154147,
                -0.22104957843189038,
                -1.1092107887961704,
                -1.3037605320965622,
                -1.1925396642399946,
                1.7640722413578618,
                -0.0462289438810476,
                -0.8205412442952363,
                0.4489924642697135,
                -0.007893620591083955,
                0.7306928667450293,
                -1.8244651725879455,
                0.3236715241435917,
                0.8121346752275116,
                -1.6356344836349197,
                0.44819528652005497,
                1.6961815728281606,
                -0.014857703354702717,
                0.8214059370248112,
                0.6705704436811485,
                -0.7084854675501432,
                0.03921658356425424,
                -1.5715021260155788,
                -0.44933917955094826,
                0.2209235427561159,
                0.5829103933050799,
                -0.14706430496065281,
                0.5616044244944641,
                -1.2481509117529979,
                -0.2082155467761029,
                -0.13528991274199778,
                1.7000173120729742,
                -0.2807826040437662,
                -0.4791205274561575,
                0.22466722582686063,
                -0.8806039908928472,
                0.13356078816476402,
                -0.37606984230738455,
                -1.749728134085187,
                -0.05410001301588154,
                -0.3394044026130028,
                -1.622781256754369,
                -0.06599172912830727,
                1.4893547355514787,
                0.5213037482757137,
                0.6119271927311578,
                -1.3414967255830426,
                0.4768983718876877,
                0.1479515219489779,
                0.5284564343173378,
                0.41142976621956184,
                -1.3600896283305393,
                -0.06460386908764315,
                -0.7967700789249442,
                -0.11352000705748216,
                -0.9927325130206355,
                1.212812403925435,
                -0.9181376609260732,
                -0.9334518882272981,
                0.04702065377243195,
                -1.0543074209485908,
                -0.30845899734834914,
                -0.590385543023626,
                1.4430090244395337,
                0.7707478972553964,
                -0.13236771411195972,
                -0.42862175586914825,
                0.9368472173942133,
                0.3702898086072354,
                0.49292358025017063,
                -0.026192322156906023,
                -1.6882300278309426,
                -0.11246598255955272,
                -0.5324899192090677,
                0.6450552734598769,
                1.0118424329686573,
                -0.6578781110083789,
                0.46708253323906135,
                1.7297060954524481,
                -0.6764992936289016,
                1.671020056664896,
                -0.8692783896277939,
                0.003954194009032663,
                -0.038675016743175146,
                0.0010464347583170003,
                -0.8301664501878917,
                -0.6014831048252417,
                -0.676081022612117,
                0.2909911980287589,
                0.3853336235179318,
                2.2640293115408348,
                1.4207909947065565,
                -0.5275231259434132,
                0.2506349273551453,
                0.9854886597106929,
                0.051938470786135324,
                -0.06449111356168222,
                0.051607502805992606,
                0.8672769302050718,
                -0.8483205228261466,
                -0.32566946882017417,
                0.47043314484648185,
                0.3114470715541555,
                0.23958275985639133,
                -0.3698011675706165,
                0.9722630098711024,
                2.13388689213559,
                0.4065669378485994,
                -0.19497533443106213,
                0.7467469553535504,
                -0.5545371098308925,
                -0.7625662117267545,
                0.025192281851442715,
                -2.583048424491362,
                -1.1621052182673333,
                -0.3481553696938486,
                -1.4528413369275426,
                -1.195654768317335,
                -0.5240724810637604,
                -1.672984114581402,
                -0.3684573133308917,
                -0.529376559989119,
                0.007179934450293943,
                1.1546726070041624,
                0.16939218089368244,
                0.02106202163867466,
                0.09945445704145513,
                0.22739277512112846,
                -1.016738648609769,
                -0.11477532477079817,
                0.3087512418366131,
                -1.3707599825430605,
                0.8656529228158533,
                1.0808983138560975,
                -0.6337364431472439,
                -0.24318874804200274,
                -0.8790349756689264,
                0.6988264536167166,
                -1.061334298894749,
                -0.22249763042739149,
                -0.858932544461674,
                0.05096249610361927,
                -1.7937305045126566,
                1.3252874970913673,
                -0.9663014112424037,
                0.05744707490590174,
                -0.22864031596942486,
                -0.777822579928976,
                -0.8881203086028763,
                0.9360836760292233,
                -0.5302853102249703,
                0.2749110080427779,
                -0.7995867742197126,
                -0.6471814318477607,
                0.47224715008784873,
                0.9304084961111163,
                -0.17531640232701995
            ],
            [
                -1.4219198716404369,
                1.9979560797500047,
                -0.8565493082342095,
                -1.5415873996717875,
                2.594424587768152,
                -0.40403229385093714,
                -1.4617326882614081,
                -0.6834397667886818,
                0.36754489602226903,
                0.1903115575939397,
                -0.85172919725359,
                1.8227236001279594,
                -0.5215652241046042,
                -1.1846887308768872,
                0.9606557972147515,
                1.3290612798211034,
                -0.8174930976162265,
                -1.4013472930393105,
                1.0304382674156047,
                -2.0473236130579617,
                -1.2266216593966155,
                0.967446150050235,
                -0.05535254802238957,
                -0.26393734859268786,
                0.35281660649437835,
                -0.15277442354540868,
                -1.2986867221630902,
                1.2760753460061875,
                1.3250140528868153,
                0.2053325637779597,
                0.045134015432010274,
                2.339624806020058,
                -0.2764328446342774,
                -0.2595769870820875,
                0.35719548689971425,
                1.4592141249930057,
                1.5744867354103458,
                -0.27328132067542477,
                0.26138185233585737,
                -1.4249653008947207,
                -0.34592689340476757,
                -0.927637811902741,
                -1.0453177190503278,
                1.7006988590622967,
                -0.7985319288170429,
                -0.5309548119692584,
                0.2830197312015028,
                1.1265483914691226,
                0.43056544400833585,
                2.744864752168128,
                -0.10297895837636555,
                0.242073306037677,
                0.27560067398405635,
                1.4350493867891545,
                0.5072389511096153,
                -0.1162297003871491,
                -0.9474885949068795,
                0.24444345596163258,
                1.4012359036463633,
                -0.4103711110892461,
                0.5289262628675182,
                0.24612780664165046,
                0.8551737953044452,
                -0.8391495168619609,
                2.3132629141051555,
                -1.3067200567919774,
                -0.3821014745345185,
                0.9306921994807619,
                0.2785421933570255,
                0.8270923263916504,
                -0.3693240750512778,
                0.15899523554674685,
                0.18752928206311825,
                1.490954335693857,
                0.4844559293917266,
                0.8656709309397782,
                -0.5658350683146951,
                0.954188078556043,
                0.1546580888193909,
                1.3431305429710672,
                2.0132597771251075,
                -0.30676573642597915,
                -0.40630313044506255,
                -0.8640449911023695,
                -0.14357951171632055,
                -0.3820254489503836,
                0.3641261763859098,
                -0.14335789816764796,
                -0.36790913154556476,
                1.0596658176317137,
                -0.9430496248360203,
                0.4197547144985962,
                -0.4080584232731041,
                0.7651690220449356,
                1.447258632746599,
                -0.3134660010151065,
                0.5163654790618095,
                0.40344519849845356,
                -0.5810476474114351,
                0.5749457969350579,
                0.5973553507839284,
                0.6038131180855117,
                -0.09301744795442096,
                0.044482389221922804,
                -1.1458536350886064,
                -0.3445125932135466,
                0.524076649411986,
                0.7959931578338706,
                -0.4181202789497299,
                0.10476061033260788,
                0.2280533450486429,
                0.20147994670443287,
                0.5407735853003902,
                -1.8180776303835688,
                -0.03265554338838018,
                0.24416124375248602,
                -1.0083833663752912,
                1.664859936970159,
                0.1624858878637181,
                1.5498300048761817,
                -0.7465852361175056,
                -0.7077325394063004,
                0.4258333515355186,
                -1.4813085142616618,
                0.24430950026045944,
                0.4033624086777344,
                1.2721300691569433,
                1.0309192979061577,
                -0.40221889170093356,
                -1.4801382384078376,
                1.6381102711095898,
                -0.7168318069707419,
                -0.9738342343891913,
                -0.9336457018802585,
                1.2649822893598048,
                -0.48891446145226536,
                -0.7097400004421922,
                0.13946735938063032,
                -0.20694913298589016,
                -0.6780954607099842,
                0.7539914669784796,
                1.0653154920979948,
                0.9876440797620345,
                0.7715435704653255,
                0.3772196796874868,
                -1.7916332500968708,
                1.7028850919681577,
                0.3324283799684637,
                0.7734735334996649,
                1.4112534631526537,
                1.7674946111775856,
                0.6147937307142921,
                0.34948723743775734,
                -0.44105062896736213,
                0.5081805030845016,
                -0.7101047054633735,
                -1.085125200489408,
                -0.9558704721214946,
                -0.14342734584777792,
                1.100330246278867,
                3.3907932918675856,
                0.37019272412433435,
                -1.1192961751337982,
                1.469554760989723,
                -0.18037271051250378,
                -0.5681995065331062,
                0.2725474922007421,
                -1.2406245995224197,
                0.22246316400860677,
                -0.08836986889434235,
                0.09730083238226117,
                0.40155174502435725,
                0.10315777815959823,
                0.06015050608032901,
                0.3356984347069249,
                0.5110063464888672,
                -0.9146958498370859,
                -1.1550983405351165,
                -0.008854395137003028,
                -1.766717289018779,
                -0.07494827297559356,
                0.8685519184468327,
                0.568244423871582,
                -1.17934937713245,
                -1.0148840556992051,
                0.44841322809432416,
                -0.44067148207707135,
                -0.05992721439397428,
                0.8102308087213078,
                -0.7946786987519884,
                -0.05602644229332978,
                -0.518863207464978,
                -0.8766775901170037,
                -0.700202659583969,
                0.7829137275479013,
                0.05182044179848381,
                -0.8791606288360795,
                -0.23089526588443457,
                -1.6370178822221566,
                -0.6363645991950705,
                2.1847284201342982,
                -0.11635200332208465,
                0.7918323155823631,
                0.23893595415914012,
                0.43310198681187306,
                0.7488210110487338,
                -0.9467367930286609,
                0.11655300831706057,
                1.2815179595830553,
                -0.784469510995977,
                -0.8936456988079899,
                -1.062051267281047,
                0.32834257780432075,
                0.7163808979308738,
                1.1956985974616896,
                0.6705713036722557,
                -0.017767872807349663,
                1.3097718850434934,
                1.1154070084593253,
                -1.1597604262425385,
                2.618494825548468,
                1.8641108284909773,
                -0.14503611688786405,
                0.377910138085262,
                1.3243699420500348,
                -0.16760980031537673,
                0.7365629197302863,
                1.1962259592278102,
                -1.025303542355622,
                -0.5782772930885357,
                1.0405424761485818,
                0.5189565576193488,
                0.5525714869353859,
                -0.45076920380971186,
                0.022533645702099,
                -1.5453353452920455,
                -0.8238889853259068,
                0.14937366806637403,
                0.20309880091876323,
                -0.13477009297780193,
                -0.013171903129084906,
                0.28605208971204543,
                0.7263004853770969,
                0.3045661587794022,
                1.4515311589620832,
                0.28330290646798395,
                -0.9883816845016085,
                -0.7463429172480747,
                1.767021717088261,
                -1.089608432565651,
                0.8296962881056725,
                -0.268372728496522,
                -0.16975719547076665,
                -0.12736381612960646,
                1.240012996722512,
                -0.11262318845802366,
                0.0027780115809167448,
                -1.3466172865980057,
                0.3562221937182876,
                0.31075541969911974,
                -0.2749080002718795,
                1.3330629521439465,
                0.4792803811368694,
                0.82976610298889,
                2.1777647790693027,
                -1.9461228745149355,
                -1.2674674048851684,
                0.9727220367015704,
                1.190234905014998,
                1.3826718389504111,
                1.3757212588831662,
                0.8094282480543268,
                1.6751541948447428,
                0.5544415908664778,
                0.7484600876070447,
                0.7102472455448471,
                0.6033297867600306,
                -1.0285512994579287,
                0.8061309950115826,
                -0.1279696721985997,
                1.8219163594117014,
                -0.06309962234634757,
                0.4456087377420674,
                0.28844716010045196,
                -0.4521046528569097,
                1.1906926294249205,
                1.858637061750535,
                -0.2398730424108797,
                -0.4453237255243871,
                0.05747678426696279,
                -1.341582819723133,
                0.7606368927939996,
                0.6293097340329853,
                0.4320954918819794,
                0.39384578861984954,
                -0.17136478218469975,
                0.1626331511876128,
                1.6245063487770595,
                0.6022291229741538,
                0.3369509467449897,
                1.5563646961094755,
                1.0488217399058997,
                0.32868856517732475,
                -0.25998044911647017,
                -1.6952626509811874,
                0.635681344653087,
                -0.9021730869274909,
                -1.9571766873104794,
                1.5848206525028792,
                0.6655140062605709,
                -1.115061251650013,
                -1.1648513460786944,
                1.078659105366112,
                -0.7924398822148453,
                1.2707893489261382,
                0.5259140851171183,
                0.5632324417320268,
                0.688318663799475,
                0.8412263227273069,
                1.5721077333448674,
                -0.5801988401838892,
                -0.1263695054772334,
                1.0483999653081928,
                1.054606624828792,
                -0.8323499031818621,
                -0.2108073064834403,
                0.8714825658284703,
                -0.18832207366960563,
                1.501202441327881,
                -0.40079469808248913,
                0.01747275019627486,
                1.0031554306127823,
                0.46942282673299063,
                -0.05231089883639247,
                -0.7300330373867956,
                0.30612311277697074,
                1.0390964353537633,
                0.4808595913937103,
                -0.7634824569608699,
                1.815062366923472,
                -1.1494905449450121,
                -1.3980508114215724,
                1.002255556766012,
                0.14830660473487725,
                -0.37621848499731764,
                -0.44815380132546845,
                2.850860288901674,
                0.13747976033046927,
                0.01891912664223734,
                0.1762741740837383,
                0.587019414587593,
                0.5973988754824119,
                0.3151812999525691,
                -0.544048826574979,
                -0.19873738304472266,
                -1.8993383076615953,
                -0.8733265166344573,
                0.43997011694196425,
                1.4121743513247291,
                0.6493700309538663,
                -0.4829991532739041,
                -1.1932046698604626,
                -2.745500935513702,
                1.155096332534375,
                -0.5892291202007737,
                -0.4487034988365451,
                0.13571094245672252,
                -1.350548245602401,
                -0.021886421986705658,
                2.2951701697258007,
                0.4545198637523947,
                0.03303562597766233,
                -1.3576799791948055,
                2.516298946006808,
                -1.0611377202829153,
                1.7885435175097937,
                -2.2857676572577814,
                1.432818171050505,
                1.5991415749897766,
                -1.1705556836285862,
                -0.19535985205188272,
                0.42803068887606965,
                -0.8568987576952448,
                -1.3319885399361742,
                -1.2277231709146978,
                0.7736639151697412,
                0.22508894357890574,
                -0.5225788330566457,
                0.6678871928611528,
                0.49796631122202745,
                -0.7261223762055746,
                -1.191161052210046,
                0.523261741181536,
                -0.5376064544993009,
                0.10075478872036238,
                1.6094673815023284,
                0.7794458071903994,
                -0.46065161303075464,
                -0.03719055389374337,
                -1.1441406670506025,
                1.6826765900264198,
                -0.48912304848658955,
                0.05945558601394369,
                0.1056885825207552,
                0.15055943679672618,
                -1.7337853866828383,
                -1.3339422875911657,
                -0.4297653955368565,
                0.24479048718767166,
                -0.05541581097523589,
                -0.7940756126403061,
                -1.0264842188056733,
                -0.32389943008090066,
                -0.6349808082454078,
                0.37737851550452733,
                -0.34297595605397546,
                0.47356775376444327,
                -0.677732128323225,
                -0.25260513865496736,
                -0.3480233371691653,
                -0.7823669660808954,
                0.6251021565593595,
                -0.8121486911773315,
                -0.4804432976117178,
                0.22580568595257033,
                -0.9687849196261816,
                -0.7045364837933161,
                -0.8177399362550312,
                -0.0065766181173122235,
                -0.08152007054232843,
                -0.7046499651062547,
                0.1080302048102285,
                1.4678017559034602,
                0.025166818192241328,
                1.1230768227735273,
                0.4292124145619314,
                0.8360644029144539,
                -0.9479913900281178,
                -0.30399597283571156,
                -0.16620468588655224,
                -1.1886483695831678,
                -1.24752698929663,
                -1.6869854911783941,
                1.5502212419030925,
                -1.205064194197529,
                1.0923976405518843,
                -0.4675839521754944,
                -0.854123051036508,
                0.6225191403321519,
                -0.6311938071665364,
                0.556752855726127,
                -0.30763608667295395,
                0.6357065076882382,
                -0.890432910102519,
                0.5614296005724151,
                0.0744179795463037,
                -1.1414788053109604,
                2.0526841898481174,
                0.3540501540154499,
                2.506981212487973,
                1.6727491067762663,
                -0.5459618633343001,
                -0.7391242434411244,
                -0.5326040535377201,
                -1.7417590619275183,
                -1.1662354703718187,
                -0.08079149947710158,
                1.1443118011812197,
                -1.3654789352455647,
                0.7248127817345403,
                -1.210412424584904,
                -0.7655760522424734,
                -0.7050845227471656,
                0.10944448666131401,
                0.4612331517994525,
                0.9851754885478169,
                0.7708369604049367,
                0.24316694305203765,
                0.35882642772748374,
                1.5944850934552053,
                -0.45436815360069316,
                0.7643984093425097,
                -2.0536166108383775,
                0.0861031267093932,
                -1.0068754460529716,
                -0.6575495054721936,
                0.4674978911577376,
                -0.06961256806455964,
                0.6565034739657408,
                0.9727402386742978,
                0.19986435990909146,
                1.17595636311626,
                -0.4583942155996126,
                0.09519837168603174,
                -0.3497157441039949,
                1.0076444704263872,
                0.3835203669184762,
                -0.20865152047514213,
                0.3120307142363585,
                0.702019814178339,
                -0.2927753600696911,
                -1.086823538269982,
                0.11581809363470805,
                -1.9802444918379556,
                0.768770946675016,
                -0.42132838331457345,
                -0.4789128593957556,
                0.89373218229505,
                -1.1555203668900653,
                2.181053386167543,
                -0.34198999394215757,
                -0.516284664252834,
                0.8254242263321796,
                0.2738648701575767,
                2.0485149305953274,
                -0.2589532450578849,
                -0.37907464427175475,
                -1.7551410898930675,
                -0.33773522780221515,
                -0.7652323263637069,
                -0.7646802811469149,
                -1.4774672424036448,
                1.834784909390073,
                -1.3993408174338104,
                -2.505761283820156,
                -0.7008256240556168,
                -0.5158601883554487,
                -1.4716722905672353,
                0.7957041999235736,
                -0.237472707383384,
                0.02466659043209442,
                0.6105734069379601,
                0.28601252574693475,
                0.9786080578890611,
                -1.089485243460777,
                -0.5537143861694106,
                0.8615128517508285,
                -2.1393355201871214,
                -1.1367896563417526,
                0.5920261670626994,
                -0.49570378175155544,
                1.0677460858680812,
                1.0357075892344143,
                -1.325979414877132,
                0.07628307999022688,
                1.1526835463365679,
                0.4460428217471112,
                -1.0299409606472345,
                0.8207909496982486,
                0.9061907926143601,
                0.6925425161622716,
                0.8674474353722136,
                -2.552882458047931,
                1.393643950163583,
                1.9222898568817606,
                0.28899955928767956,
                0.16624200912812212,
                0.6709398992075513,
                0.33151140135085094,
                0.6517312024269062,
                0.0014710002454108063,
                -0.7665782957485469,
                -0.9989651904819379,
                -1.0129224663615992,
                -1.2132780733654227,
                -0.6898839975202039,
                2.0137574262640725,
                1.0999455030924181,
                -0.23889062470639313,
                -0.21578233201379982,
                0.2429444175079076,
                -0.6311230302581984,
                0.18469111399832597,
                0.9547001211624169,
                0.007788838619888142,
                0.1920959005079647,
                1.1531347101740528,
                0.15492573594368594,
                0.5862188301908681,
                -0.21038051634109278,
                0.04699924845125929,
                -0.13295286439229656,
                -0.3437177099188608,
                0.17876587009202455,
                0.5576974891530211,
                0.16637250526159358,
                0.49847777873413474,
                -0.737931773180244,
                -1.2037351921363497,
                0.4170427237923981,
                0.6880328933511735,
                0.05613075297413738,
                1.4489644390356147,
                1.1402539496113036,
                2.9966629310651185,
                0.326515545192324,
                -0.4205110773240597,
                -0.4742154754309419,
                -0.2753228229668208,
                0.754300637725259,
                -1.9079237117303225,
                1.5422839101978476,
                -0.3419615269976655,
                -0.10212407627866492,
                -0.4297957839021472,
                0.7268140991012587,
                0.48710902465289646,
                0.07410867354483981,
                0.38415746142264146,
                -0.3126179723227268,
                -0.8055670251206895,
                0.5908219519286851,
                0.1449377017233693,
                0.28427310885335827,
                1.0665228409635734,
                -1.0225643912606326,
                -0.8552404571894164,
                1.2572196508583184,
                -1.483343447441514,
                -1.3049110031512017,
                0.8415927762424211,
                0.3733395394936134,
                0.39478001708362026,
                0.22165520915537107,
                0.49059155654368036,
                0.3930234832770299,
                1.5349865230380875,
                -0.3814522167607919,
                -0.3752069949316709,
                1.391225185112234,
                -0.2678645105301135,
                2.686826984569562,
                0.5957960526409288,
                2.086561796896283,
                -1.2942978984309812,
                0.33425456331793496,
                -1.2633854854256168,
                1.127932708434184,
                -1.1952636842376938,
                0.30391519936064293,
                -0.2324078733245653,
                -1.0481318421407224,
                -1.5986580461455104,
                -0.5110404635800115,
                1.7406294458953309,
                -0.2934850548893775,
                0.9172059684291811,
                -0.06350537024426947,
                0.9067804998033645,
                -1.7343970270497908,
                -0.2283911504736959,
                1.1799149355692713,
                0.16672316630603318,
                0.3571403537818792,
                0.005563782749549029,
                1.4046800102186332,
                0.39371160237580133,
                0.09618779826999606,
                0.9475671888493719,
                0.9138455836207265,
                0.3696655348110087,
                1.5503668823463457,
                -0.0463586830879035,
                0.12203682559918262,
                -0.745318259485596,
                0.25223700412083183,
                1.5781211035052585,
                -0.6383043590224567,
                -1.1617785278084145,
                1.052301092088452,
                -0.13635228248905762,
                0.09600420496977001,
                -0.045113303693334814,
                0.07912172392953508,
                0.8515306391915006,
                -0.8346250747520458,
                -0.9644868621885234,
                0.18454346248068929,
                -1.4425529940445205,
                -1.1527723389084528,
                2.1695828262197225,
                1.0038288410005023,
                0.08351742248847611,
                1.2284414184680232,
                -0.8960120905118488,
                -0.08322166947964628,
                0.8979338234142085,
                1.2068714925854256,
                0.6866017934421969,
                -2.4587730698199475,
                -0.9768344023029736,
                0.3615841179118046,
                -0.6456606142335275,
                2.4353436070013363,
                0.9851404322411833,
                0.6034616846244776,
                -1.1538094379658903,
                -0.03528428308113643,
                0.24120500781459359,
                1.1277836301278024,
                0.8811310970996323,
                1.0329891945199456,
                -0.9239169693866024,
                1.4141996657180609,
                -1.3317228976181348,
                -0.4683117796134887,
                0.5591138153775876,
                -0.005754693070691375,
                -0.8850886336871195,
                -0.8117075245612908,
                -1.5798782012738863,
                0.5181575852753135,
                1.3285777346138026,
                0.062209096613518214,
                -0.17561229706552603,
                -1.1358735847503274,
                1.0833959633270362,
                2.3188738787241436,
                -1.7740079700939557,
                -1.0868181615010104,
                -0.8407449805092431,
                -0.622572279474158,
                0.2775801139364027,
                1.660561876490873,
                1.0193631760734625,
                0.5275983090208334,
                -0.7239275965721234,
                -1.1196282336804544,
                -0.7967753063063009,
                1.5480668013787386,
                -0.06174330145790107,
                -0.4468393089212171,
                -0.18789327794689703,
                0.8202528480794966,
                -1.3137483810663155,
                1.4173139976127764,
                0.17763908541224546,
                -0.19389085721409727,
                0.44769638260691924,
                0.2191725010745993,
                -0.3095788441888177,
                -0.23877876200269324,
                -0.8378311160930907,
                0.7477354048458793,
                -0.4454100572292423,
                -0.9182023214481998,
                0.1816772552117628,
                1.3715492508607288,
                -0.11509548566082412,
                -0.6799086503116789,
                0.39141097733311314,
                1.9360656622874004,
                -1.45190524990263,
                0.3822027877707348,
                0.2050866252318538,
                1.1615338035591172,
                0.9909091736848452,
                -0.18670911180977923,
                -1.6845172554248828,
                0.8065637678962596,
                -0.8348563288519437,
                -0.945077782818154,
                1.1496611553283356,
                -0.9104923919748568,
                1.4030135645771682,
                0.33602502069403667,
                0.31920074837307444,
                0.307264131627392,
                -1.6386705163921176,
                -1.7751602450174107,
                0.2139637192009095,
                0.5659702644461272,
                0.08666389290384305,
                -0.8278091631084356,
                0.010917335010997587,
                -0.06650852237308821,
                -0.9507515214709454,
                1.0175701270152118,
                -1.728232604493868,
                0.5889401762898003,
                0.3843234052112453,
                1.0097118548117143,
                -1.0053118723488588,
                0.101407146668211
            ],
            [
                2.171164949318166,
                0.6620742889997063,
                0.10058120872896319,
                0.5391612741141966,
                0.08617684238012002,
                2.19089801323984,
                0.9836361957891795,
                -0.08561495423049709,
                0.25233143138452124,
                -0.39079799608101357,
                1.209850126410305,
                -1.4061047713910109,
                -1.5961980349710523,
                1.4774159606263813,
                2.1531203179716973,
                0.46830492958130476,
                0.11273794123573726,
                0.6572676903047773,
                -0.6470535263827593,
                0.1712435451522125,
                0.03890870585621503,
                0.6265642507453606,
                -1.5579985281833963,
                -0.5070347697653375,
                0.8449956030008372,
                -0.675593827630063,
                -0.9933613754231354,
                2.042072149826954,
                0.03811800017940036,
                -0.5789181399432078,
                -1.6923704374741084,
                0.7293463462804262,
                0.6991361543573423,
                -0.29875103110294776,
                -1.0971834360017731,
                -0.013082596219536136,
                -0.8263239525965688,
                -0.9378154350962192,
                -0.0931327900698413,
                -1.0315082155821238,
                0.3144654327893495,
                0.6670471631013719,
                -0.7973813543926758,
                -1.3124744708709994,
                1.6453901373263768,
                -0.8873279874053944,
                -0.6342806205241855,
                0.24819180035928715,
                0.614583129654712,
                -0.2561040259016534,
                0.4744504287309303,
                -0.3820277931371895,
                -0.9711706648243907,
                1.4263168607870274,
                2.488441614331128,
                1.6959695330141693,
                0.14180663915345446,
                1.8334353618156785,
                0.3557165909544985,
                -0.47729139096161494,
                0.4664191968996228,
                -0.09399341994661083,
                -0.9984202787450844,
                -0.9527184341043755,
                0.7458345922812396,
                -1.8690186336483932,
                0.6485620471460581,
                -1.540242637494871,
                -1.8717071576118813,
                -1.5853336112174794,
                2.203436080898803,
                -0.01800356895333242,
                0.28262276792125746,
                1.773098152086263,
                1.210846189270971,
                -1.1692292095701462,
                0.9579443275043121,
                0.23597470698213055,
                -0.2815106516084723,
                0.057008168257645195,
                1.2820104571100188,
                -0.8871912701312809,
                0.40088567910412115,
                -0.009657236532908346,
                -1.7971646153956184,
                -0.8022531717308108,
                0.1932423591514891,
                1.3080791563566951,
                1.0017400543601285,
                0.582790011212118,
                -0.7675612347561316,
                1.8706039640729275,
                0.1956459738401748,
                -1.0374755686012935,
                -0.18185717077076535,
                0.9892532189312727,
                0.22018217425323103,
                1.1624294780691824,
                1.6646178332291333,
                1.195482479929524,
                -0.10092825927001808,
                0.7203796692920524,
                0.17365741442673976,
                1.7523703105354966,
                -1.6322872049464412,
                -0.1005588510807801,
                -0.5489470153659023,
                0.3382560225612036,
                -2.4560173134669867,
                1.1144922725041517,
                0.013737299811072013,
                -1.8447011636280461,
                -0.3611131347398661,
                0.6089623416557798,
                -1.5914474394553018,
                0.02483664202385541,
                -1.0240818413620794,
                -0.520573392447382,
                0.3495505229160396,
                0.6669632788659285,
                -0.05600426091964344,
                0.4317812551746728,
                0.8125264927633249,
                -0.24670749655936075,
                1.6281176015810903,
                1.7473597187549295,
                -0.12894295690393057,
                -0.859369170559549,
                -1.4802224022005088,
                0.04000885849320273,
                -0.2913451719504301,
                0.6279348495634816,
                -1.8529377255960644,
                -0.5519480377365897,
                0.6894596870442924,
                -0.9519594525400555,
                -0.8160205114450267,
                -1.4662287463673127,
                2.620689574164468,
                -0.7471523408693818,
                -1.3003468322183391,
                -0.80385040403152,
                -0.7742923240243043,
                -0.21271837634801943,
                1.043587484385985,
                -0.05177751102333935,
                -0.3636339189128025,
                -0.9873554082801947,
                0.4646538968507151,
                0.15433866688277795,
                1.4829078471929589,
                -0.29291269964732003,
                -0.39911787922422487,
                -1.232771048639133,
                -0.18048973218061182,
                -0.508594687852752,
                -0.5296261310809531,
                -1.723639491544646,
                -0.06159162568997361,
                -0.3331939067316604,
                -0.6865306011504938,
                -2.2617459184313775,
                -0.004565887049079576,
                0.13511403843840708,
                -0.956585327770925,
                0.9551357867013255,
                -1.3685261653680654,
                -0.022591186505355753,
                -0.2712073398901639,
                -1.3171572667481688,
                0.20041768311265104,
                1.7742607621273332,
                0.2332613749975468,
                -0.5143533696016632,
                0.4448269751560185,
                0.10965783518543584,
                -0.09317179889931435,
                -0.5421163123739517,
                1.0468726010620883,
                -0.18749223943559015,
                -1.092574577187152,
                -0.5729665974647552,
                -1.4783948656487182,
                -0.880050442221203,
                -0.4465087868467678,
                -1.5724069904233402,
                0.13555742801194773,
                -0.8101378708852481,
                -0.16215642787145113,
                -1.377907137741845,
                -0.6211771119266106,
                -1.1716940977492563,
                0.43177124602003325,
                -0.44982071704647536,
                -0.7515414617347311,
                -1.6443014003862002,
                0.2756665481076651,
                -0.7063175362879025,
                -0.03772521833056756,
                -0.5542392129592714,
                0.9876870254851895,
                0.24626406786173327,
                0.11814986254862576,
                -0.8853068392609771,
                0.015050596707265319,
                1.3914086209164316,
                -0.7031469465504685,
                -0.46261533408130395,
                -1.8768391838212164,
                1.3017787767232176,
                -0.7931153004216314,
                1.0771861696153868,
                -1.2947694038014543,
                1.5914920120244098,
                -1.0230793651384453,
                -0.19888416621027136,
                -0.770471549791348,
                -1.1145677431698235,
                0.8728337193108325,
                -2.4217665422211674,
                -0.1639188852323342,
                0.5784256212995533,
                -0.16485448846137804,
                -0.11906660188820613,
                -0.13763250874630423,
                -1.222201586317772,
                0.027402907991485363,
                0.31739757381866235,
                0.22679255545895474,
                -0.35968318756502454,
                -0.5818866016047087,
                -0.145568335389909,
                1.062169634969402,
                -1.8918740524369595,
                0.30769755462942633,
                -0.28310206272932614,
                1.9510944427082872,
                0.3285126124737845,
                1.4168389075680718,
                -1.4308588897945507,
                1.0630940770188564,
                -0.14728597236224505,
                0.6436583163248752,
                -2.45000539643147,
                -1.05241576164403,
                -0.7407583745405546,
                -1.1432327601943002,
                0.5122591116020827,
                -1.006404230134474,
                1.5837135425782456,
                0.8932271146851746,
                0.9506275845333673,
                0.5594516172650024,
                -1.0544919444572074,
                -0.38919191995942126,
                0.5239794935536033,
                1.0155574930602143,
                1.5265539755982767,
                -0.35095529581188306,
                -0.7660156380909029,
                0.6333008386155488,
                -0.7239458064155382,
                1.2155415148109217,
                2.0346132935909518,
                1.2804416793773383,
                0.59413527569647,
                0.43353039888117023,
                0.887994560679414,
                0.15674123028002812,
                1.122053476481484,
                -2.0137146598585307,
                -1.554119018486372,
                -1.473686070700802,
                -1.0921987531552695,
                -2.7039299694532524,
                -1.077745094868268,
                -0.971000005569926,
                -0.17630680272563912,
                0.32480797822725216,
                -1.247067605358766,
                0.9002320653734686,
                1.8100418337523416,
                -0.09315317950205666,
                1.6586098145059702,
                0.3728335487166885,
                1.9758561276340472,
                0.8839704469384693,
                -1.4769627934593454,
                -0.01313529468161818,
                0.8720688186768943,
                0.6256608580722629,
                0.5209855528697256,
                1.9322914731726655,
                0.626067665923109,
                0.1813178492144387,
                0.23527588649604145,
                -0.46585115362164287,
                -1.3212512063259032,
                0.07401174780560273,
                0.19570544067127774,
                -1.1141050350016417,
                -1.9935299461726215,
                -1.7184175839587155,
                -0.41453029804238434,
                -0.40247121136690606,
                -1.063016122137488,
                -0.6659101194113496,
                -1.5249878119470723,
                0.41787298986618665,
                -0.026327728864777248,
                -1.162412705956543,
                0.1918465396008494,
                1.382801471078167,
                -0.7882040315653714,
                0.84557969391383,
                -0.39864539127557685,
                0.146275669675734,
                -0.3128881286467327,
                1.4755741427805154,
                0.9075113834158496,
                -0.11286331022079261,
                -0.22864632803776183,
                -1.693828548058429,
                -1.6495680082455941,
                -0.12168426906502167,
                -2.145747235766907,
                -0.7901310419382195,
                -0.3557593110158829,
                -1.0285296080924065,
                -1.1689061614894558,
                -0.07561363329845125,
                0.5389975294305194,
                0.31385085615496816,
                -1.158250039418728,
                0.6026894411932023,
                0.690927672356696,
                0.2746481526238825,
                -0.5951774687267215,
                0.7448170444480838,
                0.511962380431851,
                -3.152340018378282,
                0.6726688652649642,
                -1.929230614676437,
                0.9704229007351107,
                -0.324396134164148,
                0.7566121613525741,
                -0.1260103233320133,
                -0.2752118707152806,
                0.547998745283747,
                0.8828132571945304,
                -0.29578299299873767,
                -0.37045163376936746,
                0.38165204632140054,
                -1.0568834993974805,
                -0.27706123271797223,
                1.686061647560572,
                1.1914141469879738,
                0.12939252541890825,
                -0.6227015374139095,
                1.622392194115373,
                1.3006183665636806,
                0.6529883930806284,
                -1.2518054744438816,
                0.1467977972618376,
                -0.7436721753248179,
                -0.15452595241726663,
                0.2719953753036794,
                0.0557623894762135,
                -0.5681556742207976,
                1.366883125068559,
                -1.4447622059634575,
                0.9581215618336774,
                -1.9421481031226515,
                -0.20475858216463283,
                -1.0055753914490955,
                1.3657466292619032,
                0.4925964098112814,
                0.11794284089905387,
                -1.0689880760519712,
                -0.813366976802585,
                -0.20113276776616965,
                -1.0244568910871454,
                2.389712469170342,
                1.01309292442116,
                1.2939505340326656,
                -1.6031825863682747,
                -1.3922814439849638,
                0.03941351579691539,
                -0.8889578576414987,
                1.4722178065029095,
                -0.4468842276200994,
                1.3776791454842088,
                1.4867810093679896,
                0.045655117209545,
                0.5186100824872183,
                -0.13057322511801456,
                0.1935533465070651,
                0.2570356386197234,
                -0.17793008990046746,
                0.15299027796895917,
                1.5399497126457404,
                0.4400103668811411,
                0.7204465457059647,
                0.26869948103749597,
                -1.32712595507174,
                -1.4355603142175983,
                -0.14524882632658495,
                -1.3623654704235817,
                -1.0172000607954519,
                0.7872794265941668,
                1.9173499184881362,
                -0.7290983317211978,
                2.2292427479013215,
                0.21650235775471216,
                0.30050101292842735,
                0.38417399083150905,
                1.4069792146918134,
                -1.6170005252979813,
                0.4632073315072801,
                -0.9453622270288232,
                0.5707880520512516,
                1.5427676055588173,
                -0.01263602231491537,
                0.2997939747133922,
                0.10967999454236643,
                -1.0929770856921888,
                1.1520477267911424,
                1.053461863722447,
                -0.01821191978299336,
                -0.3674854656818243,
                -0.21168947578754446,
                -0.6683534418411787,
                0.8217474175709214,
                0.48006257075160047,
                -0.5547263264276242,
                -1.5674945353646161,
                -2.659140425237242,
                -0.42984587218957226,
                0.7199226344910404,
                2.40440798980735,
                -0.3849821822168762,
                1.0520587336961105,
                1.7491057495265852,
                0.3660749822833922,
                0.10378573921035496,
                -1.3802215917354441,
                -1.2764410183869728,
                0.3929306589862769,
                -0.2009075202438448,
                0.1282938117973992,
                -0.04496269231738318,
                0.6623122026983381,
                -0.7338201927101432,
                -0.3312780359748177,
                1.4119730255255565,
                -1.5389284826299523,
                -0.8799758638832024,
                -0.5012524721476227,
                0.6872473889805345,
                0.7682438272277222,
                -1.506221676111327,
                -1.4258850202027198,
                -1.088645613461481,
                0.14876983995990903,
                -0.9169135127090241,
                -0.4480016239783848,
                -1.1908024439379516,
                -0.6993353101699236,
                -0.02927391404503298,
                0.6594265556989254,
                0.7157665558150202,
                -0.9973582322732601,
                -1.506441961883077,
                -0.06955531006857585,
                -1.7921789081897361,
                1.0037177360444907,
                0.06389619165017826,
                -1.6069826807653516,
                -0.9641562249555271,
                -0.5918283450804166,
                -0.746195295718983,
                -1.3601981528361156,
                -1.1314236305767937,
                -0.955239566727394,
                -0.9202562649917325,
                1.303739048810091,
                0.5043438310858077,
                -0.6518744931925436,
                -0.35212810635539865,
                -1.213518152377866,
                -0.7571070733936079,
                0.6572452762042656,
                0.2136530258924843,
                2.163326679000079,
                0.42223723734746144,
                -0.9770501541069679,
                0.4017730540738544,
                0.3099669096355528,
                1.037563505796678,
                -1.0752206303495462,
                -0.48865187728109805,
                0.8859118936102806,
                -1.7189778972439596,
                -0.5006832353120944,
                -1.4258805002392039,
                -0.9325542784054304,
                -0.9888882834434841,
                1.4716129560302023,
                -0.23741222976162543,
                -0.7578215069315892,
                -1.2361651758392025,
                -0.08738364724309781,
                -0.2917204929157804,
                1.356681257329417,
                0.756011584831859,
                -0.8730127716530873,
                -0.07206346774923833,
                1.1697238807997137,
                -0.762512725516512,
                1.4943524471823266,
                -0.9357800699972971,
                0.7111897371308606,
                -1.0299708312921703,
                -0.5694552555356885,
                0.6469131212837919,
                -0.5066085934004343,
                0.7870233788212007,
                0.5799146956839466,
                0.45219440081879314,
                -1.0060334542035625,
                -0.23096775528071425,
                0.414094119874736,
                -0.8490728726609756,
                1.6420416726874014,
                -0.8950227728323142,
                -0.2919816390055497,
                -1.16933485292032,
                -2.2212226889039184,
                1.538196684650776,
                -0.5446028523350648,
                -0.8869021353798346,
                -0.7900473078333524,
                0.9457762906575435,
                -0.8554059274639692,
                1.1526564597210882,
                -0.18587412065155542,
                -0.8445685588653218,
                -0.06306291466964932,
                1.3852765587904632,
                -0.28421920893150293,
                -0.9251281459013649,
                -0.993255181554231,
                0.9451465436291896,
                -0.5170894413125526,
                -1.6890304029650756,
                1.4555414367143398,
                -1.4358790481759645,
                0.7650928383490225,
                0.1750301018013354,
                0.27994438311606956,
                -0.5843752753113219,
                0.3803819342518663,
                -1.800142116697293,
                0.45594172180564885,
                1.1490631028527587,
                0.5511784499958013,
                -1.9777971816928086,
                -0.9872191806202962,
                -0.4791087317206318,
                -0.2242296628201976,
                -0.4103871286024907,
                -0.7459148379129531,
                0.8449573376750026,
                1.8916086111938994,
                -0.04344779334620533,
                1.0491976107708292,
                -1.7211588127794883,
                -0.6059107787991795,
                0.14652843277538188,
                -0.19668800699876002,
                0.5839723938807851,
                0.8823345344427278,
                0.5459988563318525,
                -0.5368112301823926,
                -1.5878980303920431,
                0.5533770635365031,
                -1.8403071045839654,
                0.6530369225252598,
                -0.18844908210776137,
                -1.1758349528148577,
                0.2583158885351953,
                -0.1470279417349501,
                -0.5547137645022081,
                -0.5242769098191289,
                0.07211240930542989,
                0.8831167970506599,
                0.18068917939561888,
                0.13459009331492539,
                -0.7863551534923009,
                1.2205895898005477,
                0.3397601373654302,
                -0.37618505190217416,
                -0.8913034924536579,
                0.8222446112413963,
                -0.7686095783534205,
                -0.2679680254544005,
                0.6879326227462822,
                -0.34765788822959187,
                -0.8993872456187167,
                -0.32436219493794666,
                -0.13542305064330462,
                -0.3099706317897518,
                -0.49240720442546315,
                0.8460366685968788,
                0.34097356205274465,
                -0.2234261121862777,
                2.4643219335369757,
                0.1938317387285143,
                1.149602528976351,
                -0.5363361207253484,
                -1.4873629866581928,
                -1.0932444668793337,
                -0.6943315538083802,
                -0.7178628397423032,
                0.9574834001004917,
                -0.8251445655588757,
                -0.6455180085641555,
                -0.5290007736749563,
                -0.6634850579604146,
                0.08564493464573342,
                1.6886928773165637,
                -0.3575878588928701,
                0.9220292512684695,
                -0.9605259280255772,
                -0.5447017915341371,
                -0.057909663051424,
                0.05871350610717831,
                1.06078393568485,
                -0.25052787785604613,
                -0.9663676793060438,
                0.5174687653512567,
                -0.3983576534822124,
                0.23765948493378602,
                -0.11622243952221016,
                -1.9434568512868227,
                0.5082991855939731,
                0.5916396196920244,
                0.9931929296231281,
                1.8483139942841778,
                -1.2516074812618563,
                0.45975701808875746,
                -0.02717065614598999,
                -1.0158211857845105,
                -0.17395160708545537,
                0.12786913119228493,
                -1.4365938759703403,
                0.43499457584835116,
                -0.5219264364930928,
                -1.092649061794489,
                -2.0039300078153968,
                -0.8683556180033195,
                -0.5105612287384622,
                0.368949258391674,
                -0.1415538280528479,
                -2.0443333523272615,
                0.4984075779475929,
                -0.2149752862754957,
                0.4587138652720556,
                0.8692813490918302,
                1.4141948908889128,
                1.958574125114447,
                -0.07223875867166796,
                0.31112444609365353,
                -1.0783610908167798,
                1.0620411746633531,
                -1.159025483475436,
                -1.7712634987776497,
                0.9307373125183352,
                -0.3404114919521936,
                0.7316011714445386,
                0.21782754749850852,
                -1.683091094584389,
                -2.4401742121191012,
                -0.7033661552626572,
                0.21268433839984108,
                -1.2022653421555851,
                -0.7446555239669724,
                -1.5044044297993175,
                0.1555215266180926,
                -0.10781456336101342,
                -0.6964922488115038,
                1.1262259590693497,
                1.172807864525391,
                0.3096893550154125,
                -1.8148920010777363,
                -1.0473022093301612,
                0.39507067149513503,
                -0.6308289529428357,
                -0.4878340364657154,
                0.89896739458806,
                0.5108748218924175,
                1.3141544338139488,
                -0.4296582431685757,
                1.3718872220522729,
                -0.5484029659167492,
                1.6374025493799949,
                0.3024709765048106,
                -0.6197210672504214,
                -1.3433584084876546,
                0.1661412250173133,
                0.22827586115403906,
                1.0582369843637651,
                -0.007729583176551496,
                -0.404637175520287,
                1.166874954878047,
                -0.4317309878869731,
                -0.6577934706883133,
                0.3596489510097167,
                -0.473851985773676,
                0.8680341690185603,
                -0.4670530379632584,
                -0.08119544278310782,
                0.22140143587031863,
                -0.36290114623777686,
                -0.010043694241619845,
                0.8148127093094253,
                0.40981371496604185,
                0.4809698500346235,
                -0.6354304386192672,
                0.852829768274368,
                0.6695623405090826,
                1.004419201123449,
                -0.7194643144397859,
                -0.12706833840197307,
                0.7444807352156162,
                -0.5520352085128319,
                -0.1520262240926279,
                2.009596100060797,
                2.0648228995131874,
                1.26956655007207,
                0.9859888704294497,
                -0.922261556992384,
                0.7674482420051604,
                -0.3914890532013101,
                -1.0646965571541134,
                -0.43341279236111113,
                0.3256047293701009,
                -0.3016330395990821,
                -0.3781739219304942,
                0.8760747949042029,
                0.17203318246824453,
                0.2350661491086759,
                0.11233924643407264,
                -0.675702692941324,
                -1.3705719179606883,
                0.31056471042047845,
                -0.5070366321254438,
                -2.010782268585878,
                -0.39256725796515246,
                -1.0922179413406234,
                0.6984746754801187,
                0.5194489222083049,
                0.49551859425523953,
                -0.6639538324884301,
                0.7406546189623407,
                0.3331688981636262,
                -0.4117244977751312,
                -0.4696251339522781,
                0.879428016138756,
                -0.48289914562153397,
                0.31389606058279523,
                1.0342295453950607,
                1.9066007608891329,
                1.671615668764212,
                0.9044214499826538,
                -1.487891964225172,
                -0.6818537212751036,
                -0.5487817915068629,
                1.65704587560704,
                -0.697965819427146,
                0.38616637709836915,
                0.10086706325731179,
                -0.935127209437544,
                0.38182400961938384
            ],
            [
                0.3982960861974925,
                -1.2557748817415015,
                1.2228774470534098,
                -2.0865100288551877,
                -0.590757152909962,
                0.9719702938655755,
                -1.1932578334740391,
                0.35026591956203,
                -1.29636038827543,
                -0.09302414444422329,
                -2.3137731131722004,
                -0.8425717017130081,
                -1.5429792639213669,
                -0.4018916330923489,
                -0.4152328337738418,
                -0.6736642312238139,
                0.7979131965667455,
                -0.8868796038714377,
                0.6343866731890512,
                1.6292757699588616,
                0.13906415030468255,
                -0.8576702045753997,
                -1.2493385148615423,
                -0.7097851001194992,
                0.704642720749891,
                0.1555907349688975,
                0.9367952162539889,
                0.770330879327212,
                0.1408106518782359,
                0.4734882616664622,
                1.8552462094204791,
                1.4156562261746801,
                -0.302746015960163,
                0.9896794446989153,
                0.5858457871358488,
                1.1363764339245574,
                0.6703062532092074,
                -0.9746035900851782,
                -1.6251644327181285,
                0.5443988741810931,
                1.8049831503629357,
                -0.8268308057725129,
                -0.17927508739391557,
                -1.0733895437409386,
                1.1294241632086846,
                -2.3175124526984066,
                -2.2641505127909674,
                0.37457811073084385,
                -0.08539817154190081,
                -0.5144043657400382,
                -0.378068496427974,
                0.4863014999799985,
                -0.4138039890496651,
                -1.0969249717331135,
                -0.9273629280729663,
                0.8883388619968426,
                -0.5247419549622203,
                -1.3852775837671982,
                0.10217827825498593,
                0.5046167500135597,
                1.3286992258189205,
                0.21790326089744586,
                -0.6593991074166183,
                0.4739076514379738,
                0.7028690018619533,
                -0.152217552888807,
                -0.12895205610417973,
                0.15223817368598225,
                -0.25831090831164816,
                0.12260864606408091,
                -1.1662525238904409,
                -1.258799538437616,
                -1.015155290935592,
                0.5040985062546534,
                0.15596900004482664,
                0.9018757371293962,
                -0.3050749434301937,
                -1.2134879445068127,
                1.0500354390927125,
                -0.07706164474091252,
                1.2833110203147877,
                0.5981361180211048,
                2.188618678822837,
                -0.21977298571336235,
                0.9007239050891807,
                0.891364106352944,
                -0.5551264524826638,
                -0.1744368420008327,
                -1.4620512342306438,
                -1.547735718202501,
                0.1274557262430202,
                0.7917993160332787,
                0.5912875012299349,
                0.16230599673954935,
                0.5454995540475546,
                -1.0068899852167421,
                -0.732579846525556,
                0.02718250128338119,
                -0.07192216902697865,
                -0.6419739638277854,
                0.9336835687618091,
                -1.5092869615896976,
                -0.6467971879311067,
                -0.3734940263903049,
                0.6431927877043054,
                -0.15175857398255407,
                -1.3712771693114667,
                0.47061255061464435,
                1.053119716650459,
                0.7279413668999274,
                0.6033681813829761,
                -1.8743134967410682,
                -0.8998864767434843,
                0.4820806086719402,
                -0.054888183773542674,
                0.5221555723430238,
                -1.2715521398411331,
                -0.04857058266317408,
                -1.4238635848091854,
                -1.9751967784163929,
                0.22217855786773452,
                0.6696694670292658,
                0.030936910857518433,
                -0.3767144186088514,
                -1.7995427367483585,
                0.9927412125105763,
                -0.281296193693204,
                1.638206817440594,
                1.0346370457532303,
                -2.0865545193827173,
                0.5504425357999267,
                -1.51550453635338,
                -1.241985001113706,
                -0.5493662959037827,
                -0.13038204399958586,
                0.4616391688145419,
                -0.9973394955411662,
                -1.1467829210890312,
                0.6110894512677194,
                -0.01790215113059347,
                0.17437304870152562,
                -2.19368335169466,
                -0.17742402728890513,
                -0.8935637650630316,
                -0.9551727322907863,
                0.9073545387046609,
                -1.1583156343232799,
                -1.133604188194512,
                -0.4097673843258542,
                0.41419561028716395,
                -1.1755083928834815,
                0.9040515517785925,
                1.7126942776440492,
                -1.1102159809682626,
                -0.5359690617008187,
                -0.7152568867669289,
                -1.5577425834421113,
                0.6042974851236954,
                0.38573021726537504,
                1.2099645382700108,
                -1.572823300362071,
                1.0029952828393036,
                1.210793944879155,
                0.4356500303858223,
                0.716555307555931,
                0.9826046902906084,
                1.9653038336093422,
                0.47593545487674155,
                -0.060137885503685214,
                -0.8661687990065761,
                0.30115762200019386,
                1.0331230093983594,
                0.14445354841673758,
                -0.9791546001165955,
                -0.3092104255801577,
