{
    "biases":[
        [
            [
                -5.612484061642919
            ],
            [
                -6.300528132778631
            ],
            [
                -0.13842577788449562
            ],
            [
                -1.6056375600129311
            ],
            [
                1.9365257515736103
            ],
            [
                2.992460321106505
            ],
            [
                4.3956225810058305
            ],
            [
                -8.377080588144707
            ],
            [
                4.147089966726982
            ],
            [
                -9.296137343258676
            ]
        ],
        [
            [
                -3.902969368467175
            ],
            [
                -7.250500330147843
            ],
            [
                4.525585574407687
            ],
            [
                -1.0783348154161856
            ],
            [
                5.835786355567538
            ],
            [
                -8.261695648399735
            ],
            [
                -2.0756476618416073
            ],
            [
                4.666309113567865
            ],
            [
                -2.775318165791971
            ],
            [
                -3.0009123011768373
            ]
        ],
        [
            [
                -2.730825367154282
            ],
            [
                3.393280288976546
            ],
            [
                3.313823088140198
            ],
            [
                -0.9982177464691091
            ],
            [
                2.521413043030269
            ],
            [
                -1.908888703968131
            ],
            [
                -0.6374196964747535
            ],
            [
                2.289382083466998
            ],
            [
                -5.203227697239623
            ],
            [
                -7.0241719398810645
            ]
        ],
        [
            [
                -0.8165674700817255
            ],
            [
                -3.446932846908322
            ],
            [
                -2.403706887450905
            ],
            [
                -3.511636160320149
            ],
            [
                3.3339354915389383
            ],
            [
                -2.96321612251929
            ],
            [
                -1.559788069888915
            ],
            [
                -1.5121256368896316
            ],
            [
                0.12696719494922087
            ],
            [
                -2.022241619422122
            ]
        ],
        [
            [
                -4.729048670799368
            ],
            [
                -4.415361954794399
            ],
            [
                -2.155487300764343
            ],
            [
                1.384429703905312
            ],
            [
                -4.342963570435788
            ],
            [
                -4.523891070436682
            ],
            [
                -3.476203209135514
            ],
            [
                -6.066241150353232
            ],
            [
                -3.246845103985756
            ],
            [
                -0.408890867396848
            ]
        ]
    ],
    "epochs":50,
    "eta":3,
    "mini_batch_size":10,
    "sizes":[
        784,
        10,
        10,
        10,
        10,
        10
    ],
    "weights":[
        [
            [
                0.07849789744486702,
                0.9380679006251282,
                0.5338942967427835,
                -1.5735917060104316,
                -0.48487807258503496,
                0.5141178754663887,
                -1.4563327548662632,
                -0.744020067281783,
                0.4144998969382023,
                -0.23724990178383637,
                0.22632644425902973,
                1.5368619938872359,
                0.0618441496394911,
                -1.2613095420469893,
                0.5071001603511299,
                0.18766082630928044,
                1.231861014848521,
                0.7974508034113138,
                1.1509105073277164,
                -0.2225208097497189,
                -1.4032042079123375,
                0.43040498188778126,
                0.5056365679373854,
                -0.23237894157528416,
                0.7368517855829945,
                0.018321557670714302,
                0.16895462417411264,
                -1.380251143222673,
                -0.35359113807837833,
                -0.8084525750563589,
                0.17883490479614148,
                -0.7109897617570834,
                -1.0612255291841775,
                -1.0563369918077532,
                0.17368125436982787,
                0.7139996056584014,
                0.5293906769132197,
                -1.0778556419181535,
                -1.1675770260653566,
                0.2025714658596373,
                -0.48122460299902403,
                -0.15394497278202912,
                0.2877812309081265,
                0.7442660692904611,
                -0.23939503868894377,
                0.18053764795757649,
                -0.5751847777835921,
                -0.7422412860142299,
                -0.7888741631732057,
                -1.4944509701559976,
                1.2957268621856182,
                0.1557983063084636,
                0.1660100999310512,
                0.33186543460729867,
                1.4593410608463648,
                -0.2481082594330353,
                1.0394549409122626,
                0.6242979897377243,
                0.8543198777225827,
                -1.901033999591926,
                1.4601389682156043,
                -0.23860761098420363,
                -0.35187757563983013,
                -0.7225698409237974,
                -1.103511741554711,
                -2.0374645721446765,
                -0.9514032497669294,
                -0.5069574301813398,
                1.4042954592059649,
                -1.6219519107205238,
                0.8426425978591733,
                2.512546801317457,
                -0.2730465580398054,
                -1.1733251685505188,
                1.2259100773008553,
                -0.39652353484215325,
                0.8321455213217548,
                0.16881586063639462,
                0.049072505111986436,
                -1.2462512030079569,
                -0.283031044432901,
                0.2462253670789425,
                -1.3315821930284388,
                1.319513500550106,
                0.16744974876748808,
                -0.8545981580200261,
                0.0172940379596786,
                -1.3387352414598401,
                -1.219642808445269,
                -0.6616856696194345,
                0.7041232078601543,
                -0.11705156697772758,
                -1.4700437642282396,
                0.3010794202922741,
                -3.780415088030371,
                -2.742397419986614,
                -3.6093830807272953,
                -2.6964137341135017,
                -0.1353419009823416,
                2.3580209846530855,
                1.9400629497319126,
                0.4073159563962779,
                -2.172524275516435,
                -1.8770126780604774,
                -1.6782126557138894,
                -0.3686429694433365,
                -0.10579329110941844,
                0.024504364863612484,
                -0.7377246532418539,
                -0.18728595049881971,
                -1.4226732040951544,
                0.022541653566960126,
                0.4611002867115336,
                1.0053624648070498,
                -0.5203535484599412,
                -1.4387322421941346,
                -0.8468635678967572,
                -0.2062591694826799,
                -0.663238718269111,
                0.37961584531917825,
                0.18770110571657297,
                -2.605734331934188,
                -0.8419309135299995,
                -1.9193640199089597,
                -1.6134341866349171,
                -2.457700878150969,
                0.024944438177036735,
                -0.24297163918632037,
                -1.5138768925001471,
                -1.4093622146376412,
                -3.9987919565937835,
                -0.8054446098732138,
                0.3474047533421944,
                0.2835350578522058,
                1.862615291817671,
                1.2755964903115202,
                -1.4916743839095818,
                0.1420519009909969,
                0.08967765368752201,
                0.7803218131425057,
                -0.30383549848322416,
                0.05722464545339847,
                1.1582423779019713,
                -0.351667332513377,
                0.4431410509842242,
                0.5273200455560704,
                -0.04147222249786612,
                -2.604992834161443,
                -1.8781789088352903,
                -0.9659652575192225,
                -2.300502565742639,
                -0.584214211423933,
                -1.7690754537881543,
                -2.640180252826874,
                -0.6609356660205192,
                1.680687411548323,
                -3.8489462314376017,
                -7.129588314119927,
                -2.7076685791211226,
                -1.9315549538278995,
                -1.0557455200677681,
                0.28903997266119974,
                0.7092174786335814,
                1.3320982745163172,
                -0.2944601513405746,
                -1.2317837142754235,
                -0.8373021152396225,
                0.3625432278805516,
                1.5427303663715828,
                1.8231607068255355,
                -0.8422039348606927,
                0.1667507246586396,
                -0.19278841178895634,
                -0.22334991723221867,
                0.9503467213504947,
                -1.788495136177962,
                -5.503636358805673,
                -5.515729054149713,
                -1.0157417346698796,
                -1.6466609995347028,
                -4.0957898195904425,
                -2.7683053482518436,
                -3.382060360571376,
                -6.1460790760333905,
                -3.13740523300311,
                -4.60158039962634,
                -3.3912192100587806,
                -1.721538454496434,
                -1.2081448446227359,
                0.5046685049995693,
                -1.0076366348673198,
                0.798895411023782,
                -4.284947984809261,
                -2.528506688335389,
                1.2708462628195385,
                -0.10434607532524649,
                0.12796475711650632,
                -0.16682660399104673,
                -0.05538413918422185,
                0.23064748328564072,
                0.16528814257140736,
                -0.23655059823081895,
                -4.864401696397616,
                -3.8177097555402257,
                -3.9335160328220806,
                -5.571071866087198,
                -5.689807609370942,
                -3.808937242150506,
                -1.1683993280082157,
                -4.16977598325581,
                -4.401437772713155,
                -5.207688450466404,
                -4.712951836992876,
                -4.656929143077146,
                -5.039681948540609,
                0.48993787576450104,
                -0.91125809304477,
                0.8709403527196972,
                -0.29440641283003216,
                -0.2936307417697702,
                -2.855908272495336,
                -0.5723884061119551,
                0.24293920323885013,
                -1.6079431661436934,
                -0.8170450670606857,
                1.0492787310835077,
                0.40555693496397005,
                0.22492902751572433,
                -0.8447917438951109,
                -0.21621427503071625,
                -2.4237653948408586,
                -3.4959147287815417,
                -3.583602007184228,
                -6.763760864230817,
                -4.098600030457376,
                -1.92887329546176,
                -1.1428871622285368,
                -0.44036655102225974,
                -1.3326271132400442,
                -2.6223140563715055,
                -3.571222250115258,
                -0.580551134674677,
                -2.045902578651024,
                -3.354180355226632,
                0.534448894945565,
                1.7142595743802576,
                -1.164599969206615,
                -0.546797387952295,
                -0.3175437179391148,
                1.2887781283268211,
                -0.5087252813054435,
                -1.3286140353394453,
                -0.6862240299341822,
                -0.19483250541633207,
                0.2728634119015437,
                -0.6833435873001691,
                -0.5112744449804377,
                -1.8028203756107066,
                -2.657099740412569,
                -0.8850563452269464,
                -1.7438967436974293,
                -6.0857938575218515,
                -5.280342530227174,
                -1.637329802896045,
                -1.638700902119294,
                1.3742753377452657,
                3.0525434791687567,
                1.3622617939489836,
                0.3330150131025522,
                -1.7106327433314483,
                0.3606273116969238,
                -2.967830430615304,
                -1.6636106179116867,
                -2.3636245234504343,
                -4.116384401906871,
                -3.072683468723055,
                -2.378322955649161,
                -1.605586398159123,
                -0.5781855771917588,
                -2.006773899915578,
                -0.6731036679888579,
                0.20775573406381448,
                -0.6825514273848796,
                0.10458892865590645,
                -2.149483727210176,
                -0.9675281734785958,
                -1.1331352999037565,
                2.62067909912854,
                -0.5254438139133959,
                -2.235781645343514,
                0.6487383683104294,
                -0.34649677141827884,
                0.9346098459502314,
                3.8026399386774914,
                9.191780666056957,
                5.626499360933759,
                3.6737529700848386,
                -0.11643336634500039,
                -1.9438834276392931,
                -4.382370182433829,
                -5.799089200338091,
                -2.3432213221603493,
                -5.041207326676136,
                -2.6271063972287645,
                0.9423656874116857,
                -0.4786153422459709,
                0.23188521564690148,
                1.2784115071802116,
                -0.1226577746438294,
                0.8550050313678855,
                1.1573387894738052,
                -0.533473249895812,
                -0.4024550402558868,
                -0.7021321122508402,
                0.2519743286517968,
                0.7890144907109464,
                0.6231528922711962,
                -1.0571389169452186,
                -1.5344094131135089,
                -1.8543547129656566,
                -1.519574246452957,
                1.1315975157971805,
                8.429549305514064,
                9.352552827993607,
                1.3941177920423842,
                -3.1764450872008654,
                -4.87617123549653,
                -7.615512320095856,
                -4.04681690521552,
                -4.703905089743039,
                -2.870593617843839,
                -1.3547348685139822,
                -1.9679614794091103,
                -1.4482348174774304,
                1.2595630779047642,
                -0.6344450871562921,
                -0.8773931222432826,
                -0.14331419745261126,
                -0.4931459577184731,
                0.8621991664498393,
                0.7279362501390445,
                1.3954523908225607,
                -0.42421100070813883,
                0.030832635626782255,
                0.569181294928019,
                -1.246640494910382,
                -3.393845188200486,
                -3.785835624969076,
                0.10900414742290025,
                1.0296073790079436,
                6.030134734625078,
                7.001089127121846,
                0.9134105387473413,
                -2.777825600202949,
                -4.08365610458473,
                -4.375768565735763,
                -1.5686674369441567,
                -4.224690550687855,
                -2.2265254443684683,
                -1.1230913897824928,
                -1.340037766457161,
                -1.0336876364463732,
                0.438286167426521,
                0.17546845830086816,
                -0.18780173179752377,
                0.644958464032844,
                -1.6336075145251017,
                0.6707222335936757,
                0.34323055233032346,
                1.1928839518489573,
                0.4440294545549574,
                -2.0530946245805053,
                -0.4944200468321067,
                -0.4657563885594214,
                -3.376598460065231,
                -2.730452691973817,
                1.0478147171816203,
                -0.2207908378332816,
                5.3360638062263455,
                1.2851975922229386,
                3.4835833140305272,
                -0.6536092450088006,
                -2.279323559331175,
                -4.276510843855308,
                -2.940508163511508,
                -1.1466071250556118,
                -2.9139205923320657,
                -0.3141178519153601,
                -1.2180524304954892,
                -0.09298456711320457,
                0.1639480999995115,
                -0.25598027881637836,
                -0.6857164369395596,
                0.7639851259317009,
                -1.7186904474562343,
                0.31636117750466836,
                -0.4413234173147294,
                -0.005263923996222603,
                -0.3315717859812569,
                -0.9901903497053031,
                0.08484464125930465,
                -3.9015776681304706,
                -5.835446176999999,
                -2.1756968911869428,
                1.039708016529307,
                -0.4982747864060886,
                3.7657449246707535,
                -1.0141879550385813,
                2.9093788545338417,
                -2.8724292090573202,
                -5.251369063009384,
                -5.35470959664487,
                -1.999656359427532,
                0.024082932042894932,
                0.8645982311269004,
                -0.18365797277787407,
                0.48928298629604444,
                0.1609977697042738,
                1.189883704225903,
                -0.23870761311643632,
                0.0379781386366946,
                0.38709611981928765,
                1.2956349531678628,
                -0.21267616429348876,
                1.132215296965952,
                -0.9563454670233001,
                -0.8484286421110167,
                -1.4116938181704668,
                -2.5185281953342584,
                -2.9575626369881327,
                -1.7290554528523363,
                -2.3812795768866417,
                -0.18258689461603617,
                0.5849497971166993,
                2.7892182959521907,
                -1.4400586813556198,
                4.541553935638056,
                -3.306815321401013,
                -6.30661234726412,
                -3.502405424847747,
                -4.652820928808695,
                0.2030452264032764,
                0.25919491313163556,
                -1.1892015938838014,
                -0.5270158394521021,
                -0.9117742625163808,
                -1.6493085406306367,
                -0.8694198953845467,
                -0.953744403986009,
                0.8620306595805249,
                0.19344559109395693,
                -2.6276842574799217,
                -1.434756103882723,
                0.660128094909693,
                0.8866154050814493,
                0.14299692593480018,
                -2.52221903178805,
                -4.02171392790709,
                -1.8138275116972518,
                -0.9283856092298491,
                -0.7471280267644111,
                1.7687509109863087,
                3.823717657351667,
                -1.5569168478957611,
                1.084578481912509,
                -5.328330547464857,
                -5.615273941108986,
                -4.609728737037929,
                -1.0319213302315997,
                -0.9655685969523787,
                0.2327141059027073,
                -1.8892669407726717,
                1.0112740215221316,
                1.2308741405771215,
                2.0917007561833914,
                0.8627576129006925,
                0.21429121460865452,
                0.15579387600541889,
                -1.1552015767837178,
                0.12212465450481892,
                1.1735903659892877,
                1.1932265426611337,
                -1.1186368966582603,
                1.1762785368942765,
                -0.8633378394501139,
                -2.857660951226754,
                1.5366317179337796,
                1.5981688694776113,
                3.5991353469187066,
                3.983580618887569,
                5.386600536168272,
                0.9165589154520543,
                -2.4837056959688772,
                -4.859764661266197,
                -2.7912116057719865,
                -3.524862874481382,
                -1.5754983532878022,
                -2.1095877389026336,
                0.8647078946499241,
                0.49963194287053675,
                0.039068109769156104,
                -0.842674742604468,
                1.2329708063943443,
                0.9580736151241359,
                0.1245788772459171,
                -0.5303303616742261,
                1.1847496114851455,
                -0.8541619561364595,
                -0.30168588877174857,
                1.3568579233672216,
                0.8777808369492777,
                0.14853609105025717,
                0.8353490742196877,
                0.5340816774937437,
                0.5334057549024535,
                2.8664035795464664,
                8.857296141895597,
                7.83356520356069,
                4.743931432302457,
                -2.8274808505946334,
                -5.023326741652734,
                -3.6512283974318973,
                -2.249295519694846,
                -0.8393203739226852,
                -1.183897015814084,
                -0.5897495890021441,
                -0.8318737890621327,
                -1.6096565093360644,
                -0.1308362302740402,
                -0.4726427513927712,
                0.4785627428885108,
                1.0254097611995903,
                -0.45540195933118166,
                1.4934506065451412,
                0.6419419631387967,
                0.39697907139711613,
                -0.8139836337992076,
                -3.69564174649722,
                -1.7157887750913914,
                0.35313035383612584,
                -0.5890266264916348,
                3.6029076518506318,
                5.472654191932595,
                3.507916035874596,
                5.02516663528004,
                4.48171708946193,
                3.1331057898425163,
                -1.670056298395927,
                -3.1034265417208724,
                -3.8098013762140766,
                -0.9562742943530014,
                0.8755675802913746,
                -2.035850502276127,
                -1.7407653985200884,
                -1.3259017430146973,
                -0.2138608822352232,
                1.090041332680155,
                -0.9501044176485223,
                -0.2913422574381692,
                -0.35261993801074504,
                0.737964578940098,
                -0.20438161054323592,
                -1.15635664662603,
                -1.2656288319303612,
                -0.8509849539104417,
                -4.249612635857112,
                -1.4575299244722228,
                -2.115069055678533,
                0.7853565473282065,
                -0.12168929708851813,
                0.34615252767406585,
                2.2254073649161916,
                -0.06895101070844485,
                3.1731914588895282,
                4.0214001913881985,
                -0.3570921855018501,
                0.7031055410053185,
                -1.8333665826532128,
                0.26706917968487504,
                -1.444556244171841,
                -2.181161470416918,
                -4.239275527534075,
                -2.5363022407586553,
                1.0757472967859651,
                -1.0848049851127368,
                -0.23246162043290763,
                -0.7073919339598529,
                -1.7233350838562531,
                -0.7853997345222514,
                0.9627006256673387,
                1.2037324115923485,
                -0.3026293959609683,
                1.2343997597443752,
                -0.24748566752152285,
                0.9658841361842558,
                -0.7970511997221121,
                0.3499793446426187,
                -1.1149664147760476,
                1.6245104206866017,
                0.855507731111056,
                -3.0619630559367055,
                -4.117456762310007,
                -0.234755400979138,
                0.31556219968887467,
                1.2941760905699813,
                0.7673709905465067,
                1.3267626959778605,
                -0.7258203477522583,
                -1.2325772089844829,
                -1.4407240007218236,
                -2.8244304355988934,
                -2.378626904076472,
                -0.05230632598339346,
                -1.651651242836788,
                2.023545699893401,
                -1.6870828734309136,
                0.9195155860592042,
                -1.0203618287295133,
                0.69509069045139,
                -1.2850259454485229,
                2.015752242836417,
                5.366070764454826,
                1.7294385144673046,
                -0.715095538623297,
                -2.8500478791113415,
                -3.148957467090734,
                -2.3646009593034223,
                -3.5250417775907064,
                -5.794416918753216,
                -6.587606382328432,
                -1.742243941368886,
                -1.3106921617730445,
                5.269480773505704,
                6.369712563604562,
                5.605876713229148,
                1.078545478311671,
                -1.9114375153550072,
                0.20782964765881137,
                0.6696923284147818,
                -0.22137882153726618,
                -1.3695783491182902,
                0.6364242712143727,
                0.08499618126813822,
                0.7362669803031627,
                2.0732257762969093,
                -0.45404016470343794,
                -0.2803086176078364,
                -1.920220724584234,
                0.7425130941680259,
                4.549933461181201,
                2.996500063822208,
                -1.2226330349742824,
                -3.5221046647901204,
                -4.793436813911377,
                -1.8346921629553818,
                -2.9440080699937057,
                -1.9875128851025645,
                -3.667074361784367,
                -3.5421332340104508,
                -0.8763634270535159,
                -0.7528570342200085,
                4.490607522191738,
                2.3518909050852814,
                3.4691837089125728,
                0.17734939632767102,
                0.21916127601574384,
                0.662611004112915,
                1.628324689754879,
                -0.2909282429377015,
                1.5386407520581624,
                -0.9412776544545203,
                0.22816217624376742,
                -0.1596920614773732,
                0.5756775521100941,
                -1.3817663300938983,
                0.31434010601128815,
                1.7130071991271012,
                -1.0287172645193843,
                -0.9234636933783056,
                -1.240778381312818,
                -2.129663338079097,
                -1.9450333697803626,
                -1.9609392134809107,
                -3.577737235796923,
                -6.165617043601754,
                -4.48862883461767,
                -4.029274986859129,
                -4.303735239252046,
                -7.929209384452332,
                -2.8867481855284933,
                0.1216182280587392,
                -0.978541372147864,
                -0.4405239773925669,
                0.5539070655362723,
                0.006777019572629227,
                0.37426812158306627,
                -0.22425957609823124,
                0.408000037243997,
                0.8644914778240179,
                -0.9221588664100175,
                0.3283732332002445,
                0.6852686255538176,
                0.8009705255174483,
                -0.37349903710487486,
                0.5355481444033607,
                0.9189131740798936,
                0.9744818398160556,
                -0.30485598302615674,
                -4.118158582776729,
                -2.866394463014546,
                -2.6450707020922417,
                -5.004270793700857,
                -2.937753387714574,
                -3.439589065065457,
                -2.0837520603489925,
                -4.8322633730964775,
                -3.7462784239733145,
                -1.7881557344198695,
                -0.05589194157577889,
                -1.2128964258943924,
                1.1603906467690963,
                -0.5825423657009854,
                1.1252027790595938,
                -0.529927024196949,
                -0.38319806151129815,
                1.7418238668527928,
                -0.7701730563224256,
                -0.4914450806246014,
                0.06624842350912184,
                -0.9479884912688737,
                -0.0378444835869831,
                -0.6063990602744219,
                0.3742277136066959,
                -1.9463077682340773,
                0.1397560496278506,
                -0.2948963198937797,
                0.4843011083802535,
                0.2927467463731455,
                -1.613949045562094,
                -0.7645261994590391,
                -1.0891531805641694,
                -1.3445463956034212,
                -3.405174895761048,
                -2.572906693093017,
                -1.2878574415125263,
                -0.13917769578805106,
                -1.048372261230513,
                -0.46730827590208424,
                -1.6438415029136777,
                2.4538803907767,
                1.297056869726865,
                1.7140627056824775,
                -0.0444018835384203,
                -0.616085725757234,
                -1.7530241941546192,
                0.2224976108304356,
                -0.44711603425256297,
                0.17269945610352175,
                0.33028579935627744,
                0.5780531787572857,
                -0.0663248381701643,
                -0.666392074541422,
                -0.49552882477415894,
                2.3371526297471967,
                -0.9491138959739045,
                -0.4251100318261419,
                -0.11594098518994365,
                0.3604013106830597,
                -2.79893915858458,
                -0.7950153414871904,
                -1.8085601103157227,
                -0.8469641061320712,
                0.624965243302314,
                -0.5147650762606211,
                0.6723801825938928,
                -0.34237104277834773,
                0.6732395399142539,
                -1.0445114112709968,
                2.534550045681648,
                -0.9661040882775741,
                -0.4264566430741429,
                -0.5276934896962052,
                -0.4816677259230468,
                -0.47725747359838994
            ],
            [
                -0.19345083286956516,
                -0.5058540992189895,
                -0.09952155185042214,
                1.5504388855447253,
                1.9898551203198906,
                0.030585691188015147,
                -0.9295389515299638,
                -1.876920392451764,
                0.9094125694733141,
                -0.9008549162784462,
                -0.5872396659049787,
                0.6190409580827064,
                -1.247983529797079,
                1.6939189107737143,
                -0.45636377000143297,
                -2.3255818370975594,
                -0.832007774008332,
                1.190224619103899,
                -0.5757780686043793,
                0.15042191002892033,
                0.6153344088568814,
                -1.2336959171538326,
                -1.2235218669714698,
                0.4653853384100645,
                -1.5725918225061997,
                -1.97719958382325,
                1.4915745561452727,
                0.4202244086166923,
                0.10826810285161186,
                0.04489606012569684,
                0.6605125356852605,
                -0.25455397458810314,
                -0.0705628261755329,
                -2.3103574694308877,
                -0.15559837033541135,
                -1.4764112373603577,
                -0.913459030691687,
                1.7102341539120847,
                -1.6486548693450975,
                -0.6275846259224223,
                0.8289617096624459,
                0.32511575066600035,
                -1.1531588510494826,
                0.2838498303193403,
                0.4660616420211209,
                0.23317209144165443,
                -1.0456980890068717,
                1.7822466893882993,
                1.1159479300736133,
                0.48982786809053136,
                -0.615143028155868,
                0.5673452023647234,
                0.3609891841238698,
                0.33697919671255633,
                -0.444482819725834,
                -0.05851075877080419,
                -0.29460054314683976,
                0.023003872249141504,
                1.3514528721649994,
                -0.24626246287667564,
                0.6309623299851456,
                0.8386392569266956,
                1.117514226620332,
                0.5693672365097815,
                -0.7608829166377349,
                -0.6572980734251248,
                -0.11696685384393506,
                -2.3760254635325384,
                -0.4610831453690794,
                -0.030097512649605567,
                -0.6003020021144727,
                -1.1142033807317422,
                0.9452567372870061,
                -0.9772965094657001,
                -1.570519574787922,
                -0.6705280488778314,
                0.13887490968513969,
                -0.9014409472550505,
                0.2830985706687309,
                0.7330760886309476,
                0.651933736769798,
                1.0852591873387183,
                0.2089833953215494,
                1.0508874308788867,
                0.565997692115216,
                -0.386530691918764,
                -1.3249016997026049,
                -1.1136420835971381,
                -0.6982008564757504,
                0.490243937514321,
                -0.7029069202902775,
                -2.641071059333113,
                -1.4093858137383315,
                -0.3244344177672076,
                0.9787714476464626,
                -0.062351474881824256,
                -1.9812960385307241,
                -1.920386858021353,
                -1.8581538916456941,
                -1.7666092504305244,
                -1.5596870170604626,
                -0.8251621767012787,
                -0.23446413898806576,
                0.6945831717389503,
                1.4454974975325217,
                -0.1742841077570697,
                0.43883694270720625,
                -0.5618221659703433,
                0.5698865473659831,
                -1.1690017476036314,
                0.6922649751534248,
                -0.3807833712678335,
                0.6711079628736932,
                0.5880748573093914,
                -1.9577925015470516,
                0.30926364422172414,
                1.6857448356410154,
                0.3445879227380558,
                1.2550113889509273,
                -0.7723377963984449,
                1.0937551676841288,
                1.8577346338029184,
                1.202482256026158,
                -0.7802558534434274,
                -0.23709851012920577,
                -1.1671210756381498,
                -0.8902451604937015,
                -0.3998650319606335,
                -2.54572829678178,
                -1.6384921946339877,
                -2.5128991379082093,
                0.6933221079519736,
                -1.3038693529218948,
                -1.7171953654049692,
                -0.11341727543237826,
                -0.8325444917687729,
                1.7289716513607662,
                0.3841187721708085,
                0.8549408552553218,
                1.4945958952746097,
                -0.3216562103518517,
                1.385201592293625,
                0.5222436537106648,
                1.013837357176207,
                0.9502995142182611,
                -0.4374966119992442,
                0.3904829980133401,
                0.6642475202756055,
                1.206975586767954,
                0.7979031239176926,
                1.632088232714149,
                -0.5038861245026501,
                -0.027011430773794465,
                0.9379221904962829,
                0.9163566271985791,
                1.6462013740729013,
                0.013318078170608658,
                1.9216358587002047,
                -2.681038980328427,
                -1.1870284091470393,
                -1.8532533214697204,
                -1.560675497831673,
                -2.368297502444681,
                -0.4429955345816443,
                -1.5115976024148259,
                1.8557410392774636,
                0.5176439413401924,
                -1.2252566796274627,
                0.4810330095596533,
                1.0011831220270329,
                1.4417139339985987,
                -1.0762048041358074,
                -0.8352862019196259,
                -0.832597141391374,
                1.5065344080344905,
                4.1420013002807,
                4.079263723660562,
                2.689396117636975,
                0.8532328351956744,
                0.49159160474290714,
                -0.41675861296279676,
                0.3165122044889936,
                -1.5740810285475815,
                -0.3772293909691578,
                0.734684218660963,
                2.1654254503968264,
                -0.39022131027840723,
                -0.7973122165674943,
                -2.6046184538532273,
                -1.8330149629762758,
                -2.3799361295231165,
                -1.0121984595891875,
                -0.6743333796814446,
                0.14231102406764343,
                0.20694367226810131,
                0.3021870889691732,
                0.23922874250089604,
                0.15022190720292763,
                1.374891530507175,
                1.0230474443801763,
                4.585560687490155,
                1.2765624427208204,
                1.790154213499464,
                3.327846450724801,
                3.8683984519499615,
                2.238620640475532,
                1.5781250853639956,
                0.9752485325055591,
                -1.1656054733786487,
                -1.4508958670600964,
                -3.162305524354339,
                -4.267618486905654,
                0.2654630267082636,
                0.9397618065882583,
                1.3674479042480574,
                1.2285966766066663,
                1.4609534208752535,
                2.984052252187754,
                -0.5452073481786182,
                -2.009066766175634,
                -1.0692961233092413,
                -1.0896104141746181,
                0.48889599869112554,
                1.5694013357457244,
                -0.6334174484653499,
                -0.9703870950148433,
                0.08391154508444652,
                1.2366197158999161,
                2.0804346505027254,
                2.8008311987601395,
                0.9703244550524333,
                5.83573041913828,
                4.5890529857810325,
                1.0809382283452698,
                1.7967145534564233,
                1.2170952316903982,
                2.6966221164887365,
                0.2207645582225709,
                1.0416956110026814,
                -0.8853304761698356,
                -1.3502037966339229,
                1.6717361665327728,
                0.9022449982249161,
                0.12855895436613193,
                2.81634311210881,
                1.4643406268917418,
                2.613913923877936,
                -1.1660712155299542,
                -3.2877517898478383,
                -0.33543108672798916,
                -0.1591763728247656,
                1.3076015189347931,
                -1.592144413842257,
                1.342998300241673,
                -0.125757275459894,
                1.6032812694305638,
                2.436195117040166,
                3.7591867053957597,
                4.054475772541611,
                0.9714320405835263,
                3.424675000717553,
                3.3515414300264124,
                3.8774097841149207,
                5.936763088554648,
                6.820308483255863,
                8.394393222557898,
                6.831535131393655,
                4.593408587180514,
                1.106989286818473,
                1.157180622833519,
                0.6951455365429006,
                -0.4028930213265376,
                -1.9311440210962092,
                1.6017483722631107,
                1.1624397249081917,
                -0.7678269525949011,
                -1.7880655546052946,
                -0.4972705737028082,
                0.6830204152720096,
                -0.3413100162398391,
                -1.1264662675967985,
                0.4190419124803972,
                0.020602327584696926,
                -0.08248946499818173,
                2.8488668403869184,
                2.8834303731712247,
                1.407869708121985,
                4.902196782173944,
                4.938229488790777,
                2.2572306963339397,
                2.467334803681956,
                3.2822075788999983,
                3.3537192022296156,
                4.030680314680331,
                5.269091569155636,
                2.4477579130936475,
                2.511700100625335,
                3.3435179652063556,
                1.7457892482923274,
                0.866038852477493,
                2.1177747628456784,
                1.9859526621940535,
                0.414646745335914,
                -2.469331347083052,
                0.28811630021550816,
                -1.0805150657720013,
                -1.625808602535743,
                -0.5236665231930028,
                1.2495531832210247,
                1.1716501289370418,
                1.5285158427150354,
                -2.1542859313671596,
                -1.2001810656152803,
                1.0852868251627688,
                -0.06067563994102923,
                2.451350131018613,
                -0.5994231843749965,
                0.33859805764229084,
                2.2532849435337132,
                0.5384429454005616,
                -2.5876901461980673,
                -5.548163710360698,
                -9.153292921942676,
                -3.9477615121725362,
                -1.4026782056023384,
                -1.2683095667416897,
                -0.31195210860481126,
                -1.2449766611122517,
                0.2322539200588205,
                -0.34010318671611417,
                -1.5439995582454364,
                -1.688272544102002,
                -1.3257354252792162,
                -0.1569419907473733,
                0.559261367846687,
                -1.0044147938541723,
                -0.5147156497481568,
                0.2816061147343452,
                -0.23755931979213493,
                -0.04437591369465489,
                0.33130328959650557,
                0.3554365105332492,
                -2.0243388601847454,
                1.3729681794853774,
                -0.32139806412347915,
                -0.6248984607891798,
                -3.5885550305236413,
                -4.657088623551591,
                -9.146207890307828,
                -12.203267506504318,
                -9.669370716411624,
                -3.526395338506323,
                -0.6379297079789574,
                1.037293029648639,
                -0.9686330761497716,
                -2.3477941742052644,
                -3.139737298913727,
                -4.36529940701908,
                -2.1131121723806987,
                -4.1823418946973785,
                -1.5016084767016487,
                -0.7976292246046378,
                0.06363291475970291,
                -0.4490307563799004,
                -1.1710269588905522,
                -1.3850136376492537,
                -1.2278816413649636,
                -0.6204256677880886,
                -0.546599622237686,
                -2.6829949756830302,
                -3.5493346290567063,
                -2.564299858171521,
                -3.9817457824509828,
                -4.133004364121269,
                -6.304863508115453,
                -7.598312969769417,
                -14.603291440264071,
                -7.643912776087228,
                -5.88792630115633,
                -2.531299844617291,
                -1.8999506078983108,
                0.2955169092641396,
                -2.0195928394653797,
                -1.3864792326524693,
                -3.802609462036483,
                -4.945613525257493,
                -2.8870720756167,
                -3.875466134702122,
                -1.1270610977160824,
                2.310232312683515,
                1.6889860783100652,
                -0.04768330353802507,
                1.3517063548321666,
                -0.5920845316348234,
                -1.7872020800816495,
                -0.7339383355832929,
                -1.042366166344092,
                -4.145801784991598,
                -3.830418988714494,
                -4.810103395202828,
                -6.297605267950909,
                -7.972865928694044,
                -12.390735611315515,
                -10.133153768223387,
                -9.041865826953337,
                -3.3337667710215757,
                -2.6195732404774055,
                0.3007357437842709,
                0.6693449885392148,
                0.031145863435787145,
                -0.04991366431074073,
                1.1650487491390655,
                -2.015687632542576,
                -2.5275891189944275,
                -0.34225525807598706,
                -2.219678449177095,
                -0.33185945798549704,
                1.083357461304696,
                1.853150844598189,
                -0.3346734034073504,
                0.12877224760853861,
                0.23885216567966866,
                1.3411955317873545,
                0.38481998747712864,
                -1.6438679356651622,
                -4.23744733569507,
                -6.5427632354420595,
                -6.8703684787493735,
                -10.601778862317444,
                -9.995667795246918,
                -9.45635243945162,
                -5.774204046486069,
                -2.508125797747304,
                -1.4311536332260326,
                0.05358456489100623,
                -1.3598973066484188,
                0.5166186604880836,
                -1.2133092031626618,
                1.7218801317033616,
                0.6114603125968523,
                1.4435263920297468,
                1.4641259694427537,
                1.3814034923639649,
                0.8603487298895672,
                0.2530162800689093,
                1.7696124959268067,
                0.5996184972547658,
                -0.9635094671701947,
                0.4450940378023414,
                1.9727228704009732,
                -0.711266684929639,
                -0.46388492734904374,
                -1.154040238046752,
                -4.271962300150832,
                -3.971395891850965,
                -5.889654032144671,
                -7.642671410610715,
                -4.9688872933874,
                -4.04667602099147,
                -0.4297560789206296,
                -1.1065271408251758,
                -0.1340866299274236,
                0.8542827423488698,
                0.04988146011210177,
                1.2503447793034468,
                -0.14291287519390522,
                0.5088370879733338,
                1.7398448919032419,
                2.408225884486926,
                2.223233154578786,
                0.4381829119531241,
                -0.6964834015946291,
                1.7336936771350417,
                1.008460473247539,
                0.21024060961972516,
                0.6246445784528155,
                1.5031955489922415,
                0.44004179304562796,
                0.7691789253475462,
                -1.9043787506963386,
                -1.862995916118351,
                -4.904363430652473,
                -4.273641645887247,
                -3.4624249340193143,
                -2.714211657113084,
                -1.960283842785179,
                0.34810098855362703,
                0.780354700597702,
                0.1326060153368846,
                -0.11472238671038827,
                -1.2187061948315843,
                2.5417204379405973,
                0.9505724818308363,
                0.398691364497207,
                -0.0033956310151347794,
                2.402283349345003,
                1.6152315487099527,
                0.18533563849406237,
                1.233473841880282,
                2.480660056575445,
                3.70252526529584,
                1.5112285140692692,
                0.791009814418142,
                -0.303475234132085,
                0.3197679421374097,
                -1.3847675258043866,
                -0.8084460013928972,
                -0.5863299917382412,
                -2.0310567467489338,
                -1.931276173233647,
                -0.7309503398974591,
                -1.5922041435296872,
                -2.178165697964515,
                2.497368351459735,
                0.4160231884571795,
                0.11990651661768371,
                -2.271581288934929,
                0.6547410615888296,
                0.06316500372089692,
                2.6629781262871868,
                3.074986012455106,
                -0.01781444806132994,
                -1.4226110171525699,
                -5.2020469582147095,
                -0.3460390924406316,
                -2.394742314738377,
                -0.30613234443970366,
                1.979309664653413,
                1.7791787543854014,
                0.8057236896012547,
                1.3534618191016263,
                0.30809568906794493,
                0.1772106268068233,
                1.1119042672615431,
                -0.3403367226203863,
                -2.00949928433948,
                -3.5024942398917123,
                -0.39054954653257207,
                -3.240482438926919,
                -1.956323653553719,
                -0.854374203757399,
                2.5083599457138925,
                0.7715476029386592,
                1.9648725329507835,
                -0.6623852980033869,
                2.9144895159204327,
                5.393074861945718,
                3.3206102779659044,
                -0.6571768256255034,
                -1.240764361790745,
                -4.956776305448265,
                -3.4844118860157494,
                -1.3071301426975825,
                -1.1267480660945057,
                0.6168764319512254,
                0.8716920655401645,
                1.4717645835748345,
                1.132643950950049,
                -0.28085747463046296,
                -0.5358693124432992,
                -2.6215239469407536,
                1.0327773499673598,
                0.8316039862869598,
                -0.3660647548726641,
                -1.6522378166827434,
                0.6900173305003366,
                -2.3097277661975624,
                1.4162596634581865,
                -0.17657263697021588,
                -0.4060178460054302,
                -0.027153488609068858,
                1.2552069539874768,
                2.2830235618580557,
                1.3840675627522288,
                2.460143491320275,
                -0.15352701420733136,
                0.32261456615917916,
                0.24020804724815392,
                -3.2649563624186033,
                -1.7574458255565124,
                -2.8067873545254414,
                -0.7286805136532092,
                0.31522003733805026,
                0.7998615726461549,
                -0.6822723470238049,
                1.029145680599215,
                -0.7965930808828607,
                0.7681648250292231,
                1.4762349364617156,
                -1.052994210105959,
                -1.344715816843519,
                0.5276574473239288,
                1.3509601549566261,
                -0.6760318989633407,
                -4.046290308483273,
                -1.5820716737470466,
                1.2502577971523121,
                0.7893361046068896,
                -2.824881141501238,
                -0.5913431128454987,
                0.5732880580619863,
                1.344820355334439,
                -1.0441205030572918,
                -0.3516786574820079,
                2.3901112662606283,
                -2.1587768588599854,
                0.19191709000634335,
                1.2100883205899489,
                -0.5337845143277667,
                0.21128097453951003,
                1.2918633891588776,
                -0.17791351500756042,
                2.4730350669542323,
                -0.38805506252174776,
                1.4866981568311197,
                1.3566674058814587,
                0.24979185193157846,
                -0.7329895923363623,
                -1.597578548136033,
                -1.1385796621905273,
                -0.017626593555812347,
                1.2136690585724876,
                0.29488187343100136,
                1.098858440393874,
                2.5223871287083983,
                0.7485311776341861,
                0.34296299961874277,
                -1.9928805749896645,
                -0.06475307804967567,
                -0.9033925069301567,
                -2.8472622198214683,
                0.7495891124800337,
                -0.9647160255176538,
                -1.6145235219646927,
                -0.47567997176721105,
                2.8699545919505294,
                2.256244628318824,
                2.1512301413365624,
                0.07026825725697357,
                1.2576239938720533,
                0.9715236883837197,
                1.0263638149874688,
                -0.5259828982742347,
                -0.6361392177475549,
                -1.0837445307448488,
                -0.287611548628434,
                -1.395990899655275,
                0.07541318558774301,
                0.5468252018663283,
                1.879990007760795,
                1.1627426980746511,
                1.1969426108912204,
                -1.8313740693786786,
                -1.6059396663467467,
                -2.6078659743037984,
                -0.47786497333319405,
                -2.4609755662693744,
                -3.8044628538993535,
                -3.3820857737512258,
                -1.5217328532657957,
                -2.3658629759269756,
                0.6256977694871714,
                1.925424895123941,
                0.16605761658340834,
                0.10488941978497476,
                -0.7048559500598095,
                -1.9986243259197927,
                -0.5059023112222977,
                -0.11470699666426161,
                -0.1693846653875931,
                0.3900028299263476,
                0.5964615635505711,
                -0.49531826997456807,
                0.42660597379509557,
                -1.3643204041038741,
                -0.6067515486007509,
                0.021344964184101284,
                0.5605857786370192,
                0.852035595329559,
                0.027383349259651128,
                -1.2699470189523383,
                -1.0467817148796996,
                -0.8184880910535153,
                -0.5069187889130112,
                -1.6137917830336177,
                -1.4276211747407535,
                1.616695243291181,
                0.5020560390138693,
                -0.7014313661985269,
                0.4981249900753526,
                -1.633952430115992,
                -2.7912870449090468,
                -4.402366471540056,
                -2.7665182451628993,
                -2.370929127154568,
                -2.3082502366839788,
                -1.1405386461276317,
                -0.5320295513714887,
                -0.4249898384651896,
                0.5316260179720854,
                1.9864800150381237,
                0.6035448896902489,
                -1.0175015586713687,
                -2.3942116781904508,
                0.2341944587671854,
                1.5984165585683523,
                0.2594989838886565,
                1.3705948928047371,
                2.9152920632873314,
                2.3843795461208797,
                -1.2596068101883742,
                -1.1191558446510377,
                1.6315626105039553,
                0.32849670661172403,
                0.5690765617213189,
                3.092795345130256,
                -0.20262610162960548,
                0.6333689473632721,
                -1.295077954783706,
                0.46337240604365204,
                -3.3939880866092715,
                -2.294603667023677,
                0.6003472550552407,
                -1.5004864421699686,
                0.8458785410717086,
                0.2539889001341103,
                -1.8275006949189896,
                -1.1082887922191775,
                1.1834077261943416,
                0.47946067791287267,
                0.20479141069833312,
                0.8221586861065953,
                0.2216626601928355,
                -0.21971004203141287,
                -1.2503717031900128,
                -0.28088421322540225,
                0.13252831935207068,
                0.7209512407661888,
                -0.3604057532907597,
                2.3146233083971763,
                0.4245279129871728,
                -0.6716929917799561,
                1.8594880424362028,
                -0.14532403370880387,
                0.12037131247715813,
                0.6503620220088812,
                0.9855659962425333,
                0.4660811069272246,
                0.6206142124675282,
                -0.6466381952791996,
                -0.21953576548900045,
                0.3662586999790011,
                0.18012139448940914,
                0.16848403818560836,
                0.637005499002239,
                0.1538009349487782,
                0.3772106871773193,
                -1.0164277349653468,
                -0.10872107172378939,
                -1.4103311568463213,
                -0.11909318782654535,
                -0.3690774908327339,
                1.596630158857565,
                -0.9781552660279724,
                -0.08707151808020301,
                0.8922720699251928,
                1.1269994419734453,
                0.12684705924679912,
                -0.7321330347948793,
                -0.42345883746731233,
                -0.4319431590595148,
                0.380643283085961,
                0.5559560270395646,
                0.2921994227316452,
                -0.056544534597027865,
                0.8298576514075899,
                -0.47593757480977944,
                1.0714050409960343,
                -0.3949219320526639,
                -3.1462382574150323,
                -0.9437792888439691,
                1.0142895780419912,
                1.1748742379532295,
                -0.7213104254164285
            ],
            [
                3.3867777516065636,
                -0.35161323621177426,
                0.29749135913407443,
                1.5907650034582568,
                0.1461282931649923,
                0.40291748166677716,
                0.5095504418258655,
                0.8023852360136972,
                0.09859499260131153,
                -0.6809017982249758,
                0.22906547521003087,
                0.6792006829599342,
                0.23864968923470353,
                -1.4303331055916098,
                0.6367433895325556,
                -0.05940338034367036,
                0.04228850107994312,
                0.1669994115301659,
                -1.251365373912025,
                -0.005082800440567535,
                0.5680111556190578,
                -0.759605215669586,
                -0.30958107417229547,
                0.02337321419540509,
                -1.1015973519849143,
                1.2075802522714667,
                1.0377205490322436,
                -0.212561010613983,
                -0.7709937580031282,
                0.4042226421931176,
                -0.8621359868479165,
                1.7300242572799878,
                -0.348414798822472,
                0.7510137673777298,
                -1.0516524557325782,
                -0.046763189668931636,
                -0.897199432125405,
                -1.02852052433417,
                -1.4546163452440668,
                -0.48829995838458357,
                -0.7210528777495049,
                -0.07115305555188252,
                -1.3619331569155988,
                -0.5184515409488692,
                -1.2677220982834492,
                -0.9238426662831537,
                -0.7773847768814295,
                0.48540605047997093,
                -2.337504995710234,
                0.9885844806647535,
                0.9304689339113795,
                -0.3143532869682139,
                0.8724462786145221,
                -0.110167005062307,
                -0.32609564762450904,
                0.5666360473450652,
                -1.319882859898793,
                0.5608552847591678,
                -0.5005370745034698,
                0.3202278887880086,
                -0.9299100937205874,
                -0.5906462264436487,
                -0.9205563885630643,
                -1.0273785869247862,
                -1.20932951362058,
                -2.2873469023154613,
                -2.3121933679892397,
                -1.8702519951251015,
                -3.528300362220088,
                -3.8673471119541247,
                -2.615590051562381,
                -3.2761513891732092,
                0.25246093615922394,
                -1.432552180932755,
                -0.21245652339548476,
                -0.10129755642385947,
                -0.5825768655095693,
                -0.04633336181914295,
                1.0046441739021839,
                0.02343863984575907,
                -0.5178912272754301,
                0.7073056171408622,
                1.6446588609338477,
                0.6418583664355343,
                0.4277624126574136,
                -1.1222750258529715,
                -1.4161124539433916,
                -2.9004201594199515,
                -0.30887034539866626,
                -2.0184079393378918,
                -0.6662001611875529,
                -1.1662137935315697,
                -2.4635590032597925,
                -4.0656195186858195,
                -2.1721812418311135,
                -5.041963058507469,
                -5.669152670704441,
                -6.510476951343724,
                -3.4795793318613746,
                -3.3705743149593315,
                -3.0112856675217685,
                1.3152641842052835,
                0.788481585607678,
                -0.9285489216945073,
                -0.06297770543773887,
                0.8065408582697086,
                -0.7649762685347188,
                -0.9357714978947901,
                -1.384822691563689,
                -0.17484064271340818,
                -0.2123892356127396,
                -3.2529538100316437,
                -2.181805188314582,
                0.3131728255050612,
                -0.8446864121360891,
                1.0007509756003519,
                0.25600495003569307,
                0.8430456269290091,
                -1.6161771675276302,
                -0.771406033471627,
                -1.5422538825775522,
                -2.471146918577068,
                -2.8763463975712127,
                -2.181687244003555,
                -5.466572440194726,
                -2.8545471848345,
                -4.961647235103019,
                -5.17557211954577,
                -2.021252489125024,
                -2.674951498769692,
                -2.109870171916325,
                -0.7161874663546024,
                -0.01573825582330659,
                0.14820257929477632,
                -0.7694496216275609,
                -0.5934071504173966,
                1.0533931976684074,
                -0.9608026739172691,
                -1.9046960358525995,
                -0.4215499940070744,
                0.21647449630759885,
                -0.2771375416432047,
                1.068695361288156,
                1.7167718452999552,
                1.8636761731589662,
                -0.2263820908065004,
                -0.576700363977069,
                -0.20015409015406999,
                0.6086794942492857,
                0.5244669427069751,
                0.24035475972849082,
                0.01638636344420111,
                0.7492713302579904,
                -0.8239125446380927,
                -3.217796222681104,
                -3.6526228888444874,
                -4.623717195907286,
                0.5693594428816703,
                2.0688762488145973,
                3.1520999214585084,
                -1.1561599778392913,
                1.8387687841794786,
                2.8580492685102494,
                4.051663664212841,
                3.340905026262046,
                1.5329812176085398,
                -1.4305764247343482,
                -0.8139915158104243,
                -1.098803480767633,
                -0.26808631261538196,
                -0.8378197772205523,
                -0.42692976777306785,
                0.8692973936271181,
                1.8259391399739513,
                1.1906628388339657,
                0.7753911226619363,
                -1.2671044789373735,
                1.3015775750441543,
                -0.5767862133509423,
                0.1790939759513147,
                1.7620387955816472,
                -4.005436273928575,
                -2.113439683883909,
                -6.105673191537105,
                -11.378274031814131,
                -5.2814586265148815,
                0.580355824166768,
                2.844270260639068,
                -0.3523705415799319,
                1.8077359755691558,
                2.480261936904941,
                5.764089135328335,
                3.3921066047608375,
                1.2345932102118238,
                0.8487991134692519,
                0.03208103296567263,
                0.850640343586285,
                -0.018686271068606923,
                0.7213289784492989,
                1.6240715398603351,
                0.4383436806669126,
                0.6399870224905437,
                3.473618822242677,
                1.2743382073904566,
                0.6957562665535508,
                -1.503448066684985,
                0.9016260195321221,
                -0.20923497016196765,
                -1.6656709171038222,
                -2.1147896450510917,
                -2.40174079153964,
                -8.997233991628283,
                -11.188110404009715,
                -3.244477606646302,
                1.189307722650963,
                -0.7755878606254479,
                -3.6807378981970804,
                -0.7139356445933673,
                4.604949270754784,
                4.6429251814389945,
                1.2916356907497974,
                0.44698986677437974,
                0.34283672931513565,
                0.6640227394986128,
                -0.01300750997325105,
                1.397248327598416,
                0.3568466972243825,
                0.2966969675168849,
                1.6057724296372873,
                1.4393227063807923,
                1.9716072518364436,
                0.4755518250806585,
                1.6538291321236804,
                -0.7873002095701664,
                0.586577192189726,
                0.09180979051241395,
                1.2493088121578344,
                2.12630204667426,
                -3.2393030665324702,
                -12.146965025812158,
                -10.171723505881848,
                0.2676249396100133,
                1.633601511914643,
                1.431525864676132,
                2.2876967006254354,
                -0.22319689605804427,
                0.8486063686146181,
                4.358049581112649,
                3.319898386611014,
                2.113151567168894,
                -1.0690794479497157,
                -0.09029568719320555,
                0.06574245248516367,
                -0.9924629758012303,
                1.256864366816022,
                0.41495741409639764,
                0.9420835403181229,
                1.2542948443063835,
                0.6358235211763629,
                -0.9670557025869211,
                0.7389066715079287,
                0.36785075151162855,
                0.20250266159721358,
                0.7102793409418134,
                1.6516065734616328,
                3.6329304071189967,
                -3.057146764976811,
                -11.381021750073906,
                -1.6853721076103723,
                4.501909010275445,
                5.200911095519164,
                1.7418021489073585,
                4.570027361577803,
                1.7963204555663856,
                2.219661872996203,
                4.105812750268619,
                3.306645862942361,
                1.3410139945415729,
                -0.5901585837293276,
                -1.1359981803977257,
                0.4982578513037502,
                0.33496039810859646,
                -0.08006548743197116,
                1.8079571158327403,
                1.1421989148603595,
                2.3664365235585576,
                -1.2235831329384488,
                -1.0365462661144256,
                -2.05350614325054,
                -1.1659969608319458,
                0.34788017376031344,
                1.666111369611768,
                3.96946605040957,
                4.666632924415938,
                -2.60740924804996,
                -7.091846281569453,
                0.9051747038468289,
                4.240426276100832,
                2.5125394239215213,
                1.9999157428342933,
                0.14474906483028221,
                -0.6543401416472702,
                -0.923863612585364,
                -1.571687019422623,
                -0.10322833144139527,
                -1.166688672445425,
                -0.9647416385461413,
                -0.1848962060465215,
                1.8789761362580604,
                -0.054619696829505425,
                2.480827789366409,
                0.5225412294515692,
                -0.6933814446269507,
                -0.22562265106392917,
                0.12258135153443973,
                -0.7988163255802201,
                -0.14058149462956945,
                1.5174357959415063,
                3.6611169190882125,
                3.1216371638037343,
                7.368662706019907,
                7.505909718086568,
                -5.583424423950037,
                -5.686602038658671,
                0.15520413767453248,
                1.6276130415696548,
                0.018495960514452302,
                -0.678644359606284,
                -2.912926942658863,
                -0.887869223419507,
                -1.10943426864987,
                -4.345161039701114,
                -2.2268535363514133,
                -2.888988419783291,
                -0.7846712842282959,
                0.040187142484615565,
                1.8498893422174814,
                1.4874260476030345,
                0.3320113290314749,
                1.1103603012094196,
                -0.3052084483932896,
                -1.7204468578828847,
                0.7511822680122925,
                -0.01112895499198577,
                1.4885203025953833,
                2.3447623452173754,
                4.075948045548756,
                4.357704812550589,
                10.924728437548252,
                0.9010013460041539,
                -7.63200805000555,
                -7.285424513194832,
                0.8663113897501863,
                0.23634534530469356,
                -0.9895749174950759,
                -3.75113864582964,
                -2.9026221508437455,
                -1.2109926582097514,
                -1.1899791473392713,
                -5.20881152754736,
                -3.756079932868783,
                -1.10894649225037,
                0.18573183015754738,
                -0.9240071154636788,
                -2.1517255570104616,
                -0.21372539640955826,
                -0.32761107654309,
                -0.6487504017055993,
                -1.853375135654409,
                0.3212468951778721,
                1.6803066485085083,
                0.5968359627326086,
                2.92232459483448,
                3.9640679409757404,
                1.913471829390236,
                4.3800444877938745,
                2.2771192239100944,
                -3.40275886433469,
                -7.052634542498006,
                -4.208054175520767,
                -2.211690370219177,
                -0.22476099083928527,
                0.6245426376676072,
                -1.6529114639215636,
                -0.407332387718513,
                -0.6648104414436175,
                -1.3362943320774154,
                -2.1702291277457486,
                -4.676029698256545,
                -1.4803318214160892,
                0.009010777083349046,
                -0.05062541622487118,
                -0.2638759099999555,
                0.3259087777581803,
                -0.6672879558341854,
                -0.03449012645763923,
                0.9425518310868704,
                0.4494659476858643,
                2.3888344664345778,
                2.5288311385045503,
                2.205057467277929,
                2.653166532753782,
                5.706734657044093,
                -0.1694532997138687,
                -3.6470363603453744,
                -2.7765712181469553,
                -2.6126860066154007,
                -2.6561993473242125,
                -2.6977480375191893,
                2.314979280794163,
                0.11416525572166672,
                0.8806788403185027,
                0.011021093241351396,
                -1.1051310700384265,
                -0.5984099163494929,
                -2.7188730253101485,
                -1.7934360819937205,
                -1.146019994087017,
                0.06463351369317624,
                -2.2917060096432196,
                -1.6854973818806562,
                -0.9445378197402313,
                -1.46487682833229,
                0.9435775208259272,
                -0.28899380362062155,
                1.2609514255496854,
                0.7465516725072563,
                1.2942018059770106,
                1.4202415297273399,
                1.5040072266995426,
                0.45553354928831774,
                -2.464301190209851,
                -2.5904124760779155,
                -2.0904054726288592,
                0.4315328442870863,
                -0.719873662283367,
                -1.4552092310074296,
                -1.1859004484920683,
                -0.6345027951849662,
                -0.4801756723135633,
                -3.8782171750141274,
                -0.2481034450502399,
                -0.14109831694763414,
                1.6508051639447379,
                -0.5677036366123115,
                -0.3220708127792233,
                0.48968663224518894,
                0.47699553811149953,
                0.23926368785217994,
                -1.0464572810810135,
                -0.5092524812625385,
                1.2557749822022297,
                0.43846961913151894,
                1.1550930450522816,
                0.12124803800630625,
                0.38027170497807805,
                0.2568940105284665,
                -2.896729976975813,
                -4.036994697248441,
                -4.7694051601091525,
                -3.61840260479957,
                -0.3904494592487869,
                -0.27607650821982277,
                -1.1123551496045667,
                -0.07827940933314899,
                1.724613444450139,
                2.0436415531801337,
                0.3492517381645758,
                -0.7586805732263062,
                1.9111651817224453,
                0.5192747001664471,
                0.0897282570167691,
                0.20942087788899852,
                -0.4113358595745684,
                1.735912211888694,
                0.47953180850384797,
                0.03479352818250396,
                -0.47675395345889415,
                -0.332097869807693,
                1.6863058339086747,
                0.963120330889373,
                4.408864166568705,
                2.4021842178595514,
                0.5279109861479387,
                0.3197023745591789,
                -2.198624908979426,
                -4.761136261252392,
                -4.658721327850796,
                -1.7441498337084753,
                1.8618992817681526,
                4.034347857486255,
                -1.3286019681477002,
                2.011426197241893,
                1.4246727346422927,
                2.0852628380917886,
                3.6709605880719036,
                -1.5179372315402098,
                -0.7010356341730825,
                -0.021229676873267572,
                0.881375010218337,
                -0.41977754266799144,
                -0.4281971349686939,
                0.4274369947353137,
                -1.7089374155316768,
                -1.1920117291757497,
                -0.5930698704208263,
                0.9010883724031197,
                -0.0041517963342678574,
                2.1961035791665,
                3.3819689704961857,
                0.9103628419083363,
                0.765910334892672,
                0.5060419278654962,
                -0.9635274834863023,
                -4.827169480610741,
                -3.3717816869674397,
                3.9494610062493334,
                3.928542512864794,
                1.7483209676540694,
                -0.045423788723212746,
                0.5333896246377279,
                -0.25754415247268053,
                0.2500001145637455,
                0.5329797046307133,
                -2.0275968199917473,
                1.21961257961018,
                -1.5087482634113154,
                -1.146267357610012,
                -0.8211794887419119,
                -0.6401824155102698,
                -1.3891756797947332,
                1.8374787857081232,
                -0.2337463560365886,
                1.9525654454446135,
                -1.0609956197472359,
                -0.2690047753223815,
                0.21591647570278102,
                2.8088866166771993,
                2.255438055624385,
                -1.3243048435056588,
                -3.2772290921051743,
                -2.960225766973623,
                -4.445758510747947,
                -3.4848156063218134,
                -0.9456914700201753,
                0.2572712369689908,
                -0.5585108897833989,
                -3.23417132325546,
                -2.7685422690159305,
                0.08523668920561969,
                -0.10415554856532633,
                -0.16034462902400742,
                -3.699489068826389,
                -1.8333486311119729,
                -2.9263910397300847,
                0.8964349792142583,
                -0.5690923620267414,
                -1.4634803386863051,
                -1.358973482725579,
                0.1167469267390646,
                -0.11903714085338844,
                1.766888202700057,
                0.03990790714567082,
                0.518655219982619,
                -1.2294811344873695,
                -1.5952275360020303,
                -0.4671032572808033,
                -2.5867278092148154,
                -3.7086142202171573,
                -3.897034714349558,
                -2.396328690364022,
                -2.5710174248182946,
                0.4257092213080561,
                -1.9437810544275644,
                -0.23855698550778837,
                -1.6908372792912683,
                -2.1514668281239957,
                -1.5787748800437773,
                -1.325109770867879,
                -4.377468710432272,
                -0.8764885695578988,
                0.0319165274487383,
                -0.984086998111755,
                -0.16002023973285387,
                -0.022994537399521585,
                -0.37836959170531625,
                -1.0100694031412996,
                -0.938931872616152,
                1.1764724322032938,
                -0.012439058070094489,
                0.14262127071330657,
                0.6087627276167078,
                -0.5770980660513878,
                -2.112935824313886,
                -1.8189718421135415,
                -2.9726280787628023,
                -0.547264896144391,
                -1.8663334092619799,
                0.1914363227325433,
                -2.042066185751945,
                -0.8457340592894477,
                -2.087338157622421,
                -2.733268119430354,
                -2.7717702912707547,
                -0.7501980412027952,
                0.7586324173751461,
                -2.156098578743855,
                2.8480541472187584,
                2.7955892349312252,
                0.32800124056802976,
                0.6643881397944499,
                0.19213447869153813,
                0.5704360958033209,
                1.0713807245199953,
                -0.047217432543765356,
                0.5846997667263109,
                1.326349981677896,
                -2.231086510722602,
                -0.8112636879848079,
                -0.14017977261086917,
                0.12479292787124525,
                -0.5883104301131739,
                -0.5398825221543881,
                0.4855098419063876,
                -0.7660035921416275,
                -0.3400238573201741,
                1.4912111005628021,
                -1.0410105823705575,
                -0.9123883268546898,
                -0.09163004809825798,
                0.48864914866151554,
                1.033074350020767,
                0.8226093472951872,
                -0.009025991804367174,
                1.6449529444950992,
                3.3467436715283982,
                1.5748554196479407,
                1.2274841505495693,
                3.0647687752075243,
                -0.4421059818425141,
                -0.9231486137613713,
                0.6964914481818163,
                0.8454042989261231,
                0.4203299575865485,
                1.1676700027618045,
                -0.2369728257336731,
                0.5508240194896429,
                1.711621185958924,
                0.9106252060329257,
                -0.29255723731255523,
                1.892393778822649,
                1.593075366149992,
                1.1381463779820087,
                1.2927153474753947,
                1.1190840832543836,
                0.29588079991862637,
                -1.692513178690874,
                1.8292690426048261,
                4.686140073687487,
                2.36989309592138,
                1.7313117108739973,
                3.728236354594447,
                1.3296529077399954,
                -0.7516519781465224,
                -0.08076114074617152,
                1.1451622835635813,
                -0.6743559839896094,
                -0.48821870890237024,
                -1.5822132544086078,
                -0.45458942285749143,
                2.3316598028911826,
                -0.5538001721376496,
                0.7025992707646616,
                0.07257194437123694,
                -0.6579126024914783,
                -0.2569817821408182,
                -1.166609627679509,
                -1.212316230909969,
                1.6066706443826022,
                1.3038950686675577,
                -1.6970182889029548,
                -0.006488676469080791,
                -0.006290432365932516,
                0.1593481680744487,
                1.3238971433191633,
                -1.3740136232786955,
                2.206022040520014,
                -2.5535385115706393,
                -2.9150445614196205,
                -1.3721692923762232,
                -1.545129932373962,
                -2.7467542181636153,
                -2.9667358325068878,
                -1.8369236035524026,
                -0.21616926779745133,
                -0.574556806598796,
                -2.3454609277983294,
                0.37605055082917954,
                2.7950940368877997,
                0.7955084280220164,
                1.0345405832226218,
                -0.7165932785857202,
                -0.14817054449535652,
                0.4659149943126337,
                -1.1461124035644286,
                -0.4305799640959001,
                0.9679661693287477,
                -1.046828470102703,
                -1.9797784165647014,
                -1.4767345172699788,
                1.0587919860271982,
                -2.02763258903846,
                -2.0989946531722756,
                -1.0024861859591847,
                -2.989439417145085,
                0.6727052278118143,
                -2.934738905103299,
                -3.6162059348134927,
                -3.7648780317272506,
                -3.179573917536546,
                -4.254972857174898,
                -3.1358121410940845,
                -2.159901792444523,
                -0.793889128865611,
                0.9793250879702259,
                0.14662816687301491,
                0.3470127022640883,
                2.010134403073205,
                0.5326917900000597,
                -0.4085584601956089,
                -0.5127606002180203,
                0.5339299234040094,
                -2.5972520043317906,
                -0.17988889768238242,
                -1.5999991619825795,
                -2.5451850524938227,
                -2.0284209749830087,
                -1.078911057501705,
                -2.936010725699517,
                -2.7501837145336583,
                -2.6663660041689825,
                -1.3555455379386359,
                -3.594728083791893,
                -0.42850122192470597,
                -2.2333685231822376,
                -2.7394240561306633,
                -0.6763634053349549,
                -2.1954631759393854,
                -0.2679609086122982,
                -1.7336184603845495,
                -0.14121354787136567,
                -1.056182715673781,
                -0.05705666162675593,
                -1.6627370785153568,
                0.9577415382358496,
                0.999635608764004,
                0.13028663543097965,
                -1.2653027590871029,
                -0.31769846037687727,
                -0.21048962460218865,
                0.06974504455091045,
                0.08250555182135172,
                1.3169846207395148,
                0.5133572299256152,
                1.7732299454868061,
                0.844291499688973,
                -0.23573137449423376,
                -0.9217153879452075,
                -2.0245691751627324,
                -0.9245246622539511,
                0.18940431918617515,
                1.0264931236429278,
                -2.5328737678794395,
                -1.1813950916711178,
                -1.040934328229367,
                0.16834747116005913,
                0.057842833670983855,
                -0.6423047017314009,
                1.9267058390706042,
                1.3956829401937716,
                0.4210301366882555,
                0.5440410969774687,
                1.20717880088324,
                -0.9136962348739932
            ],
            [
                -1.9019900214376548,
                -0.08753116286535065,
                1.8578697704498057,
                1.5058053572599113,
                -0.47022787537617,
                -0.42887762478209007,
                -2.52348707259032,
                1.0572514146711798,
                1.310320493977417,
                1.43334036128833,
                0.8307966965716937,
                -1.6030301068089852,
                0.6090176103307414,
                -0.6068517894385274,
                0.305939587515534,
                0.0782797987121213,
                1.3909575843822373,
                -0.3414178095198985,
                0.5542774330956197,
                1.9908154496272878,
                0.045271995890858265,
                -1.12698458339755,
                0.7479291238733631,
                -1.3612679985756688,
                -1.271421127595981,
                0.21627503553941724,
                -1.4250997699983223,
                -0.13008839607265768,
                -0.7096175822951588,
                0.12863822102837297,
                -0.013020455353618742,
                -0.3027361508305213,
                0.27501223085424054,
                -0.9549887031950988,
                0.7399276367141514,
                0.6127489501431097,
                -2.225990215372766,
                0.6391603182731554,
                1.648998201497249,
                0.39939825280113506,
                0.3535955784306934,
                -0.5020678962743688,
                -1.6520516646911572,
                -0.5135187327643764,
                1.4344862902124094,
                1.837459575588668,
                -1.681841778141545,
                -0.5565973020176722,
                0.5512755430026705,
                0.08878503519594634,
                -0.2946338715490152,
                -0.08486236829832029,
                0.6193039246615948,
                -0.1044979806404777,
                -0.12967961372595077,
                0.15464486606670436,
                -0.8903688322675767,
                0.149111891515661,
                0.47302533354713056,
                1.1040799608703367,
                -1.3505564379360087,
                0.4550444319729585,
                0.1661456247566797,
                1.2760655113726698,
                -0.7088742091275614,
                0.5443210238745454,
                -0.11411626351872135,
                -0.19731389310073114,
                0.11243663978022662,
                0.3862735651088268,
                1.97542801755683,
                1.153182125503175,
                -0.7134638656422793,
                0.5863470240847108,
                -0.8370654431989151,
                -0.8369214437770947,
                0.4310322130452016,
                -0.6591290621758983,
                1.2252511088735405,
                0.24200599823483185,
                -0.4505863013966682,
                -0.07577280000091331,
                -0.1776971371826434,
                0.4948807371365662,
                -1.0844015868553343,
                1.7594313548068956,
                0.9495802183427514,
                0.19293412634171683,
                0.8078773887485872,
                0.06157226771025729,
                -1.074220694780241,
                1.1479974801554056,
                -1.449517762185612,
                -0.4149819055740728,
                0.36863577899052663,
                1.2235805681038625,
                -0.22354976972414478,
                -2.596391758891738,
                -3.3527888681540667,
                -6.052089436074674,
                -4.3124700932977,
                -1.1246333179063146,
                -5.673631398747117,
                -3.308214714060195,
                -5.662548185945751,
                -0.9349114049376277,
                -1.6061506558721284,
                -0.6615168821299837,
                -0.8798940930106727,
                -0.012621700287458232,
                0.305188033205932,
                1.0908314961333758,
                1.1468870939985836,
                1.65528406972701,
                0.5375644141731102,
                0.17619857789835705,
                -0.32429916507612755,
                0.1536681648077745,
                -1.0664446034244026,
                0.018782988070476098,
                1.6707689430339592,
                1.6852368476120425,
                3.435444180777119,
                4.118107899870373,
                5.193318714783439,
                3.418527038524775,
                1.9719129425222137,
                3.723243519671002,
                0.19555713295476973,
                -1.1775900229439735,
                -3.6500456073885466,
                -6.627151454877318,
                -6.075048130022733,
                -5.426701981918156,
                -3.6630555309638093,
                -4.2233017287652554,
                1.928406023207051,
                2.622819498688433,
                -0.25018099265235677,
                0.2622360413942325,
                -0.5669616473734146,
                1.1130171980150876,
                -0.8333263284623761,
                -0.014224442828619777,
                -1.3268979758117714,
                0.6559951850249645,
                0.928451806533552,
                -0.5161839044586043,
                0.665516505738299,
                1.8238499579397025,
                3.1664838281820695,
                4.983185093108587,
                5.688902435338408,
                8.024764019796184,
                4.330064992601227,
                0.6346499371929034,
                0.017267844846235333,
                0.48544489200932534,
                0.5999662763674993,
                -1.1499369170599538,
                -2.068480850998181,
                -3.2229656171629424,
                -2.306914756970875,
                -2.208520381502322,
                -1.8546805045186632,
                1.431038026478082,
                1.6849080664535627,
                -0.4067737386179306,
                -0.6871322454071656,
                -0.23515272154683872,
                0.29505323001320866,
                -0.2144827086796908,
                -0.18953407295345825,
                -1.5375171194321735,
                -1.215194041705873,
                -0.28121681459818804,
                3.3341573446079966,
                1.2573674195070352,
                3.8026954673745794,
                5.341853225880527,
                5.257419416423083,
                10.364405478535428,
                9.269381784758863,
                4.108167294470564,
                6.877610384834131,
                2.5554963783317777,
                6.7284232857615764,
                3.9816018862145097,
                5.748255266047068,
                1.7429205532206458,
                0.3435176480999329,
                -3.3570828086098174,
                -0.10520412304417937,
                -0.31949974492926825,
                -0.3610547666604601,
                -0.35978761139543947,
                1.0622328743640723,
                -1.3651537491181396,
                0.4340792700707622,
                3.172953473025009,
                0.9622190580582377,
                0.03886660566322334,
                -0.015940699109450084,
                -0.39341160236071515,
                3.989075816205473,
                3.3883064809382923,
                3.32473514596796,
                5.40282675128677,
                11.381177011200558,
                9.272411681269084,
                7.161050805810178,
                7.10711096654781,
                8.06651927507039,
                5.364179500256832,
                6.795732958995884,
                7.259127375064432,
                6.432450242743931,
                2.996753072153378,
                -0.8917467305378104,
                0.6206241345433176,
                -0.48189817277856056,
                0.6159968034659211,
                0.14723136517880703,
                -1.6557032642217557,
                -0.6266963754568474,
                -1.4766548810902134,
                2.006981733690468,
                1.9748744661666409,
                0.15972638023456268,
                -1.2561571803937048,
                1.9196843406798145,
                -0.7916150930584768,
                3.4923117252649543,
                0.5430847758523044,
                1.6780192671957046,
                3.3210097967483585,
                4.260056133991085,
                7.215303142890707,
                9.039249822544464,
                9.025320789996096,
                8.830176890860924,
                4.874272301814426,
                7.212050019838604,
                4.878467425955976,
                3.7311866583058366,
                3.7183782549455695,
                1.7569049774525425,
                0.30639073394293037,
                1.437170826751502,
                0.05215510663580226,
                -0.030045118156452413,
                -0.304262358750749,
                1.9348150186036703,
                0.5791824413834599,
                0.16774371640357139,
                0.3653037853011402,
                2.1980553725259986,
                1.6049960230819795,
                4.074207645690557,
                -1.477953909901878,
                0.267033155852817,
                2.1564670031260658,
                2.249183762978792,
                1.1143982916143504,
                1.1421332127405088,
                5.875880892788426,
                9.877766975457954,
                8.100106501634192,
                3.982596225709159,
                3.546466981444812,
                5.406040648287667,
                5.2508516658923075,
                3.577413789402062,
                2.085543496408934,
                2.3442432296142197,
                3.353061815332928,
                3.1023722858390066,
                3.013254358190339,
                -0.06752651165843236,
                0.21948679613131358,
                -1.2907985449916695,
                -0.7283989178255065,
                0.2981375794611363,
                -1.339589572263027,
                2.028637003083217,
                0.8892572919777225,
                1.4656136775353032,
                0.40072566448672325,
                1.993233522495106,
                -0.16921112869729246,
                2.673020163287794,
                2.8460998741158514,
                1.3514596510686387,
