{
    "biases":[
        [
            [
                8.01585673575188
            ],
            [
                11.05046189142219
            ]
        ],
        [
            [
                -1.268863159649548
            ],
            [
                1.0500288081751032
            ],
            [
                1.5954353316723757
            ],
            [
                -1.4346623019688223
            ]
        ],
        [
            [
                3.9780985243404654
            ],
            [
                -0.844917461523903
            ],
            [
                -2.4212732712655014
            ],
            [
                -3.384371724774306
            ],
            [
                -2.8201270315786715
            ],
            [
                0.39768658733820955
            ],
            [
                -0.6679110844856962
            ],
            [
                -2.508659134988981
            ]
        ],
        [
            [
                -1.6978386171158635
            ],
            [
                -5.1636201193552465
            ],
            [
                -1.846674735010257
            ],
            [
                -1.850032843396441
            ],
            [
                -1.923777217380807
            ],
            [
                -1.8384270050221532
            ],
            [
                -4.453137936139728
            ],
            [
                -1.5484538542542368
            ],
            [
                -1.7923642629780892
            ],
            [
                -1.6613381446936377
            ]
        ]
    ],
    "epochs":50,
    "eta":3,
    "mini_batch_size":10,
    "sizes":[
        784,
        2,
        4,
        8,
        10
    ],
    "weights":[
        [
            [
                0.8446388370220321,
                -0.39498025935508624,
                -1.2392854440282788,
                -0.1802090911100194,
                0.8550679165722443,
                -1.7774516930003463,
                -0.23973562463708561,
                -1.141084687029074,
                0.8697141233158705,
                -0.7287109003306582,
                -1.2608789330632773,
                -0.22753144927944305,
                -1.332509031279568,
                0.541588879860714,
                -1.148199884243284,
                -0.9701039642178557,
                -1.283919925470659,
                -0.45322841774629724,
                0.13066560430132945,
                0.4543556912418681,
                -0.1685753007017882,
                0.37293577446405124,
                -0.3652239568263828,
                1.3929748159922595,
                -0.4054052441778917,
                0.3835300004656027,
                -0.20586842990677207,
                1.6868259850877765,
                0.00033780157583866943,
                0.39341485904734697,
                -0.6032491967802358,
                0.21840151674366412,
                0.5411341048851346,
                0.17234928025034169,
                -1.5349083018838106,
                -1.255483695825117,
                2.976230974221887,
                1.5181471271715523,
                -0.41554112671429927,
                1.6248906293695473,
                -0.220147830131088,
                0.09059064287582953,
                0.6892949557153385,
                -0.5586197474418948,
                0.11008058082891162,
                0.06298999413345718,
                0.07378904400642187,
                0.08871985929096082,
                1.927049953081636,
                1.2194672966848958,
                -0.37111821512026305,
                0.909889622432605,
                -0.2124073371387142,
                -0.5886730951990979,
                -0.15649038876656945,
                0.7117630253570795,
                -0.29114630850595613,
                -0.7297697681205905,
                0.5243032847818803,
                0.63730823474202,
                -1.4492842876730858,
                2.258864115543839,
                -0.2938580268981916,
                0.11377720094935657,
                -0.7619305106559763,
                0.7519049912685193,
                -0.41376912610808825,
                0.8314383968190954,
                -0.18376167049031344,
                -0.9582493430095727,
                -1.8195627208062106,
                -0.31456251829322157,
                -2.649610851547297,
                0.28775700435371926,
                0.48928595373760053,
                -0.4138512364289354,
                -0.6662706187830258,
                1.1497341992596932,
                0.27630560028479495,
                -2.8827988415606374,
                0.32129643762178206,
                -0.3188732573807565,
                1.0920674443975598,
                -0.044659165942024355,
                0.48673988606028895,
                0.5464342463762635,
                0.19453476059577332,
                -0.7840902864696263,
                0.255410194518966,
                -0.6486338438713017,
                0.15240062594683887,
                0.16772893929287777,
                1.1274157019855877,
                1.5921245949136376,
                0.5815476853849593,
                3.41944530975622,
                -0.18037419666182236,
                1.135093931532632,
                -0.2570224226428908,
                0.5822430169973881,
                0.48889437827179255,
                0.32985284643654006,
                1.3152852337172576,
                3.104657760793212,
                0.17008376976882417,
                -0.6604039284835573,
                2.297993336549462,
                1.1595647951066332,
                -1.0491915619356078,
                1.7752503425762483,
                -0.06553800538728025,
                -2.3345578923808845,
                1.4118049523015694,
                -1.2128024031053175,
                -1.378417517009263,
                0.2057979806202404,
                -1.1600154082877743,
                1.6874024314011133,
                1.7819406899883432,
                -0.30349572154119614,
                0.6609271399904741,
                0.15966896326615648,
                -0.3247256350371,
                1.072383036904366,
                1.906988297722933,
                1.4051087895565189,
                1.6484408282352885,
                0.46925633441666575,
                1.4827412030210634,
                1.1923312029348774,
                0.8980506948328516,
                1.0908399392364179,
                -1.2625156508297177,
                0.9652169879466632,
                -1.011562612428892,
                0.7885447820071817,
                0.5612485324539267,
                0.3129506896385992,
                -0.1654711551791992,
                1.2768318234849652,
                1.7736236658374047,
                -0.2607490268415656,
                0.34303083954846136,
                2.376583383855826,
                -0.06705205726664801,
                1.5136778288596302,
                -0.7044306530353166,
                0.7895740827085623,
                5.2606205513856565,
                3.215027435053226,
                2.041064664246073,
                2.8696963064276044,
                2.2639583995555643,
                1.6366531983187151,
                2.198623097673569,
                -1.6310933786837836,
                0.640172942526709,
                4.7209529319223815,
                0.27789298230106263,
                0.9669421086306474,
                2.678000991574611,
                -0.14953483081746993,
                -1.5879742228987264,
                -1.4546525279203482,
                -0.14002165924336712,
                2.177908026094266,
                0.30452887585746535,
                -0.7738734612271483,
                -0.5081393515614643,
                0.41972452457895565,
                0.9370751818298407,
                -0.7969179979978871,
                -1.9956937155927112,
                0.2009507195871029,
                2.772325819118061,
                4.717060249805894,
                3.5831535404174684,
                3.3936376243154864,
                1.1564270361341356,
                0.4021627254888556,
                1.7336655203255797,
                0.3662348378335899,
                1.2299049062359042,
                2.141391876433459,
                0.10756178944043251,
                1.6137588645195862,
                -0.08309350027851606,
                -0.14853037338460517,
                -0.6958068253076924,
                -0.697150778827907,
                0.8910665023446764,
                -1.1493927722947803,
                0.7621688513844099,
                2.4383872574507706,
                -1.2942948205564595,
                0.6256497898936154,
                -0.800961193206192,
                0.7577217558195805,
                -0.2692418439466063,
                0.3420167400539503,
                0.23472060708409195,
                1.0490645927093807,
                1.577693517256058,
                3.86449261245237,
                4.948050575562698,
                1.2587221819650538,
                1.5984990508699561,
                0.5033386593364813,
                -0.4470198241532874,
                1.8027761727122404,
                1.0847721489614124,
                2.4890478425847022,
                2.6618862837931925,
                1.4334282748833373,
                3.657270385612845,
                -0.7723072867979697,
                -0.5997984678613953,
                1.3056080066336981,
                1.1137945790957233,
                0.11392946914496999,
                2.6266285715437028,
                0.7091604140272345,
                -0.8469619814182731,
                -1.369241231397304,
                -0.1012756812389924,
                -1.4447283744831088,
                2.2307250288411966,
                -1.6549396836916153,
                -0.5649994235439392,
                0.5508680560857477,
                -0.21781309411404515,
                1.8600712399186654,
                3.103621593174732,
                1.6384415788315798,
                -0.45435396150863555,
                2.301834623428173,
                -0.17051453892412483,
                -1.3807680584236095,
                1.2831276226036223,
                -0.8671716537444094,
                2.3874059717507303,
                0.18061123000720378,
                0.12725367863544115,
                -0.3487427308221152,
                0.06136191875345849,
                1.7709714080027743,
                2.797254304451626,
                2.516936881401582,
                4.937206394195395,
                1.7863359310737363,
                0.02888051252083512,
                -0.8751227596932585,
                -0.6202826156886505,
                0.12074556922627408,
                0.5980304951994685,
                -0.8348641985740864,
                1.290126540015478,
                -0.7055942764866564,
                2.0901499208678245,
                2.843107422713758,
                4.855289765037669,
                3.824266765245808,
                1.810360962372404,
                -0.8385112815318433,
                1.2405730150261158,
                0.391901862089737,
                -0.01421186980533329,
                -0.9825467993858832,
                -1.6997142741846687,
                0.9615921853705368,
                -0.8698988420744128,
                2.722407116613498,
                2.054410417938781,
                1.0783065519852368,
                2.891345317954473,
                4.07496558056521,
                2.973470850342273,
                2.6799583676890015,
                -2.5909770073210616,
                0.5405671341304035,
                0.4206146967322727,
                -2.0462748987803585,
                -1.8265755039534626,
                -0.31259309633528864,
                -0.637175570496014,
                -1.5320963525585762,
                1.092422656518769,
                2.6660196322262357,
                2.8453783020906456,
                1.865342544021657,
                -0.5356695588654683,
                -0.2963242145551447,
                0.4830705741004957,
                -1.0531988046636331,
                -4.352269099394157,
                -2.0242534341549066,
                -0.8378544136575301,
                0.9711320459143511,
                2.8292075475382856,
                1.425195390317098,
                0.0008754899220985833,
                -1.429397572797449,
                3.5581511868524114,
                2.667007681732704,
                2.500416847923402,
                -0.12641232336878677,
                0.26106983758557234,
                -0.6424975438879234,
                -0.4569656183204237,
                -1.398244577515078,
                -0.09140079189710246,
                0.3380513418455031,
                -1.4469024734134621,
                0.15164536123169917,
                0.5624698642351019,
                0.2320589721976188,
                2.4416076729697638,
                4.271931327874943,
                0.28160563522094345,
                2.8758723506009933,
                2.094709078553254,
                -0.7539660548835251,
                -3.3560862757441074,
                -4.024993792844122,
                -1.43688179999743,
                -0.5258741063430507,
                -0.8307655618917433,
                -0.1417276349242896,
                0.7672027565506738,
                2.7823346608822495,
                0.2760580579160565,
                1.5126235255645584,
                0.04261014096539824,
                -0.16579716157996155,
                0.27552013378812545,
                -0.7072648415465009,
                0.01798927708792617,
                -0.2826742449818326,
                -0.4328990249600541,
                0.2143870472168997,
                0.2578940794632372,
                -0.4469735040522598,
                1.2196127811057809,
                0.7831854000953791,
                3.65796512361093,
                0.47765606489822277,
                1.1612880050825363,
                4.451107261346249,
                -1.7881900434256623,
                -1.1967544697774861,
                -3.269267509985149,
                -0.6694816348214272,
                0.9823117089802043,
                -1.29126000052456,
                2.9993455119523427,
                0.8685606920346365,
                2.6819413335613618,
                -0.6922371062826043,
                1.0769421795362255,
                1.910858697813987,
                2.16684773890649,
                2.0759633047981314,
                0.16233392433085503,
                -1.3340989109423431,
                2.1289845487637966,
                -0.6801273614147143,
                0.8388251541163209,
                0.040526651149353346,
                -0.6783291289144734,
                1.236035676817428,
                0.8623554690281604,
                -0.21106397493983636,
                0.9401360079587725,
                -0.5155226542747108,
                2.9657449505933466,
                2.464401627905455,
                -2.7473456962165663,
                2.6737030969561566,
                -4.8453304185180235,
                -3.2977616366829463,
                -1.9091280868098117,
                -0.3831931736919396,
                -0.34653114157837606,
                4.2094951154544855,
                1.0045910640512288,
                -0.7238658581486168,
                1.2377072408353338,
                1.5902727951462035,
                -0.054143301406848275,
                -0.5391621380225506,
                -0.09653445188754867,
                0.057035139800156766,
                0.5379661979100318,
                1.2747163871389928,
                0.443394442462766,
                0.8566391757165662,
                -0.6882491360948481,
                0.4231824034238013,
                -0.14102221647297966,
                1.048367215088078,
                0.6901305869607847,
                2.0704519557105927,
                4.205364294386451,
                0.722926355495375,
                0.10938631640924236,
                -1.3188484733564758,
                -2.944926083240583,
                -0.02937291414098988,
                -1.3559637896106116,
                0.8282581579293098,
                3.6103390582720465,
                2.4688474872057715,
                0.994949349570094,
                0.5494699977494352,
                0.3606071518466851,
                -1.1508211097917773,
                -0.35214125395437507,
                0.2216217325435797,
                -1.4070264003097614,
                1.7494866436780094,
                1.1428215568695033,
                2.771481640201277,
                -0.2858908424633385,
                -0.2080415341819257,
                -1.103809075617128,
                -0.4384557343869861,
                1.0357495634792395,
                0.6081878717993839,
                1.8457458727628915,
                3.891264932134049,
                3.916065112141059,
                0.7468098518831561,
                -2.088642649135107,
                -3.471680122188316,
                -2.5733139611249234,
                0.8007047373566774,
                -2.8941996402537167,
                3.0924232538107495,
                1.8114576794970263,
                2.088345765878844,
                0.2674984748117559,
                1.043618554905185,
                -1.0942191107598356,
                0.6484068109498247,
                1.7074257576964893,
                0.6527976917675096,
                -0.2710363536064602,
                1.8532363711599964,
                -0.1796634480856634,
                1.4695356270198614,
                0.7357462432041633,
                1.9675760146785222,
                0.3168813995936834,
                -0.7053927581034078,
                2.353796732844725,
                1.7391388683592686,
                1.150241813746372,
                -0.5936142904037774,
                -0.8344578386959581,
                0.25324868324740474,
                1.912466125850632,
                -0.9482138874135239,
                -2.7135143211999773,
                1.0662439101493393,
                -1.4951016365692773,
                2.6805633375944304,
                3.367879546366906,
                1.4819631627061611,
                0.4833449654371678,
                0.13733288023860143,
                1.7120011131631643,
                1.213069666572702,
                0.32267269126992454,
                0.6851570036942719,
                1.0879523885168652,
                0.4173301287858645,
                -0.9505688953811604,
                1.7729584592887848,
                -0.05704822925811873,
                -0.8310348413880694,
                1.8800161975461394,
                0.5638152476689627,
                3.0269322447644478,
                4.238571889611466,
                -0.3993840436326382,
                1.1166825638952045,
                -0.3968726688936485,
                0.8296013422895762,
                0.059953362779277514,
                -1.9410849368047842,
                -2.668408056244922,
                1.552001503992427,
                2.8533163314089727,
                3.3039022119520745,
                1.1894009616589194,
                1.2881615010608611,
                1.095593238991493,
                1.6419294592258804,
                -0.9559493950642095,
                0.9039417243837881,
                -0.6141233633400909,
                -0.7167341094813141,
                -1.0242505089740142,
                0.32524229057018117,
                0.9250741357857193,
                1.9300739876928663,
                0.13528648562378315,
                -1.7739888415095846,
                0.5588376710700065,
                3.657493052741685,
                2.0506750230704265,
                3.2150099532609513,
                -0.8536646905101092,
                2.0135999219236385,
                -0.035269110783871044,
                0.205358860090178,
                -0.942660195360896,
                -2.1459971676013505,
                -2.5053544616069967,
                1.790195689365624,
                3.8185961456477853,
                0.18403598803544652,
                -0.739304721264816,
                -0.008630773025222983,
                1.7213118526359688,
                1.5437393828868662,
                0.8835943620646329,
                0.16597161329998708,
                -2.010082837329662,
                -0.17909141514497118,
                -0.49197330005903744,
                0.4136652200377965,
                -0.0900849259289326,
                -0.3221186422804057,
                0.07425904307329009,
                0.2248468197021722,
                0.9362298458586439,
                2.151665625605502,
                4.968488246345728,
                0.09859006661039758,
                1.0778754716035865,
                -0.20406942773040582,
                0.6893497189371812,
                -0.42462717559019747,
                1.901635167911575,
                -0.552018508233264,
                0.7367064522570426,
                -0.672979214997074,
                0.19455155891950515,
                1.4722023879011044,
                0.4641204664469566,
                0.6641061178618618,
                1.2445578030655544,
                1.5497739103494979,
                2.13855013765122,
                1.8355275579455226,
                -0.851931172801261,
                0.5097022145695925,
                0.9359614439283059,
                0.7200268792199026,
                1.1705049765151263,
                -0.18529772972142125,
                -1.0572681993169901,
                -0.23418443993024626,
                -2.2270383769933124,
                3.2525110060598705,
                1.0984395866873211,
                0.80679333131336,
                -0.9697207450178484,
                -1.4607336503005024,
                -1.4342616476379353,
                0.5467025457948161,
                -1.6444130893848634,
                0.4046655682144598,
                0.012713788334305412,
                0.44037335528646016,
                -2.0396172145341542,
                0.5101142968482412,
                -0.4777319021872836,
                1.5131483193608368,
                4.167934014884691,
                2.2784031920510768,
                3.00959740441649,
                0.5095130463009724,
                1.0651926233752769,
                0.9986873503324993,
                0.7185737160426027,
                0.3086283357693551,
                -1.3765305287831315,
                -0.6886503547599427,
                -0.8088055815149211,
                0.7851105410875681,
                0.13988504747391545,
                -1.5229795592517232,
                -1.73553680264416,
                0.9579182009986313,
                0.40845217406561635,
                2.302015371193447,
                -0.3512515423263331,
                -1.4400068240651105,
                2.0206855782687847,
                1.3153194857552817,
                -0.4664296052996244,
                -0.5115501438123592,
                -1.136269277522998,
                0.3966559448506168,
                -1.6921056219017956,
                0.2867097806472792,
                1.5194266437339432,
                3.4382307067004914,
                1.6071985256530545,
                -0.7539953243347907,
                -0.2879949619019801,
                -1.0142886053294708,
                -0.30275902959467366,
                0.4281611616867803,
                0.45353821977281616,
                -0.396262569585777,
                -0.41791105982308446,
                -0.7810543159041093,
                -0.5903996116890774,
                -3.41436561673561,
                -0.2969268015121647,
                -0.36508812782174394,
                1.438632511949698,
                0.611284714693584,
                1.1200538659581205,
                2.646365783634038,
                0.9120013018830899,
                1.4474348860335835,
                -0.980419609857154,
                0.3490805239893045,
                -1.483018051299957,
                -2.5520664737772494,
                -2.7413198828801084,
                -0.41639889691381865,
                2.502666329012044,
                2.5066230266841405,
                0.728764029466283,
                2.0947522506432836,
                0.2281273534561645,
                -0.018464338502878114,
                -0.895690978332303,
                0.14964545044956912,
                0.1725788587886758,
                0.7380096843874556,
                -1.426242957472111,
                0.016228799118701436,
                0.8928112013130135,
                -3.622211661472263,
                -2.665190674073991,
                -1.260534567003332,
                -1.3493641970209183,
                -0.4783418759399308,
                0.6253918496277049,
                -1.124680055193015,
                -0.6893716623585507,
                0.409718593295991,
                0.6954381625714764,
                -1.5938904419630275,
                -1.4716420505428363,
                -4.482148801770461,
                -0.1299721665843555,
                2.938850613443874,
                3.4243542333328074,
                -0.07750330966728272,
                1.364277213467917,
                0.013912623699133363,
                0.15610487226008515,
                0.8243543605922332,
                -1.760209416601926,
                -1.5597640743489518,
                1.198766790858133,
                -0.8452621073205876,
                -1.1708790854854965,
                -0.8848104510969743,
                0.6718926624875635,
                -0.00036441694695710686,
                0.3914591271854201,
                1.6287653344317372,
                1.189022961996819,
                -0.0760160338960078,
                2.900794887600068,
                1.9389039068246599,
                1.5467387260508292,
                3.0097393596006032,
                3.2633866285359625,
                2.620411422262416,
                4.16924071362499,
                1.1207553497923142,
                1.0300301783226768,
                0.5013753763481034,
                1.0380609089797999,
                -0.9727247330595259,
                -1.063367325277724,
                -0.0028011335252514226,
                1.2379109142891733,
                1.1284467327651149,
                -2.6428721647230695,
                -0.7292880458551538,
                -0.7358316637599596,
                -1.7085875252592941,
                -1.2212992567060459,
                1.1908914915675581,
                0.4662859693379103,
                2.124154949621131,
                -0.673082247562812,
                1.7716400070073606,
                2.7553094420593265,
                3.704717055968829,
                4.760859121192322,
                3.3799103969870594,
                4.083148170066174,
                2.833272489253737,
                3.713405104020061,
                4.597897651951757,
                3.340858837696235,
                2.7746174755737796,
                -0.13174165807312072,
                -0.6851303398881928,
                -0.7067811089919347,
                -0.09664437812858787,
                0.37308286721087963,
                0.7926563290596683,
                -0.858642648167904,
                0.7794257076959644,
                -0.5237488395912875,
                -1.044431132300126,
                -2.66644940292303,
                1.2142101098775664,
                -1.4581569573353992,
                0.2754510330678895,
                0.10916128135334213,
                -2.443671525815825,
                0.9573885319925232,
                1.158100331075602,
                -0.3135864419807054,
                -1.076548177182911,
                0.2750583289088338,
                1.957017439322613,
                1.9934006423860497,
                1.5525140069897525,
                0.8473666279478563,
                2.2054749375608336,
                1.1507937704576545,
                -0.25656864909743016,
                0.6911075361423049,
                -0.00781806587422788,
                0.6597119359995917,
                -2.3474912946653217,
                -1.6336472053602005,
                -1.3625700401856742,
                0.5358720082098819,
                1.2583749461942,
                1.1121130492931002,
                -0.1697353750077921,
                0.78480241677369,
                -1.5714972829015537,
                -0.6505956788475843,
                -1.0512868400378002,
                -0.8151665067066873,
                0.9089596420641549,
                1.1966972745979292,
                0.7207461039117481,
                1.492221640520942,
                -0.11674648969365269,
                -0.9146438495520172,
                -0.9748153278799545,
                0.4097707151972744,
                -0.5930611546324942,
                -0.11396834323703683,
                0.619568063958735,
                0.22002460600983875,
                0.5665094828973982,
                -0.18918551440537734,
                0.6875445676710575,
                0.08098046348423434,
                -0.5499442417673993,
                0.5634845217811452,
                0.5271379477796919,
                0.6846002255306511,
                -1.002514648712102,
                -0.04182355767123093,
                -0.9079883514250157
            ],
            [
                -1.6047381550767656,
                -1.3239997052133385,
                -0.6050229968900571,
                -0.6098102182718961,
                0.30756505984590604,
                -1.4738912679752134,
                1.7902851552224963,
                -0.624335859425495,
                -0.49678730019512163,
                -0.25392287056416646,
                1.8474271737043302,
                -1.1779828565611719,
                0.8359935935167971,
                -0.5256964042976997,
                -0.5451841301750048,
                1.495845420964999,
                1.2459976029031126,
                0.38323281326342173,
                0.32344677705012864,
                -0.5347898937920831,
                -1.1924485434886432,
                0.44515625554174704,
                -0.5278190074152462,
                -1.053264671044734,
                1.1371126798730362,
                -2.452267827480908,
                -1.5386390453506078,
                1.0094082022281525,
                0.012269635267737665,
                0.6368355584204334,
                -1.3814040925643403,
                -2.067695261890188,
                -1.3376416657527768,
                2.014603640671793,
                -0.745515713570984,
                0.5445752608561063,
                -0.175111509521769,
                0.9513287289297083,
                -1.3730200002532298,
                -2.3276077381290707,
                0.17362656900983703,
                -0.708152883859664,
                -1.4533329218225783,
                -0.14211667821610668,
                0.7806402785989667,
                -1.8746227030488831,
                0.12768706928098694,
                -0.05770144150795962,
                -0.16592809773941916,
                0.43601331168708496,
                -0.7850927966482539,
                -0.5455161837290825,
                0.6795426081903257,
                -1.1262275999463767,
                1.1525201358838786,
                0.0886841682312926,
                -0.9623288429454739,
                1.5311643173219658,
                0.7407207859803326,
                -0.4859616690494343,
                -0.6869173122087289,
                0.12912219261807015,
                -1.6848750695644419,
                -0.6254144551348487,
                -0.15466797667255838,
                -1.899786757047711,
                -4.521232227313041,
                -1.5234694682185836,
                -3.0970664013603755,
                -1.9112272662351477,
                -1.905315119078453,
                -2.148303563621554,
                -2.3700773383522704,
                -1.7826383363621743,
                -2.4731052064896404,
                0.2331675585666245,
                -2.721280891427033,
                -1.7360288417180132,
                -3.082918253410933,
                -0.870765629775551,
                1.6523264460554516,
                0.0281487369495283,
                0.23205851789426316,
                0.08585116513339934,
                0.5611066057845135,
                1.050643956556054,
                0.055602020688528334,
                -1.4467274702420887,
                0.014906649460060772,
                0.85477911911474,
                -0.28234387447613146,
                -1.5552269821384197,
                -1.67404670453828,
                -1.9995986399237238,
                -0.4266757932201134,
                2.8021330287014177,
                1.8860447416866515,
                -0.06645892457818803,
                0.8475691106050848,
                -0.7816747217609095,
                -0.8131324149574762,
                -0.8060318750313633,
                -2.4691826270988844,
                -2.367359547563869,
                -4.046481507433757,
                -2.2460350351645473,
                -2.7559814349941703,
                -3.383609588405572,
                -3.1038077514412405,
                -0.4132135540502244,
                -0.14127855115073623,
                -0.3556949161480175,
                0.17159316969633762,
                -1.4724925856348776,
                -0.46889026264231903,
                0.07354405210312616,
                -0.2081301097516122,
                1.6130579925119373,
                -0.5145309421246919,
                0.20712171834664178,
                2.161667883275106,
                2.2858332033057445,
                1.536598250751815,
                2.5208098683112405,
                2.4127924908306393,
                2.0812959677426384,
                1.3227491008222165,
                2.1848460244018164,
                0.952439583473664,
                0.4992373298732235,
                1.1761503090725054,
                0.6737942915027251,
                -1.1241960687449422,
                -0.8527621206594787,
                -0.9532570917549864,
                0.2211498048096826,
                -0.5664495162141256,
                -1.1067449042451718,
                2.171925057620381,
                1.8815194235811192,
                0.5378598066739941,
                0.794162324258289,
                -1.1590361905911515,
                -0.9929987469151607,
                1.1063439578110028,
                0.392304491495206,
                1.9924662913376392,
                1.7400518120461856,
                1.0927446577037656,
                1.2076429272338054,
                -1.171895402956407,
                1.4833807137405095,
                0.6414564010375665,
                0.9303030501534569,
                1.8220133651076929,
                1.1326933869566567,
                0.39061202239515946,
                0.551413462401991,
                -0.08482709290578948,
                -1.5298099456182692,
                -1.971812284918437,
                0.47545154538300616,
                0.44346489735210887,
                2.731204272203108,
                1.9565609866695912,
                -0.045794893029186094,
                1.678504254825012,
                0.6098145202920103,
                -1.166246832815039,
                -0.11489776360296185,
                -0.16141501586868912,
                0.15155602342178146,
                1.4074862454831665,
                2.138915841759507,
                0.6907313902728449,
                2.215297026404847,
                0.3154043797019358,
                1.1341838912210915,
                0.665323809582256,
                0.9810691522933636,
                0.2861451875605481,
                1.4047348509437054,
                1.8159481032264004,
                0.5213656003207499,
                2.362297276456171,
                0.8908237095418478,
                -0.8660835061475854,
                0.3222859838263809,
                0.08414615311871702,
                1.4681076463976985,
                2.1449721195203684,
                4.646699987471316,
                1.1015928841665623,
                1.9090097880794064,
                -0.7016576835350856,
                -1.4720713621963095,
                1.1372152542884864,
                -0.2481070051403266,
                -0.7931817365448351,
                0.30945768233639126,
                0.6576019283208315,
                0.7323068466476678,
                0.2694043601127749,
                0.46667419013616585,
                1.3319425746369093,
                0.5698904885226213,
                0.6186132974752633,
                0.8051216884132033,
                2.2597689429568995,
                0.693740201165105,
                1.3306280438721112,
                0.668017762634678,
                0.1772292688977115,
                1.2940741205231316,
                1.0021634653531917,
                2.6682222442032204,
                4.6936595052178545,
                3.279194181701582,
                2.493617027269417,
                4.395193081725416,
                2.859634124519394,
                0.6706023960827524,
                0.9389795050453461,
                2.1599561193430357,
                0.0007499832994880698,
                0.5349508047249488,
                -0.8056424331660887,
                1.459267959135743,
                1.0002122136825484,
                1.6679360621558121,
                1.3485545056046564,
                1.871183927055679,
                -0.18667739533781957,
                -0.24435435537030967,
                1.3062920586406825,
                -0.1573045782903623,
                1.5108083074981442,
                0.8088529545070485,
                1.1006969424135085,
                1.5319147771467896,
                1.862020320085891,
                0.7235856887434408,
                6.240390490603859,
                5.857699589149745,
                5.893286867296583,
                4.616727356292263,
                2.183455375192424,
                2.9160801501960902,
                5.964078316516187,
                1.709613201219239,
                1.4739156372977422,
                0.7203026546459703,
                0.6592518606345866,
                -0.381615726282381,
                -0.9816021936144317,
                0.6610103574016971,
                0.6953948718830335,
                1.8839776588590813,
                1.4210233229161036,
                1.872645415314397,
                0.5339733134367098,
                1.7588670755244473,
                1.03258023664792,
                1.4333950785089333,
                1.3424063405457465,
                2.8072513360815865,
                0.5275289744937006,
                1.7548890550410485,
                3.505709795411249,
                5.753905025793395,
                4.510111131043688,
                4.267102716343398,
                2.8510524022501245,
                4.069747659345456,
                2.8758477368651296,
                3.743797444057246,
                3.9323317621248437,
                2.638857417803969,
                0.649736888722445,
                0.21044631091687485,
                2.572430413881688,
                -0.11018809414674369,
                -0.0824607047865314,
                2.5573480414754073,
                0.5153676019548153,
                0.10300732609415324,
                -0.45322925758066696,
                -1.4706106769049554,
                -1.1782439061404812,
                0.9875524794238979,
                0.30558848486395146,
                0.7689988411979171,
                -0.30391126620307946,
                0.9082763620844602,
                0.8286289369589779,
                2.934277825456351,
                1.91435903765098,
                2.9571408538642014,
                1.778368038864241,
                1.1719072268702369,
                -0.615246000353642,
                1.7050917423877592,
                1.6853619084733795,
                1.2424514265379836,
                4.204964790621539,
                2.6672057665797966,
                -0.08953041801257845,
                0.20258811222668088,
                -2.6130264327463544,
                1.5784953933163477,
                1.1761575107771058,
                1.6653056702443216,
                -0.37921149365463575,
                1.0404646770565,
                -0.03206964019867544,
                0.7736856612418826,
                0.5716650676861958,
                0.37128216026703204,
                0.6438549945829146,
                1.157049391207496,
                -0.30239079341949754,
                -0.2673391384423822,
                0.1607664460165125,
                3.9927610406833534,
                0.5992495181858171,
                0.697577644893568,
                -0.0980709198249952,
                -1.1426642628774766,
                0.0036295809404676567,
                -0.5359992963646374,
                -0.923882562291659,
                0.08280936001021372,
                1.2098792430592877,
                4.024869811824344,
                2.267392061083991,
                -0.9261740318490462,
                -0.4271445472429439,
                1.5788081194258228,
                1.9763401719211744,
                1.7671002429702116,
                1.5157203731401745,
                0.27723914065468014,
                -0.5598453820261073,
                1.6549189207024229,
                0.5471260285379509,
                0.45698829620885956,
                1.8388608966758022,
                -0.7376235679802708,
                -0.9482050492480228,
                -1.2493730230317495,
                0.7978567916033347,
                0.8852960228470791,
                1.1143001122805323,
                -0.12558208571609636,
                0.487666696668866,
                -0.5049290372325679,
                0.1723344278423924,
                -1.746894689665204,
                -1.1470877671262334,
                -1.320900079127907,
                -2.337033100360325,
                0.486355371761061,
                2.2275119193656048,
                1.8682429846566497,
                -0.9553273706236658,
                0.5052349783668515,
                -0.40539107773762284,
                2.451181947913501,
                1.0347429256928804,
                2.6154658410421883,
                0.19483706525385477,
                -0.6835071145500384,
                -0.24479022611489157,
                -0.7472623605647136,
                -2.219261489443692,
                -0.7235321253477646,
                -0.35711346074425243,
                -0.3489589620193221,
                0.5264466622862878,
                0.04213611738010409,
                -0.4401602214027112,
                0.10793369797731191,
                0.9349252414970441,
                0.11309655637509189,
                0.33052009473339106,
                -1.9380332091431396,
                -0.4888726930479082,
                -4.001776821761347,
                -1.503212675713582,
                2.435609028483093,
                1.431622546540828,
                0.27235888136763337,
                0.3116888651248814,
                0.6840719595315914,
                0.5658800938591043,
                -1.6941698898099806,
                2.1324922377673823,
                2.991979185170567,
                -1.5382310294208845,
                -0.7697739292373718,
                -1.097831161965547,
                -2.6850151448159187,
                -0.18742188140600682,
                -0.19017800507761648,
                -0.05836415583686573,
                1.6211397095963942,
                -0.486683972336448,
                0.33155902511789703,
                -1.4340931493530458,
                0.6595170982741491,
                -0.31608590399974645,
                0.266085110900879,
                0.14556609699729142,
                0.9648907485058665,
                -2.8737929507293245,
                -1.7859456954246395,
                0.9487772852151038,
                0.12982490070298053,
                0.13677057224042394,
                0.28558318014685025,
                -1.1905840095650406,
                -1.0212429707572914,
                -0.9621205553219039,
                0.23795210714106474,
                2.2971070722993354,
                -0.001881788159061302,
                -0.925035144414578,
                -1.4662759104072636,
                0.14586681816754538,
                -0.17100375363315717,
                0.5087599032431811,
                -2.479882692392535,
                0.3716995826315004,
                0.7912967262476571,
                -1.2137881188900217,
                -0.6193615224383547,
                0.7891247182422151,
                0.6109153164277311,
                1.0791365929331969,
                0.3968790089852676,
                -2.0246322317831393,
                -2.8005164456127356,
                -0.7538685883106218,
                -0.894312472217763,
                1.0596124398483797,
                -0.7890387340214072,
                1.6838923314291743,
                0.5114137198738967,
                1.1464500596256497,
                0.10979490501354856,
                -1.6029486082420539,
                0.34762858845872796,
                -0.06581555120849565,
                -1.6154832788536033,
                -0.6470817470099287,
                -1.2977519166315503,
                0.8275907285691055,
                -1.0467371008508097,
                -0.8548652683087525,
                -2.8562174465521357,
                1.3060210961788463,
                -0.8940071437645946,
                -1.4790035545843654,
                0.6762737787455216,
                -0.25907234961380177,
                0.24181273817042936,
                -0.004976179921490078,
                -1.3480824217533574,
                0.17013910105976657,
                1.1759000474581531,
                -0.7277037076436957,
                0.5578680405461102,
                -0.34065246794481485,
                0.6619455161237499,
                0.7518633604748529,
                -0.7405507023866201,
                0.588033363643634,
                0.2802458480493882,
                1.3028971690603703,
                0.7066769950950756,
                1.2137332374922989,
                1.7860293790857988,
                0.7087062198545593,
                -0.5839855869866409,
                -1.2992704541200495,
                -0.7991533208732294,
                -2.1767002291836235,
                -2.26182789456539,
                1.3917712210683764,
                0.29079088885057425,
                0.17164036043666198,
                -0.4271697665123803,
                1.8187473615882732,
                0.8396364664780119,
                -0.8823715153899865,
                0.021079875287249382,
                -1.2374439576853151,
                -1.0525246893099685,
                -0.48460016668752737,
                1.2086298405326583,
                2.6914797720285315,
                0.604879269472604,
                -0.9301397789180043,
                0.7454259226056215,
                0.18587500111531746,
                0.6306000817335214,
                -0.8456439885048639,
                -0.04125830805686894,
                1.78384054686999,
                0.9992021773337572,
                1.8209314902881393,
                -1.1429480038484892,
                -1.0458624488393935,
                -1.1317638415200573,
                -1.444993041393498,
                -0.9597641975553115,
                -3.8500074842545606,
                -1.259747070270967,
                1.1377161259434663,
                -0.6760985717785318,
                -0.9563859830113807,
                0.04341378366424917,
                -0.5804633717721328,
                -0.7073992048980393,
                1.2405052151784772,
                0.435352105277291,
                -0.11415127885886472,
                -1.3871216265192494,
                0.7635625325799076,
                -0.8441793306170277,
                1.7734834712201053,
                1.40187802264856,
                -0.8406323295381535,
                -1.5180527164662427,
                1.2808794826198957,
                2.923398205561856,
                -0.8723782826870171,
                1.1320245811538308,
                1.7859905379943983,
                0.229513238583979,
                -0.18027741089853555,
                -0.7127026557296464,
                -1.4283540435964865,
                -2.507265800431796,
                -2.5053967072625154,
                -0.3231610567787751,
                -2.0197176031769812,
                -1.892525506466631,
                -0.11719053347492644,
                -1.2962299845835974,
                0.6262024571158019,
                -1.834935108322998,
                -0.7200724062246653,
                0.0714037658791723,
                0.8679023289600947,
                1.1148979827742218,
                1.0956464831125452,
                1.3269711860490552,
                1.0519524101328024,
                1.2204358317419577,
                -0.7670203996383,
                1.5550627975686397,
                2.368429987403324,
                1.379088296124732,
                0.2128495755798985,
                0.33164276825165007,
                0.5429696739442413,
                1.1227273798104915,
                0.636313678895354,
                -0.2586849278346368,
                -1.0374567931929555,
                -2.1189089778812678,
                -1.3777204089108823,
                -0.9894937521888862,
                -3.04852340913529,
                -1.843302461374913,
                -1.9406998658473937,
                -0.7337769887589314,
                -1.5787760161654798,
                -0.18875538650082022,
                0.030337386478626528,
                -0.10909901468581927,
                2.1227902323928203,
                1.9043886760105797,
                -0.9867249983057895,
                1.8717839305872772,
                -0.630613259676384,
                -0.2722964985149892,
                0.46898901264361104,
                1.3781060669800205,
                0.4939453903669236,
                0.4380936155823715,
                0.5199629389044097,
                0.41523835886773586,
                2.79139411137078,
                0.8307950377902631,
                -0.15660821586194842,
                -0.15433213262279757,
                0.6497716882569762,
                -1.830140550609383,
                -2.999928805265682,
                -2.807009837679043,
                -1.5580555126712876,
                -1.8776468269167434,
                -0.5551178017693928,
                -2.351686675105829,
                -1.0819991222326888,
                -0.9385132110144482,
                0.8663049500140392,
                1.8207239685687102,
                0.9566578486470778,
                -0.702168577174695,
                0.07856870088109315,
                -0.24926285142737095,
                -0.8664092793165997,
                1.0954813009762052,
                0.727319609019961,
                1.04737950199782,
                -2.1705612108999697,
                -0.6833341318705526,
                -1.9163724852296156,
                0.8387881747017951,
                0.6421178625638454,
                0.8966491094318544,
                0.21629267601803018,
                -0.7364120366174675,
                -1.1201000569321766,
                0.33551803761343313,
                0.09771903350497803,
                -0.6185537905255579,
                -0.33524363416968517,
                -1.871597715760031,
                -1.7175724849374352,
                -0.6436343855604756,
                0.12069389986463186,
                -0.19281534298783853,
                -0.4098678808378796,
                0.7374419235665324,
                1.1764401105432847,
                0.43208974871828587,
                -1.2173057535075626,
                0.4868852908187791,
                0.7180567997541953,
                0.8628372802088762,
                -0.08653944999129472,
                -0.9517394801512584,
                0.4016204067093087,
                -0.3785245546260171,
                -0.05527629104270482,
                0.3620614667472577,
                -0.9020256111257369,
                -0.9194287649583319,
                0.38002012006614394,
                0.436938938260347,
                0.7252644532252686,
                0.7128437335873313,
                1.9772783705072854,
                0.7927145260756033,
                0.7459565330124432,
                -0.02857791940285579,
                1.9171887331500812,
                1.4198932609042327,
                3.0495505890666412,
                -0.5039475870295501,
                0.8313196970952192,
                0.27462858583609745,
                -2.808566075122631,
                -0.24116393822988097,
                0.7554575893895157,
                -0.8741637004223959,
                1.225445055106092,
                -0.3432740200478559,
                -1.1717762562129688,
                -1.092291426141816,
                -1.3659209614140073,
                -0.25967433232903825,
                0.011880822370296007,
                -0.8634284141754256,
                2.602433522305354,
                -0.3773879239508191,
                -0.580508646977569,
                1.4351418601069974,
                2.479595860678665,
                2.661450861477597,
                1.2292543031444498,
                2.7488309543785943,
                5.313038026149008,
                3.5114171606392683,
                3.4920848015741326,
                2.269647486328218,
                1.4991695131919085,
                1.2925141819362316,
                0.18300234138891172,
                0.15009527753423832,
                2.633116363702591,
                1.1348037291943218,
                -1.6554321143837178,
                1.088571997706201,
                0.5167243750392184,
                -0.8125520137673891,
                0.6644154974219074,
                -1.655049534339819,
                -0.24895153930852612,
                -0.7339186853842218,
                0.45111128851422,
                2.062997213104113,
                1.9714626283519652,
                0.5606354003106987,
                2.1969549974646143,
                1.234049900361328,
                1.415337179244073,
                0.7351844246008397,
                1.5568482003868023,
                0.5350113552741864,
                0.20586894508451514,
                1.319737973540106,
                1.8802720942319637,
                1.7268892525156883,
                -0.39724034347833603,
                2.5246909584460675,
                -0.815009948574019,
                0.2882156923581642,
                -0.6739789865904359,
                1.0105973853348607,
                1.1345986124079404,
                1.1157544187059227,
                0.42765550904032484,
                -0.05242153633543362,
                -1.5299157229613543,
                1.0808278187756075,
                -0.4349559197948043,
                -0.7404525728867655,
                1.54897096053382,
                -1.0844292989003326,
                1.5498431289053958,
                1.3138752891742813,
                0.8447533271836434,
                -0.38619877542654496,
                -0.6454125365776665,
                0.9534923920935046,
                0.44223638958473827,
                0.5145075989730508,
                1.1682787090682722,
                1.2118709117289508,
                0.062492931696307145,
                -1.6506429900183046,
                0.5506420355944003,
                -0.6073487109726687,
                0.7604345730484635,
                0.9059105944642185,
                1.9744945753870682,
                -0.22668736115151525,
                1.3168435145041626,
                -0.2005882533351205,
                -1.364128889327554,
                0.05934293545375302,
                0.03744295042215601,
                -0.0537722427809025,
                0.32442565549736624,
                -0.3876437846521448,
                0.5598235677414296,
                0.4821411385268037,
                0.6391038080414935,
                0.6550617881067068,
                0.6310870952102263,
                0.2069923156482491,
                -0.8162581435260179,
                0.9293141600179686,
                1.1828261829201894,
                -1.190950557085073,
                0.7666681815692715,
                0.9412264108572823,
                0.325598311655004,
                -1.027660016075292,
                -2.03201930310615,
                -0.8008678008541525,
                1.4075714742638683,
                -0.7580035772796172,
                0.0002064376592296408,
                -0.4820258051251113,
                0.0755276436322994,
                -0.30563258460536263,
                -0.3129651798248539,
                0.7653098040504743
            ]
        ],
        [
            [
                1.6850580239539343,
                18.215359143395993
            ],
            [
                -9.134457775383504,
                -0.8173573986678901
            ],
            [
                3.2603321579637345,
                -3.4937102873615777
            ],
            [
                -14.363723720036058,
                15.499188028278857
            ]
        ],
        [
            [
                -6.599526534571852,
                -3.671530931954745,
                2.3035392263200545,
                -8.868365069134281
            ],
            [
                -1.9172492257423346,
                -3.4153686901708142,
                -2.431543010705349,
                -0.46118191714741025
            ],
            [
                0.9228721533614547,
                -1.9651970250043012,
                -2.5593428538630896,
                -0.30685859528427273
            ],
            [
                -1.552673703101329,
                0.29442947812417697,
                -4.61295020555338,
                4.4335397099336555
            ],
            [
                -1.369297823046941,
                3.592041611323625,
                -3.631320677826172,
                7.758577730647553
            ],
            [
                -3.3819142716612793,
                3.2600631180213853,
                -0.4600872587584072,
                0.8554525185072785
            ],
            [
                -5.308100499446865,
                5.835719766001236,
                -0.7429595974167118,
                3.10526790467113
            ],
            [
                -1.7014019875207882,
                5.195423697471966,
                -3.578232861654297,
                2.418672270943027
            ]
        ],
        [
            [
                -3.1877871900791845,
                -0.017416803450511803,
                -0.15887307397346845,
                0.004083063847994975,
                -1.8700839464139911,
                -2.1401125523407853,
                -4.36160465200901,
                -0.1517334791214623
            ],
            [
                -4.463064892201031,
                -3.7701786583510803,
                -4.259930102281594,
                1.669104185086753,
                4.73040550206317,
                0.6942178238354166,
                4.486459983511629,
                2.215081446184028
            ],
            [
                -2.4055543084881177,
                0.13166918970621552,
                -0.6292523472770606,
                -8.17409773661744,
                -4.608086728945751,
                -0.9498871932431919,
                -1.3702568035404752,
                0.8643393980629871
            ],
            [
                -4.505145730355803,
                0.4553904934483621,
                0.03731989474646628,
                0.3244425469146902,
                -1.4070974799768148,
                -2.732418786088001,
                -2.151446702415254,
                -2.5088736183489386
            ],
            [
                -2.6985185461175845,
                0.1896305246564409,
                0.1221897988116502,
                0.2535388427087647,
                -1.1716863758396887,
                -2.3787002873641603,
                -2.740306859011067,
                -1.7913647643553887
            ],
            [
                -1.9443947203633885,
                -1.1849371630370835,
                -0.10385112605781475,
                0.2256793274528523,
                -1.1693148956229136,
                -2.2100191915384673,
                -1.7085631134917523,
                -3.2107122327747097
            ],
            [
                8.372592616581436,
                1.1688463358795314,
                -1.9729245786714305,
                -6.9583087578923255,
                -5.5782963551659135,
                1.2981482605034433,
                -1.2188056460465941,
                -0.5178402587719599
            ],
            [
                -7.089651724378466,
                -0.09733691919718811,
                -0.12382084243684605,
                0.4587355324776794,
                -1.1856625040465367,
                -2.0701084152137463,
                -2.954629700026093,
                -1.9573933088914672
            ],
            [
                -3.2451555425374647,
                0.655419181806933,
                0.2583094054752149,
                0.179985034935542,
                1.8121671119996723,
                -2.7725530800664004,
                -2.9217833675827407,
                -2.9794083771181925
            ],
            [
                -7.95615184731585,
                -0.3915800706824076,
                -0.09278499909120262,
                0.24835555912064716,
                -1.6085865641768335,
                -1.5764286788932123,
                -3.4015496020072336,
                -1.5686743054238959
            ]
        ]
    ]
}